<?xml version="1.0"?>
<MethodSetup Method="BDT::BDT-with-mT">
  <GeneralInfo>
    <Info name="TMVA Release" value="4.2.1 [262657]"/>
    <Info name="ROOT Release" value="6.28/04 [400388]"/>
    <Info name="Creator" value="diegomac"/>
    <Info name="Date" value="Wed Sep 13 14:41:06 2023"/>
    <Info name="Host" value="Darwin Diegos-MacBook-Pro-2.local 22.4.0 Darwin Kernel Version 22.4.0: Mon Mar 6 20:59:28 PST 2023; root:xnu-8796.101.5~3/RELEASE_ARM64_T6000 arm64"/>
    <Info name="Dir" value="/Users/diegomac/Documents/HEP/MVA-Analysis"/>
    <Info name="Training events" value="34300"/>
    <Info name="TrainingTime" value="6.61441088e-01"/>
    <Info name="AnalysisType" value="Classification"/>
  </GeneralInfo>
  <Options>
    <Option name="V" modified="Yes">False</Option>
    <Option name="VerbosityLevel" modified="No">Default</Option>
    <Option name="VarTransform" modified="No">None</Option>
    <Option name="H" modified="Yes">False</Option>
    <Option name="CreateMVAPdfs" modified="No">False</Option>
    <Option name="IgnoreNegWeightsInTraining" modified="No">False</Option>
    <Option name="NTrees" modified="Yes">125</Option>
    <Option name="MaxDepth" modified="Yes">2</Option>
    <Option name="MinNodeSize" modified="Yes">3%</Option>
    <Option name="nCuts" modified="Yes">80</Option>
    <Option name="BoostType" modified="Yes">Grad</Option>
    <Option name="AdaBoostR2Loss" modified="No">quadratic</Option>
    <Option name="UseBaggedBoost" modified="Yes">True</Option>
    <Option name="Shrinkage" modified="Yes">1.000000e-01</Option>
    <Option name="AdaBoostBeta" modified="No">5.000000e-01</Option>
    <Option name="UseRandomisedTrees" modified="No">False</Option>
    <Option name="UseNvars" modified="Yes">2</Option>
    <Option name="UsePoissonNvars" modified="No">True</Option>
    <Option name="BaggedSampleFraction" modified="Yes">5.000000e-01</Option>
    <Option name="UseYesNoLeaf" modified="No">True</Option>
    <Option name="NegWeightTreatment" modified="No">pray</Option>
    <Option name="Css" modified="No">1.000000e+00</Option>
    <Option name="Cts_sb" modified="No">1.000000e+00</Option>
    <Option name="Ctb_ss" modified="No">1.000000e+00</Option>
    <Option name="Cbb" modified="No">1.000000e+00</Option>
    <Option name="NodePurityLimit" modified="No">5.000000e-01</Option>
    <Option name="SeparationType" modified="Yes">sdivsqrtsplusb</Option>
    <Option name="RegressionLossFunctionBDTG" modified="No">huber</Option>
    <Option name="HuberQuantile" modified="No">7.000000e-01</Option>
    <Option name="DoBoostMonitor" modified="No">False</Option>
    <Option name="UseFisherCuts" modified="No">False</Option>
    <Option name="MinLinCorrForFisher" modified="No">8.000000e-01</Option>
    <Option name="UseExclusiveVars" modified="No">False</Option>
    <Option name="DoPreselection" modified="No">False</Option>
    <Option name="SigToBkgFraction" modified="No">1.000000e+00</Option>
    <Option name="PruneMethod" modified="No">nopruning</Option>
    <Option name="PruneStrength" modified="No">0.000000e+00</Option>
    <Option name="PruningValFraction" modified="No">5.000000e-01</Option>
    <Option name="SkipNormalization" modified="No">False</Option>
    <Option name="nEventsMin" modified="No">0</Option>
    <Option name="UseBaggedGrad" modified="No">False</Option>
    <Option name="GradBaggingFraction" modified="No">5.000000e-01</Option>
    <Option name="UseNTrainEvents" modified="No">0</Option>
    <Option name="NNodesMax" modified="No">0</Option>
  </Options>
  <Variables NVar="5">
    <Variable VarIndex="0" Expression="mjj" Label="mjj" Title="mjj" Unit="GeV" Internal="mjj" Type="D" Min="7.50003479e+02" Max="8.69623633e+03"/>
    <Variable VarIndex="1" Expression="deltaRapidity" Label="deltaRapidity" Title="deltaRapidity" Unit="Units" Internal="deltaRapidity" Type="D" Min="2.00020766e+00" Max="8.59782600e+00"/>
    <Variable VarIndex="2" Expression="ptBalance" Label="ptBalance" Title="ptBalance" Unit="Units" Internal="ptBalance" Type="D" Min="1.25554126e-18" Max="1.49860099e-01"/>
    <Variable VarIndex="3" Expression="zCentrality" Label="zCentrality" Title="zCentrality" Unit="Units" Internal="zCentrality" Type="D" Min="9.20502589e-06" Max="4.99961168e-01"/>
    <Variable VarIndex="4" Expression="omega" Label="omega" Title="omega" Unit="Units" Internal="omega" Type="D" Min="-1.99903682e-01" Max="1.39996660e+00"/>
  </Variables>
  <Spectators NSpec="0"/>
  <Classes NClass="2">
    <Class Name="Signal" Index="0"/>
    <Class Name="Background" Index="1"/>
  </Classes>
  <Transformations NTransformations="0"/>
  <MVAPdfs/>
  <Weights NTrees="125" AnalysisType="1">
    <BinaryTree type="DecisionTree" boostWeight="1.0000000000000000e+00" itree="0">
      <Node pos="s" depth="0" NCoef="0" IVar="2" Cut="2.5880651548504829e-02" cType="1" res="7.6419310644268990e-03" rms="4.9994158744812012e-01" purity="5.0764191150665283e-01" nType="0">
        <Node pos="l" depth="1" NCoef="0" IVar="3" Cut="2.5304830074310303e-01" cType="1" res="1.1535061150789261e-01" rms="4.8651233315467834e-01" purity="6.1535060405731201e-01" nType="0">
          <Node pos="l" depth="2" NCoef="0" IVar="-1" Cut="0.0000000000000000e+00" cType="1" res="4.0374308824539185e-02" rms="4.5743620395660400e-01" purity="7.0187151432037354e-01" nType="-99"/>
          <Node pos="r" depth="2" NCoef="0" IVar="-1" Cut="0.0000000000000000e+00" cType="1" res="-1.4196066185832024e-02" rms="4.9493613839149475e-01" purity="4.2901965975761414e-01" nType="-99"/>
        </Node>
        <Node pos="r" depth="1" NCoef="0" IVar="4" Cut="1.3549785315990448e-01" cType="1" res="-1.1501098424196243e-01" rms="4.8659271001815796e-01" purity="3.8498905301094055e-01" nType="0">
          <Node pos="l" depth="2" NCoef="0" IVar="-1" Cut="0.0000000000000000e+00" cType="1" res="-6.8006433546543121e-02" rms="3.6657622456550598e-01" purity="1.5996783971786499e-01" nType="-99"/>
          <Node pos="r" depth="2" NCoef="0" IVar="-1" Cut="0.0000000000000000e+00" cType="1" res="-1.1064781807363033e-02" rms="4.9692985415458679e-01" purity="4.4467607140541077e-01" nType="-99"/>
        </Node>
      </Node>
    </BinaryTree>
    <BinaryTree type="DecisionTree" boostWeight="1.0000000000000000e+00" itree="1">
      <Node pos="s" depth="0" NCoef="0" IVar="2" Cut="2.5901746004819870e-02" cType="1" res="6.6912285983562469e-03" rms="4.9460801482200623e-01" purity="5.0739556550979614e-01" nType="0">
        <Node pos="l" depth="1" NCoef="0" IVar="0" Cut="1.0605462646484375e+03" cType="1" res="1.2404881417751312e-01" rms="4.7825679183006287e-01" purity="6.3650840520858765e-01" nType="0">
          <Node pos="l" depth="2" NCoef="0" IVar="-1" Cut="0.0000000000000000e+00" cType="1" res="-8.7844198569655418e-03" rms="4.9649190902709961e-01" purity="4.6638369560241699e-01" nType="-99"/>
          <Node pos="r" depth="2" NCoef="0" IVar="-1" Cut="0.0000000000000000e+00" cType="1" res="4.1352164000272751e-02" rms="4.4649785757064819e-01" purity="7.2003680467605591e-01" nType="-99"/>
        </Node>
        <Node pos="r" depth="1" NCoef="0" IVar="4" Cut="7.6881445944309235e-02" cType="1" res="-1.1135904490947723e-01" rms="4.8254385590553284e-01" purity="3.7752065062522888e-01" nType="0">
          <Node pos="l" depth="2" NCoef="0" IVar="-1" Cut="0.0000000000000000e+00" cType="1" res="-6.7475482821464539e-02" rms="3.3655324578285217e-01" purity="1.3022720813751221e-01" nType="-99"/>
          <Node pos="r" depth="2" NCoef="0" IVar="-1" Cut="0.0000000000000000e+00" cType="1" res="-1.3697773218154907e-02" rms="4.9419781565666199e-01" purity="4.2477506399154663e-01" nType="-99"/>
        </Node>
      </Node>
    </BinaryTree>
    <BinaryTree type="DecisionTree" boostWeight="1.0000000000000000e+00" itree="2">
      <Node pos="s" depth="0" NCoef="0" IVar="0" Cut="9.9736834716796875e+02" cType="1" res="-6.1713182367384434e-03" rms="4.9005013704299927e-01" purity="4.9511086940765381e-01" nType="0">
        <Node pos="l" depth="1" NCoef="0" IVar="3" Cut="1.7293319106101990e-01" cType="1" res="-1.5834118425846100e-01" rms="4.6524837613105774e-01" purity="3.3099994063377380e-01" nType="0">
          <Node pos="l" depth="2" NCoef="0" IVar="-1" Cut="0.0000000000000000e+00" cType="1" res="-1.1861061677336693e-02" rms="4.8994106054306030e-01" purity="4.3490260839462280e-01" nType="-99"/>
          <Node pos="r" depth="2" NCoef="0" IVar="-1" Cut="0.0000000000000000e+00" cType="1" res="-4.7339390963315964e-02" rms="4.2918038368225098e-01" purity="2.4952809512615204e-01" nType="-99"/>
        </Node>
        <Node pos="r" depth="1" NCoef="0" IVar="4" Cut="1.7521563172340393e-01" cType="1" res="6.7552775144577026e-02" rms="4.8474141955375671e-01" purity="5.7462024688720703e-01" nType="0">
          <Node pos="l" depth="2" NCoef="0" IVar="-1" Cut="0.0000000000000000e+00" cType="1" res="-3.2180849462747574e-02" rms="4.5125731825828552e-01" purity="3.2194527983665466e-01" nType="-99"/>
          <Node pos="r" depth="2" NCoef="0" IVar="-1" Cut="0.0000000000000000e+00" cType="1" res="2.3424535989761353e-02" rms="4.7769173979759216e-01" purity="6.2945342063903809e-01" nType="-99"/>
        </Node>
      </Node>
    </BinaryTree>
    <BinaryTree type="DecisionTree" boostWeight="1.0000000000000000e+00" itree="3">
      <Node pos="s" depth="0" NCoef="0" IVar="4" Cut="2.9459547996520996e-01" cType="1" res="1.1594505049288273e-02" rms="4.8688000440597534e-01" purity="5.1340115070343018e-01" nType="0">
        <Node pos="l" depth="1" NCoef="0" IVar="0" Cut="1.5368364257812500e+03" cType="1" res="-1.5517325699329376e-01" rms="4.5168158411979675e-01" purity="3.2121568918228149e-01" nType="0">
          <Node pos="l" depth="2" NCoef="0" IVar="-1" Cut="0.0000000000000000e+00" cType="1" res="-4.5870821923017502e-02" rms="4.1532528400421143e-01" purity="2.4073509871959686e-01" nType="-99"/>
          <Node pos="r" depth="2" NCoef="0" IVar="-1" Cut="0.0000000000000000e+00" cType="1" res="5.3321495652198792e-03" rms="4.8794454336166382e-01" purity="5.2553743124008179e-01" nType="-99"/>
        </Node>
        <Node pos="r" depth="1" NCoef="0" IVar="3" Cut="2.8393253684043884e-01" cType="1" res="6.9659613072872162e-02" rms="4.8528301715850830e-01" purity="5.8031624555587769e-01" nType="0">
          <Node pos="l" depth="2" NCoef="0" IVar="-1" Cut="0.0000000000000000e+00" cType="1" res="2.7114035561680794e-02" rms="4.7022551298141479e-01" purity="6.5097391605377197e-01" nType="-99"/>
          <Node pos="r" depth="2" NCoef="0" IVar="-1" Cut="0.0000000000000000e+00" cType="1" res="-2.3601587861776352e-02" rms="4.7899383306503296e-01" purity="3.7761315703392029e-01" nType="-99"/>
        </Node>
      </Node>
    </BinaryTree>
    <BinaryTree type="DecisionTree" boostWeight="1.0000000000000000e+00" itree="4">
      <Node pos="s" depth="0" NCoef="0" IVar="2" Cut="2.9597617685794830e-02" cType="1" res="-1.0801943950355053e-02" rms="4.8321926593780518e-01" purity="4.9248209595680237e-01" nType="0">
        <Node pos="l" depth="1" NCoef="0" IVar="1" Cut="4.1307625770568848e+00" cType="1" res="7.6631747186183929e-02" rms="4.7816848754882812e-01" purity="6.0224288702011108e-01" nType="0">
          <Node pos="l" depth="2" NCoef="0" IVar="-1" Cut="0.0000000000000000e+00" cType="1" res="-1.0648583061993122e-02" rms="4.8684808611869812e-01" purity="4.5343250036239624e-01" nType="-99"/>
          <Node pos="r" depth="2" NCoef="0" IVar="-1" Cut="0.0000000000000000e+00" cType="1" res="3.0152225866913795e-02" rms="4.5745924115180969e-01" purity="6.8569713830947876e-01" nType="-99"/>
        </Node>
        <Node pos="r" depth="1" NCoef="0" IVar="4" Cut="3.1362408399581909e-01" cType="1" res="-1.2157132476568222e-01" rms="4.6658092737197876e-01" purity="3.5342648625373840e-01" nType="0">
          <Node pos="l" depth="2" NCoef="0" IVar="-1" Cut="0.0000000000000000e+00" cType="1" res="-5.4405532777309418e-02" rms="3.6616954207420349e-01" purity="1.6526447236537933e-01" nType="-99"/>
          <Node pos="r" depth="2" NCoef="0" IVar="-1" Cut="0.0000000000000000e+00" cType="1" res="-1.0189606808125973e-02" rms="4.9359735846519470e-01" purity="4.4592568278312683e-01" nType="-99"/>
        </Node>
      </Node>
    </BinaryTree>
    <BinaryTree type="DecisionTree" boostWeight="1.0000000000000000e+00" itree="5">
      <Node pos="s" depth="0" NCoef="0" IVar="0" Cut="1.4918840332031250e+03" cType="1" res="-2.4010937195271254e-03" rms="4.7901833057403564e-01" purity="4.9940654635429382e-01" nType="0">
        <Node pos="l" depth="1" NCoef="0" IVar="3" Cut="2.1601465344429016e-01" cType="1" res="-7.5268723070621490e-02" rms="4.7388252615928650e-01" purity="4.0964066982269287e-01" nType="0">
          <Node pos="l" depth="2" NCoef="0" IVar="-1" Cut="0.0000000000000000e+00" cType="1" res="-1.2999235186725855e-03" rms="4.8068726062774658e-01" purity="4.9312674999237061e-01" nType="-99"/>
          <Node pos="r" depth="2" NCoef="0" IVar="-1" Cut="0.0000000000000000e+00" cType="1" res="-3.5221446305513382e-02" rms="4.4594696164131165e-01" purity="2.9047608375549316e-01" nType="-99"/>
        </Node>
        <Node pos="r" depth="1" NCoef="0" IVar="2" Cut="5.1673065871000290e-02" cType="1" res="1.3438704609870911e-01" rms="4.5822158455848694e-01" purity="6.6791641712188721e-01" nType="0">
          <Node pos="l" depth="2" NCoef="0" IVar="-1" Cut="0.0000000000000000e+00" cType="1" res="3.4619607031345367e-02" rms="4.4456321001052856e-01" purity="7.1689152717590332e-01" nType="-99"/>
          <Node pos="r" depth="2" NCoef="0" IVar="-1" Cut="0.0000000000000000e+00" cType="1" res="-3.7957145832479000e-03" rms="4.8295512795448303e-01" purity="4.6026089787483215e-01" nType="-99"/>
        </Node>
      </Node>
    </BinaryTree>
    <BinaryTree type="DecisionTree" boostWeight="1.0000000000000000e+00" itree="6">
      <Node pos="s" depth="0" NCoef="0" IVar="3" Cut="2.8391075134277344e-01" cType="1" res="-1.3991643209010363e-03" rms="4.7710245847702026e-01" purity="5.0059503316879272e-01" nType="0">
        <Node pos="l" depth="1" NCoef="0" IVar="4" Cut="7.6602585613727570e-02" cType="1" res="5.0576981157064438e-02" rms="4.7536921501159668e-01" purity="5.6721675395965576e-01" nType="0">
          <Node pos="l" depth="2" NCoef="0" IVar="-1" Cut="0.0000000000000000e+00" cType="1" res="-4.3532863259315491e-02" rms="3.8587799668312073e-01" purity="2.1842230856418610e-01" nType="-99"/>
          <Node pos="r" depth="2" NCoef="0" IVar="-1" Cut="0.0000000000000000e+00" cType="1" res="1.7004158347845078e-02" rms="4.7556823492050171e-01" purity="6.1212730407714844e-01" nType="-99"/>
        </Node>
        <Node pos="r" depth="1" NCoef="0" IVar="0" Cut="1.3920568847656250e+03" cType="1" res="-1.6112275421619415e-01" rms="4.4596683979034424e-01" purity="2.9586538672447205e-01" nType="0">
          <Node pos="l" depth="2" NCoef="0" IVar="-1" Cut="0.0000000000000000e+00" cType="1" res="-4.2577821761369705e-02" rms="4.1813328862190247e-01" purity="2.3051166534423828e-01" nType="-99"/>
          <Node pos="r" depth="2" NCoef="0" IVar="-1" Cut="0.0000000000000000e+00" cType="1" res="-7.7798971906304359e-03" rms="4.9037915468215942e-01" purity="4.6536457538604736e-01" nType="-99"/>
        </Node>
      </Node>
    </BinaryTree>
    <BinaryTree type="DecisionTree" boostWeight="1.0000000000000000e+00" itree="7">
      <Node pos="s" depth="0" NCoef="0" IVar="0" Cut="1.4367297363281250e+03" cType="1" res="-2.0666138734668493e-03" rms="4.7201615571975708e-01" purity="4.9924120306968689e-01" nType="0">
        <Node pos="l" depth="1" NCoef="0" IVar="4" Cut="2.3555526137351990e-01" cType="1" res="-6.8942509591579437e-02" rms="4.6806809306144714e-01" purity="4.0682059526443481e-01" nType="0">
          <Node pos="l" depth="2" NCoef="0" IVar="-1" Cut="0.0000000000000000e+00" cType="1" res="-4.4869255274534225e-02" rms="3.7788239121437073e-01" purity="1.9341284036636353e-01" nType="-99"/>
          <Node pos="r" depth="2" NCoef="0" IVar="-1" Cut="0.0000000000000000e+00" cType="1" res="-4.9161654897034168e-03" rms="4.8399132490158081e-01" purity="4.7282046079635620e-01" nType="-99"/>
        </Node>
        <Node pos="r" depth="1" NCoef="0" IVar="3" Cut="2.9011446237564087e-01" cType="1" res="1.1310283839702606e-01" rms="4.5631667971611023e-01" purity="6.5840196609497070e-01" nType="0">
          <Node pos="l" depth="2" NCoef="0" IVar="-1" Cut="0.0000000000000000e+00" cType="1" res="3.1323593109846115e-02" rms="4.3897840380668640e-01" purity="7.0771843194961548e-01" nType="-99"/>
          <Node pos="r" depth="2" NCoef="0" IVar="-1" Cut="0.0000000000000000e+00" cType="1" res="-1.1142216622829437e-02" rms="4.8929107189178467e-01" purity="4.4811269640922546e-01" nType="-99"/>
        </Node>
      </Node>
    </BinaryTree>
    <BinaryTree type="DecisionTree" boostWeight="1.0000000000000000e+00" itree="8">
      <Node pos="s" depth="0" NCoef="0" IVar="2" Cut="3.8852617144584656e-02" cType="1" res="-8.4451859584078193e-04" rms="4.7132700681686401e-01" purity="4.9822223186492920e-01" nType="0">
        <Node pos="l" depth="1" NCoef="0" IVar="1" Cut="3.8572537899017334e+00" cType="1" res="7.7774241566658020e-02" rms="4.6769189834594727e-01" purity="6.0255658626556396e-01" nType="0">
          <Node pos="l" depth="2" NCoef="0" IVar="-1" Cut="0.0000000000000000e+00" cType="1" res="-8.6137810721993446e-03" rms="4.7940191626548767e-01" purity="4.3671846389770508e-01" nType="-99"/>
          <Node pos="r" depth="2" NCoef="0" IVar="-1" Cut="0.0000000000000000e+00" cType="1" res="2.6102002710103989e-02" rms="4.5375645160675049e-01" purity="6.7040848731994629e-01" nType="-99"/>
        </Node>
        <Node pos="r" depth="1" NCoef="0" IVar="0" Cut="1.4170917968750000e+03" cType="1" res="-1.4380303025245667e-01" rms="4.4348582625389099e-01" purity="3.0850300192832947e-01" nType="0">
          <Node pos="l" depth="2" NCoef="0" IVar="-1" Cut="0.0000000000000000e+00" cType="1" res="-3.9399623870849609e-02" rms="4.1718387603759766e-01" purity="2.4439261853694916e-01" nType="-99"/>
          <Node pos="r" depth="2" NCoef="0" IVar="-1" Cut="0.0000000000000000e+00" cType="1" res="-8.5425442084670067e-03" rms="4.8118737339973450e-01" purity="4.4978702068328857e-01" nType="-99"/>
        </Node>
      </Node>
    </BinaryTree>
    <BinaryTree type="DecisionTree" boostWeight="1.0000000000000000e+00" itree="9">
      <Node pos="s" depth="0" NCoef="0" IVar="2" Cut="2.4018101394176483e-02" cType="1" res="5.9014819562435150e-03" rms="4.6739199757575989e-01" purity="5.0848507881164551e-01" nType="0">
        <Node pos="l" depth="1" NCoef="0" IVar="3" Cut="3.3321350812911987e-01" cType="1" res="9.0141020715236664e-02" rms="4.5661243796348572e-01" purity="6.3967430591583252e-01" nType="0">
          <Node pos="l" depth="2" NCoef="0" IVar="-1" Cut="0.0000000000000000e+00" cType="1" res="2.6213545352220535e-02" rms="4.4556778669357300e-01" purity="6.9248884916305542e-01" nType="-99"/>
          <Node pos="r" depth="2" NCoef="0" IVar="-1" Cut="0.0000000000000000e+00" cType="1" res="-2.1558631211519241e-02" rms="4.6513408422470093e-01" purity="3.5664993524551392e-01" nType="-99"/>
        </Node>
        <Node pos="r" depth="1" NCoef="0" IVar="4" Cut="3.5308218002319336e-01" cType="1" res="-7.6553933322429657e-02" rms="4.6309804916381836e-01" purity="3.8007435202598572e-01" nType="0">
          <Node pos="l" depth="2" NCoef="0" IVar="-1" Cut="0.0000000000000000e+00" cType="1" res="-3.6009278148412704e-02" rms="4.0032616257667542e-01" purity="2.2268576920032501e-01" nType="-99"/>
          <Node pos="r" depth="2" NCoef="0" IVar="-1" Cut="0.0000000000000000e+00" cType="1" res="-6.5350765362381935e-03" rms="4.8471903800964355e-01" purity="4.5691400766372681e-01" nType="-99"/>
        </Node>
      </Node>
    </BinaryTree>
    <BinaryTree type="DecisionTree" boostWeight="1.0000000000000000e+00" itree="10">
      <Node pos="s" depth="0" NCoef="0" IVar="2" Cut="3.8852617144584656e-02" cType="1" res="1.4213573187589645e-02" rms="4.6551257371902466e-01" purity="5.1788932085037231e-01" nType="0">
        <Node pos="l" depth="1" NCoef="0" IVar="3" Cut="3.6413544416427612e-01" cType="1" res="6.7930556833744049e-02" rms="4.6178948879241943e-01" purity="6.0877454280853271e-01" nType="0">
          <Node pos="l" depth="2" NCoef="0" IVar="-1" Cut="0.0000000000000000e+00" cType="1" res="2.0023334771394730e-02" rms="4.5615947246551514e-01" purity="6.5117067098617554e-01" nType="-99"/>
          <Node pos="r" depth="2" NCoef="0" IVar="-1" Cut="0.0000000000000000e+00" cType="1" res="-2.6757698506116867e-02" rms="4.5196232199668884e-01" purity="3.1408259272575378e-01" nType="-99"/>
        </Node>
        <Node pos="r" depth="1" NCoef="0" IVar="4" Cut="1.1033385992050171e+00" cType="1" res="-8.7172009050846100e-02" rms="4.5551389455795288e-01" purity="3.4635230898857117e-01" nType="0">
          <Node pos="l" depth="2" NCoef="0" IVar="-1" Cut="0.0000000000000000e+00" cType="1" res="-1.1419703252613544e-02" rms="4.5843914151191711e-01" purity="3.7361145019531250e-01" nType="-99"/>
          <Node pos="r" depth="2" NCoef="0" IVar="-1" Cut="0.0000000000000000e+00" cType="1" res="-6.1632767319679260e-02" rms="3.6797362565994263e-01" purity="1.6482581198215485e-01" nType="-99"/>
        </Node>
      </Node>
    </BinaryTree>
    <BinaryTree type="DecisionTree" boostWeight="1.0000000000000000e+00" itree="11">
      <Node pos="s" depth="0" NCoef="0" IVar="2" Cut="2.5901746004819870e-02" cType="1" res="-5.3448611870408058e-03" rms="4.6438157558441162e-01" purity="4.9661022424697876e-01" nType="0">
        <Node pos="l" depth="1" NCoef="0" IVar="0" Cut="1.0600302734375000e+03" cType="1" res="6.6112950444221497e-02" rms="4.6189770102500916e-01" purity="6.2837356328964233e-01" nType="0">
          <Node pos="l" depth="2" NCoef="0" IVar="-1" Cut="0.0000000000000000e+00" cType="1" res="-5.0348732620477676e-03" rms="4.8662480711936951e-01" purity="4.6899703145027161e-01" nType="-99"/>
          <Node pos="r" depth="2" NCoef="0" IVar="-1" Cut="0.0000000000000000e+00" cType="1" res="2.3369075730443001e-02" rms="4.4250106811523438e-01" purity="7.0660233497619629e-01" nType="-99"/>
        </Node>
        <Node pos="r" depth="1" NCoef="0" IVar="4" Cut="4.3234419822692871e-01" cType="1" res="-8.0460928380489349e-02" rms="4.5503705739974976e-01" purity="3.5810142755508423e-01" nType="0">
          <Node pos="l" depth="2" NCoef="0" IVar="-1" Cut="0.0000000000000000e+00" cType="1" res="-3.6488678306341171e-02" rms="3.9028251171112061e-01" purity="2.1175162494182587e-01" nType="-99"/>
          <Node pos="r" depth="2" NCoef="0" IVar="-1" Cut="0.0000000000000000e+00" cType="1" res="-4.8365322872996330e-03" rms="4.8424676060676575e-01" purity="4.5320814847946167e-01" nType="-99"/>
        </Node>
      </Node>
    </BinaryTree>
    <BinaryTree type="DecisionTree" boostWeight="1.0000000000000000e+00" itree="12">
      <Node pos="s" depth="0" NCoef="0" IVar="3" Cut="2.5304460525512695e-01" cType="1" res="-1.2410892173647881e-02" rms="4.6216011047363281e-01" purity="4.8941788077354431e-01" nType="0">
        <Node pos="l" depth="1" NCoef="0" IVar="2" Cut="3.8821589201688766e-02" cType="1" res="2.9671944677829742e-02" rms="4.6152275800704956e-01" purity="5.6148117780685425e-01" nType="0">
          <Node pos="l" depth="2" NCoef="0" IVar="-1" Cut="0.0000000000000000e+00" cType="1" res="1.7445925623178482e-02" rms="4.5076170563697815e-01" purity="6.6930902004241943e-01" nType="-99"/>
          <Node pos="r" depth="2" NCoef="0" IVar="-1" Cut="0.0000000000000000e+00" cType="1" res="-1.3487419113516808e-02" rms="4.6540987491607666e-01" purity="3.6933600902557373e-01" nType="-99"/>
        </Node>
        <Node pos="r" depth="1" NCoef="0" IVar="0" Cut="1.2751679687500000e+03" cType="1" res="-1.0362704843282700e-01" rms="4.5023211836814880e-01" purity="3.3321800827980042e-01" nType="0">
          <Node pos="l" depth="2" NCoef="0" IVar="-1" Cut="0.0000000000000000e+00" cType="1" res="-3.2274346798658371e-02" rms="4.2143246531486511e-01" purity="2.4391759932041168e-01" nType="-99"/>
          <Node pos="r" depth="2" NCoef="0" IVar="-1" Cut="0.0000000000000000e+00" cType="1" res="-5.9573352336883545e-03" rms="4.8308691382408142e-01" purity="4.7476223111152649e-01" nType="-99"/>
        </Node>
      </Node>
    </BinaryTree>
    <BinaryTree type="DecisionTree" boostWeight="1.0000000000000000e+00" itree="13">
      <Node pos="s" depth="0" NCoef="0" IVar="1" Cut="5.3401427268981934e+00" cType="1" res="1.6604313859716058e-03" rms="4.6001806855201721e-01" purity="5.0380229949951172e-01" nType="0">
        <Node pos="l" depth="1" NCoef="0" IVar="2" Cut="2.2201495245099068e-02" cType="1" res="-3.6093350499868393e-02" rms="4.6362882852554321e-01" purity="4.4433686137199402e-01" nType="0">
          <Node pos="l" depth="2" NCoef="0" IVar="-1" Cut="0.0000000000000000e+00" cType="1" res="6.1702793464064598e-03" rms="4.7538170218467712e-01" purity="5.8489328622817993e-01" nType="-99"/>
          <Node pos="r" depth="2" NCoef="0" IVar="-1" Cut="0.0000000000000000e+00" cType="1" res="-1.8992517143487930e-02" rms="4.4690915942192078e-01" purity="3.3062213659286499e-01" nType="-99"/>
        </Node>
        <Node pos="r" depth="1" NCoef="0" IVar="2" Cut="4.6062692999839783e-02" cType="1" res="1.4145885407924652e-01" rms="4.1766694188117981e-01" purity="7.2399687767028809e-01" nType="0">
          <Node pos="l" depth="2" NCoef="0" IVar="-1" Cut="0.0000000000000000e+00" cType="1" res="3.9137247949838638e-02" rms="3.9116168022155762e-01" purity="7.9861408472061157e-01" nType="-99"/>
          <Node pos="r" depth="2" NCoef="0" IVar="-1" Cut="0.0000000000000000e+00" cType="1" res="-2.5699350517243147e-03" rms="4.7861623764038086e-01" purity="4.3048429489135742e-01" nType="-99"/>
        </Node>
      </Node>
    </BinaryTree>
    <BinaryTree type="DecisionTree" boostWeight="1.0000000000000000e+00" itree="14">
      <Node pos="s" depth="0" NCoef="0" IVar="1" Cut="3.3036048412322998e+00" cType="1" res="-9.8885959014296532e-03" rms="4.6307331323623657e-01" purity="4.9182420969009399e-01" nType="0">
        <Node pos="l" depth="1" NCoef="0" IVar="3" Cut="3.3329942822456360e-01" cType="1" res="-1.7292949557304382e-01" rms="4.3645235896110535e-01" purity="2.7027252316474915e-01" nType="0">
          <Node pos="l" depth="2" NCoef="0" IVar="-1" Cut="0.0000000000000000e+00" cType="1" res="-4.2249932885169983e-02" rms="4.2993435263633728e-01" purity="2.6287782192230225e-01" nType="-99"/>
          <Node pos="r" depth="2" NCoef="0" IVar="-1" Cut="0.0000000000000000e+00" cType="1" res="-1.4798318035900593e-02" rms="4.4259014725685120e-01" purity="2.9606965184211731e-01" nType="-99"/>
        </Node>
        <Node pos="r" depth="1" NCoef="0" IVar="3" Cut="2.9621437191963196e-01" cType="1" res="1.8534671515226364e-02" rms="4.6170276403427124e-01" purity="5.3044778108596802e-01" nType="0">
          <Node pos="l" depth="2" NCoef="0" IVar="-1" Cut="0.0000000000000000e+00" cType="1" res="1.1726035736501217e-02" rms="4.5787906646728516e-01" purity="5.9064459800720215e-01" nType="-99"/>
          <Node pos="r" depth="2" NCoef="0" IVar="-1" Cut="0.0000000000000000e+00" cType="1" res="-2.5759343057870865e-02" rms="4.4962054491043091e-01" purity="3.0094438791275024e-01" nType="-99"/>
        </Node>
      </Node>
    </BinaryTree>
    <BinaryTree type="DecisionTree" boostWeight="1.0000000000000000e+00" itree="15">
      <Node pos="s" depth="0" NCoef="0" IVar="3" Cut="2.1601504087448120e-01" cType="1" res="5.2286335267126560e-04" rms="4.5414975285530090e-01" purity="4.9649143218994141e-01" nType="0">
        <Node pos="l" depth="1" NCoef="0" IVar="4" Cut="3.3403423428535461e-01" cType="1" res="5.8851584792137146e-02" rms="4.5075988769531250e-01" purity="5.9629410505294800e-01" nType="0">
          <Node pos="l" depth="2" NCoef="0" IVar="-1" Cut="0.0000000000000000e+00" cType="1" res="-1.6142802312970161e-02" rms="4.4218567013740540e-01" purity="3.7522155046463013e-01" nType="-99"/>
          <Node pos="r" depth="2" NCoef="0" IVar="-1" Cut="0.0000000000000000e+00" cType="1" res="2.3045089095830917e-02" rms="4.4369122385978699e-01" purity="6.8006736040115356e-01" nType="-99"/>
        </Node>
        <Node pos="r" depth="1" NCoef="0" IVar="0" Cut="1.4513439941406250e+03" cType="1" res="-8.9906558394432068e-02" rms="4.4447228312492371e-01" purity="3.4176319837570190e-01" nType="0">
          <Node pos="l" depth="2" NCoef="0" IVar="-1" Cut="0.0000000000000000e+00" cType="1" res="-2.8617925941944122e-02" rms="4.2582935094833374e-01" purity="2.5839921832084656e-01" nType="-99"/>
          <Node pos="r" depth="2" NCoef="0" IVar="-1" Cut="0.0000000000000000e+00" cType="1" res="1.8495100084692240e-03" rms="4.7115302085876465e-01" purity="5.3862887620925903e-01" nType="-99"/>
        </Node>
      </Node>
    </BinaryTree>
    <BinaryTree type="DecisionTree" boostWeight="1.0000000000000000e+00" itree="16">
      <Node pos="s" depth="0" NCoef="0" IVar="4" Cut="1.9538371264934540e-01" cType="1" res="-2.8691808693110943e-03" rms="4.5757254958152771e-01" purity="4.9706131219863892e-01" nType="0">
        <Node pos="l" depth="1" NCoef="0" IVar="0" Cut="2.0101057128906250e+03" cType="1" res="-1.1260584741830826e-01" rms="4.1436347365379333e-01" purity="2.7481687068939209e-01" nType="0">
          <Node pos="l" depth="2" NCoef="0" IVar="-1" Cut="0.0000000000000000e+00" cType="1" res="-3.0256874859333038e-02" rms="4.0365368127822876e-01" purity="2.3390765488147736e-01" nType="-99"/>
          <Node pos="r" depth="2" NCoef="0" IVar="-1" Cut="0.0000000000000000e+00" cType="1" res="9.0398668544366956e-04" rms="4.5705187320709229e-01" purity="5.2278900146484375e-01" nType="-99"/>
        </Node>
        <Node pos="r" depth="1" NCoef="0" IVar="3" Cut="3.2713827490806580e-01" cType="1" res="2.6445867493748665e-02" rms="4.6406999230384827e-01" purity="5.5643171072006226e-01" nType="0">
          <Node pos="l" depth="2" NCoef="0" IVar="-1" Cut="0.0000000000000000e+00" cType="1" res="1.0746130719780922e-02" rms="4.6436294913291931e-01" purity="6.0727107524871826e-01" nType="-99"/>
          <Node pos="r" depth="2" NCoef="0" IVar="-1" Cut="0.0000000000000000e+00" cType="1" res="-2.0836584270000458e-02" rms="4.4232049584388733e-01" purity="2.9726168513298035e-01" nType="-99"/>
        </Node>
      </Node>
    </BinaryTree>
    <BinaryTree type="DecisionTree" boostWeight="1.0000000000000000e+00" itree="17">
      <Node pos="s" depth="0" NCoef="0" IVar="4" Cut="9.6362344920635223e-02" cType="1" res="-4.8360386863350868e-03" rms="4.5646730065345764e-01" purity="4.9380499124526978e-01" nType="0">
        <Node pos="l" depth="1" NCoef="0" IVar="0" Cut="1.5656387939453125e+03" cType="1" res="-1.4379037916660309e-01" rms="3.7057662010192871e-01" purity="2.1489335596561432e-01" nType="0">
          <Node pos="l" depth="2" NCoef="0" IVar="-1" Cut="0.0000000000000000e+00" cType="1" res="-4.3670658022165298e-02" rms="3.3164164423942566e-01" purity="1.3351085782051086e-01" nType="-99"/>
          <Node pos="r" depth="2" NCoef="0" IVar="-1" Cut="0.0000000000000000e+00" cType="1" res="-1.0247802361845970e-02" rms="4.4538605213165283e-01" purity="4.3428874015808105e-01" nType="-99"/>
        </Node>
        <Node pos="r" depth="1" NCoef="0" IVar="3" Cut="1.6048760712146759e-01" cType="1" res="1.6415352001786232e-02" rms="4.6456623077392578e-01" purity="5.3646117448806763e-01" nType="0">
          <Node pos="l" depth="2" NCoef="0" IVar="-1" Cut="0.0000000000000000e+00" cType="1" res="1.5686776489019394e-02" rms="4.5369029045104980e-01" purity="6.4179366827011108e-01" nType="-99"/>
          <Node pos="r" depth="2" NCoef="0" IVar="-1" Cut="0.0000000000000000e+00" cType="1" res="-8.8594481348991394e-03" rms="4.6826174855232239e-01" purity="4.2944797873497009e-01" nType="-99"/>
        </Node>
      </Node>
    </BinaryTree>
    <BinaryTree type="DecisionTree" boostWeight="1.0000000000000000e+00" itree="18">
      <Node pos="s" depth="0" NCoef="0" IVar="4" Cut="1.1612007766962051e-01" cType="1" res="3.0646787490695715e-03" rms="4.5686396956443787e-01" purity="4.9949839711189270e-01" nType="0">
        <Node pos="l" depth="1" NCoef="0" IVar="2" Cut="1.4768260531127453e-02" cType="1" res="-1.1644682288169861e-01" rms="3.8381752371788025e-01" purity="2.2319839894771576e-01" nType="0">
          <Node pos="l" depth="2" NCoef="0" IVar="-1" Cut="0.0000000000000000e+00" cType="1" res="-7.0386012084782124e-03" rms="4.8234963417053223e-01" purity="4.4584167003631592e-01" nType="-99"/>
          <Node pos="r" depth="2" NCoef="0" IVar="-1" Cut="0.0000000000000000e+00" cType="1" res="-3.5044029355049133e-02" rms="3.4863349795341492e-01" purity="1.6223996877670288e-01" nType="-99"/>
        </Node>
        <Node pos="r" depth="1" NCoef="0" IVar="0" Cut="9.8238952636718750e+02" cType="1" res="2.5560380890965462e-02" rms="4.6592825651168823e-01" purity="5.5150640010833740e-01" nType="0">
          <Node pos="l" depth="2" NCoef="0" IVar="-1" Cut="0.0000000000000000e+00" cType="1" res="-1.2526930309832096e-02" rms="4.6508204936981201e-01" purity="3.8366457819938660e-01" nType="-99"/>
          <Node pos="r" depth="2" NCoef="0" IVar="-1" Cut="0.0000000000000000e+00" cType="1" res="1.3073359616100788e-02" rms="4.6170154213905334e-01" purity="6.2177228927612305e-01" nType="-99"/>
        </Node>
      </Node>
    </BinaryTree>
    <BinaryTree type="DecisionTree" boostWeight="1.0000000000000000e+00" itree="19">
      <Node pos="s" depth="0" NCoef="0" IVar="1" Cut="5.0773468017578125e+00" cType="1" res="1.1594914831221104e-03" rms="4.5329552888870239e-01" purity="5.0167858600616455e-01" nType="0">
        <Node pos="l" depth="1" NCoef="0" IVar="2" Cut="2.4032412096858025e-02" cType="1" res="-3.0568022280931473e-02" rms="4.5806235074996948e-01" purity="4.3493983149528503e-01" nType="0">
          <Node pos="l" depth="2" NCoef="0" IVar="-1" Cut="0.0000000000000000e+00" cType="1" res="5.0383913330733776e-03" rms="4.7050467133522034e-01" purity="5.6335449218750000e-01" nType="-99"/>
          <Node pos="r" depth="2" NCoef="0" IVar="-1" Cut="0.0000000000000000e+00" cType="1" res="-1.7713721841573715e-02" rms="4.4052496552467346e-01" purity="3.1716182827949524e-01" nType="-99"/>
        </Node>
        <Node pos="r" depth="1" NCoef="0" IVar="2" Cut="4.6130314469337463e-02" cType="1" res="8.8760517537593842e-02" rms="4.2781865596771240e-01" purity="6.8594723939895630e-01" nType="0">
          <Node pos="l" depth="2" NCoef="0" IVar="-1" Cut="0.0000000000000000e+00" cType="1" res="2.7700413018465042e-02" rms="4.0564578771591187e-01" purity="7.6960051059722900e-01" nType="-99"/>
          <Node pos="r" depth="2" NCoef="0" IVar="-1" Cut="0.0000000000000000e+00" cType="1" res="-1.9076691241934896e-03" rms="4.7271773219108582e-01" purity="4.4454815983772278e-01" nType="-99"/>
        </Node>
      </Node>
    </BinaryTree>
    <BinaryTree type="DecisionTree" boostWeight="1.0000000000000000e+00" itree="20">
      <Node pos="s" depth="0" NCoef="0" IVar="1" Cut="3.3231859207153320e+00" cType="1" res="-1.4098457992076874e-02" rms="4.5720550417900085e-01" purity="4.8846405744552612e-01" nType="0">
        <Node pos="l" depth="1" NCoef="0" IVar="3" Cut="1.4833676815032959e-01" cType="1" res="-1.4183852076530457e-01" rms="4.3459388613700867e-01" purity="2.6995220780372620e-01" nType="0">
          <Node pos="l" depth="2" NCoef="0" IVar="-1" Cut="0.0000000000000000e+00" cType="1" res="-5.0051860511302948e-02" rms="4.1645550727844238e-01" purity="2.3519536852836609e-01" nType="-99"/>
          <Node pos="r" depth="2" NCoef="0" IVar="-1" Cut="0.0000000000000000e+00" cType="1" res="-2.1590059623122215e-02" rms="4.3573242425918579e-01" purity="2.8622099757194519e-01" nType="-99"/>
        </Node>
        <Node pos="r" depth="1" NCoef="0" IVar="0" Cut="2.2342294921875000e+03" cType="1" res="7.3907012119889259e-03" rms="4.5740827918052673e-01" purity="5.2522331476211548e-01" nType="0">
          <Node pos="l" depth="2" NCoef="0" IVar="-1" Cut="0.0000000000000000e+00" cType="1" res="-2.7118758298456669e-03" rms="4.6336299180984497e-01" purity="4.8324674367904663e-01" nType="-99"/>
          <Node pos="r" depth="2" NCoef="0" IVar="-1" Cut="0.0000000000000000e+00" cType="1" res="2.6889681816101074e-02" rms="4.0507492423057556e-01" purity="7.6010274887084961e-01" nType="-99"/>
        </Node>
      </Node>
    </BinaryTree>
    <BinaryTree type="DecisionTree" boostWeight="1.0000000000000000e+00" itree="21">
      <Node pos="s" depth="0" NCoef="0" IVar="3" Cut="1.0492632538080215e-01" cType="1" res="9.9065946415066719e-04" rms="4.5315986871719360e-01" purity="4.9562337994575500e-01" nType="0">
        <Node pos="l" depth="1" NCoef="0" IVar="4" Cut="1.3632631301879883e-01" cType="1" res="7.7286317944526672e-02" rms="4.4664925336837769e-01" purity="6.3031411170959473e-01" nType="0">
          <Node pos="l" depth="2" NCoef="0" IVar="-1" Cut="0.0000000000000000e+00" cType="1" res="-9.9736284464597702e-03" rms="4.3557181954383850e-01" purity="3.2498237490653992e-01" nType="-99"/>
          <Node pos="r" depth="2" NCoef="0" IVar="-1" Cut="0.0000000000000000e+00" cType="1" res="2.1879730746150017e-02" rms="4.4502294063568115e-01" purity="6.9050002098083496e-01" nType="-99"/>
        </Node>
        <Node pos="r" depth="1" NCoef="0" IVar="0" Cut="1.8698077392578125e+03" cType="1" res="-3.4974724054336548e-02" rms="4.5174986124038696e-01" purity="4.3213090300559998e-01" nType="0">
          <Node pos="l" depth="2" NCoef="0" IVar="-1" Cut="0.0000000000000000e+00" cType="1" res="-1.3372977264225483e-02" rms="4.5148491859436035e-01" purity="3.7373703718185425e-01" nType="-99"/>
          <Node pos="r" depth="2" NCoef="0" IVar="-1" Cut="0.0000000000000000e+00" cType="1" res="1.7132068052887917e-02" rms="4.3551784753799438e-01" purity="6.8834602832794189e-01" nType="-99"/>
        </Node>
      </Node>
    </BinaryTree>
    <BinaryTree type="DecisionTree" boostWeight="1.0000000000000000e+00" itree="22">
      <Node pos="s" depth="0" NCoef="0" IVar="0" Cut="2.3023088378906250e+03" cType="1" res="-1.0338886640965939e-02" rms="4.5261612534523010e-01" purity="4.8530182242393494e-01" nType="0">
        <Node pos="l" depth="1" NCoef="0" IVar="4" Cut="5.7162176817655563e-02" cType="1" res="-2.7790905907750130e-02" rms="4.5579946041107178e-01" purity="4.4784653186798096e-01" nType="0">
          <Node pos="l" depth="2" NCoef="0" IVar="-1" Cut="0.0000000000000000e+00" cType="1" res="-3.9816562086343765e-02" rms="3.3884587883949280e-01" purity="1.3784107565879822e-01" nType="-99"/>
          <Node pos="r" depth="2" NCoef="0" IVar="-1" Cut="0.0000000000000000e+00" cType="1" res="-2.3162513971328735e-03" rms="4.6711853146553040e-01" purity="4.9068427085876465e-01" nType="-99"/>
        </Node>
        <Node pos="r" depth="1" NCoef="0" IVar="1" Cut="6.4967632293701172e+00" cType="1" res="1.2198772281408310e-01" rms="4.0387517213821411e-01" purity="7.6929956674575806e-01" nType="0">
          <Node pos="l" depth="2" NCoef="0" IVar="-1" Cut="0.0000000000000000e+00" cType="1" res="1.8634418025612831e-02" rms="4.3287077546119690e-01" purity="7.2180801630020142e-01" nType="-99"/>
          <Node pos="r" depth="2" NCoef="0" IVar="-1" Cut="0.0000000000000000e+00" cType="1" res="5.2884794771671295e-02" rms="2.9158961772918701e-01" purity="8.9261442422866821e-01" nType="-99"/>
        </Node>
      </Node>
    </BinaryTree>
    <BinaryTree type="DecisionTree" boostWeight="1.0000000000000000e+00" itree="23">
      <Node pos="s" depth="0" NCoef="0" IVar="2" Cut="1.2948958203196526e-02" cType="1" res="-8.1487512215971947e-03" rms="4.5317983627319336e-01" purity="4.8800233006477356e-01" nType="0">
        <Node pos="l" depth="1" NCoef="0" IVar="3" Cut="1.7899408936500549e-01" cType="1" res="7.0963822305202484e-02" rms="4.4120651483535767e-01" purity="6.6148805618286133e-01" nType="0">
          <Node pos="l" depth="2" NCoef="0" IVar="-1" Cut="0.0000000000000000e+00" cType="1" res="2.6167875155806541e-02" rms="4.0440139174461365e-01" purity="7.6388472318649292e-01" nType="-99"/>
          <Node pos="r" depth="2" NCoef="0" IVar="-1" Cut="0.0000000000000000e+00" cType="1" res="3.0238637700676918e-03" rms="4.7866663336753845e-01" purity="5.2923732995986938e-01" nType="-99"/>
        </Node>
        <Node pos="r" depth="1" NCoef="0" IVar="4" Cut="4.9138370156288147e-01" cType="1" res="-3.8590781390666962e-02" rms="4.5404577255249023e-01" purity="4.2124614119529724e-01" nType="0">
          <Node pos="l" depth="2" NCoef="0" IVar="-1" Cut="0.0000000000000000e+00" cType="1" res="-2.1855827420949936e-02" rms="4.1786968708038330e-01" purity="3.0285829305648804e-01" nType="-99"/>
          <Node pos="r" depth="2" NCoef="0" IVar="-1" Cut="0.0000000000000000e+00" cType="1" res="6.7552574910223484e-04" rms="4.7572708129882812e-01" purity="5.1199305057525635e-01" nType="-99"/>
        </Node>
      </Node>
    </BinaryTree>
    <BinaryTree type="DecisionTree" boostWeight="1.0000000000000000e+00" itree="24">
      <Node pos="s" depth="0" NCoef="0" IVar="0" Cut="9.8286297607421875e+02" cType="1" res="1.3580908998847008e-02" rms="4.4664421677589417e-01" purity="5.1391685009002686e-01" nType="0">
        <Node pos="l" depth="1" NCoef="0" IVar="1" Cut="3.3718309402465820e+00" cType="1" res="-7.0237815380096436e-02" rms="4.3797311186790466e-01" purity="3.2267370820045471e-01" nType="0">
          <Node pos="l" depth="2" NCoef="0" IVar="-1" Cut="0.0000000000000000e+00" cType="1" res="-3.3176105469465256e-02" rms="3.9008074998855591e-01" purity="2.1053139865398407e-01" nType="-99"/>
          <Node pos="r" depth="2" NCoef="0" IVar="-1" Cut="0.0000000000000000e+00" cType="1" res="-7.6364958658814430e-03" rms="4.5511171221733093e-01" purity="3.7708109617233276e-01" nType="-99"/>
        </Node>
        <Node pos="r" depth="1" NCoef="0" IVar="3" Cut="2.9628643393516541e-01" cType="1" res="5.0373911857604980e-02" rms="4.4544410705566406e-01" purity="5.9786474704742432e-01" nType="0">
          <Node pos="l" depth="2" NCoef="0" IVar="-1" Cut="0.0000000000000000e+00" cType="1" res="1.5738742426037788e-02" rms="4.3866759538650513e-01" purity="6.5370595455169678e-01" nType="-99"/>
          <Node pos="r" depth="2" NCoef="0" IVar="-1" Cut="0.0000000000000000e+00" cType="1" res="-6.0694590210914612e-03" rms="4.6328333020210266e-01" purity="3.7576127052307129e-01" nType="-99"/>
        </Node>
      </Node>
    </BinaryTree>
    <BinaryTree type="DecisionTree" boostWeight="1.0000000000000000e+00" itree="25">
      <Node pos="s" depth="0" NCoef="0" IVar="4" Cut="4.3251791596412659e-01" cType="1" res="-2.2087194956839085e-03" rms="4.4941470026969910e-01" purity="4.9800419807434082e-01" nType="0">
        <Node pos="l" depth="1" NCoef="0" IVar="0" Cut="1.0102915649414062e+03" cType="1" res="-5.4168730974197388e-02" rms="4.3283227086067200e-01" purity="3.6645194888114929e-01" nType="0">
          <Node pos="l" depth="2" NCoef="0" IVar="-1" Cut="0.0000000000000000e+00" cType="1" res="-2.9327070340514183e-02" rms="3.9275342226028442e-01" purity="1.9732290506362915e-01" nType="-99"/>
          <Node pos="r" depth="2" NCoef="0" IVar="-1" Cut="0.0000000000000000e+00" cType="1" res="-3.5686062183231115e-03" rms="4.5076254010200500e-01" purity="4.6770796179771423e-01" nType="-99"/>
        </Node>
        <Node pos="r" depth="1" NCoef="0" IVar="4" Cut="1.0416705608367920e+00" cType="1" res="2.8872543945908546e-02" rms="4.5622774958610535e-01" purity="5.7669568061828613e-01" nType="0">
          <Node pos="l" depth="2" NCoef="0" IVar="-1" Cut="0.0000000000000000e+00" cType="1" res="1.1485780589282513e-02" rms="4.5543104410171509e-01" purity="6.1087578535079956e-01" nType="-99"/>
          <Node pos="r" depth="2" NCoef="0" IVar="-1" Cut="0.0000000000000000e+00" cType="1" res="-2.4769943207502365e-02" rms="4.3414610624313354e-01" purity="3.6769506335258484e-01" nType="-99"/>
        </Node>
      </Node>
    </BinaryTree>
    <BinaryTree type="DecisionTree" boostWeight="1.0000000000000000e+00" itree="26">
      <Node pos="s" depth="0" NCoef="0" IVar="1" Cut="5.9099907875061035e+00" cType="1" res="3.9650611579418182e-03" rms="4.5362478494644165e-01" purity="5.0276410579681396e-01" nType="0">
        <Node pos="l" depth="1" NCoef="0" IVar="2" Cut="7.7705234289169312e-02" cType="1" res="-9.4346813857555389e-03" rms="4.6078494191169739e-01" purity="4.7089749574661255e-01" nType="0">
          <Node pos="l" depth="2" NCoef="0" IVar="-1" Cut="0.0000000000000000e+00" cType="1" res="1.2201726203784347e-03" rms="4.6492695808410645e-01" purity="5.0705373287200928e-01" nType="-99"/>
          <Node pos="r" depth="2" NCoef="0" IVar="-1" Cut="0.0000000000000000e+00" cType="1" res="-2.2046776488423347e-02" rms="4.2638710141181946e-01" purity="2.6400664448738098e-01" nType="-99"/>
        </Node>
        <Node pos="r" depth="1" NCoef="0" IVar="1" Cut="6.2088789939880371e+00" cType="1" res="1.2065413594245911e-01" rms="3.6548519134521484e-01" purity="7.8026807308197021e-01" nType="0">
          <Node pos="l" depth="2" NCoef="0" IVar="-1" Cut="0.0000000000000000e+00" cType="1" res="4.5743737369775772e-02" rms="3.0896809697151184e-01" purity="8.4879100322723389e-01" nType="-99"/>
          <Node pos="r" depth="2" NCoef="0" IVar="-1" Cut="0.0000000000000000e+00" cType="1" res="1.7953339964151382e-02" rms="3.9063873887062073e-01" purity="7.3645776510238647e-01" nType="-99"/>
        </Node>
      </Node>
    </BinaryTree>
    <BinaryTree type="DecisionTree" boostWeight="1.0000000000000000e+00" itree="27">
      <Node pos="s" depth="0" NCoef="0" IVar="3" Cut="1.5429440140724182e-01" cType="1" res="3.2465194817632437e-03" rms="4.4476193189620972e-01" purity="5.0068968534469604e-01" nType="0">
        <Node pos="l" depth="1" NCoef="0" IVar="1" Cut="3.2923996448516846e+00" cType="1" res="5.6231152266263962e-02" rms="4.3771740794181824e-01" purity="6.2219464778900146e-01" nType="0">
          <Node pos="l" depth="2" NCoef="0" IVar="-1" Cut="0.0000000000000000e+00" cType="1" res="-2.3430068045854568e-02" rms="4.6178233623504639e-01" purity="3.2900443673133850e-01" nType="-99"/>
          <Node pos="r" depth="2" NCoef="0" IVar="-1" Cut="0.0000000000000000e+00" cType="1" res="1.7415869981050491e-02" rms="4.3041875958442688e-01" purity="6.5783864259719849e-01" nType="-99"/>
        </Node>
        <Node pos="r" depth="1" NCoef="0" IVar="2" Cut="1.4784075319766998e-02" cType="1" res="-4.2173676192760468e-02" rms="4.4572716951370239e-01" purity="3.9653155207633972e-01" nType="0">
          <Node pos="l" depth="2" NCoef="0" IVar="-1" Cut="0.0000000000000000e+00" cType="1" res="7.2511797770857811e-03" rms="4.6704494953155518e-01" purity="5.5427527427673340e-01" nType="-99"/>
          <Node pos="r" depth="2" NCoef="0" IVar="-1" Cut="0.0000000000000000e+00" cType="1" res="-1.7021710053086281e-02" rms="4.3232116103172302e-01" purity="3.2911452651023865e-01" nType="-99"/>
        </Node>
      </Node>
    </BinaryTree>
    <BinaryTree type="DecisionTree" boostWeight="1.0000000000000000e+00" itree="28">
      <Node pos="s" depth="0" NCoef="0" IVar="4" Cut="1.0444136857986450e+00" cType="1" res="5.7805879041552544e-03" rms="4.4679909944534302e-01" purity="5.0447398424148560e-01" nType="0">
        <Node pos="l" depth="1" NCoef="0" IVar="4" Cut="3.9919319748878479e-01" cType="1" res="2.1994369104504585e-02" rms="4.4474664330482483e-01" purity="5.2287733554840088e-01" nType="0">
          <Node pos="l" depth="2" NCoef="0" IVar="-1" Cut="0.0000000000000000e+00" cType="1" res="-9.6876705065369606e-03" rms="4.3191453814506531e-01" purity="3.6581423878669739e-01" nType="-99"/>
          <Node pos="r" depth="2" NCoef="0" IVar="-1" Cut="0.0000000000000000e+00" cType="1" res="1.3573857024312019e-02" rms="4.4821402430534363e-01" purity="6.2178194522857666e-01" nType="-99"/>
        </Node>
        <Node pos="r" depth="1" NCoef="0" IVar="2" Cut="5.9660114347934723e-02" cType="1" res="-1.5671356022357941e-01" rms="4.3465980887413025e-01" purity="3.2003626227378845e-01" nType="0">
          <Node pos="l" depth="2" NCoef="0" IVar="-1" Cut="0.0000000000000000e+00" cType="1" res="-1.4395923353731632e-02" rms="4.7696691751480103e-01" purity="4.6023583412170410e-01" nType="-99"/>
          <Node pos="r" depth="2" NCoef="0" IVar="-1" Cut="0.0000000000000000e+00" cType="1" res="-5.8631896972656250e-02" rms="3.3645111322402954e-01" purity="1.3574488461017609e-01" nType="-99"/>
        </Node>
      </Node>
    </BinaryTree>
    <BinaryTree type="DecisionTree" boostWeight="1.0000000000000000e+00" itree="29">
      <Node pos="s" depth="0" NCoef="0" IVar="2" Cut="1.4800997450947762e-02" cType="1" res="-5.3163855336606503e-03" rms="4.4834768772125244e-01" purity="4.9805018305778503e-01" nType="0">
        <Node pos="l" depth="1" NCoef="0" IVar="4" Cut="7.2193187475204468e-01" cType="1" res="4.5242942869663239e-02" rms="4.4650265574455261e-01" purity="6.5821361541748047e-01" nType="0">
          <Node pos="l" depth="2" NCoef="0" IVar="-1" Cut="0.0000000000000000e+00" cType="1" res="-3.3501681173220277e-04" rms="4.5874550938606262e-01" purity="5.9352880716323853e-01" nType="-99"/>
          <Node pos="r" depth="2" NCoef="0" IVar="-1" Cut="0.0000000000000000e+00" cType="1" res="2.7760932222008705e-02" rms="4.1569226980209351e-01" purity="7.6091951131820679e-01" nType="-99"/>
        </Node>
        <Node pos="r" depth="1" NCoef="0" IVar="1" Cut="6.0371747016906738e+00" cType="1" res="-3.1009180471301079e-02" rms="4.4709676504135132e-01" purity="4.1665965318679810e-01" nType="0">
          <Node pos="l" depth="2" NCoef="0" IVar="-1" Cut="0.0000000000000000e+00" cType="1" res="-9.3329772353172302e-03" rms="4.4895297288894653e-01" purity="3.9099538326263428e-01" nType="-99"/>
          <Node pos="r" depth="2" NCoef="0" IVar="-1" Cut="0.0000000000000000e+00" cType="1" res="2.2205043584108353e-02" rms="4.0270608663558960e-01" purity="7.3590183258056641e-01" nType="-99"/>
        </Node>
      </Node>
    </BinaryTree>
    <BinaryTree type="DecisionTree" boostWeight="1.0000000000000000e+00" itree="30">
      <Node pos="s" depth="0" NCoef="0" IVar="4" Cut="1.0444921255111694e+00" cType="1" res="1.4075302518904209e-02" rms="4.4502174854278564e-01" purity="5.1629251241683960e-01" nType="0">
        <Node pos="l" depth="1" NCoef="0" IVar="4" Cut="2.4577030539512634e-01" cType="1" res="2.6345511898398399e-02" rms="4.4385918974876404e-01" purity="5.3082334995269775e-01" nType="0">
          <Node pos="l" depth="2" NCoef="0" IVar="-1" Cut="0.0000000000000000e+00" cType="1" res="-1.2437045574188232e-02" rms="4.0992611646652222e-01" purity="2.9699292778968811e-01" nType="-99"/>
          <Node pos="r" depth="2" NCoef="0" IVar="-1" Cut="0.0000000000000000e+00" cType="1" res="1.1839173734188080e-02" rms="4.5222026109695435e-01" purity="6.1316472291946411e-01" nType="-99"/>
        </Node>
        <Node pos="r" depth="1" NCoef="0" IVar="2" Cut="6.6978968679904938e-02" cType="1" res="-1.2092311680316925e-01" rms="4.3535369634628296e-01" purity="3.5642266273498535e-01" nType="0">
          <Node pos="l" depth="2" NCoef="0" IVar="-1" Cut="0.0000000000000000e+00" cType="1" res="-5.6733549572527409e-03" rms="4.6690914034843445e-01" purity="5.0442391633987427e-01" nType="-99"/>
          <Node pos="r" depth="2" NCoef="0" IVar="-1" Cut="0.0000000000000000e+00" cType="1" res="-5.8524310588836670e-02" rms="3.2814353704452515e-01" purity="1.2213371694087982e-01" nType="-99"/>
        </Node>
      </Node>
    </BinaryTree>
    <BinaryTree type="DecisionTree" boostWeight="1.0000000000000000e+00" itree="31">
      <Node pos="s" depth="0" NCoef="0" IVar="4" Cut="4.5189532637596130e-01" cType="1" res="-2.1610595285892487e-03" rms="4.4763791561126709e-01" purity="4.9492174386978149e-01" nType="0">
        <Node pos="l" depth="1" NCoef="0" IVar="0" Cut="9.6485833740234375e+02" cType="1" res="-4.7885932028293610e-02" rms="4.3138495087623596e-01" purity="3.5936471819877625e-01" nType="0">
          <Node pos="l" depth="2" NCoef="0" IVar="-1" Cut="0.0000000000000000e+00" cType="1" res="-2.8286188840866089e-02" rms="3.8823902606964111e-01" purity="1.9364200532436371e-01" nType="-99"/>
          <Node pos="r" depth="2" NCoef="0" IVar="-1" Cut="0.0000000000000000e+00" cType="1" res="-4.5476276427507401e-03" rms="4.4645223021507263e-01" purity="4.3353053927421570e-01" nType="-99"/>
        </Node>
        <Node pos="r" depth="1" NCoef="0" IVar="4" Cut="1.1658790111541748e+00" cType="1" res="2.6471912860870361e-02" rms="4.5518898963928223e-01" purity="5.7980775833129883e-01" nType="0">
          <Node pos="l" depth="2" NCoef="0" IVar="-1" Cut="0.0000000000000000e+00" cType="1" res="9.5648048445582390e-03" rms="4.5641285181045532e-01" purity="6.0944807529449463e-01" nType="-99"/>
          <Node pos="r" depth="2" NCoef="0" IVar="-1" Cut="0.0000000000000000e+00" cType="1" res="-3.4324429929256439e-02" rms="4.0112242102622986e-01" purity="2.5877678394317627e-01" nType="-99"/>
        </Node>
      </Node>
    </BinaryTree>
    <BinaryTree type="DecisionTree" boostWeight="1.0000000000000000e+00" itree="32">
      <Node pos="s" depth="0" NCoef="0" IVar="1" Cut="3.2220356464385986e+00" cType="1" res="9.9528068676590919e-03" rms="4.4318690896034241e-01" purity="5.1084661483764648e-01" nType="0">
        <Node pos="l" depth="1" NCoef="0" IVar="2" Cut="5.5348206311464310e-02" cType="1" res="-8.1865832209587097e-02" rms="4.4373476505279541e-01" purity="3.0454543232917786e-01" nType="0">
          <Node pos="l" depth="2" NCoef="0" IVar="-1" Cut="0.0000000000000000e+00" cType="1" res="-2.3126125335693359e-02" rms="4.4132292270660400e-01" purity="3.0744025111198425e-01" nType="-99"/>
          <Node pos="r" depth="2" NCoef="0" IVar="-1" Cut="0.0000000000000000e+00" cType="1" res="-5.1776471082121134e-04" rms="4.4315832853317261e-01" purity="2.9418662190437317e-01" nType="-99"/>
        </Node>
        <Node pos="r" depth="1" NCoef="0" IVar="4" Cut="5.7011848688125610e-01" cType="1" res="2.4733521044254303e-02" rms="4.4131711125373840e-01" purity="5.4405653476715088e-01" nType="0">
          <Node pos="l" depth="2" NCoef="0" IVar="-1" Cut="0.0000000000000000e+00" cType="1" res="-3.8773037958890200e-03" rms="4.4229623675346375e-01" purity="4.3647536635398865e-01" nType="-99"/>
          <Node pos="r" depth="2" NCoef="0" IVar="-1" Cut="0.0000000000000000e+00" cType="1" res="1.3886204920709133e-02" rms="4.3717798590660095e-01" purity="6.3982897996902466e-01" nType="-99"/>
        </Node>
      </Node>
    </BinaryTree>
    <BinaryTree type="DecisionTree" boostWeight="1.0000000000000000e+00" itree="33">
      <Node pos="s" depth="0" NCoef="0" IVar="0" Cut="1.0604621582031250e+03" cType="1" res="-8.7285479821730405e-05" rms="4.4743824005126953e-01" purity="5.0250774621963501e-01" nType="0">
        <Node pos="l" depth="1" NCoef="0" IVar="4" Cut="8.0669450759887695e-01" cType="1" res="-4.3398045003414154e-02" rms="4.4560331106185913e-01" purity="3.4713828563690186e-01" nType="0">
          <Node pos="l" depth="2" NCoef="0" IVar="-1" Cut="0.0000000000000000e+00" cType="1" res="-1.6793318092823029e-02" rms="4.3475878238677979e-01" purity="3.0276498198509216e-01" nType="-99"/>
          <Node pos="r" depth="2" NCoef="0" IVar="-1" Cut="0.0000000000000000e+00" cType="1" res="5.9739635325968266e-03" rms="4.6549797058105469e-01" purity="4.6341747045516968e-01" nType="-99"/>
        </Node>
        <Node pos="r" depth="1" NCoef="0" IVar="4" Cut="1.0444399118423462e+00" cType="1" res="2.6014294475317001e-02" rms="4.4651627540588379e-01" purity="5.9614241123199463e-01" nType="0">
          <Node pos="l" depth="2" NCoef="0" IVar="-1" Cut="0.0000000000000000e+00" cType="1" res="8.8943317532539368e-03" rms="4.4409972429275513e-01" purity="6.1472225189208984e-01" nType="-99"/>
          <Node pos="r" depth="2" NCoef="0" IVar="-1" Cut="0.0000000000000000e+00" cType="1" res="-2.1639697253704071e-02" rms="4.5188581943511963e-01" purity="4.0411812067031860e-01" nType="-99"/>
        </Node>
      </Node>
    </BinaryTree>
    <BinaryTree type="DecisionTree" boostWeight="1.0000000000000000e+00" itree="34">
      <Node pos="s" depth="0" NCoef="0" IVar="2" Cut="5.3653616458177567e-02" cType="1" res="1.7871017917059362e-04" rms="4.4638779759407043e-01" purity="5.0465637445449829e-01" nType="0">
        <Node pos="l" depth="1" NCoef="0" IVar="4" Cut="4.9302724003791809e-01" cType="1" res="1.8462566658854485e-02" rms="4.5175671577453613e-01" purity="5.6944727897644043e-01" nType="0">
          <Node pos="l" depth="2" NCoef="0" IVar="-1" Cut="0.0000000000000000e+00" cType="1" res="-4.5209000818431377e-03" rms="4.5874917507171631e-01" purity="4.4764667749404907e-01" nType="-99"/>
          <Node pos="r" depth="2" NCoef="0" IVar="-1" Cut="0.0000000000000000e+00" cType="1" res="1.0540108196437359e-02" rms="4.4466355443000793e-01" purity="6.5712505578994751e-01" nType="-99"/>
        </Node>
        <Node pos="r" depth="1" NCoef="0" IVar="3" Cut="4.9371153116226196e-02" cType="1" res="-5.6668031960725784e-02" rms="4.2426264286041260e-01" purity="3.0321344733238220e-01" nType="0">
          <Node pos="l" depth="2" NCoef="0" IVar="-1" Cut="0.0000000000000000e+00" cType="1" res="1.7509210854768753e-02" rms="4.5761516690254211e-01" purity="4.8629158735275269e-01" nType="-99"/>
          <Node pos="r" depth="2" NCoef="0" IVar="-1" Cut="0.0000000000000000e+00" cType="1" res="-2.0459666848182678e-02" rms="4.1111072897911072e-01" purity="2.6418665051460266e-01" nType="-99"/>
        </Node>
      </Node>
    </BinaryTree>
    <BinaryTree type="DecisionTree" boostWeight="1.0000000000000000e+00" itree="35">
      <Node pos="s" depth="0" NCoef="0" IVar="1" Cut="4.0236253738403320e+00" cType="1" res="-5.1144903409294784e-05" rms="4.4399335980415344e-01" purity="4.9777927994728088e-01" nType="0">
        <Node pos="l" depth="1" NCoef="0" IVar="0" Cut="1.4237122802734375e+03" cType="1" res="-4.7223407775163651e-02" rms="4.4805335998535156e-01" purity="3.5239472985267639e-01" nType="0">
          <Node pos="l" depth="2" NCoef="0" IVar="-1" Cut="0.0000000000000000e+00" cType="1" res="-7.3886564932763577e-03" rms="4.4490653276443481e-01" purity="3.4932121634483337e-01" nType="-99"/>
          <Node pos="r" depth="2" NCoef="0" IVar="-1" Cut="0.0000000000000000e+00" cType="1" res="-3.5255718976259232e-02" rms="4.5458894968032837e-01" purity="3.7478384375572205e-01" nType="-99"/>
        </Node>
        <Node pos="r" depth="1" NCoef="0" IVar="4" Cut="4.1213706135749817e-01" cType="1" res="2.4862242862582207e-02" rms="4.3979707360267639e-01" purity="5.7456219196319580e-01" nType="0">
          <Node pos="l" depth="2" NCoef="0" IVar="-1" Cut="0.0000000000000000e+00" cType="1" res="-8.4027787670493126e-03" rms="4.4036409258842468e-01" purity="4.0924170613288879e-01" nType="-99"/>
          <Node pos="r" depth="2" NCoef="0" IVar="-1" Cut="0.0000000000000000e+00" cType="1" res="1.3358941301703453e-02" rms="4.3595454096794128e-01" purity="6.6570770740509033e-01" nType="-99"/>
        </Node>
      </Node>
    </BinaryTree>
    <BinaryTree type="DecisionTree" boostWeight="1.0000000000000000e+00" itree="36">
      <Node pos="s" depth="0" NCoef="0" IVar="2" Cut="4.4366832822561264e-02" cType="1" res="-5.3899865597486496e-03" rms="4.4748991727828979e-01" purity="4.9528053402900696e-01" nType="0">
        <Node pos="l" depth="1" NCoef="0" IVar="3" Cut="4.0737950801849365e-01" cType="1" res="1.7486896365880966e-02" rms="4.5437902212142944e-01" purity="5.8477687835693359e-01" nType="0">
          <Node pos="l" depth="2" NCoef="0" IVar="-1" Cut="0.0000000000000000e+00" cType="1" res="6.2033119611442089e-03" rms="4.5455640554428101e-01" purity="6.1153942346572876e-01" nType="-99"/>
          <Node pos="r" depth="2" NCoef="0" IVar="-1" Cut="0.0000000000000000e+00" cType="1" res="-2.0994052290916443e-02" rms="4.3784943222999573e-01" purity="2.7065354585647583e-01" nType="-99"/>
        </Node>
        <Node pos="r" depth="1" NCoef="0" IVar="4" Cut="8.8533645868301392e-01" cType="1" res="-5.4850786924362183e-02" rms="4.2806118726730347e-01" purity="3.0178564786911011e-01" nType="0">
          <Node pos="l" depth="2" NCoef="0" IVar="-1" Cut="0.0000000000000000e+00" cType="1" res="-3.9666937664151192e-03" rms="4.2927801609039307e-01" purity="3.2788324356079102e-01" nType="-99"/>
          <Node pos="r" depth="2" NCoef="0" IVar="-1" Cut="0.0000000000000000e+00" cType="1" res="-3.5603664815425873e-02" rms="4.0601602196693420e-01" purity="2.2986306250095367e-01" nType="-99"/>
        </Node>
      </Node>
    </BinaryTree>
    <BinaryTree type="DecisionTree" boostWeight="1.0000000000000000e+00" itree="37">
      <Node pos="s" depth="0" NCoef="0" IVar="2" Cut="7.4004987254738808e-03" cType="1" res="3.6422841367311776e-04" rms="4.4140222668647766e-01" purity="5.0283545255661011e-01" nType="0">
        <Node pos="l" depth="1" NCoef="0" IVar="3" Cut="2.0389060676097870e-01" cType="1" res="9.7675852477550507e-02" rms="4.2358744144439697e-01" purity="7.1337139606475830e-01" nType="0">
          <Node pos="l" depth="2" NCoef="0" IVar="-1" Cut="0.0000000000000000e+00" cType="1" res="1.6636591404676437e-02" rms="4.1228035092353821e-01" purity="7.5386083126068115e-01" nType="-99"/>
          <Node pos="r" depth="2" NCoef="0" IVar="-1" Cut="0.0000000000000000e+00" cType="1" res="3.2367825508117676e-02" rms="4.3673422932624817e-01" purity="6.4854925870895386e-01" nType="-99"/>
        </Node>
        <Node pos="r" depth="1" NCoef="0" IVar="4" Cut="-6.0735493898391724e-02" cType="1" res="-1.7468292266130447e-02" rms="4.4227415323257446e-01" purity="4.6425440907478333e-01" nType="0">
          <Node pos="l" depth="2" NCoef="0" IVar="-1" Cut="0.0000000000000000e+00" cType="1" res="-4.8787452280521393e-02" rms="2.3834647238254547e-01" purity="5.7503931224346161e-02" nType="-99"/>
          <Node pos="r" depth="2" NCoef="0" IVar="-1" Cut="0.0000000000000000e+00" cType="1" res="-2.0755028817802668e-03" rms="4.5067271590232849e-01" purity="4.8979777097702026e-01" nType="-99"/>
        </Node>
      </Node>
    </BinaryTree>
    <BinaryTree type="DecisionTree" boostWeight="1.0000000000000000e+00" itree="38">
      <Node pos="s" depth="0" NCoef="0" IVar="4" Cut="1.0246626138687134e+00" cType="1" res="-1.8291685730218887e-02" rms="4.4317051768302917e-01" purity="4.7517627477645874e-01" nType="0">
        <Node pos="l" depth="1" NCoef="0" IVar="4" Cut="5.2558863162994385e-01" cType="1" res="-7.6537961140275002e-03" rms="4.4377598166465759e-01" purity="4.9132809042930603e-01" nType="0">
          <Node pos="l" depth="2" NCoef="0" IVar="-1" Cut="0.0000000000000000e+00" cType="1" res="-8.1938374787569046e-03" rms="4.3581861257553101e-01" purity="3.8152301311492920e-01" nType="-99"/>
          <Node pos="r" depth="2" NCoef="0" IVar="-1" Cut="0.0000000000000000e+00" cType="1" res="4.5568956993520260e-03" rms="4.5043185353279114e-01" purity="6.0771912336349487e-01" nType="-99"/>
        </Node>
        <Node pos="r" depth="1" NCoef="0" IVar="0" Cut="1.4452508544921875e+03" cType="1" res="-1.1007504165172577e-01" rms="4.2704358696937561e-01" purity="3.3581876754760742e-01" nType="0">
          <Node pos="l" depth="2" NCoef="0" IVar="-1" Cut="0.0000000000000000e+00" cType="1" res="-3.7922959774732590e-02" rms="3.9244163036346436e-01" purity="2.1564622223377228e-01" nType="-99"/>
          <Node pos="r" depth="2" NCoef="0" IVar="-1" Cut="0.0000000000000000e+00" cType="1" res="-2.0601465366780758e-03" rms="4.6651163697242737e-01" purity="5.5234932899475098e-01" nType="-99"/>
        </Node>
      </Node>
    </BinaryTree>
    <BinaryTree type="DecisionTree" boostWeight="1.0000000000000000e+00" itree="39">
      <Node pos="s" depth="0" NCoef="0" IVar="1" Cut="3.0900113582611084e+00" cType="1" res="2.6634177629603073e-05" rms="4.4204095005989075e-01" purity="4.9988460540771484e-01" nType="0">
        <Node pos="l" depth="1" NCoef="0" IVar="3" Cut="2.4084435403347015e-01" cType="1" res="-8.3529025316238403e-02" rms="4.1130834817886353e-01" purity="2.6702913641929626e-01" nType="0">
          <Node pos="l" depth="2" NCoef="0" IVar="-1" Cut="0.0000000000000000e+00" cType="1" res="-1.0310104116797447e-02" rms="4.4166052341461182e-01" purity="3.5851690173149109e-01" nType="-99"/>
          <Node pos="r" depth="2" NCoef="0" IVar="-1" Cut="0.0000000000000000e+00" cType="1" res="-3.1848870217800140e-02" rms="3.7106880545616150e-01" purity="1.6748963296413422e-01" nType="-99"/>
        </Node>
        <Node pos="r" depth="1" NCoef="0" IVar="4" Cut="6.6883927583694458e-01" cType="1" res="9.6677131950855255e-03" rms="4.4444093108177185e-01" purity="5.2675265073776245e-01" nType="0">
          <Node pos="l" depth="2" NCoef="0" IVar="-1" Cut="0.0000000000000000e+00" cType="1" res="-3.5731741227209568e-03" rms="4.4696301221847534e-01" purity="4.5469093322753906e-01" nType="-99"/>
          <Node pos="r" depth="2" NCoef="0" IVar="-1" Cut="0.0000000000000000e+00" cType="1" res="9.8184999078512192e-03" rms="4.3899822235107422e-01" purity="6.2163281440734863e-01" nType="-99"/>
        </Node>
      </Node>
    </BinaryTree>
    <BinaryTree type="DecisionTree" boostWeight="1.0000000000000000e+00" itree="40">
      <Node pos="s" depth="0" NCoef="0" IVar="3" Cut="3.3944016695022583e-01" cType="1" res="4.9585732631385326e-03" rms="4.4350558519363403e-01" purity="5.0118762254714966e-01" nType="0">
        <Node pos="l" depth="1" NCoef="0" IVar="1" Cut="3.5477972030639648e+00" cType="1" res="1.8227560445666313e-02" rms="4.4763910770416260e-01" purity="5.4486405849456787e-01" nType="0">
          <Node pos="l" depth="2" NCoef="0" IVar="-1" Cut="0.0000000000000000e+00" cType="1" res="-1.3694122433662415e-02" rms="4.4603756070137024e-01" purity="3.3915972709655762e-01" nType="-99"/>
          <Node pos="r" depth="2" NCoef="0" IVar="-1" Cut="0.0000000000000000e+00" cType="1" res="8.7337251752614975e-03" rms="4.4596999883651733e-01" purity="5.9501945972442627e-01" nType="-99"/>
        </Node>
        <Node pos="r" depth="1" NCoef="0" IVar="0" Cut="1.5577856445312500e+03" cType="1" res="-6.6828005015850067e-02" rms="4.1311374306678772e-01" purity="2.6489347219467163e-01" nType="0">
          <Node pos="l" depth="2" NCoef="0" IVar="-1" Cut="0.0000000000000000e+00" cType="1" res="-2.2830322384834290e-02" rms="3.9176172018051147e-01" purity="2.0534470677375793e-01" nType="-99"/>
          <Node pos="r" depth="2" NCoef="0" IVar="-1" Cut="0.0000000000000000e+00" cType="1" res="6.1351531185209751e-03" rms="4.7898358106613159e-01" purity="5.0808197259902954e-01" nType="-99"/>
        </Node>
      </Node>
    </BinaryTree>
    <BinaryTree type="DecisionTree" boostWeight="1.0000000000000000e+00" itree="41">
      <Node pos="s" depth="0" NCoef="0" IVar="1" Cut="3.7764732837677002e+00" cType="1" res="7.6670935377478600e-03" rms="4.4506284594535828e-01" purity="5.1099288463592529e-01" nType="0">
        <Node pos="l" depth="1" NCoef="0" IVar="2" Cut="9.3224188312888145e-03" cType="1" res="-3.9904527366161346e-02" rms="4.4688841700553894e-01" purity="3.4849050641059875e-01" nType="0">
          <Node pos="l" depth="2" NCoef="0" IVar="-1" Cut="0.0000000000000000e+00" cType="1" res="1.0582066141068935e-02" rms="4.8379024863243103e-01" purity="5.4711914062500000e-01" nType="-99"/>
          <Node pos="r" depth="2" NCoef="0" IVar="-1" Cut="0.0000000000000000e+00" cType="1" res="-1.5271926298737526e-02" rms="4.3348458409309387e-01" purity="2.9555851221084595e-01" nType="-99"/>
        </Node>
        <Node pos="r" depth="1" NCoef="0" IVar="3" Cut="4.0738096833229065e-01" cType="1" res="2.6588888838887215e-02" rms="4.4291657209396362e-01" purity="5.7562869787216187e-01" nType="0">
          <Node pos="l" depth="2" NCoef="0" IVar="-1" Cut="0.0000000000000000e+00" cType="1" res="8.0778235569596291e-03" rms="4.4352692365646362e-01" purity="5.9474456310272217e-01" nType="-99"/>
          <Node pos="r" depth="2" NCoef="0" IVar="-1" Cut="0.0000000000000000e+00" cType="1" res="-2.1443957462906837e-02" rms="4.1578504443168640e-01" purity="2.7623325586318970e-01" nType="-99"/>
        </Node>
      </Node>
    </BinaryTree>
    <BinaryTree type="DecisionTree" boostWeight="1.0000000000000000e+00" itree="42">
      <Node pos="s" depth="0" NCoef="0" IVar="4" Cut="3.7702281028032303e-02" cType="1" res="-3.8813243154436350e-03" rms="4.4074615836143494e-01" purity="4.9527809023857117e-01" nType="0">
        <Node pos="l" depth="1" NCoef="0" IVar="3" Cut="2.2836567461490631e-01" cType="1" res="-9.5878370106220245e-02" rms="3.2734593749046326e-01" purity="1.5355214476585388e-01" nType="0">
          <Node pos="l" depth="2" NCoef="0" IVar="-1" Cut="0.0000000000000000e+00" cType="1" res="-3.9526436477899551e-02" rms="3.0947342514991760e-01" purity="1.2721829116344452e-01" nType="-99"/>
          <Node pos="r" depth="2" NCoef="0" IVar="-1" Cut="0.0000000000000000e+00" cType="1" res="-1.1520426720380783e-02" rms="3.4353664517402649e-01" purity="1.9277106225490570e-01" nType="-99"/>
        </Node>
        <Node pos="r" depth="1" NCoef="0" IVar="3" Cut="9.2583134770393372e-02" cType="1" res="6.3132238574326038e-03" rms="4.5040813088417053e-01" purity="5.3314602375030518e-01" nType="0">
          <Node pos="l" depth="2" NCoef="0" IVar="-1" Cut="0.0000000000000000e+00" cType="1" res="1.2111444957554340e-02" rms="4.3701231479644775e-01" purity="6.5482234954833984e-01" nType="-99"/>
          <Node pos="r" depth="2" NCoef="0" IVar="-1" Cut="0.0000000000000000e+00" cType="1" res="-3.1678562518209219e-03" rms="4.5471650362014771e-01" purity="4.7978851199150085e-01" nType="-99"/>
        </Node>
      </Node>
    </BinaryTree>
    <BinaryTree type="DecisionTree" boostWeight="1.0000000000000000e+00" itree="43">
      <Node pos="s" depth="0" NCoef="0" IVar="0" Cut="2.3196425781250000e+03" cType="1" res="-8.6326207965612411e-03" rms="4.4622841477394104e-01" purity="4.9361848831176758e-01" nType="0">
        <Node pos="l" depth="1" NCoef="0" IVar="4" Cut="1.1432964801788330e+00" cType="1" res="-1.7573701217770576e-02" rms="4.4977590441703796e-01" purity="4.5826989412307739e-01" nType="0">
          <Node pos="l" depth="2" NCoef="0" IVar="-1" Cut="0.0000000000000000e+00" cType="1" res="-2.6324221398681402e-03" rms="4.5070341229438782e-01" purity="4.6933701634407043e-01" nType="-99"/>
          <Node pos="r" depth="2" NCoef="0" IVar="-1" Cut="0.0000000000000000e+00" cType="1" res="-3.2054953277111053e-02" rms="4.1371375322341919e-01" purity="2.4964381754398346e-01" nType="-99"/>
        </Node>
        <Node pos="r" depth="1" NCoef="0" IVar="2" Cut="2.7713192626833916e-02" cType="1" res="5.8388940989971161e-02" rms="4.1255593299865723e-01" purity="7.5858885049819946e-01" nType="0">
          <Node pos="l" depth="2" NCoef="0" IVar="-1" Cut="0.0000000000000000e+00" cType="1" res="2.3252902552485466e-02" rms="3.8186338543891907e-01" purity="8.2439255714416504e-01" nType="-99"/>
          <Node pos="r" depth="2" NCoef="0" IVar="-1" Cut="0.0000000000000000e+00" cType="1" res="-2.8558538760989904e-03" rms="4.7709247469902039e-01" purity="5.8463782072067261e-01" nType="-99"/>
        </Node>
      </Node>
    </BinaryTree>
    <BinaryTree type="DecisionTree" boostWeight="1.0000000000000000e+00" itree="44">
      <Node pos="s" depth="0" NCoef="0" IVar="4" Cut="1.2022430896759033e+00" cType="1" res="-1.0448087938129902e-02" rms="4.4182682037353516e-01" purity="4.8859092593193054e-01" nType="0">
        <Node pos="l" depth="1" NCoef="0" IVar="0" Cut="1.2934759521484375e+03" cType="1" res="-5.6512663140892982e-03" rms="4.4334068894386292e-01" purity="4.9904617667198181e-01" nType="0">
          <Node pos="l" depth="2" NCoef="0" IVar="-1" Cut="0.0000000000000000e+00" cType="1" res="-6.4858049154281616e-03" rms="4.4592356681823730e-01" purity="3.8787102699279785e-01" nType="-99"/>
          <Node pos="r" depth="2" NCoef="0" IVar="-1" Cut="0.0000000000000000e+00" cType="1" res="5.4081878624856472e-03" rms="4.3843215703964233e-01" purity="6.4170813560485840e-01" nType="-99"/>
        </Node>
        <Node pos="r" depth="1" NCoef="0" IVar="-1" Cut="0.0000000000000000e+00" cType="1" res="-3.3015914261341095e-02" rms="3.7913003563880920e-01" purity="2.1480518579483032e-01" nType="-99"/>
      </Node>
    </BinaryTree>
    <BinaryTree type="DecisionTree" boostWeight="1.0000000000000000e+00" itree="45">
      <Node pos="s" depth="0" NCoef="0" IVar="2" Cut="7.7643178403377533e-02" cType="1" res="-1.1603657621890306e-03" rms="4.3730467557907104e-01" purity="4.9015733599662781e-01" nType="0">
        <Node pos="l" depth="1" NCoef="0" IVar="3" Cut="2.9623916745185852e-01" cType="1" res="9.2144571244716644e-03" rms="4.4208875298500061e-01" purity="5.3084164857864380e-01" nType="0">
          <Node pos="l" depth="2" NCoef="0" IVar="-1" Cut="0.0000000000000000e+00" cType="1" res="6.2067541293799877e-03" rms="4.4217088818550110e-01" purity="5.9896749258041382e-01" nType="-99"/>
          <Node pos="r" depth="2" NCoef="0" IVar="-1" Cut="0.0000000000000000e+00" cType="1" res="-1.0756462812423706e-02" rms="4.3740770220756531e-01" purity="3.1238520145416260e-01" nType="-99"/>
        </Node>
        <Node pos="r" depth="1" NCoef="0" IVar="4" Cut="9.0648210048675537e-01" cType="1" res="-5.9483181685209274e-02" rms="4.0444821119308472e-01" purity="2.6144772768020630e-01" nType="0">
          <Node pos="l" depth="2" NCoef="0" IVar="-1" Cut="0.0000000000000000e+00" cType="1" res="-4.9896617420017719e-03" rms="4.0881356596946716e-01" purity="2.9332560300827026e-01" nType="-99"/>
          <Node pos="r" depth="2" NCoef="0" IVar="-1" Cut="0.0000000000000000e+00" cType="1" res="-3.8591347634792328e-02" rms="3.7400001287460327e-01" purity="1.8052238225936890e-01" nType="-99"/>
        </Node>
      </Node>
    </BinaryTree>
    <BinaryTree type="DecisionTree" boostWeight="1.0000000000000000e+00" itree="46">
      <Node pos="s" depth="0" NCoef="0" IVar="0" Cut="2.3022968750000000e+03" cType="1" res="-6.5054190345108509e-03" rms="4.3557757139205933e-01" purity="4.9148026108741760e-01" nType="0">
        <Node pos="l" depth="1" NCoef="0" IVar="4" Cut="1.1036283969879150e+00" cType="1" res="-1.6999108716845512e-02" rms="4.4127440452575684e-01" purity="4.5215770602226257e-01" nType="0">
          <Node pos="l" depth="2" NCoef="0" IVar="-1" Cut="0.0000000000000000e+00" cType="1" res="-2.4063515011221170e-03" rms="4.4363737106323242e-01" purity="4.6815624833106995e-01" nType="-99"/>
          <Node pos="r" depth="2" NCoef="0" IVar="-1" Cut="0.0000000000000000e+00" cType="1" res="-2.5409586727619171e-02" rms="3.9983132481575012e-01" purity="2.4818313121795654e-01" nType="-99"/>
        </Node>
        <Node pos="r" depth="1" NCoef="0" IVar="2" Cut="3.5024575889110565e-02" cType="1" res="7.3439970612525940e-02" rms="3.8005462288856506e-01" purity="7.9105591773986816e-01" nType="0">
          <Node pos="l" depth="2" NCoef="0" IVar="-1" Cut="0.0000000000000000e+00" cType="1" res="3.1823974102735519e-02" rms="3.4068891406059265e-01" purity="8.8732147216796875e-01" nType="-99"/>
          <Node pos="r" depth="2" NCoef="0" IVar="-1" Cut="0.0000000000000000e+00" cType="1" res="-6.5598762594163418e-03" rms="4.5858255028724670e-01" purity="5.1846349239349365e-01" nType="-99"/>
        </Node>
      </Node>
    </BinaryTree>
    <BinaryTree type="DecisionTree" boostWeight="1.0000000000000000e+00" itree="47">
      <Node pos="s" depth="0" NCoef="0" IVar="4" Cut="3.7377987056970596e-02" cType="1" res="-8.7591428309679031e-03" rms="4.4188565015792847e-01" purity="4.8831984400749207e-01" nType="0">
        <Node pos="l" depth="1" NCoef="0" IVar="3" Cut="1.2965546548366547e-01" cType="1" res="-7.4974365532398224e-02" rms="3.1422623991966248e-01" purity="1.5627105534076691e-01" nType="0">
          <Node pos="l" depth="2" NCoef="0" IVar="-1" Cut="0.0000000000000000e+00" cType="1" res="-3.5777524113655090e-02" rms="3.2610177993774414e-01" purity="1.5565015375614166e-01" nType="-99"/>
          <Node pos="r" depth="2" NCoef="0" IVar="-1" Cut="0.0000000000000000e+00" cType="1" res="-1.6184868291020393e-02" rms="3.0323079228401184e-01" purity="1.5663026273250580e-01" nType="-99"/>
        </Node>
        <Node pos="r" depth="1" NCoef="0" IVar="3" Cut="3.3949017524719238e-01" cType="1" res="-1.1688055237755179e-03" rms="4.5361599326133728e-01" purity="5.2638304233551025e-01" nType="0">
          <Node pos="l" depth="2" NCoef="0" IVar="-1" Cut="0.0000000000000000e+00" cType="1" res="2.0726427901536226e-03" rms="4.5716822147369385e-01" purity="5.7109612226486206e-01" nType="-99"/>
          <Node pos="r" depth="2" NCoef="0" IVar="-1" Cut="0.0000000000000000e+00" cType="1" res="-1.3159996829926968e-02" rms="4.3009689450263977e-01" purity="2.8662976622581482e-01" nType="-99"/>
        </Node>
      </Node>
    </BinaryTree>
    <BinaryTree type="DecisionTree" boostWeight="1.0000000000000000e+00" itree="48">
      <Node pos="s" depth="0" NCoef="0" IVar="4" Cut="-2.1826319396495819e-02" cType="1" res="-1.3050505658611655e-03" rms="4.4830217957496643e-01" purity="4.9587118625640869e-01" nType="0">
        <Node pos="l" depth="1" NCoef="0" IVar="0" Cut="1.1208420410156250e+03" cType="1" res="-7.7173151075839996e-02" rms="3.1891763210296631e-01" purity="1.2936961650848389e-01" nType="0">
          <Node pos="l" depth="2" NCoef="0" IVar="-1" Cut="0.0000000000000000e+00" cType="1" res="-1.9868446514010429e-02" rms="2.8421059250831604e-01" purity="9.6304319798946381e-02" nType="-99"/>
          <Node pos="r" depth="2" NCoef="0" IVar="-1" Cut="0.0000000000000000e+00" cType="1" res="-3.0576616525650024e-02" rms="3.4883022308349609e-01" purity="1.6407932341098785e-01" nType="-99"/>
        </Node>
        <Node pos="r" depth="1" NCoef="0" IVar="2" Cut="6.2904238700866699e-02" cType="1" res="3.8592934142798185e-03" rms="4.5531684160232544e-01" purity="5.2081888914108276e-01" nType="0">
          <Node pos="l" depth="2" NCoef="0" IVar="-1" Cut="0.0000000000000000e+00" cType="1" res="-1.6321422299370170e-03" rms="4.5107781887054443e-01" purity="5.4785114526748657e-01" nType="-99"/>
          <Node pos="r" depth="2" NCoef="0" IVar="-1" Cut="0.0000000000000000e+00" cType="1" res="1.2242594733834267e-02" rms="4.7054943442344666e-01" purity="4.0239468216896057e-01" nType="-99"/>
        </Node>
      </Node>
    </BinaryTree>
    <BinaryTree type="DecisionTree" boostWeight="1.0000000000000000e+00" itree="49">
      <Node pos="s" depth="0" NCoef="0" IVar="3" Cut="2.9625028371810913e-01" cType="1" res="1.4322907663881779e-03" rms="4.4607400894165039e-01" purity="4.9719712138175964e-01" nType="0">
        <Node pos="l" depth="1" NCoef="0" IVar="0" Cut="2.3080705566406250e+03" cType="1" res="1.2316290289163589e-02" rms="4.4895067811012268e-01" purity="5.5944979190826416e-01" nType="0">
          <Node pos="l" depth="2" NCoef="0" IVar="-1" Cut="0.0000000000000000e+00" cType="1" res="9.3823869246989489e-04" rms="4.5780965685844421e-01" purity="5.2017098665237427e-01" nType="-99"/>
          <Node pos="r" depth="2" NCoef="0" IVar="-1" Cut="0.0000000000000000e+00" cType="1" res="1.8331704661250114e-02" rms="3.8413837552070618e-01" purity="8.0793339014053345e-01" nType="-99"/>
        </Node>
        <Node pos="r" depth="1" NCoef="0" IVar="4" Cut="5.9083384275436401e-01" cType="1" res="-3.3689647912979126e-02" rms="4.3480780720710754e-01" purity="2.9631224274635315e-01" nType="0">
          <Node pos="l" depth="2" NCoef="0" IVar="-1" Cut="0.0000000000000000e+00" cType="1" res="4.8410999588668346e-03" rms="4.3028011918067932e-01" purity="2.9402190446853638e-01" nType="-99"/>
          <Node pos="r" depth="2" NCoef="0" IVar="-1" Cut="0.0000000000000000e+00" cType="1" res="-2.0008448511362076e-02" rms="4.3300718069076538e-01" purity="2.9873061180114746e-01" nType="-99"/>
        </Node>
      </Node>
    </BinaryTree>
    <BinaryTree type="DecisionTree" boostWeight="1.0000000000000000e+00" itree="50">
      <Node pos="s" depth="0" NCoef="0" IVar="0" Cut="1.0465593261718750e+03" cType="1" res="4.6207215636968613e-03" rms="4.4282597303390503e-01" purity="4.9824878573417664e-01" nType="0">
        <Node pos="l" depth="1" NCoef="0" IVar="0" Cut="8.6349737548828125e+02" cType="1" res="-3.8282185792922974e-02" rms="4.3944010138511658e-01" purity="3.3037883043289185e-01" nType="0">
          <Node pos="l" depth="2" NCoef="0" IVar="-1" Cut="0.0000000000000000e+00" cType="1" res="-1.7531659454107285e-02" rms="4.2212161421775818e-01" purity="2.9020813107490540e-01" nType="-99"/>
          <Node pos="r" depth="2" NCoef="0" IVar="-1" Cut="0.0000000000000000e+00" cType="1" res="-3.0297497287392616e-03" rms="4.5075070858001709e-01" purity="3.6163133382797241e-01" nType="-99"/>
        </Node>
        <Node pos="r" depth="1" NCoef="0" IVar="0" Cut="1.1874919433593750e+03" cType="1" res="2.9540583491325378e-02" rms="4.4287678599357605e-01" purity="5.9575486183166504e-01" nType="0">
          <Node pos="l" depth="2" NCoef="0" IVar="-1" Cut="0.0000000000000000e+00" cType="1" res="2.4048950523138046e-02" rms="4.5271351933479309e-01" purity="5.7597404718399048e-01" nType="-99"/>
          <Node pos="r" depth="2" NCoef="0" IVar="-1" Cut="0.0000000000000000e+00" cType="1" res="2.9493276961147785e-03" rms="4.3873962759971619e-01" purity="6.0031670331954956e-01" nType="-99"/>
        </Node>
      </Node>
    </BinaryTree>
    <BinaryTree type="DecisionTree" boostWeight="1.0000000000000000e+00" itree="51">
      <Node pos="s" depth="0" NCoef="0" IVar="4" Cut="1.1611340939998627e-01" cType="1" res="1.1969025945290923e-03" rms="4.4354280829429626e-01" purity="4.9622812867164612e-01" nType="0">
        <Node pos="l" depth="1" NCoef="0" IVar="3" Cut="2.7166491746902466e-01" cType="1" res="-5.6608337908983231e-02" rms="3.5968807339668274e-01" purity="1.9598153233528137e-01" nType="0">
          <Node pos="l" depth="2" NCoef="0" IVar="-1" Cut="0.0000000000000000e+00" cType="1" res="-1.0354939848184586e-02" rms="3.9319121837615967e-01" purity="2.4303051829338074e-01" nType="-99"/>
          <Node pos="r" depth="2" NCoef="0" IVar="-1" Cut="0.0000000000000000e+00" cType="1" res="-3.5558901727199554e-02" rms="2.6871100068092346e-01" purity="9.4836533069610596e-02" nType="-99"/>
        </Node>
        <Node pos="r" depth="1" NCoef="0" IVar="4" Cut="1.6378711163997650e-01" cType="1" res="1.1229138821363449e-02" rms="4.5578420162200928e-01" purity="5.4833662509918213e-01" nType="0">
          <Node pos="l" depth="2" NCoef="0" IVar="-1" Cut="0.0000000000000000e+00" cType="1" res="3.2774742692708969e-02" rms="4.6611827611923218e-01" purity="5.6629419326782227e-01" nType="-99"/>
          <Node pos="r" depth="2" NCoef="0" IVar="-1" Cut="0.0000000000000000e+00" cType="1" res="1.3668438186869025e-03" rms="4.5454970002174377e-01" purity="5.4756045341491699e-01" nType="-99"/>
        </Node>
      </Node>
    </BinaryTree>
    <BinaryTree type="DecisionTree" boostWeight="1.0000000000000000e+00" itree="52">
      <Node pos="s" depth="0" NCoef="0" IVar="2" Cut="3.8846872746944427e-02" cType="1" res="4.2962469160556793e-03" rms="4.4230020046234131e-01" purity="5.0018656253814697e-01" nType="0">
        <Node pos="l" depth="1" NCoef="0" IVar="4" Cut="9.2447674274444580e-01" cType="1" res="2.4422405287623405e-02" rms="4.4610467553138733e-01" purity="6.0030227899551392e-01" nType="0">
          <Node pos="l" depth="2" NCoef="0" IVar="-1" Cut="0.0000000000000000e+00" cType="1" res="2.4093876127153635e-03" rms="4.5192474126815796e-01" purity="5.7822823524475098e-01" nType="-99"/>
          <Node pos="r" depth="2" NCoef="0" IVar="-1" Cut="0.0000000000000000e+00" cType="1" res="2.5245821103453636e-02" rms="4.0299937129020691e-01" purity="7.2293794155120850e-01" nType="-99"/>
        </Node>
        <Node pos="r" depth="1" NCoef="0" IVar="1" Cut="5.4533166885375977e+00" cType="1" res="-3.2193157821893692e-02" rms="4.3293842673301697e-01" purity="3.1867334246635437e-01" nType="0">
          <Node pos="l" depth="2" NCoef="0" IVar="-1" Cut="0.0000000000000000e+00" cType="1" res="-2.6415409520268440e-03" rms="4.2802014946937561e-01" purity="3.1515210866928101e-01" nType="-99"/>
          <Node pos="r" depth="2" NCoef="0" IVar="-1" Cut="0.0000000000000000e+00" cType="1" res="-3.2043911516666412e-02" rms="4.4040924310684204e-01" purity="3.3740863204002380e-01" nType="-99"/>
        </Node>
      </Node>
    </BinaryTree>
    <BinaryTree type="DecisionTree" boostWeight="1.0000000000000000e+00" itree="53">
      <Node pos="s" depth="0" NCoef="0" IVar="3" Cut="3.6412525177001953e-01" cType="1" res="-1.3743178918957710e-02" rms="4.3919384479522705e-01" purity="4.8138606548309326e-01" nType="0">
        <Node pos="l" depth="1" NCoef="0" IVar="4" Cut="1.1813101768493652e+00" cType="1" res="-5.2819219417870045e-03" rms="4.4293782114982605e-01" purity="5.1945692300796509e-01" nType="0">
          <Node pos="l" depth="2" NCoef="0" IVar="-1" Cut="0.0000000000000000e+00" cType="1" res="7.8679244325030595e-05" rms="4.4433963298797607e-01" purity="5.3215664625167847e-01" nType="-99"/>
          <Node pos="r" depth="2" NCoef="0" IVar="-1" Cut="0.0000000000000000e+00" cType="1" res="-3.0286613851785660e-02" rms="3.9316260814666748e-01" purity="2.4803872406482697e-01" nType="-99"/>
        </Node>
        <Node pos="r" depth="1" NCoef="0" IVar="1" Cut="4.6119866371154785e+00" cType="1" res="-6.7283280193805695e-02" rms="4.1069868206977844e-01" purity="2.4048593640327454e-01" nType="0">
          <Node pos="l" depth="2" NCoef="0" IVar="-1" Cut="0.0000000000000000e+00" cType="1" res="-1.1406277306377888e-02" rms="4.0681251883506775e-01" purity="2.3310413956642151e-01" nType="-99"/>
          <Node pos="r" depth="2" NCoef="0" IVar="-1" Cut="0.0000000000000000e+00" cType="1" res="-3.2589465379714966e-02" rms="4.1345947980880737e-01" purity="2.6294937729835510e-01" nType="-99"/>
        </Node>
      </Node>
    </BinaryTree>
    <BinaryTree type="DecisionTree" boostWeight="1.0000000000000000e+00" itree="54">
      <Node pos="s" depth="0" NCoef="0" IVar="0" Cut="9.9738391113281250e+02" cType="1" res="7.7984416857361794e-03" rms="4.4178763031959534e-01" purity="5.1017737388610840e-01" nType="0">
        <Node pos="l" depth="1" NCoef="0" IVar="3" Cut="2.0383679866790771e-01" cType="1" res="-2.4001825600862503e-02" rms="4.4040769338607788e-01" purity="3.3759802579879761e-01" nType="0">
          <Node pos="l" depth="2" NCoef="0" IVar="-1" Cut="0.0000000000000000e+00" cType="1" res="-1.2707697227597237e-02" rms="4.5099791884422302e-01" purity="3.8188582658767700e-01" nType="-99"/>
          <Node pos="r" depth="2" NCoef="0" IVar="-1" Cut="0.0000000000000000e+00" cType="1" res="3.7569699343293905e-03" rms="4.2442768812179565e-01" purity="2.8510740399360657e-01" nType="-99"/>
        </Node>
        <Node pos="r" depth="1" NCoef="0" IVar="3" Cut="3.6417689919471741e-01" cType="1" res="2.2289739921689034e-02" rms="4.4165626168251038e-01" purity="5.8882141113281250e-01" nType="0">
          <Node pos="l" depth="2" NCoef="0" IVar="-1" Cut="0.0000000000000000e+00" cType="1" res="7.8486073762178421e-03" rms="4.3945595622062683e-01" purity="6.2362295389175415e-01" nType="-99"/>
          <Node pos="r" depth="2" NCoef="0" IVar="-1" Cut="0.0000000000000000e+00" cType="1" res="-1.3285513035953045e-02" rms="4.5114123821258545e-01" purity="3.0984574556350708e-01" nType="-99"/>
        </Node>
      </Node>
    </BinaryTree>
    <BinaryTree type="DecisionTree" boostWeight="1.0000000000000000e+00" itree="55">
      <Node pos="s" depth="0" NCoef="0" IVar="1" Cut="5.2582907676696777e+00" cType="1" res="-1.9910070113837719e-03" rms="4.4433498382568359e-01" purity="5.0040179491043091e-01" nType="0">
        <Node pos="l" depth="1" NCoef="0" IVar="4" Cut="-2.1208669990301132e-02" cType="1" res="-1.5636382624506950e-02" rms="4.5227169990539551e-01" purity="4.3825998902320862e-01" nType="0">
          <Node pos="l" depth="2" NCoef="0" IVar="-1" Cut="0.0000000000000000e+00" cType="1" res="2.0657943561673164e-02" rms="3.9650440216064453e-01" purity="2.3669698834419250e-01" nType="-99"/>
          <Node pos="r" depth="2" NCoef="0" IVar="-1" Cut="0.0000000000000000e+00" cType="1" res="-4.9040555022656918e-03" rms="4.5570787787437439e-01" purity="4.5325297117233276e-01" nType="-99"/>
        </Node>
        <Node pos="r" depth="1" NCoef="0" IVar="1" Cut="5.4654655456542969e+00" cType="1" res="4.3302100151777267e-02" rms="4.1369497776031494e-01" purity="7.0666944980621338e-01" nType="0">
          <Node pos="l" depth="2" NCoef="0" IVar="-1" Cut="0.0000000000000000e+00" cType="1" res="3.2089248299598694e-02" rms="3.8573282957077026e-01" purity="7.4991112947463989e-01" nType="-99"/>
          <Node pos="r" depth="2" NCoef="0" IVar="-1" Cut="0.0000000000000000e+00" cType="1" res="5.3830579854547977e-03" rms="4.1802266240119934e-01" purity="6.9501489400863647e-01" nType="-99"/>
        </Node>
      </Node>
    </BinaryTree>
    <BinaryTree type="DecisionTree" boostWeight="1.0000000000000000e+00" itree="56">
      <Node pos="s" depth="0" NCoef="0" IVar="1" Cut="2.4818611145019531e+00" cType="1" res="-2.1555647253990173e-03" rms="4.4626227021217346e-01" purity="4.9493527412414551e-01" nType="0">
        <Node pos="l" depth="1" NCoef="0" IVar="-1" Cut="0.0000000000000000e+00" cType="1" res="-2.6684356853365898e-02" rms="3.8222110271453857e-01" purity="2.3526413738727570e-01" nType="-99"/>
        <Node pos="r" depth="1" NCoef="0" IVar="2" Cut="8.5036426782608032e-02" cType="1" res="1.0597378714010119e-03" rms="4.4777172803878784e-01" purity="5.0318354368209839e-01" nType="0">
          <Node pos="l" depth="2" NCoef="0" IVar="-1" Cut="0.0000000000000000e+00" cType="1" res="-1.2394400546327233e-03" rms="4.4922360777854919e-01" purity="5.2091819047927856e-01" nType="-99"/>
          <Node pos="r" depth="2" NCoef="0" IVar="-1" Cut="0.0000000000000000e+00" cType="1" res="1.1394317261874676e-02" rms="4.3467170000076294e-01" purity="3.7600761651992798e-01" nType="-99"/>
        </Node>
      </Node>
    </BinaryTree>
    <BinaryTree type="DecisionTree" boostWeight="1.0000000000000000e+00" itree="57">
      <Node pos="s" depth="0" NCoef="0" IVar="2" Cut="1.2024032324552536e-01" cType="1" res="1.7140457406640053e-02" rms="4.4033914804458618e-01" purity="5.1457172632217407e-01" nType="0">
        <Node pos="l" depth="1" NCoef="0" IVar="4" Cut="8.6656904220581055e-01" cType="1" res="2.2654926404356956e-02" rms="4.4107896089553833e-01" purity="5.2727633714675903e-01" nType="0">
          <Node pos="l" depth="2" NCoef="0" IVar="-1" Cut="0.0000000000000000e+00" cType="1" res="2.4117003194987774e-03" rms="4.4292297959327698e-01" purity="5.0541931390762329e-01" nType="-99"/>
          <Node pos="r" depth="2" NCoef="0" IVar="-1" Cut="0.0000000000000000e+00" cType="1" res="1.5214047394692898e-02" rms="4.3251094222068787e-01" purity="5.9767973423004150e-01" nType="-99"/>
        </Node>
        <Node pos="r" depth="1" NCoef="0" IVar="-1" Cut="0.0000000000000000e+00" cType="1" res="-2.8457080945372581e-02" rms="4.0157890319824219e-01" purity="2.1721524000167847e-01" nType="-99"/>
      </Node>
    </BinaryTree>
    <BinaryTree type="DecisionTree" boostWeight="1.0000000000000000e+00" itree="58">
      <Node pos="s" depth="0" NCoef="0" IVar="4" Cut="8.4679645299911499e-01" cType="1" res="8.7143108248710632e-03" rms="4.3905392289161682e-01" purity="5.0824433565139771e-01" nType="0">
        <Node pos="l" depth="1" NCoef="0" IVar="1" Cut="4.1740169525146484e+00" cType="1" res="-7.0450431667268276e-03" rms="4.3982914090156555e-01" purity="4.7371080517768860e-01" nType="0">
          <Node pos="l" depth="2" NCoef="0" IVar="-1" Cut="0.0000000000000000e+00" cType="1" res="-8.0476654693484306e-03" rms="4.4652634859085083e-01" purity="3.4359368681907654e-01" nType="-99"/>
          <Node pos="r" depth="2" NCoef="0" IVar="-1" Cut="0.0000000000000000e+00" cType="1" res="2.9859703499823809e-03" rms="4.3387991189956665e-01" purity="5.6882870197296143e-01" nType="-99"/>
        </Node>
        <Node pos="r" depth="1" NCoef="0" IVar="2" Cut="7.0178039371967316e-02" cType="1" res="5.0829742103815079e-02" rms="4.3417757749557495e-01" purity="6.0053193569183350e-01" nType="0">
          <Node pos="l" depth="2" NCoef="0" IVar="-1" Cut="0.0000000000000000e+00" cType="1" res="1.8687227740883827e-02" rms="4.3215405941009521e-01" purity="6.7269158363342285e-01" nType="-99"/>
          <Node pos="r" depth="2" NCoef="0" IVar="-1" Cut="0.0000000000000000e+00" cType="1" res="-1.6829207539558411e-02" rms="4.2251825332641602e-01" purity="2.7468398213386536e-01" nType="-99"/>
        </Node>
      </Node>
    </BinaryTree>
    <BinaryTree type="DecisionTree" boostWeight="1.0000000000000000e+00" itree="59">
      <Node pos="s" depth="0" NCoef="0" IVar="2" Cut="1.4800997450947762e-02" cType="1" res="8.1305326893925667e-03" rms="4.3342137336730957e-01" purity="5.0602418184280396e-01" nType="0">
        <Node pos="l" depth="1" NCoef="0" IVar="4" Cut="7.8726232051849365e-01" cType="1" res="5.4603379219770432e-02" rms="4.2683663964271545e-01" purity="6.7585527896881104e-01" nType="0">
          <Node pos="l" depth="2" NCoef="0" IVar="-1" Cut="0.0000000000000000e+00" cType="1" res="5.7239001616835594e-03" rms="4.4342255592346191e-01" purity="6.1774128675460815e-01" nType="-99"/>
          <Node pos="r" depth="2" NCoef="0" IVar="-1" Cut="0.0000000000000000e+00" cType="1" res="3.1583584845066071e-02" rms="3.8096448779106140e-01" purity="7.9965364933013916e-01" nType="-99"/>
        </Node>
        <Node pos="r" depth="1" NCoef="0" IVar="4" Cut="5.3096610307693481e-01" cType="1" res="-1.4159436337649822e-02" rms="4.3478530645370483e-01" purity="4.2456734180450439e-01" nType="0">
          <Node pos="l" depth="2" NCoef="0" IVar="-1" Cut="0.0000000000000000e+00" cType="1" res="-1.1743735522031784e-02" rms="4.1609221696853638e-01" purity="2.9783838987350464e-01" nType="-99"/>
          <Node pos="r" depth="2" NCoef="0" IVar="-1" Cut="0.0000000000000000e+00" cType="1" res="2.8885907959192991e-03" rms="4.4880729913711548e-01" purity="5.3534430265426636e-01" nType="-99"/>
        </Node>
      </Node>
    </BinaryTree>
    <BinaryTree type="DecisionTree" boostWeight="1.0000000000000000e+00" itree="60">
      <Node pos="s" depth="0" NCoef="0" IVar="3" Cut="2.9624518752098083e-01" cType="1" res="3.8656201213598251e-03" rms="4.3784475326538086e-01" purity="5.0163429975509644e-01" nType="0">
        <Node pos="l" depth="1" NCoef="0" IVar="1" Cut="3.2223570346832275e+00" cType="1" res="1.4473291113972664e-02" rms="4.4119340181350708e-01" purity="5.6169903278350830e-01" nType="0">
          <Node pos="l" depth="2" NCoef="0" IVar="-1" Cut="0.0000000000000000e+00" cType="1" res="-1.2045840732753277e-02" rms="4.4922596216201782e-01" purity="3.3185341954231262e-01" nType="-99"/>
          <Node pos="r" depth="2" NCoef="0" IVar="-1" Cut="0.0000000000000000e+00" cType="1" res="5.5705388076603413e-03" rms="4.3948620557785034e-01" purity="5.9044164419174194e-01" nType="-99"/>
        </Node>
        <Node pos="r" depth="1" NCoef="0" IVar="1" Cut="5.0601010322570801e+00" cType="1" res="-3.2964080572128296e-02" rms="4.2395848035812378e-01" purity="2.9309001564979553e-01" nType="0">
          <Node pos="l" depth="2" NCoef="0" IVar="-1" Cut="0.0000000000000000e+00" cType="1" res="-1.6046145465224981e-03" rms="4.2433232069015503e-01" purity="2.9024404287338257e-01" nType="-99"/>
          <Node pos="r" depth="2" NCoef="0" IVar="-1" Cut="0.0000000000000000e+00" cType="1" res="-3.1557589769363403e-02" rms="4.0526404976844788e-01" purity="3.0440473556518555e-01" nType="-99"/>
        </Node>
      </Node>
    </BinaryTree>
    <BinaryTree type="DecisionTree" boostWeight="1.0000000000000000e+00" itree="61">
      <Node pos="s" depth="0" NCoef="0" IVar="1" Cut="6.2357363700866699e+00" cType="1" res="1.9259538501501083e-02" rms="4.3955960869789124e-01" purity="5.1434129476547241e-01" nType="0">
        <Node pos="l" depth="1" NCoef="0" IVar="4" Cut="5.7136308401823044e-02" cType="1" res="1.2740200385451317e-02" rms="4.4603690505027771e-01" purity="4.9149253964424133e-01" nType="0">
          <Node pos="l" depth="2" NCoef="0" IVar="-1" Cut="0.0000000000000000e+00" cType="1" res="-1.6033807769417763e-02" rms="3.4062349796295166e-01" purity="1.7142228782176971e-01" nType="-99"/>
          <Node pos="r" depth="2" NCoef="0" IVar="-1" Cut="0.0000000000000000e+00" cType="1" res="5.0021684728562832e-03" rms="4.5767164230346680e-01" purity="5.3430455923080444e-01" nType="-99"/>
        </Node>
        <Node pos="r" depth="1" NCoef="0" IVar="-1" Cut="0.0000000000000000e+00" cType="1" res="3.6690045148134232e-02" rms="2.9908195137977600e-01" purity="8.8126921653747559e-01" nType="-99"/>
      </Node>
    </BinaryTree>
    <BinaryTree type="DecisionTree" boostWeight="1.0000000000000000e+00" itree="62">
      <Node pos="s" depth="0" NCoef="0" IVar="2" Cut="1.8501246348023415e-02" cType="1" res="3.3969001378864050e-03" rms="4.3805003166198730e-01" purity="5.0080400705337524e-01" nType="0">
        <Node pos="l" depth="1" NCoef="0" IVar="2" Cut="1.6668085008859634e-02" cType="1" res="3.0146336182951927e-02" rms="4.3527752161026001e-01" purity="6.5535080432891846e-01" nType="0">
          <Node pos="l" depth="2" NCoef="0" IVar="-1" Cut="0.0000000000000000e+00" cType="1" res="5.4255831055343151e-03" rms="4.4094383716583252e-01" purity="6.5172207355499268e-01" nType="-99"/>
          <Node pos="r" depth="2" NCoef="0" IVar="-1" Cut="0.0000000000000000e+00" cType="1" res="3.0050069093704224e-02" rms="3.6205017566680908e-01" purity="6.9183796644210815e-01" nType="-99"/>
        </Node>
        <Node pos="r" depth="1" NCoef="0" IVar="0" Cut="1.9585025634765625e+03" cType="1" res="-1.3051046989858150e-02" rms="4.3893754482269287e-01" purity="4.0577483177185059e-01" nType="0">
          <Node pos="l" depth="2" NCoef="0" IVar="-1" Cut="0.0000000000000000e+00" cType="1" res="-8.5848657181486487e-04" rms="4.3699112534523010e-01" purity="3.8193154335021973e-01" nType="-99"/>
          <Node pos="r" depth="2" NCoef="0" IVar="-1" Cut="0.0000000000000000e+00" cType="1" res="-1.6286356374621391e-02" rms="4.4601902365684509e-01" purity="5.4321819543838501e-01" nType="-99"/>
        </Node>
      </Node>
    </BinaryTree>
    <BinaryTree type="DecisionTree" boostWeight="1.0000000000000000e+00" itree="63">
      <Node pos="s" depth="0" NCoef="0" IVar="0" Cut="1.1232475585937500e+03" cType="1" res="-7.3178214952349663e-03" rms="4.4383141398429871e-01" purity="4.9292123317718506e-01" nType="0">
        <Node pos="l" depth="1" NCoef="0" IVar="0" Cut="1.0264445800781250e+03" cType="1" res="1.7124159261584282e-02" rms="4.4258311390876770e-01" purity="4.0398427844047546e-01" nType="0">
          <Node pos="l" depth="2" NCoef="0" IVar="-1" Cut="0.0000000000000000e+00" cType="1" res="-6.4647506223991513e-04" rms="4.4148194789886475e-01" purity="3.6881944537162781e-01" nType="-99"/>
          <Node pos="r" depth="2" NCoef="0" IVar="-1" Cut="0.0000000000000000e+00" cType="1" res="2.4573381990194321e-02" rms="4.3699774146080017e-01" purity="5.5762088298797607e-01" nType="-99"/>
        </Node>
        <Node pos="r" depth="1" NCoef="0" IVar="3" Cut="9.2579238116741180e-02" cType="1" res="-2.5534501299262047e-02" rms="4.4388505816459656e-01" purity="5.5920618772506714e-01" nType="0">
          <Node pos="l" depth="2" NCoef="0" IVar="-1" Cut="0.0000000000000000e+00" cType="1" res="2.3433859460055828e-03" rms="4.4468608498573303e-01" purity="6.5513211488723755e-01" nType="-99"/>
          <Node pos="r" depth="2" NCoef="0" IVar="-1" Cut="0.0000000000000000e+00" cType="1" res="-1.0054253041744232e-02" rms="4.4260787963867188e-01" purity="5.1511818170547485e-01" nType="-99"/>
        </Node>
      </Node>
    </BinaryTree>
    <BinaryTree type="DecisionTree" boostWeight="1.0000000000000000e+00" itree="64">
