<?xml version="1.0"?>
<MethodSetup Method="BDT::BDT-HM-NOmT-10Folds_fold4">
  <GeneralInfo>
    <Info name="TMVA Release" value="4.2.1 [262657]"/>
    <Info name="ROOT Release" value="6.28/04 [400388]"/>
    <Info name="Creator" value="diegomac"/>
    <Info name="Date" value="Wed Sep 13 14:43:58 2023"/>
    <Info name="Host" value="Darwin Diegos-MacBook-Pro-2.local 22.4.0 Darwin Kernel Version 22.4.0: Mon Mar 6 20:59:28 PST 2023; root:xnu-8796.101.5~3/RELEASE_ARM64_T6000 arm64"/>
    <Info name="Dir" value="/Users/diegomac/Documents/HEP/MVA-Analysis"/>
    <Info name="Training events" value="35140"/>
    <Info name="TrainingTime" value="7.68938065e-01"/>
    <Info name="AnalysisType" value="Classification"/>
  </GeneralInfo>
  <Options>
    <Option name="V" modified="Yes">False</Option>
    <Option name="VerbosityLevel" modified="No">Default</Option>
    <Option name="VarTransform" modified="No">None</Option>
    <Option name="H" modified="Yes">False</Option>
    <Option name="CreateMVAPdfs" modified="No">False</Option>
    <Option name="IgnoreNegWeightsInTraining" modified="No">False</Option>
    <Option name="NTrees" modified="Yes">125</Option>
    <Option name="MaxDepth" modified="Yes">2</Option>
    <Option name="MinNodeSize" modified="Yes">3%</Option>
    <Option name="nCuts" modified="Yes">80</Option>
    <Option name="BoostType" modified="Yes">Grad</Option>
    <Option name="AdaBoostR2Loss" modified="No">quadratic</Option>
    <Option name="UseBaggedBoost" modified="Yes">True</Option>
    <Option name="Shrinkage" modified="Yes">1.000000e-01</Option>
    <Option name="AdaBoostBeta" modified="No">5.000000e-01</Option>
    <Option name="UseRandomisedTrees" modified="No">False</Option>
    <Option name="UseNvars" modified="Yes">2</Option>
    <Option name="UsePoissonNvars" modified="No">True</Option>
    <Option name="BaggedSampleFraction" modified="Yes">5.000000e-01</Option>
    <Option name="UseYesNoLeaf" modified="No">True</Option>
    <Option name="NegWeightTreatment" modified="No">pray</Option>
    <Option name="Css" modified="No">1.000000e+00</Option>
    <Option name="Cts_sb" modified="No">1.000000e+00</Option>
    <Option name="Ctb_ss" modified="No">1.000000e+00</Option>
    <Option name="Cbb" modified="No">1.000000e+00</Option>
    <Option name="NodePurityLimit" modified="No">5.000000e-01</Option>
    <Option name="SeparationType" modified="Yes">sdivsqrtsplusb</Option>
    <Option name="RegressionLossFunctionBDTG" modified="No">huber</Option>
    <Option name="HuberQuantile" modified="No">7.000000e-01</Option>
    <Option name="DoBoostMonitor" modified="No">False</Option>
    <Option name="UseFisherCuts" modified="No">False</Option>
    <Option name="MinLinCorrForFisher" modified="No">8.000000e-01</Option>
    <Option name="UseExclusiveVars" modified="No">False</Option>
    <Option name="DoPreselection" modified="No">False</Option>
    <Option name="SigToBkgFraction" modified="No">1.000000e+00</Option>
    <Option name="PruneMethod" modified="No">nopruning</Option>
    <Option name="PruneStrength" modified="No">0.000000e+00</Option>
    <Option name="PruningValFraction" modified="No">5.000000e-01</Option>
    <Option name="SkipNormalization" modified="No">False</Option>
    <Option name="nEventsMin" modified="No">0</Option>
    <Option name="UseBaggedGrad" modified="No">False</Option>
    <Option name="GradBaggingFraction" modified="No">5.000000e-01</Option>
    <Option name="UseNTrainEvents" modified="No">0</Option>
    <Option name="NNodesMax" modified="No">0</Option>
  </Options>
  <Variables NVar="5">
    <Variable VarIndex="0" Expression="mjj" Label="mjj" Title="m_{jj}" Unit="GeV" Internal="mjj" Type="D" Min="7.50003479e+02" Max="8.69623633e+03"/>
    <Variable VarIndex="1" Expression="deltaRapidity" Label="deltaRapidity" Title="#Delta y_{jj}" Unit="" Internal="deltaRapidity" Type="D" Min="2.00020766e+00" Max="8.59782600e+00"/>
    <Variable VarIndex="2" Expression="ptBalance" Label="ptBalance" Title="pT_{balance}" Unit="" Internal="ptBalance" Type="D" Min="1.25554126e-18" Max="1.49860099e-01"/>
    <Variable VarIndex="3" Expression="zCentrality" Label="zCentrality" Title="#xi(Z)" Unit="" Internal="zCentrality" Type="D" Min="9.20502589e-06" Max="4.99961168e-01"/>
    <Variable VarIndex="4" Expression="omega" Label="omega" Title="#Omega" Unit="" Internal="omega" Type="D" Min="-1.99983269e-01" Max="1.39996660e+00"/>
  </Variables>
  <Spectators NSpec="1">
    <Spectator SpecIndex="0" Expression="eventNumber" Label="eventNumber" Title="I" Unit="" Internal="eventNumber" Type="F" Min="8.40000000e+01" Max="1.15952781e+09"/>
  </Spectators>
  <Classes NClass="2">
    <Class Name="Signal" Index="0"/>
    <Class Name="Background" Index="1"/>
  </Classes>
  <Transformations NTransformations="0"/>
  <MVAPdfs/>
  <Weights NTrees="125" AnalysisType="1">
    <BinaryTree type="DecisionTree" boostWeight="1.0000000000000000e+00" itree="0">
      <Node pos="s" depth="0" NCoef="0" IVar="2" Cut="2.9597617685794830e-02" cType="1" res="7.1716760285198689e-03" rms="4.9994856119155884e-01" purity="5.0717169046401978e-01" nType="0">
        <Node pos="l" depth="1" NCoef="0" IVar="3" Cut="3.3946108818054199e-01" cType="1" res="1.1948294192552567e-01" rms="4.8551398515701294e-01" purity="6.1948293447494507e-01" nType="0">
          <Node pos="l" depth="2" NCoef="0" IVar="-1" Cut="0.0000000000000000e+00" cType="1" res="3.3471535891294479e-02" rms="4.7115963697433472e-01" purity="6.6735768318176270e-01" nType="-99"/>
          <Node pos="r" depth="2" NCoef="0" IVar="-1" Cut="0.0000000000000000e+00" cType="1" res="-3.6808472126722336e-02" rms="4.6489611268043518e-01" purity="3.1595766544342041e-01" nType="-99"/>
        </Node>
        <Node pos="r" depth="1" NCoef="0" IVar="4" Cut="3.9291477203369141e-01" cType="1" res="-1.3793416321277618e-01" rms="4.8059770464897156e-01" purity="3.6206585168838501e-01" nType="0">
          <Node pos="l" depth="2" NCoef="0" IVar="-1" Cut="0.0000000000000000e+00" cType="1" res="-5.7918928563594818e-02" rms="4.0759655833244324e-01" purity="2.1040536463260651e-01" nType="-99"/>
          <Node pos="r" depth="2" NCoef="0" IVar="-1" Cut="0.0000000000000000e+00" cType="1" res="-9.1734286397695541e-03" rms="4.9789175391197205e-01" purity="4.5413288474082947e-01" nType="-99"/>
        </Node>
      </Node>
    </BinaryTree>
    <BinaryTree type="DecisionTree" boostWeight="1.0000000000000000e+00" itree="1">
      <Node pos="s" depth="0" NCoef="0" IVar="4" Cut="2.5433471798896790e-01" cType="1" res="1.1930189095437527e-02" rms="4.9409586191177368e-01" purity="5.1226973533630371e-01" nType="0">
        <Node pos="l" depth="1" NCoef="0" IVar="2" Cut="2.2198213264346123e-02" cType="1" res="-2.0166434347629547e-01" rms="4.4568207859992981e-01" purity="2.8778156638145447e-01" nType="0">
          <Node pos="l" depth="2" NCoef="0" IVar="-1" Cut="0.0000000000000000e+00" cType="1" res="-5.6909294798970222e-03" rms="4.9777612090110779e-01" purity="4.8184531927108765e-01" nType="-99"/>
          <Node pos="r" depth="2" NCoef="0" IVar="-1" Cut="0.0000000000000000e+00" cType="1" res="-6.3563272356987000e-02" rms="3.6434304714202881e-01" purity="1.5877538919448853e-01" nType="-99"/>
        </Node>
        <Node pos="r" depth="1" NCoef="0" IVar="1" Cut="4.0365495681762695e+00" cType="1" res="7.8450657427310944e-02" rms="4.8955795168876648e-01" purity="5.8218282461166382e-01" nType="0">
          <Node pos="l" depth="2" NCoef="0" IVar="-1" Cut="0.0000000000000000e+00" cType="1" res="-1.3802416622638702e-02" rms="4.9239298701286316e-01" purity="4.3175578117370605e-01" nType="-99"/>
          <Node pos="r" depth="2" NCoef="0" IVar="-1" Cut="0.0000000000000000e+00" cType="1" res="3.1237078830599785e-02" rms="4.6983069181442261e-01" purity="6.6137444972991943e-01" nType="-99"/>
        </Node>
      </Node>
    </BinaryTree>
    <BinaryTree type="DecisionTree" boostWeight="1.0000000000000000e+00" itree="2">
      <Node pos="s" depth="0" NCoef="0" IVar="2" Cut="2.4032412096858025e-02" cType="1" res="-1.3233430683612823e-02" rms="4.8994645476341248e-01" purity="4.8739337921142578e-01" nType="0">
        <Node pos="l" depth="1" NCoef="0" IVar="3" Cut="2.7774894237518311e-01" cType="1" res="1.0788577795028687e-01" rms="4.7946488857269287e-01" purity="6.2475430965423584e-01" nType="0">
          <Node pos="l" depth="2" NCoef="0" IVar="-1" Cut="0.0000000000000000e+00" cType="1" res="3.3334504812955856e-02" rms="4.6074894070625305e-01" purity="6.8919509649276733e-01" nType="-99"/>
          <Node pos="r" depth="2" NCoef="0" IVar="-1" Cut="0.0000000000000000e+00" cType="1" res="-1.7096489667892456e-02" rms="4.8942971229553223e-01" purity="4.1138711571693420e-01" nType="-99"/>
        </Node>
        <Node pos="r" depth="1" NCoef="0" IVar="4" Cut="3.7246093153953552e-01" cType="1" res="-1.2861587107181549e-01" rms="4.7163444757461548e-01" purity="3.5653850436210632e-01" nType="0">
          <Node pos="l" depth="2" NCoef="0" IVar="-1" Cut="0.0000000000000000e+00" cType="1" res="-4.9369242042303085e-02" rms="4.0459331870079041e-01" purity="2.0835943520069122e-01" nType="-99"/>
          <Node pos="r" depth="2" NCoef="0" IVar="-1" Cut="0.0000000000000000e+00" cType="1" res="-1.2043905444443226e-02" rms="4.9462896585464478e-01" purity="4.4434702396392822e-01" nType="-99"/>
        </Node>
      </Node>
    </BinaryTree>
    <BinaryTree type="DecisionTree" boostWeight="1.0000000000000000e+00" itree="3">
      <Node pos="s" depth="0" NCoef="0" IVar="0" Cut="1.6570135498046875e+03" cType="1" res="6.7616123706102371e-03" rms="4.8602205514907837e-01" purity="5.0667625665664673e-01" nType="0">
        <Node pos="l" depth="1" NCoef="0" IVar="4" Cut="1.9591306149959564e-01" cType="1" res="-6.0572706162929535e-02" rms="4.8331850767135620e-01" purity="4.3333193659782410e-01" nType="0">
          <Node pos="l" depth="2" NCoef="0" IVar="-1" Cut="0.0000000000000000e+00" cType="1" res="-5.4137598723173141e-02" rms="3.8517931103706360e-01" purity="1.8441149592399597e-01" nType="-99"/>
          <Node pos="r" depth="2" NCoef="0" IVar="-1" Cut="0.0000000000000000e+00" cType="1" res="-1.0731336660683155e-03" rms="4.9214002490043640e-01" purity="5.0042247772216797e-01" nType="-99"/>
        </Node>
        <Node pos="r" depth="1" NCoef="0" IVar="2" Cut="4.8036202788352966e-02" cType="1" res="1.8355415761470795e-01" rms="4.4714477658271790e-01" purity="6.9924879074096680e-01" nType="0">
          <Node pos="l" depth="2" NCoef="0" IVar="-1" Cut="0.0000000000000000e+00" cType="1" res="4.7412339597940445e-02" rms="4.1938772797584534e-01" purity="7.6079010963439941e-01" nType="-99"/>
          <Node pos="r" depth="2" NCoef="0" IVar="-1" Cut="0.0000000000000000e+00" cType="1" res="-3.8662485312670469e-03" rms="4.9204921722412109e-01" purity="4.5921114087104797e-01" nType="-99"/>
        </Node>
      </Node>
    </BinaryTree>
    <BinaryTree type="DecisionTree" boostWeight="1.0000000000000000e+00" itree="4">
      <Node pos="s" depth="0" NCoef="0" IVar="0" Cut="1.1426279296875000e+03" cType="1" res="1.8376536667346954e-02" rms="4.8150500655174255e-01" purity="5.2035766839981079e-01" nType="0">
        <Node pos="l" depth="1" NCoef="0" IVar="3" Cut="1.2960980832576752e-01" cType="1" res="-1.0217360407114029e-01" rms="4.7471311688423157e-01" purity="3.8156610727310181e-01" nType="0">
          <Node pos="l" depth="2" NCoef="0" IVar="-1" Cut="0.0000000000000000e+00" cType="1" res="8.8195310672745109e-04" rms="4.8856490850448608e-01" purity="4.9613580107688904e-01" nType="-99"/>
          <Node pos="r" depth="2" NCoef="0" IVar="-1" Cut="0.0000000000000000e+00" cType="1" res="-3.2649461179971695e-02" rms="4.5611792802810669e-01" purity="3.1764814257621765e-01" nType="-99"/>
        </Node>
        <Node pos="r" depth="1" NCoef="0" IVar="2" Cut="5.1795832812786102e-02" cType="1" res="1.1402700096368790e-01" rms="4.6510261297225952e-01" purity="6.3048177957534790e-01" nType="0">
          <Node pos="l" depth="2" NCoef="0" IVar="-1" Cut="0.0000000000000000e+00" cType="1" res="3.3658325672149658e-02" rms="4.4768357276916504e-01" purity="6.9676572084426880e-01" nType="-99"/>
          <Node pos="r" depth="2" NCoef="0" IVar="-1" Cut="0.0000000000000000e+00" cType="1" res="-1.5493135899305344e-02" rms="4.7725728154182434e-01" purity="3.8976049423217773e-01" nType="-99"/>
        </Node>
      </Node>
    </BinaryTree>
    <BinaryTree type="DecisionTree" boostWeight="1.0000000000000000e+00" itree="5">
      <Node pos="s" depth="0" NCoef="0" IVar="0" Cut="1.4912075195312500e+03" cType="1" res="-1.1123521253466606e-02" rms="4.7846829891204834e-01" purity="4.8902562260627747e-01" nType="0">
        <Node pos="l" depth="1" NCoef="0" IVar="3" Cut="2.9624968767166138e-01" cType="1" res="-7.6439030468463898e-02" rms="4.7496515512466431e-01" purity="4.0520077943801880e-01" nType="0">
          <Node pos="l" depth="2" NCoef="0" IVar="-1" Cut="0.0000000000000000e+00" cType="1" res="-4.6949093230068684e-03" rms="4.8386064171791077e-01" purity="4.6832048892974854e-01" nType="-99"/>
          <Node pos="r" depth="2" NCoef="0" IVar="-1" Cut="0.0000000000000000e+00" cType="1" res="-4.3392632156610489e-02" rms="4.2127412557601929e-01" purity="2.4253033101558685e-01" nType="-99"/>
        </Node>
        <Node pos="r" depth="1" NCoef="0" IVar="4" Cut="9.5753826200962067e-02" cType="1" res="1.1294568330049515e-01" rms="4.6019515395164490e-01" purity="6.4825403690338135e-01" nType="0">
          <Node pos="l" depth="2" NCoef="0" IVar="-1" Cut="0.0000000000000000e+00" cType="1" res="-3.2415695488452911e-02" rms="4.3541797995567322e-01" purity="3.1591787934303284e-01" nType="-99"/>
          <Node pos="r" depth="2" NCoef="0" IVar="-1" Cut="0.0000000000000000e+00" cType="1" res="2.9401732608675957e-02" rms="4.5251393318176270e-01" purity="6.8711262941360474e-01" nType="-99"/>
        </Node>
      </Node>
    </BinaryTree>
    <BinaryTree type="DecisionTree" boostWeight="1.0000000000000000e+00" itree="6">
      <Node pos="s" depth="0" NCoef="0" IVar="2" Cut="3.8852617144584656e-02" cType="1" res="-3.6590924719348550e-04" rms="4.7827214002609253e-01" purity="5.0045597553253174e-01" nType="0">
        <Node pos="l" depth="1" NCoef="0" IVar="1" Cut="3.7924823760986328e+00" cType="1" res="5.9121619910001755e-02" rms="4.7601956129074097e-01" purity="5.8535301685333252e-01" nType="0">
          <Node pos="l" depth="2" NCoef="0" IVar="-1" Cut="0.0000000000000000e+00" cType="1" res="-1.6877884045243263e-02" rms="4.8085212707519531e-01" purity="4.0145179629325867e-01" nType="-99"/>
          <Node pos="r" depth="2" NCoef="0" IVar="-1" Cut="0.0000000000000000e+00" cType="1" res="2.2370913997292519e-02" rms="4.6384701132774353e-01" purity="6.5068703889846802e-01" nType="-99"/>
        </Node>
        <Node pos="r" depth="1" NCoef="0" IVar="4" Cut="3.7410054355859756e-02" cType="1" res="-1.1295715719461441e-01" rms="4.6199375391006470e-01" purity="3.3977240324020386e-01" nType="0">
          <Node pos="l" depth="2" NCoef="0" IVar="-1" Cut="0.0000000000000000e+00" cType="1" res="-6.6736228764057159e-02" rms="2.4920372664928436e-01" purity="6.5474778413772583e-02" nType="-99"/>
          <Node pos="r" depth="2" NCoef="0" IVar="-1" Cut="0.0000000000000000e+00" cType="1" res="-1.5128411352634430e-02" rms="4.8284274339675903e-01" purity="3.9205083250999451e-01" nType="-99"/>
        </Node>
      </Node>
    </BinaryTree>
    <BinaryTree type="DecisionTree" boostWeight="1.0000000000000000e+00" itree="7">
      <Node pos="s" depth="0" NCoef="0" IVar="4" Cut="2.9364526271820068e-01" cType="1" res="1.0450319387018681e-03" rms="4.7399458289146423e-01" purity="4.9866694211959839e-01" nType="0">
        <Node pos="l" depth="1" NCoef="0" IVar="2" Cut="2.2198213264346123e-02" cType="1" res="-1.4176295697689056e-01" rms="4.3188637495040894e-01" purity="2.9598131775856018e-01" nType="0">
          <Node pos="l" depth="2" NCoef="0" IVar="-1" Cut="0.0000000000000000e+00" cType="1" res="-9.4689410179853439e-03" rms="4.8275077342987061e-01" purity="4.7134283185005188e-01" nType="-99"/>
          <Node pos="r" depth="2" NCoef="0" IVar="-1" Cut="0.0000000000000000e+00" cType="1" res="-4.3112330138683319e-02" rms="3.8387593626976013e-01" purity="1.8399268388748169e-01" nType="-99"/>
        </Node>
        <Node pos="r" depth="1" NCoef="0" IVar="2" Cut="2.9601994901895523e-02" cType="1" res="5.5498939007520676e-02" rms="4.7798976302146912e-01" purity="5.7595270872116089e-01" nType="0">
          <Node pos="l" depth="2" NCoef="0" IVar="-1" Cut="0.0000000000000000e+00" cType="1" res="2.6758527383208275e-02" rms="4.5530948042869568e-01" purity="6.7936885356903076e-01" nType="-99"/>
          <Node pos="r" depth="2" NCoef="0" IVar="-1" Cut="0.0000000000000000e+00" cType="1" res="-9.4347056001424789e-03" rms="4.8883509635925293e-01" purity="4.3572673201560974e-01" nType="-99"/>
        </Node>
      </Node>
    </BinaryTree>
    <BinaryTree type="DecisionTree" boostWeight="1.0000000000000000e+00" itree="8">
      <Node pos="s" depth="0" NCoef="0" IVar="1" Cut="4.9983730316162109e+00" cType="1" res="-7.9238163307309151e-03" rms="4.7012266516685486e-01" purity="4.9255266785621643e-01" nType="0">
        <Node pos="l" depth="1" NCoef="0" IVar="2" Cut="2.7748217806220055e-02" cType="1" res="-6.2134806066751480e-02" rms="4.7008219361305237e-01" purity="4.2047387361526489e-01" nType="0">
          <Node pos="l" depth="2" NCoef="0" IVar="-1" Cut="0.0000000000000000e+00" cType="1" res="2.2267152089625597e-03" rms="4.8483896255493164e-01" purity="5.4151928424835205e-01" nType="-99"/>
          <Node pos="r" depth="2" NCoef="0" IVar="-1" Cut="0.0000000000000000e+00" cType="1" res="-2.8706206008791924e-02" rms="4.4141784310340881e-01" purity="2.9403054714202881e-01" nType="-99"/>
        </Node>
        <Node pos="r" depth="1" NCoef="0" IVar="2" Cut="5.7308059185743332e-02" cType="1" res="1.3165305554866791e-01" rms="4.4052812457084656e-01" purity="6.7813366651535034e-01" nType="0">
          <Node pos="l" depth="2" NCoef="0" IVar="-1" Cut="0.0000000000000000e+00" cType="1" res="3.7978105247020721e-02" rms="4.1784957051277161e-01" purity="7.5603806972503662e-01" nType="-99"/>
          <Node pos="r" depth="2" NCoef="0" IVar="-1" Cut="0.0000000000000000e+00" cType="1" res="-1.3075577095150948e-02" rms="4.6938398480415344e-01" purity="3.8085243105888367e-01" nType="-99"/>
        </Node>
      </Node>
    </BinaryTree>
    <BinaryTree type="DecisionTree" boostWeight="1.0000000000000000e+00" itree="9">
      <Node pos="s" depth="0" NCoef="0" IVar="3" Cut="2.9625776410102844e-01" cType="1" res="-2.3785706143826246e-03" rms="4.7063216567039490e-01" purity="4.9749314785003662e-01" nType="0">
        <Node pos="l" depth="1" NCoef="0" IVar="4" Cut="7.6903469860553741e-02" cType="1" res="3.9501097053289413e-02" rms="4.7002485394477844e-01" purity="5.5369025468826294e-01" nType="0">
          <Node pos="l" depth="2" NCoef="0" IVar="-1" Cut="0.0000000000000000e+00" cType="1" res="-3.9567571133375168e-02" rms="3.8789385557174683e-01" purity="2.2033609449863434e-01" nType="-99"/>
          <Node pos="r" depth="2" NCoef="0" IVar="-1" Cut="0.0000000000000000e+00" cType="1" res="1.4692146331071854e-02" rms="4.7209960222244263e-01" purity="6.0136467218399048e-01" nType="-99"/>
        </Node>
        <Node pos="r" depth="1" NCoef="0" IVar="2" Cut="4.8103243112564087e-02" cType="1" res="-1.4816902577877045e-01" rms="4.4285759329795837e-01" purity="3.0186119675636292e-01" nType="0">
          <Node pos="l" depth="2" NCoef="0" IVar="-1" Cut="0.0000000000000000e+00" cType="1" res="-1.9462017342448235e-02" rms="4.7248879075050354e-01" purity="3.7758195400238037e-01" nType="-99"/>
          <Node pos="r" depth="2" NCoef="0" IVar="-1" Cut="0.0000000000000000e+00" cType="1" res="-5.4761081933975220e-02" rms="3.4829419851303101e-01" purity="1.4344175159931183e-01" nType="-99"/>
        </Node>
      </Node>
    </BinaryTree>
    <BinaryTree type="DecisionTree" boostWeight="1.0000000000000000e+00" itree="10">
      <Node pos="s" depth="0" NCoef="0" IVar="0" Cut="1.0443083496093750e+03" cType="1" res="-9.0988017618656158e-03" rms="4.6889320015907288e-01" purity="4.9149477481842041e-01" nType="0">
        <Node pos="l" depth="1" NCoef="0" IVar="3" Cut="3.0243054032325745e-01" cType="1" res="-1.0512910038232803e-01" rms="4.5622667670249939e-01" purity="3.4576687216758728e-01" nType="0">
          <Node pos="l" depth="2" NCoef="0" IVar="-1" Cut="0.0000000000000000e+00" cType="1" res="-1.3509965501725674e-02" rms="4.7670865058898926e-01" purity="4.0713682770729065e-01" nType="-99"/>
          <Node pos="r" depth="2" NCoef="0" IVar="-1" Cut="0.0000000000000000e+00" cType="1" res="-4.3708041310310364e-02" rms="3.8107356429100037e-01" purity="1.8893617391586304e-01" nType="-99"/>
        </Node>
        <Node pos="r" depth="1" NCoef="0" IVar="2" Cut="1.8498511984944344e-02" cType="1" res="4.6470783650875092e-02" rms="4.6713736653327942e-01" purity="5.7582277059555054e-01" nType="0">
          <Node pos="l" depth="2" NCoef="0" IVar="-1" Cut="0.0000000000000000e+00" cType="1" res="2.6170449331402779e-02" rms="4.4051459431648254e-01" purity="7.1216696500778198e-01" nType="-99"/>
          <Node pos="r" depth="2" NCoef="0" IVar="-1" Cut="0.0000000000000000e+00" cType="1" res="-3.5180137492716312e-03" rms="4.7821235656738281e-01" purity="4.6586585044860840e-01" nType="-99"/>
        </Node>
      </Node>
    </BinaryTree>
    <BinaryTree type="DecisionTree" boostWeight="1.0000000000000000e+00" itree="11">
      <Node pos="s" depth="0" NCoef="0" IVar="3" Cut="3.0243939161300659e-01" cType="1" res="1.2658353894948959e-02" rms="4.6392160654067993e-01" purity="5.1361340284347534e-01" nType="0">
        <Node pos="l" depth="1" NCoef="0" IVar="0" Cut="9.9681292724609375e+02" cType="1" res="5.5585607886314392e-02" rms="4.6498882770538330e-01" purity="5.7625037431716919e-01" nType="0">
          <Node pos="l" depth="2" NCoef="0" IVar="-1" Cut="0.0000000000000000e+00" cType="1" res="-1.0466089472174644e-02" rms="4.7689181566238403e-01" purity="4.1141253709793091e-01" nType="-99"/>
          <Node pos="r" depth="2" NCoef="0" IVar="-1" Cut="0.0000000000000000e+00" cType="1" res="2.0720923319458961e-02" rms="4.5290267467498779e-01" purity="6.4359885454177856e-01" nType="-99"/>
        </Node>
        <Node pos="r" depth="1" NCoef="0" IVar="2" Cut="2.2201495245099068e-02" cType="1" res="-1.5467569231987000e-01" rms="4.1973203420639038e-01" purity="2.6944950222969055e-01" nType="0">
          <Node pos="l" depth="2" NCoef="0" IVar="-1" Cut="0.0000000000000000e+00" cType="1" res="-1.4339642599225044e-02" rms="4.7458368539810181e-01" purity="4.0361952781677246e-01" nType="-99"/>
          <Node pos="r" depth="2" NCoef="0" IVar="-1" Cut="0.0000000000000000e+00" cType="1" res="-4.7112416476011276e-02" rms="3.6043158173561096e-01" purity="1.6861645877361298e-01" nType="-99"/>
        </Node>
      </Node>
    </BinaryTree>
    <BinaryTree type="DecisionTree" boostWeight="1.0000000000000000e+00" itree="12">
      <Node pos="s" depth="0" NCoef="0" IVar="0" Cut="1.3271939697265625e+03" cType="1" res="8.9979823678731918e-03" rms="4.5999041199684143e-01" purity="5.0718384981155396e-01" nType="0">
        <Node pos="l" depth="1" NCoef="0" IVar="4" Cut="3.3367839455604553e-01" cType="1" res="-4.8291999846696854e-02" rms="4.6434766054153442e-01" purity="4.0584057569503784e-01" nType="0">
          <Node pos="l" depth="2" NCoef="0" IVar="-1" Cut="0.0000000000000000e+00" cType="1" res="-3.2639574259519577e-02" rms="4.1112044453620911e-01" purity="2.3208583891391754e-01" nType="-99"/>
          <Node pos="r" depth="2" NCoef="0" IVar="-1" Cut="0.0000000000000000e+00" cType="1" res="7.9310251749120653e-05" rms="4.8057737946510315e-01" purity="4.9008503556251526e-01" nType="-99"/>
        </Node>
        <Node pos="r" depth="1" NCoef="0" IVar="2" Cut="3.6950923502445221e-02" cType="1" res="8.7990045547485352e-02" rms="4.4189676642417908e-01" purity="6.4691716432571411e-01" nType="0">
          <Node pos="l" depth="2" NCoef="0" IVar="-1" Cut="0.0000000000000000e+00" cType="1" res="3.1973384320735931e-02" rms="4.1467830538749695e-01" purity="7.6001608371734619e-01" nType="-99"/>
          <Node pos="r" depth="2" NCoef="0" IVar="-1" Cut="0.0000000000000000e+00" cType="1" res="-8.2181403413414955e-03" rms="4.6838092803955078e-01" purity="4.1268700361251831e-01" nType="-99"/>
        </Node>
      </Node>
    </BinaryTree>
    <BinaryTree type="DecisionTree" boostWeight="1.0000000000000000e+00" itree="13">
      <Node pos="s" depth="0" NCoef="0" IVar="3" Cut="2.1602688729763031e-01" cType="1" res="-9.2567125102505088e-04" rms="4.6159458160400391e-01" purity="5.0342988967895508e-01" nType="0">
        <Node pos="l" depth="1" NCoef="0" IVar="1" Cut="3.2455277442932129e+00" cType="1" res="5.3749598562717438e-02" rms="4.6027347445487976e-01" purity="5.8528453111648560e-01" nType="0">
          <Node pos="l" depth="2" NCoef="0" IVar="-1" Cut="0.0000000000000000e+00" cType="1" res="-3.5798829048871994e-02" rms="4.4567415118217468e-01" purity="3.0018848180770874e-01" nType="-99"/>
          <Node pos="r" depth="2" NCoef="0" IVar="-1" Cut="0.0000000000000000e+00" cType="1" res="1.7256963998079300e-02" rms="4.5424088835716248e-01" purity="6.2038522958755493e-01" nType="-99"/>
        </Node>
        <Node pos="r" depth="1" NCoef="0" IVar="1" Cut="4.6359677314758301e+00" cType="1" res="-9.0369865298271179e-02" rms="4.4963461160659790e-01" purity="3.6952248215675354e-01" nType="0">
          <Node pos="l" depth="2" NCoef="0" IVar="-1" Cut="0.0000000000000000e+00" cType="1" res="-2.7686387300491333e-02" rms="4.3785831332206726e-01" purity="2.9417842626571655e-01" nType="-99"/>
          <Node pos="r" depth="2" NCoef="0" IVar="-1" Cut="0.0000000000000000e+00" cType="1" res="-1.9930852577090263e-03" rms="4.6229517459869385e-01" purity="5.2318793535232544e-01" nType="-99"/>
        </Node>
      </Node>
    </BinaryTree>
    <BinaryTree type="DecisionTree" boostWeight="1.0000000000000000e+00" itree="14">
      <Node pos="s" depth="0" NCoef="0" IVar="4" Cut="3.7090260535478592e-02" cType="1" res="-1.6608271980658174e-03" rms="4.6046468615531921e-01" purity="5.0117892026901245e-01" nType="0">
        <Node pos="l" depth="1" NCoef="0" IVar="2" Cut="3.5489607602357864e-02" cType="1" res="-1.9325861334800720e-01" rms="3.2791492342948914e-01" purity="1.5793672204017639e-01" nType="0">
          <Node pos="l" depth="2" NCoef="0" IVar="-1" Cut="0.0000000000000000e+00" cType="1" res="-2.7372730895876884e-02" rms="4.3858611583709717e-01" purity="3.1777986884117126e-01" nType="-99"/>
          <Node pos="r" depth="2" NCoef="0" IVar="-1" Cut="0.0000000000000000e+00" cType="1" res="-5.9248637408018112e-02" rms="2.0520688593387604e-01" purity="4.3919287621974945e-02" nType="-99"/>
        </Node>
        <Node pos="r" depth="1" NCoef="0" IVar="4" Cut="1.0969835519790649e+00" cType="1" res="1.8451791256666183e-02" rms="4.6769574284553528e-01" purity="5.3721010684967041e-01" nType="0">
          <Node pos="l" depth="2" NCoef="0" IVar="-1" Cut="0.0000000000000000e+00" cType="1" res="7.7708265744149685e-03" rms="4.6566712856292725e-01" purity="5.5888247489929199e-01" nType="-99"/>
          <Node pos="r" depth="2" NCoef="0" IVar="-1" Cut="0.0000000000000000e+00" cType="1" res="-3.8299821317195892e-02" rms="4.4058850407600403e-01" purity="2.9700082540512085e-01" nType="-99"/>
        </Node>
      </Node>
    </BinaryTree>
    <BinaryTree type="DecisionTree" boostWeight="1.0000000000000000e+00" itree="15">
      <Node pos="s" depth="0" NCoef="0" IVar="4" Cut="3.7114135921001434e-02" cType="1" res="-8.0995922908186913e-03" rms="4.6102210879325867e-01" purity="4.9243766069412231e-01" nType="0">
        <Node pos="l" depth="1" NCoef="0" IVar="2" Cut="5.4359231144189835e-02" cType="1" res="-1.7181518673896790e-01" rms="3.3749926090240479e-01" purity="1.5376572310924530e-01" nType="0">
          <Node pos="l" depth="2" NCoef="0" IVar="-1" Cut="0.0000000000000000e+00" cType="1" res="-2.9850658029317856e-02" rms="4.1432580351829529e-01" purity="2.4557641148567200e-01" nType="-99"/>
          <Node pos="r" depth="2" NCoef="0" IVar="-1" Cut="0.0000000000000000e+00" cType="1" res="-5.8578427881002426e-02" rms="1.8453399837017059e-01" purity="3.3917836844921112e-02" nType="-99"/>
        </Node>
        <Node pos="r" depth="1" NCoef="0" IVar="4" Cut="1.0298565626144409e+00" cType="1" res="1.0483581572771072e-02" rms="4.6941423416137695e-01" purity="5.3087997436523438e-01" nType="0">
          <Node pos="l" depth="2" NCoef="0" IVar="-1" Cut="0.0000000000000000e+00" cType="1" res="6.4607844687998295e-03" rms="4.6837395429611206e-01" purity="5.5511778593063354e-01" nType="-99"/>
          <Node pos="r" depth="2" NCoef="0" IVar="-1" Cut="0.0000000000000000e+00" cType="1" res="-3.1326334923505783e-02" rms="4.4581827521324158e-01" purity="3.3573281764984131e-01" nType="-99"/>
        </Node>
      </Node>
    </BinaryTree>
    <BinaryTree type="DecisionTree" boostWeight="1.0000000000000000e+00" itree="16">
      <Node pos="s" depth="0" NCoef="0" IVar="4" Cut="9.6232794225215912e-02" cType="1" res="5.0711482763290405e-03" rms="4.6001279354095459e-01" purity="5.0632125139236450e-01" nType="0">
        <Node pos="l" depth="1" NCoef="0" IVar="0" Cut="1.0500216064453125e+03" cType="1" res="-1.4161394536495209e-01" rms="3.6026710271835327e-01" purity="1.9531397521495819e-01" nType="0">
          <Node pos="l" depth="2" NCoef="0" IVar="-1" Cut="0.0000000000000000e+00" cType="1" res="-5.3932934999465942e-02" rms="2.5460106134414673e-01" purity="6.7114226520061493e-02" nType="-99"/>
          <Node pos="r" depth="2" NCoef="0" IVar="-1" Cut="0.0000000000000000e+00" cType="1" res="-2.2426372393965721e-02" rms="4.0848466753959656e-01" purity="2.7785107493400574e-01" nType="-99"/>
        </Node>
        <Node pos="r" depth="1" NCoef="0" IVar="4" Cut="1.1904186010360718e+00" cType="1" res="2.7242949232459068e-02" rms="4.6929213404655457e-01" purity="5.5333065986633301e-01" nType="0">
          <Node pos="l" depth="2" NCoef="0" IVar="-1" Cut="0.0000000000000000e+00" cType="1" res="8.0549260601401329e-03" rms="4.6942907571792603e-01" purity="5.6762498617172241e-01" nType="-99"/>
          <Node pos="r" depth="2" NCoef="0" IVar="-1" Cut="0.0000000000000000e+00" cType="1" res="-4.9508541822433472e-02" rms="3.7954142689704895e-01" purity="2.1022421121597290e-01" nType="-99"/>
        </Node>
      </Node>
    </BinaryTree>
    <BinaryTree type="DecisionTree" boostWeight="1.0000000000000000e+00" itree="17">
      <Node pos="s" depth="0" NCoef="0" IVar="2" Cut="3.1447470188140869e-02" cType="1" res="-1.2655760161578655e-02" rms="4.5620611310005188e-01" purity="4.8563560843467712e-01" nType="0">
        <Node pos="l" depth="1" NCoef="0" IVar="0" Cut="2.4177358398437500e+03" cType="1" res="3.6362901329994202e-02" rms="4.5986068248748779e-01" purity="6.0093587636947632e-01" nType="0">
          <Node pos="l" depth="2" NCoef="0" IVar="-1" Cut="0.0000000000000000e+00" cType="1" res="2.7527869679033756e-03" rms="4.7053349018096924e-01" purity="5.6156957149505615e-01" nType="-99"/>
          <Node pos="r" depth="2" NCoef="0" IVar="-1" Cut="0.0000000000000000e+00" cType="1" res="4.1952822357416153e-02" rms="3.5073125362396240e-01" purity="8.5111212730407715e-01" nType="-99"/>
        </Node>
        <Node pos="r" depth="1" NCoef="0" IVar="4" Cut="1.0048185586929321e+00" cType="1" res="-7.8580476343631744e-02" rms="4.4276854395866394e-01" purity="3.3056941628456116e-01" nType="0">
          <Node pos="l" depth="2" NCoef="0" IVar="-1" Cut="0.0000000000000000e+00" cType="1" res="-1.2238361872732639e-02" rms="4.4568100571632385e-01" purity="3.5032591223716736e-01" nType="-99"/>
          <Node pos="r" depth="2" NCoef="0" IVar="-1" Cut="0.0000000000000000e+00" cType="1" res="-3.8879424333572388e-02" rms="4.1190814971923828e-01" purity="2.3680037260055542e-01" nType="-99"/>
        </Node>
      </Node>
    </BinaryTree>
    <BinaryTree type="DecisionTree" boostWeight="1.0000000000000000e+00" itree="18">
      <Node pos="s" depth="0" NCoef="0" IVar="1" Cut="5.5782752037048340e+00" cType="1" res="-1.4088806929066777e-03" rms="4.5642820000648499e-01" purity="5.0036334991455078e-01" nType="0">
        <Node pos="l" depth="1" NCoef="0" IVar="2" Cut="1.2948958203196526e-02" cType="1" res="-2.5549333542585373e-02" rms="4.6074944734573364e-01" purity="4.5397794246673584e-01" nType="0">
          <Node pos="l" depth="2" NCoef="0" IVar="-1" Cut="0.0000000000000000e+00" cType="1" res="1.2343014590442181e-02" rms="4.6285712718963623e-01" purity="6.2252539396286011e-01" nType="-99"/>
          <Node pos="r" depth="2" NCoef="0" IVar="-1" Cut="0.0000000000000000e+00" cType="1" res="-1.2863586656749249e-02" rms="4.5549437403678894e-01" purity="3.8561898469924927e-01" nType="-99"/>
        </Node>
        <Node pos="r" depth="1" NCoef="0" IVar="4" Cut="6.6948544979095459e-01" cType="1" res="1.2577490508556366e-01" rms="4.1012170910835266e-01" purity="7.4474459886550903e-01" nType="0">
          <Node pos="l" depth="2" NCoef="0" IVar="-1" Cut="0.0000000000000000e+00" cType="1" res="1.0255963541567326e-02" rms="4.5862609148025513e-01" purity="6.4023619890213013e-01" nType="-99"/>
          <Node pos="r" depth="2" NCoef="0" IVar="-1" Cut="0.0000000000000000e+00" cType="1" res="4.9970086663961411e-02" rms="3.1908917427062988e-01" purity="8.6880922317504883e-01" nType="-99"/>
        </Node>
      </Node>
    </BinaryTree>
    <BinaryTree type="DecisionTree" boostWeight="1.0000000000000000e+00" itree="19">
      <Node pos="s" depth="0" NCoef="0" IVar="4" Cut="4.3214383721351624e-01" cType="1" res="-6.5367562456231099e-06" rms="4.5636007189750671e-01" purity="4.9911797046661377e-01" nType="0">
        <Node pos="l" depth="1" NCoef="0" IVar="1" Cut="5.4901847839355469e+00" cType="1" res="-7.2444133460521698e-02" rms="4.4226193428039551e-01" purity="3.5899838805198669e-01" nType="0">
          <Node pos="l" depth="2" NCoef="0" IVar="-1" Cut="0.0000000000000000e+00" cType="1" res="-2.2164030000567436e-02" rms="4.3851149082183838e-01" purity="3.1096780300140381e-01" nType="-99"/>
          <Node pos="r" depth="2" NCoef="0" IVar="-1" Cut="0.0000000000000000e+00" cType="1" res="1.8517419695854187e-02" rms="4.3199339509010315e-01" purity="6.4206808805465698e-01" nType="-99"/>
        </Node>
        <Node pos="r" depth="1" NCoef="0" IVar="1" Cut="4.0368218421936035e+00" cType="1" res="4.3876711279153824e-02" rms="4.5916759967803955e-01" purity="5.8400350809097290e-01" nType="0">
          <Node pos="l" depth="2" NCoef="0" IVar="-1" Cut="0.0000000000000000e+00" cType="1" res="-7.6151131652295589e-03" rms="4.7507524490356445e-01" purity="4.2694628238677979e-01" nType="-99"/>
          <Node pos="r" depth="2" NCoef="0" IVar="-1" Cut="0.0000000000000000e+00" cType="1" res="1.8336847424507141e-02" rms="4.4517233967781067e-01" purity="6.6451472043991089e-01" nType="-99"/>
        </Node>
      </Node>
    </BinaryTree>
    <BinaryTree type="DecisionTree" boostWeight="1.0000000000000000e+00" itree="20">
      <Node pos="s" depth="0" NCoef="0" IVar="3" Cut="2.5300213694572449e-01" cType="1" res="7.2977342642843723e-03" rms="4.5321798324584961e-01" purity="5.0623941421508789e-01" nType="0">
        <Node pos="l" depth="1" NCoef="0" IVar="4" Cut="3.3338642120361328e-01" cType="1" res="4.7430310398340225e-02" rms="4.5010003447532654e-01" purity="5.7900887727737427e-01" nType="0">
          <Node pos="l" depth="2" NCoef="0" IVar="-1" Cut="0.0000000000000000e+00" cType="1" res="-9.0349493548274040e-03" rms="4.4309678673744202e-01" purity="3.9038449525833130e-01" nType="-99"/>
          <Node pos="r" depth="2" NCoef="0" IVar="-1" Cut="0.0000000000000000e+00" cType="1" res="1.7655562609434128e-02" rms="4.4806635379791260e-01" purity="6.5501952171325684e-01" nType="-99"/>
        </Node>
        <Node pos="r" depth="1" NCoef="0" IVar="2" Cut="2.0364189520478249e-02" cType="1" res="-8.0619238317012787e-02" rms="4.4756990671157837e-01" purity="3.4682601690292358e-01" nType="0">
          <Node pos="l" depth="2" NCoef="0" IVar="-1" Cut="0.0000000000000000e+00" cType="1" res="-5.7068909518420696e-03" rms="4.7678202390670776e-01" purity="4.8296844959259033e-01" nType="-99"/>
          <Node pos="r" depth="2" NCoef="0" IVar="-1" Cut="0.0000000000000000e+00" cType="1" res="-2.6766728609800339e-02" rms="4.2221283912658691e-01" purity="2.5249421596527100e-01" nType="-99"/>
        </Node>
      </Node>
    </BinaryTree>
    <BinaryTree type="DecisionTree" boostWeight="1.0000000000000000e+00" itree="21">
      <Node pos="s" depth="0" NCoef="0" IVar="0" Cut="2.3064450683593750e+03" cType="1" res="4.1469768621027470e-03" rms="4.5254483819007874e-01" purity="5.0373321771621704e-01" nType="0">
        <Node pos="l" depth="1" NCoef="0" IVar="3" Cut="1.9750703871250153e-01" cType="1" res="-1.6289563849568367e-02" rms="4.5731243491172791e-01" purity="4.6294087171554565e-01" nType="0">
          <Node pos="l" depth="2" NCoef="0" IVar="-1" Cut="0.0000000000000000e+00" cType="1" res="7.2795264422893524e-03" rms="4.5693409442901611e-01" purity="5.5497926473617554e-01" nType="-99"/>
          <Node pos="r" depth="2" NCoef="0" IVar="-1" Cut="0.0000000000000000e+00" cType="1" res="-1.7337033525109291e-02" rms="4.5004913210868835e-01" purity="3.4845983982086182e-01" nType="-99"/>
        </Node>
        <Node pos="r" depth="1" NCoef="0" IVar="3" Cut="2.0954672992229462e-01" cType="1" res="1.5586254000663757e-01" rms="3.8272145390510559e-01" purity="8.0656480789184570e-01" nType="0">
          <Node pos="l" depth="2" NCoef="0" IVar="-1" Cut="0.0000000000000000e+00" cType="1" res="3.0078908428549767e-02" rms="3.8615199923515320e-01" purity="7.9072499275207520e-01" nType="-99"/>
          <Node pos="r" depth="2" NCoef="0" IVar="-1" Cut="0.0000000000000000e+00" cType="1" res="5.0098646432161331e-02" rms="3.6587193608283997e-01" purity="8.4335345029830933e-01" nType="-99"/>
        </Node>
      </Node>
    </BinaryTree>
    <BinaryTree type="DecisionTree" boostWeight="1.0000000000000000e+00" itree="22">
      <Node pos="s" depth="0" NCoef="0" IVar="3" Cut="3.2713827490806580e-01" cType="1" res="-9.5043843612074852e-03" rms="4.5025435090065002e-01" purity="4.8901373147964478e-01" nType="0">
        <Node pos="l" depth="1" NCoef="0" IVar="4" Cut="2.9367014765739441e-01" cType="1" res="1.5754362568259239e-02" rms="4.5416262745857239e-01" purity="5.4135280847549438e-01" nType="0">
          <Node pos="l" depth="2" NCoef="0" IVar="-1" Cut="0.0000000000000000e+00" cType="1" res="-1.7514010891318321e-02" rms="4.3389695882797241e-01" purity="3.2113727927207947e-01" nType="-99"/>
          <Node pos="r" depth="2" NCoef="0" IVar="-1" Cut="0.0000000000000000e+00" cType="1" res="1.0528474114835262e-02" rms="4.5671290159225464e-01" purity="6.2049120664596558e-01" nType="-99"/>
        </Node>
        <Node pos="r" depth="1" NCoef="0" IVar="1" Cut="3.6341645717620850e+00" cType="1" res="-1.2509678304195404e-01" rms="4.1263991594314575e-01" purity="2.4949257075786591e-01" nType="0">
          <Node pos="l" depth="2" NCoef="0" IVar="-1" Cut="0.0000000000000000e+00" cType="1" res="-1.4761214144527912e-02" rms="4.3744462728500366e-01" purity="2.6437470316886902e-01" nType="-99"/>
          <Node pos="r" depth="2" NCoef="0" IVar="-1" Cut="0.0000000000000000e+00" cType="1" res="-3.4543670713901520e-02" rms="3.9647820591926575e-01" purity="2.4224220216274261e-01" nType="-99"/>
        </Node>
      </Node>
    </BinaryTree>
    <BinaryTree type="DecisionTree" boostWeight="1.0000000000000000e+00" itree="23">
      <Node pos="s" depth="0" NCoef="0" IVar="0" Cut="1.4921124267578125e+03" cType="1" res="-5.9659807011485100e-03" rms="4.5013934373855591e-01" purity="4.9247372150421143e-01" nType="0">
        <Node pos="l" depth="1" NCoef="0" IVar="2" Cut="3.1447470188140869e-02" cType="1" res="-4.4132623821496964e-02" rms="4.5491865277290344e-01" purity="3.9921978116035461e-01" nType="0">
          <Node pos="l" depth="2" NCoef="0" IVar="-1" Cut="0.0000000000000000e+00" cType="1" res="-3.3446133602410555e-04" rms="4.7339501976966858e-01" purity="5.0640594959259033e-01" nType="-99"/>
          <Node pos="r" depth="2" NCoef="0" IVar="-1" Cut="0.0000000000000000e+00" cType="1" res="-2.1102234721183777e-02" rms="4.2763596773147583e-01" purity="2.7652329206466675e-01" nType="-99"/>
        </Node>
        <Node pos="r" depth="1" NCoef="0" IVar="3" Cut="2.3453986644744873e-01" cType="1" res="6.9450117647647858e-02" rms="4.3071138858795166e-01" purity="6.7674052715301514e-01" nType="0">
          <Node pos="l" depth="2" NCoef="0" IVar="-1" Cut="0.0000000000000000e+00" cType="1" res="2.5911908596754074e-02" rms="4.0507104992866516e-01" purity="7.4528181552886963e-01" nType="-99"/>
          <Node pos="r" depth="2" NCoef="0" IVar="-1" Cut="0.0000000000000000e+00" cType="1" res="-1.1497732251882553e-02" rms="4.7569432854652405e-01" purity="4.8167315125465393e-01" nType="-99"/>
        </Node>
      </Node>
    </BinaryTree>
    <BinaryTree type="DecisionTree" boostWeight="1.0000000000000000e+00" itree="24">
      <Node pos="s" depth="0" NCoef="0" IVar="1" Cut="3.3036048412322998e+00" cType="1" res="1.9183612894266844e-03" rms="4.5085045695304871e-01" purity="5.0195193290710449e-01" nType="0">
        <Node pos="l" depth="1" NCoef="0" IVar="4" Cut="4.4919356703758240e-01" cType="1" res="-1.0866504162549973e-01" rms="4.3372488021850586e-01" purity="3.0780532956123352e-01" nType="0">
          <Node pos="l" depth="2" NCoef="0" IVar="-1" Cut="0.0000000000000000e+00" cType="1" res="-4.1905324906110764e-02" rms="3.6545175313949585e-01" purity="1.6855897009372711e-01" nType="-99"/>
          <Node pos="r" depth="2" NCoef="0" IVar="-1" Cut="0.0000000000000000e+00" cType="1" res="-1.4051012694835663e-02" rms="4.6409195661544800e-01" purity="3.8919702172279358e-01" nType="-99"/>
        </Node>
        <Node pos="r" depth="1" NCoef="0" IVar="4" Cut="1.1608824133872986e-01" cType="1" res="2.0328894257545471e-02" rms="4.5101371407508850e-01" purity="5.3427457809448242e-01" nType="0">
          <Node pos="l" depth="2" NCoef="0" IVar="-1" Cut="0.0000000000000000e+00" cType="1" res="-2.4419028311967850e-02" rms="3.8081052899360657e-01" purity="2.2968366742134094e-01" nType="-99"/>
          <Node pos="r" depth="2" NCoef="0" IVar="-1" Cut="0.0000000000000000e+00" cType="1" res="8.8166929781436920e-03" rms="4.5909205079078674e-01" purity="5.8708256483078003e-01" nType="-99"/>
        </Node>
      </Node>
    </BinaryTree>
    <BinaryTree type="DecisionTree" boostWeight="1.0000000000000000e+00" itree="25">
      <Node pos="s" depth="0" NCoef="0" IVar="2" Cut="1.2950873002409935e-02" cType="1" res="-1.3150071725249290e-02" rms="4.5007380843162537e-01" purity="4.8926031589508057e-01" nType="0">
        <Node pos="l" depth="1" NCoef="0" IVar="4" Cut="8.1250703334808350e-01" cType="1" res="5.3589425981044769e-02" rms="4.4920474290847778e-01" purity="6.5061736106872559e-01" nType="0">
          <Node pos="l" depth="2" NCoef="0" IVar="-1" Cut="0.0000000000000000e+00" cType="1" res="1.2253936147317290e-03" rms="4.6445977687835693e-01" purity="5.9358447790145874e-01" nType="-99"/>
          <Node pos="r" depth="2" NCoef="0" IVar="-1" Cut="0.0000000000000000e+00" cType="1" res="3.9576929062604904e-02" rms="3.8156360387802124e-01" purity="7.9556649923324585e-01" nType="-99"/>
        </Node>
        <Node pos="r" depth="1" NCoef="0" IVar="4" Cut="1.0443959236145020e+00" cType="1" res="-4.1319157928228378e-02" rms="4.4746264815330505e-01" purity="4.2115548253059387e-01" nType="0">
          <Node pos="l" depth="2" NCoef="0" IVar="-1" Cut="0.0000000000000000e+00" cType="1" res="-5.3661298006772995e-03" rms="4.4891569018363953e-01" purity="4.4100224971771240e-01" nType="-99"/>
          <Node pos="r" depth="2" NCoef="0" IVar="-1" Cut="0.0000000000000000e+00" cType="1" res="-3.5080637782812119e-02" rms="4.1680252552032471e-01" purity="2.8081789612770081e-01" nType="-99"/>
        </Node>
      </Node>
    </BinaryTree>
    <BinaryTree type="DecisionTree" boostWeight="1.0000000000000000e+00" itree="26">
      <Node pos="s" depth="0" NCoef="0" IVar="3" Cut="1.2966719269752502e-01" cType="1" res="1.2421489693224430e-02" rms="4.5115262269973755e-01" purity="5.0851583480834961e-01" nType="0">
        <Node pos="l" depth="1" NCoef="0" IVar="2" Cut="7.0206753909587860e-02" cType="1" res="6.2710270285606384e-02" rms="4.4665321707725525e-01" purity="6.1033946275711060e-01" nType="0">
          <Node pos="l" depth="2" NCoef="0" IVar="-1" Cut="0.0000000000000000e+00" cType="1" res="1.9201379269361496e-02" rms="4.4320324063301086e-01" purity="6.6136664152145386e-01" nType="-99"/>
          <Node pos="r" depth="2" NCoef="0" IVar="-1" Cut="0.0000000000000000e+00" cType="1" res="-1.5741452574729919e-02" rms="4.4208434224128723e-01" purity="3.2673916220664978e-01" nType="-99"/>
        </Node>
        <Node pos="r" depth="1" NCoef="0" IVar="1" Cut="5.8153605461120605e+00" cType="1" res="-2.1733103320002556e-02" rms="4.5099681615829468e-01" purity="4.3936038017272949e-01" nType="0">
          <Node pos="l" depth="2" NCoef="0" IVar="-1" Cut="0.0000000000000000e+00" cType="1" res="-8.0792168155312538e-03" rms="4.5376250147819519e-01" purity="4.0458577871322632e-01" nType="-99"/>
          <Node pos="r" depth="2" NCoef="0" IVar="-1" Cut="0.0000000000000000e+00" cType="1" res="2.7850493788719177e-02" rms="3.9730554819107056e-01" purity="7.7505606412887573e-01" nType="-99"/>
        </Node>
      </Node>
    </BinaryTree>
    <BinaryTree type="DecisionTree" boostWeight="1.0000000000000000e+00" itree="27">
      <Node pos="s" depth="0" NCoef="0" IVar="2" Cut="1.4800997450947762e-02" cType="1" res="-2.1996488794684410e-03" rms="4.4955050945281982e-01" purity="4.9780380725860596e-01" nType="0">
        <Node pos="l" depth="1" NCoef="0" IVar="4" Cut="6.5117996931076050e-01" cType="1" res="7.2713308036327362e-02" rms="4.3730098009109497e-01" purity="6.7661476135253906e-01" nType="0">
          <Node pos="l" depth="2" NCoef="0" IVar="-1" Cut="0.0000000000000000e+00" cType="1" res="6.9564310833811760e-03" rms="4.5620658993721008e-01" purity="6.0447573661804199e-01" nType="-99"/>
          <Node pos="r" depth="2" NCoef="0" IVar="-1" Cut="0.0000000000000000e+00" cType="1" res="2.7934618294239044e-02" rms="4.0815296769142151e-01" purity="7.6290333271026611e-01" nType="-99"/>
        </Node>
        <Node pos="r" depth="1" NCoef="0" IVar="3" Cut="8.0313041806221008e-02" cType="1" res="-3.9294026792049408e-02" rms="4.5091024041175842e-01" purity="4.0926268696784973e-01" nType="0">
          <Node pos="l" depth="2" NCoef="0" IVar="-1" Cut="0.0000000000000000e+00" cType="1" res="9.0444600209593773e-03" rms="4.5756238698959351e-01" purity="5.3725975751876831e-01" nType="-99"/>
          <Node pos="r" depth="2" NCoef="0" IVar="-1" Cut="0.0000000000000000e+00" cType="1" res="-1.5122907236218452e-02" rms="4.4532027840614319e-01" purity="3.6575299501419067e-01" nType="-99"/>
        </Node>
      </Node>
    </BinaryTree>
    <BinaryTree type="DecisionTree" boostWeight="1.0000000000000000e+00" itree="28">
      <Node pos="s" depth="0" NCoef="0" IVar="0" Cut="1.0434653320312500e+03" cType="1" res="-1.2811255874112248e-03" rms="4.4530189037322998e-01" purity="4.9219381809234619e-01" nType="0">
        <Node pos="l" depth="1" NCoef="0" IVar="1" Cut="3.1635625362396240e+00" cType="1" res="-6.4154326915740967e-02" rms="4.3751528859138489e-01" purity="3.3237805962562561e-01" nType="0">
          <Node pos="l" depth="2" NCoef="0" IVar="-1" Cut="0.0000000000000000e+00" cType="1" res="-3.2744448632001877e-02" rms="4.1287639737129211e-01" purity="2.2748973965644836e-01" nType="-99"/>
          <Node pos="r" depth="2" NCoef="0" IVar="-1" Cut="0.0000000000000000e+00" cType="1" res="-9.6285110339522362e-03" rms="4.4136330485343933e-01" purity="3.6047104001045227e-01" nType="-99"/>
        </Node>
        <Node pos="r" depth="1" NCoef="0" IVar="4" Cut="3.6714196205139160e-02" cType="1" res="3.5581991076469421e-02" rms="4.4569891691207886e-01" purity="5.8589524030685425e-01" nType="0">
          <Node pos="l" depth="2" NCoef="0" IVar="-1" Cut="0.0000000000000000e+00" cType="1" res="-2.7078367769718170e-02" rms="3.6018517613410950e-01" purity="1.9821567833423615e-01" nType="-99"/>
          <Node pos="r" depth="2" NCoef="0" IVar="-1" Cut="0.0000000000000000e+00" cType="1" res="1.1442770250141621e-02" rms="4.5154288411140442e-01" purity="6.2934607267379761e-01" nType="-99"/>
        </Node>
      </Node>
    </BinaryTree>
    <BinaryTree type="DecisionTree" boostWeight="1.0000000000000000e+00" itree="29">
      <Node pos="s" depth="0" NCoef="0" IVar="1" Cut="6.4974102973937988e+00" cType="1" res="2.8589735738933086e-03" rms="4.4726428389549255e-01" purity="5.0048834085464478e-01" nType="0">
        <Node pos="l" depth="1" NCoef="0" IVar="2" Cut="2.5901746004819870e-02" cType="1" res="-6.2288749031722546e-03" rms="4.5200023055076599e-01" purity="4.8392820358276367e-01" nType="0">
          <Node pos="l" depth="2" NCoef="0" IVar="-1" Cut="0.0000000000000000e+00" cType="1" res="6.7401188425719738e-03" rms="4.5666143298149109e-01" purity="6.1231535673141479e-01" nType="-99"/>
          <Node pos="r" depth="2" NCoef="0" IVar="-1" Cut="0.0000000000000000e+00" cType="1" res="-1.0095105506479740e-02" rms="4.4391745328903198e-01" purity="3.5047790408134460e-01" nType="-99"/>
        </Node>
        <Node pos="r" depth="1" NCoef="0" IVar="-1" Cut="0.0000000000000000e+00" cType="1" res="5.8042731136083603e-02" rms="2.0100207626819611e-01" purity="9.1349381208419800e-01" nType="-99"/>
      </Node>
    </BinaryTree>
    <BinaryTree type="DecisionTree" boostWeight="1.0000000000000000e+00" itree="30">
      <Node pos="s" depth="0" NCoef="0" IVar="3" Cut="3.6417174339294434e-01" cType="1" res="-3.7926237564533949e-03" rms="4.4783017039299011e-01" purity="4.9614456295967102e-01" nType="0">
        <Node pos="l" depth="1" NCoef="0" IVar="4" Cut="5.1140248775482178e-01" cType="1" res="1.0195339098572731e-02" rms="4.5047956705093384e-01" purity="5.3322076797485352e-01" nType="0">
          <Node pos="l" depth="2" NCoef="0" IVar="-1" Cut="0.0000000000000000e+00" cType="1" res="-7.7702491544187069e-03" rms="4.4596314430236816e-01" purity="4.2216351628303528e-01" nType="-99"/>
          <Node pos="r" depth="2" NCoef="0" IVar="-1" Cut="0.0000000000000000e+00" cType="1" res="1.0168074630200863e-02" rms="4.5098394155502319e-01" purity="6.2223911285400391e-01" nType="-99"/>
        </Node>
        <Node pos="r" depth="1" NCoef="0" IVar="4" Cut="6.6926831007003784e-01" cType="1" res="-9.9441461265087128e-02" rms="4.1688260436058044e-01" purity="2.4261929094791412e-01" nType="0">
          <Node pos="l" depth="2" NCoef="0" IVar="-1" Cut="0.0000000000000000e+00" cType="1" res="-1.6765946522355080e-02" rms="4.1964292526245117e-01" purity="2.4814726412296295e-01" nType="-99"/>
          <Node pos="r" depth="2" NCoef="0" IVar="-1" Cut="0.0000000000000000e+00" cType="1" res="-3.4667056053876877e-02" rms="4.0621954202651978e-01" purity="2.3304958641529083e-01" nType="-99"/>
        </Node>
      </Node>
    </BinaryTree>
    <BinaryTree type="DecisionTree" boostWeight="1.0000000000000000e+00" itree="31">
      <Node pos="s" depth="0" NCoef="0" IVar="4" Cut="1.0439265966415405e+00" cType="1" res="2.8552240692079067e-03" rms="4.4655507802963257e-01" purity="5.0167542695999146e-01" nType="0">
        <Node pos="l" depth="1" NCoef="0" IVar="0" Cut="1.8628243408203125e+03" cType="1" res="1.4857366681098938e-02" rms="4.4597196578979492e-01" purity="5.1971977949142456e-01" nType="0">
          <Node pos="l" depth="2" NCoef="0" IVar="-1" Cut="0.0000000000000000e+00" cType="1" res="-1.2705541448667645e-03" rms="4.5592784881591797e-01" purity="4.5474508404731750e-01" nType="-99"/>
          <Node pos="r" depth="2" NCoef="0" IVar="-1" Cut="0.0000000000000000e+00" cType="1" res="2.2449582815170288e-02" rms="3.9743158221244812e-01" purity="7.6225930452346802e-01" nType="-99"/>
        </Node>
        <Node pos="r" depth="1" NCoef="0" IVar="2" Cut="6.6811449825763702e-02" cType="1" res="-1.1932504922151566e-01" rms="4.3395289778709412e-01" purity="3.1798630952835083e-01" nType="0">
          <Node pos="l" depth="2" NCoef="0" IVar="-1" Cut="0.0000000000000000e+00" cType="1" res="-1.4442825689911842e-02" rms="4.6986189484596252e-01" purity="4.1664096713066101e-01" nType="-99"/>
          <Node pos="r" depth="2" NCoef="0" IVar="-1" Cut="0.0000000000000000e+00" cType="1" res="-4.4086996465921402e-02" rms="3.6084815859794617e-01" purity="1.7322029173374176e-01" nType="-99"/>
        </Node>
      </Node>
    </BinaryTree>
    <BinaryTree type="DecisionTree" boostWeight="1.0000000000000000e+00" itree="32">
      <Node pos="s" depth="0" NCoef="0" IVar="2" Cut="2.4032033979892731e-02" cType="1" res="5.3041465580463409e-03" rms="4.4372332096099854e-01" purity="5.0805580615997314e-01" nType="0">
        <Node pos="l" depth="1" NCoef="0" IVar="4" Cut="8.8537633419036865e-01" cType="1" res="4.1062984615564346e-02" rms="4.4563880562782288e-01" purity="6.4416635036468506e-01" nType="0">
          <Node pos="l" depth="2" NCoef="0" IVar="-1" Cut="0.0000000000000000e+00" cType="1" res="3.8320762105286121e-03" rms="4.5636257529258728e-01" purity="6.0907453298568726e-01" nType="-99"/>
          <Node pos="r" depth="2" NCoef="0" IVar="-1" Cut="0.0000000000000000e+00" cType="1" res="3.1021105125546455e-02" rms="3.8943204283714294e-01" purity="7.7659916877746582e-01" nType="-99"/>
        </Node>
        <Node pos="r" depth="1" NCoef="0" IVar="0" Cut="1.6799105224609375e+03" cType="1" res="-3.1238950788974762e-02" rms="4.3875655531883240e-01" purity="3.6896017193794250e-01" nType="0">
          <Node pos="l" depth="2" NCoef="0" IVar="-1" Cut="0.0000000000000000e+00" cType="1" res="-1.3664276339113712e-02" rms="4.3213546276092529e-01" purity="3.0586424469947815e-01" nType="-99"/>
          <Node pos="r" depth="2" NCoef="0" IVar="-1" Cut="0.0000000000000000e+00" cType="1" res="1.4185427688062191e-02" rms="4.4842928647994995e-01" purity="5.9146988391876221e-01" nType="-99"/>
        </Node>
      </Node>
    </BinaryTree>
    <BinaryTree type="DecisionTree" boostWeight="1.0000000000000000e+00" itree="33">
      <Node pos="s" depth="0" NCoef="0" IVar="3" Cut="2.9625347256660461e-01" cType="1" res="8.0031100660562515e-03" rms="4.4842183589935303e-01" purity="5.0808089971542358e-01" nType="0">
        <Node pos="l" depth="1" NCoef="0" IVar="4" Cut="9.6732966601848602e-02" cType="1" res="3.0470917001366615e-02" rms="4.4970399141311646e-01" purity="5.7204359769821167e-01" nType="0">
          <Node pos="l" depth="2" NCoef="0" IVar="-1" Cut="0.0000000000000000e+00" cType="1" res="-2.0992817357182503e-02" rms="3.7314867973327637e-01" purity="2.3082071542739868e-01" nType="-99"/>
          <Node pos="r" depth="2" NCoef="0" IVar="-1" Cut="0.0000000000000000e+00" cType="1" res="1.0167382657527924e-02" rms="4.5703709125518799e-01" purity="6.1826914548873901e-01" nType="-99"/>
        </Node>
        <Node pos="r" depth="1" NCoef="0" IVar="4" Cut="3.5295620560646057e-01" cType="1" res="-6.9938190281391144e-02" rms="4.3504181504249573e-01" purity="2.8619292378425598e-01" nType="0">
          <Node pos="l" depth="2" NCoef="0" IVar="-1" Cut="0.0000000000000000e+00" cType="1" res="-4.1489750146865845e-03" rms="4.0693423151969910e-01" purity="2.5156432390213013e-01" nType="-99"/>
          <Node pos="r" depth="2" NCoef="0" IVar="-1" Cut="0.0000000000000000e+00" cType="1" res="-2.1942261606454849e-02" rms="4.4635134935379028e-01" purity="3.0431517958641052e-01" nType="-99"/>
        </Node>
      </Node>
    </BinaryTree>
    <BinaryTree type="DecisionTree" boostWeight="1.0000000000000000e+00" itree="34">
      <Node pos="s" depth="0" NCoef="0" IVar="1" Cut="3.7921533584594727e+00" cType="1" res="-7.7836373820900917e-03" rms="4.4357004761695862e-01" purity="4.9140813946723938e-01" nType="0">
        <Node pos="l" depth="1" NCoef="0" IVar="4" Cut="9.8504132032394409e-01" cType="1" res="-7.5425066053867340e-02" rms="4.4371998310089111e-01" purity="3.2317939400672913e-01" nType="0">
          <Node pos="l" depth="2" NCoef="0" IVar="-1" Cut="0.0000000000000000e+00" cType="1" res="-1.4247252605855465e-02" rms="4.4958683848381042e-01" purity="3.3849769830703735e-01" nType="-99"/>
          <Node pos="r" depth="2" NCoef="0" IVar="-1" Cut="0.0000000000000000e+00" cType="1" res="-4.0394514799118042e-02" rms="3.7937754392623901e-01" purity="2.0268885791301727e-01" nType="-99"/>
        </Node>
        <Node pos="r" depth="1" NCoef="0" IVar="4" Cut="5.7056796550750732e-01" cType="1" res="1.7708813771605492e-02" rms="4.4082880020141602e-01" purity="5.5480951070785522e-01" nType="0">
          <Node pos="l" depth="2" NCoef="0" IVar="-1" Cut="0.0000000000000000e+00" cType="1" res="-6.7179845646023750e-03" rms="4.3581596016883850e-01" purity="4.4731906056404114e-01" nType="-99"/>
          <Node pos="r" depth="2" NCoef="0" IVar="-1" Cut="0.0000000000000000e+00" cType="1" res="1.3525679707527161e-02" rms="4.4115245342254639e-01" purity="6.5087080001831055e-01" nType="-99"/>
        </Node>
      </Node>
    </BinaryTree>
    <BinaryTree type="DecisionTree" boostWeight="1.0000000000000000e+00" itree="35">
      <Node pos="s" depth="0" NCoef="0" IVar="0" Cut="1.0443083496093750e+03" cType="1" res="-9.3338470906019211e-03" rms="4.4517645239830017e-01" purity="4.9033179879188538e-01" nType="0">
        <Node pos="l" depth="1" NCoef="0" IVar="1" Cut="3.2884256839752197e+00" cType="1" res="-5.5711150169372559e-02" rms="4.3484875559806824e-01" purity="3.2344812154769897e-01" nType="0">
          <Node pos="l" depth="2" NCoef="0" IVar="-1" Cut="0.0000000000000000e+00" cType="1" res="-3.1538687646389008e-02" rms="3.9306691288948059e-01" purity="2.0884145796298981e-01" nType="-99"/>
          <Node pos="r" depth="2" NCoef="0" IVar="-1" Cut="0.0000000000000000e+00" cType="1" res="-7.0561752654612064e-03" rms="4.4487193226814270e-01" purity="3.6125630140304565e-01" nType="-99"/>
        </Node>
        <Node pos="r" depth="1" NCoef="0" IVar="3" Cut="4.0116444230079651e-01" cType="1" res="1.6712084412574768e-02" rms="4.4877612590789795e-01" purity="5.8405530452728271e-01" nType="0">
          <Node pos="l" depth="2" NCoef="0" IVar="-1" Cut="0.0000000000000000e+00" cType="1" res="5.7560196146368980e-03" rms="4.4905474781990051e-01" purity="6.0581386089324951e-01" nType="-99"/>
          <Node pos="r" depth="2" NCoef="0" IVar="-1" Cut="0.0000000000000000e+00" cType="1" res="-2.1112993359565735e-02" rms="4.3031731247901917e-01" purity="2.8577634692192078e-01" nType="-99"/>
        </Node>
      </Node>
    </BinaryTree>
    <BinaryTree type="DecisionTree" boostWeight="1.0000000000000000e+00" itree="36">
      <Node pos="s" depth="0" NCoef="0" IVar="4" Cut="1.0641646385192871e+00" cType="1" res="1.0699305683374405e-02" rms="4.4466358423233032e-01" purity="5.1259523630142212e-01" nType="0">
        <Node pos="l" depth="1" NCoef="0" IVar="4" Cut="5.6477409601211548e-01" cType="1" res="2.0707692950963974e-02" rms="4.4516479969024658e-01" purity="5.3049057722091675e-01" nType="0">
          <Node pos="l" depth="2" NCoef="0" IVar="-1" Cut="0.0000000000000000e+00" cType="1" res="-5.0167161971330643e-03" rms="4.4225457310676575e-01" purity="4.1556385159492493e-01" nType="-99"/>
          <Node pos="r" depth="2" NCoef="0" IVar="-1" Cut="0.0000000000000000e+00" cType="1" res="1.4863859862089157e-02" rms="4.4396847486495972e-01" purity="6.5169191360473633e-01" nType="-99"/>
        </Node>
        <Node pos="r" depth="1" NCoef="0" IVar="2" Cut="6.1356097459793091e-02" cType="1" res="-9.2623278498649597e-02" rms="4.2592474818229675e-01" purity="3.2785075902938843e-01" nType="0">
          <Node pos="l" depth="2" NCoef="0" IVar="-1" Cut="0.0000000000000000e+00" cType="1" res="-4.5800837688148022e-03" rms="4.5555403828620911e-01" purity="4.6102339029312134e-01" nType="-99"/>
          <Node pos="r" depth="2" NCoef="0" IVar="-1" Cut="0.0000000000000000e+00" cType="1" res="-4.3617945164442062e-02" rms="3.6198189854621887e-01" purity="1.5197473764419556e-01" nType="-99"/>
        </Node>
      </Node>
    </BinaryTree>
    <BinaryTree type="DecisionTree" boostWeight="1.0000000000000000e+00" itree="37">
      <Node pos="s" depth="0" NCoef="0" IVar="3" Cut="3.8270139694213867e-01" cType="1" res="1.4090230688452721e-03" rms="4.4238066673278809e-01" purity="5.0170212984085083e-01" nType="0">
        <Node pos="l" depth="1" NCoef="0" IVar="1" Cut="3.2035238742828369e+00" cType="1" res="1.3601740822196007e-02" rms="4.4641485810279846e-01" purity="5.3620606660842896e-01" nType="0">
          <Node pos="l" depth="2" NCoef="0" IVar="-1" Cut="0.0000000000000000e+00" cType="1" res="-1.8591349944472313e-02" rms="4.3720990419387817e-01" purity="3.1336483359336853e-01" nType="-99"/>
          <Node pos="r" depth="2" NCoef="0" IVar="-1" Cut="0.0000000000000000e+00" cType="1" res="6.0206148773431778e-03" rms="4.4611889123916626e-01" purity="5.6450814008712769e-01" nType="-99"/>
        </Node>
        <Node pos="r" depth="1" NCoef="0" IVar="1" Cut="3.5885241031646729e+00" cType="1" res="-9.8914459347724915e-02" rms="3.9358609914779663e-01" purity="2.1779808402061462e-01" nType="0">
          <Node pos="l" depth="2" NCoef="0" IVar="-1" Cut="0.0000000000000000e+00" cType="1" res="-1.2011357583105564e-02" rms="4.0249437093734741e-01" purity="2.1548520028591156e-01" nType="-99"/>
          <Node pos="r" depth="2" NCoef="0" IVar="-1" Cut="0.0000000000000000e+00" cType="1" res="-2.9988823458552361e-02" rms="3.8647556304931641e-01" purity="2.1890376508235931e-01" nType="-99"/>
        </Node>
      </Node>
    </BinaryTree>
    <BinaryTree type="DecisionTree" boostWeight="1.0000000000000000e+00" itree="38">
      <Node pos="s" depth="0" NCoef="0" IVar="4" Cut="5.6767582893371582e-02" cType="1" res="-6.2836483120918274e-03" rms="4.4291391968727112e-01" purity="4.9629065394401550e-01" nType="0">
        <Node pos="l" depth="1" NCoef="0" IVar="2" Cut="2.4220252409577370e-02" cType="1" res="-9.1574668884277344e-02" rms="3.5494798421859741e-01" purity="1.6317398846149445e-01" nType="0">
          <Node pos="l" depth="2" NCoef="0" IVar="-1" Cut="0.0000000000000000e+00" cType="1" res="-3.5289518535137177e-02" rms="4.0396690368652344e-01" purity="2.4476322531700134e-01" nType="-99"/>
          <Node pos="r" depth="2" NCoef="0" IVar="-1" Cut="0.0000000000000000e+00" cType="1" res="-2.1498460322618484e-02" rms="3.3010032773017883e-01" purity="1.3131345808506012e-01" nType="-99"/>
        </Node>
        <Node pos="r" depth="1" NCoef="0" IVar="0" Cut="1.3258618164062500e+03" cType="1" res="4.0653981268405914e-03" rms="4.5133027434349060e-01" purity="5.3671032190322876e-01" nType="0">
          <Node pos="l" depth="2" NCoef="0" IVar="-1" Cut="0.0000000000000000e+00" cType="1" res="-5.5786790326237679e-03" rms="4.6273732185363770e-01" purity="4.1739958524703979e-01" nType="-99"/>
          <Node pos="r" depth="2" NCoef="0" IVar="-1" Cut="0.0000000000000000e+00" cType="1" res="9.3830339610576630e-03" rms="4.3464890122413635e-01" purity="6.7995214462280273e-01" nType="-99"/>
        </Node>
      </Node>
    </BinaryTree>
    <BinaryTree type="DecisionTree" boostWeight="1.0000000000000000e+00" itree="39">
      <Node pos="s" depth="0" NCoef="0" IVar="0" Cut="1.0443538818359375e+03" cType="1" res="-7.6906126923859119e-03" rms="4.4234332442283630e-01" purity="4.8870185017585754e-01" nType="0">
        <Node pos="l" depth="1" NCoef="0" IVar="0" Cut="8.6259191894531250e+02" cType="1" res="-5.0631731748580933e-02" rms="4.3917891383171082e-01" purity="3.2709762454032898e-01" nType="0">
          <Node pos="l" depth="2" NCoef="0" IVar="-1" Cut="0.0000000000000000e+00" cType="1" res="-2.3019343614578247e-02" rms="4.0897840261459351e-01" purity="2.7214092016220093e-01" nType="-99"/>
          <Node pos="r" depth="2" NCoef="0" IVar="-1" Cut="0.0000000000000000e+00" cType="1" res="-3.9165047928690910e-03" rms="4.5688316226005554e-01" purity="3.6698046326637268e-01" nType="-99"/>
        </Node>
        <Node pos="r" depth="1" NCoef="0" IVar="4" Cut="1.0242341756820679e+00" cType="1" res="1.7590435221791267e-02" rms="4.4225013256072998e-01" purity="5.8384430408477783e-01" nType="0">
          <Node pos="l" depth="2" NCoef="0" IVar="-1" Cut="0.0000000000000000e+00" cType="1" res="7.0217950269579887e-03" rms="4.4091773033142090e-01" purity="6.0517847537994385e-01" nType="-99"/>
          <Node pos="r" depth="2" NCoef="0" IVar="-1" Cut="0.0000000000000000e+00" cType="1" res="-1.9157599657773972e-02" rms="4.4036424160003662e-01" purity="3.9717429876327515e-01" nType="-99"/>
        </Node>
      </Node>
    </BinaryTree>
    <BinaryTree type="DecisionTree" boostWeight="1.0000000000000000e+00" itree="40">
      <Node pos="s" depth="0" NCoef="0" IVar="4" Cut="6.0990720987319946e-01" cType="1" res="3.2256601843982935e-03" rms="4.4180423021316528e-01" purity="5.0235927104949951e-01" nType="0">
        <Node pos="l" depth="1" NCoef="0" IVar="3" Cut="1.2346952408552170e-01" cType="1" res="-3.0936745926737785e-02" rms="4.4332820177078247e-01" purity="4.1340267658233643e-01" nType="0">
          <Node pos="l" depth="2" NCoef="0" IVar="-1" Cut="0.0000000000000000e+00" cType="1" res="4.0532941929996014e-03" rms="4.4726669788360596e-01" purity="5.2575010061264038e-01" nType="-99"/>
          <Node pos="r" depth="2" NCoef="0" IVar="-1" Cut="0.0000000000000000e+00" cType="1" res="-1.4434690587222576e-02" rms="4.3843081593513489e-01" purity="3.4663021564483643e-01" nType="-99"/>
        </Node>
        <Node pos="r" depth="1" NCoef="0" IVar="2" Cut="8.3281897008419037e-02" cType="1" res="4.1111838072538376e-02" rms="4.3699589371681213e-01" purity="6.0101234912872314e-01" nType="0">
          <Node pos="l" depth="2" NCoef="0" IVar="-1" Cut="0.0000000000000000e+00" cType="1" res="1.4704443514347076e-02" rms="4.3504533171653748e-01" purity="6.4699870347976685e-01" nType="-99"/>
          <Node pos="r" depth="2" NCoef="0" IVar="-1" Cut="0.0000000000000000e+00" cType="1" res="-2.5563899427652359e-02" rms="4.1979402303695679e-01" purity="2.7535295486450195e-01" nType="-99"/>
        </Node>
      </Node>
    </BinaryTree>
    <BinaryTree type="DecisionTree" boostWeight="1.0000000000000000e+00" itree="41">
      <Node pos="s" depth="0" NCoef="0" IVar="4" Cut="1.0443959236145020e+00" cType="1" res="1.1824764311313629e-02" rms="4.4590827822685242e-01" purity="5.0115406513214111e-01" nType="0">
        <Node pos="l" depth="1" NCoef="0" IVar="4" Cut="8.2899945974349976e-01" cType="1" res="2.0829401910305023e-02" rms="4.4615781307220459e-01" purity="5.1742625236511230e-01" nType="0">
          <Node pos="l" depth="2" NCoef="0" IVar="-1" Cut="0.0000000000000000e+00" cType="1" res="1.6961955698207021e-03" rms="4.4984930753707886e-01" purity="4.7695773839950562e-01" nType="-99"/>
          <Node pos="r" depth="2" NCoef="0" IVar="-1" Cut="0.0000000000000000e+00" cType="1" res="1.7125245183706284e-02" rms="4.2768734693527222e-01" purity="6.7239665985107422e-01" nType="-99"/>
        </Node>
        <Node pos="r" depth="1" NCoef="0" IVar="2" Cut="3.5668324679136276e-02" cType="1" res="-7.4767053127288818e-02" rms="4.3406888842582703e-01" purity="3.4467485547065735e-01" nType="0">
          <Node pos="l" depth="2" NCoef="0" IVar="-1" Cut="0.0000000000000000e+00" cType="1" res="8.4852268919348717e-03" rms="4.5961990952491760e-01" purity="5.8845323324203491e-01" nType="-99"/>
          <Node pos="r" depth="2" NCoef="0" IVar="-1" Cut="0.0000000000000000e+00" cType="1" res="-3.1343977898359299e-02" rms="4.0772843360900879e-01" purity="2.1673780679702759e-01" nType="-99"/>
        </Node>
      </Node>
    </BinaryTree>
    <BinaryTree type="DecisionTree" boostWeight="1.0000000000000000e+00" itree="42">
      <Node pos="s" depth="0" NCoef="0" IVar="2" Cut="1.4789176173508167e-02" cType="1" res="-5.4058129899203777e-03" rms="4.4183328747749329e-01" purity="4.9213790893554688e-01" nType="0">
        <Node pos="l" depth="1" NCoef="0" IVar="3" Cut="1.6047365963459015e-01" cType="1" res="4.5385167002677917e-02" rms="4.2762908339500427e-01" purity="6.7097026109695435e-01" nType="0">
          <Node pos="l" depth="2" NCoef="0" IVar="-1" Cut="0.0000000000000000e+00" cType="1" res="2.3366600275039673e-02" rms="3.9382049441337585e-01" purity="7.8279310464859009e-01" nType="-99"/>
          <Node pos="r" depth="2" NCoef="0" IVar="-1" Cut="0.0000000000000000e+00" cType="1" res="-8.1995391519740224e-04" rms="4.5432394742965698e-01" purity="5.5702137947082520e-01" nType="-99"/>
        </Node>
        <Node pos="r" depth="1" NCoef="0" IVar="4" Cut="5.7403564453125000e-02" cType="1" res="-2.9614733532071114e-02" rms="4.4641625881195068e-01" purity="4.0689960122108459e-01" nType="0">
          <Node pos="l" depth="2" NCoef="0" IVar="-1" Cut="0.0000000000000000e+00" cType="1" res="-3.8118984550237656e-02" rms="2.8766188025474548e-01" purity="9.5735415816307068e-02" nType="-99"/>
          <Node pos="r" depth="2" NCoef="0" IVar="-1" Cut="0.0000000000000000e+00" cType="1" res="-3.3694396261125803e-03" rms="4.6587228775024414e-01" purity="4.5839005708694458e-01" nType="-99"/>
        </Node>
      </Node>
    </BinaryTree>
    <BinaryTree type="DecisionTree" boostWeight="1.0000000000000000e+00" itree="43">
      <Node pos="s" depth="0" NCoef="0" IVar="2" Cut="4.8103243112564087e-02" cType="1" res="-6.6476962529122829e-03" rms="4.4272214174270630e-01" purity="4.8974490165710449e-01" nType="0">
        <Node pos="l" depth="1" NCoef="0" IVar="2" Cut="3.4441605210304260e-02" cType="1" res="1.0954286903142929e-02" rms="4.5071175694465637e-01" purity="5.7395184040069580e-01" nType="0">
          <Node pos="l" depth="2" NCoef="0" IVar="-1" Cut="0.0000000000000000e+00" cType="1" res="-5.6726468028500676e-04" rms="4.5003083348274231e-01" purity="5.8686774969100952e-01" nType="-99"/>
          <Node pos="r" depth="2" NCoef="0" IVar="-1" Cut="0.0000000000000000e+00" cType="1" res="2.2090945392847061e-02" rms="4.4603827595710754e-01" purity="4.9362629652023315e-01" nType="-99"/>
        </Node>
        <Node pos="r" depth="1" NCoef="0" IVar="3" Cut="1.7275744676589966e-01" cType="1" res="-4.7707401216030121e-02" rms="4.2064610123634338e-01" purity="2.9331734776496887e-01" nType="0">
          <Node pos="l" depth="2" NCoef="0" IVar="-1" Cut="0.0000000000000000e+00" cType="1" res="1.7889266600832343e-03" rms="4.5023664832115173e-01" purity="3.9431947469711304e-01" nType="-99"/>
          <Node pos="r" depth="2" NCoef="0" IVar="-1" Cut="0.0000000000000000e+00" cType="1" res="-2.6902897283434868e-02" rms="3.8219228386878967e-01" purity="1.9531466066837311e-01" nType="-99"/>
        </Node>
      </Node>
    </BinaryTree>
    <BinaryTree type="DecisionTree" boostWeight="1.0000000000000000e+00" itree="44">
      <Node pos="s" depth="0" NCoef="0" IVar="3" Cut="3.0243211984634399e-01" cType="1" res="2.0681426394730806e-03" rms="4.3738931417465210e-01" purity="5.0113081932067871e-01" nType="0">
        <Node pos="l" depth="1" NCoef="0" IVar="4" Cut="2.9381799697875977e-01" cType="1" res="1.9950145855545998e-02" rms="4.3890026211738586e-01" purity="5.6066322326660156e-01" nType="0">
          <Node pos="l" depth="2" NCoef="0" IVar="-1" Cut="0.0000000000000000e+00" cType="1" res="-1.0534179396927357e-02" rms="4.2593446373939514e-01" purity="3.2633462548255920e-01" nType="-99"/>
          <Node pos="r" depth="2" NCoef="0" IVar="-1" Cut="0.0000000000000000e+00" cType="1" res="9.7507564350962639e-03" rms="4.4130232930183411e-01" purity="6.4365184307098389e-01" nType="-99"/>
        </Node>
        <Node pos="r" depth="1" NCoef="0" IVar="2" Cut="2.0367197692394257e-02" cType="1" res="-6.6144086420536041e-02" rms="4.2471885681152344e-01" purity="2.7404004335403442e-01" nType="0">
          <Node pos="l" depth="2" NCoef="0" IVar="-1" Cut="0.0000000000000000e+00" cType="1" res="-2.2352626547217369e-02" rms="4.5485743880271912e-01" purity="3.3751460909843445e-01" nType="-99"/>
          <Node pos="r" depth="2" NCoef="0" IVar="-1" Cut="0.0000000000000000e+00" cType="1" res="-1.0482997633516788e-02" rms="3.9677247405052185e-01" purity="2.2360165417194366e-01" nType="-99"/>
        </Node>
      </Node>
    </BinaryTree>
    <BinaryTree type="DecisionTree" boostWeight="1.0000000000000000e+00" itree="45">
      <Node pos="s" depth="0" NCoef="0" IVar="1" Cut="3.2723999023437500e+00" cType="1" res="-2.5426931679248810e-03" rms="4.4529452919960022e-01" purity="4.9724346399307251e-01" nType="0">
        <Node pos="l" depth="1" NCoef="0" IVar="1" Cut="3.0363485813140869e+00" cType="1" res="-7.1031652390956879e-02" rms="4.2964082956314087e-01" purity="2.9080659151077271e-01" nType="0">
          <Node pos="l" depth="2" NCoef="0" IVar="-1" Cut="0.0000000000000000e+00" cType="1" res="-1.2441473081707954e-02" rms="4.2956298589706421e-01" purity="3.0367052555084229e-01" nType="-99"/>
          <Node pos="r" depth="2" NCoef="0" IVar="-1" Cut="0.0000000000000000e+00" cType="1" res="-2.9689781367778778e-02" rms="4.2484852671623230e-01" purity="2.5320315361022949e-01" nType="-99"/>
        </Node>
        <Node pos="r" depth="1" NCoef="0" IVar="2" Cut="9.2506231740117073e-03" cType="1" res="8.8161891326308250e-03" rms="4.4682401418685913e-01" purity="5.3148096799850464e-01" nType="0">
          <Node pos="l" depth="2" NCoef="0" IVar="-1" Cut="0.0000000000000000e+00" cType="1" res="1.7888372763991356e-02" rms="4.1445189714431763e-01" purity="7.2673809528350830e-01" nType="-99"/>
          <Node pos="r" depth="2" NCoef="0" IVar="-1" Cut="0.0000000000000000e+00" cType="1" res="-1.6153674805536866e-03" rms="4.5298457145690918e-01" purity="4.8396602272987366e-01" nType="-99"/>
        </Node>
      </Node>
    </BinaryTree>
    <BinaryTree type="DecisionTree" boostWeight="1.0000000000000000e+00" itree="46">
      <Node pos="s" depth="0" NCoef="0" IVar="4" Cut="1.0445510149002075e+00" cType="1" res="3.1646881252527237e-03" rms="4.4139668345451355e-01" purity="4.9821299314498901e-01" nType="0">
        <Node pos="l" depth="1" NCoef="0" IVar="4" Cut="9.2168265581130981e-01" cType="1" res="1.0999545454978943e-02" rms="4.4263806939125061e-01" purity="5.1532566547393799e-01" nType="0">
          <Node pos="l" depth="2" NCoef="0" IVar="-1" Cut="0.0000000000000000e+00" cType="1" res="5.0991342868655920e-04" rms="4.4544214010238647e-01" purity="4.9483385682106018e-01" nType="-99"/>
          <Node pos="r" depth="2" NCoef="0" IVar="-1" Cut="0.0000000000000000e+00" cType="1" res="2.2265095263719559e-02" rms="4.0745973587036133e-01" purity="7.0175015926361084e-01" nType="-99"/>
        </Node>
        <Node pos="r" depth="1" NCoef="0" IVar="2" Cut="3.9320290088653564e-02" cType="1" res="-7.4875965714454651e-02" rms="4.2094910144805908e-01" purity="3.2775884866714478e-01" nType="0">
          <Node pos="l" depth="2" NCoef="0" IVar="-1" Cut="0.0000000000000000e+00" cType="1" res="-3.2654061214998364e-04" rms="4.8067575693130493e-01" purity="5.4181826114654541e-01" nType="-99"/>
          <Node pos="r" depth="2" NCoef="0" IVar="-1" Cut="0.0000000000000000e+00" cType="1" res="-2.9575465247035027e-02" rms="3.7415379285812378e-01" purity="2.0021210610866547e-01" nType="-99"/>
        </Node>
      </Node>
    </BinaryTree>
    <BinaryTree type="DecisionTree" boostWeight="1.0000000000000000e+00" itree="47">
      <Node pos="s" depth="0" NCoef="0" IVar="0" Cut="8.2413568115234375e+02" cType="1" res="2.0469182636588812e-03" rms="4.4439649581909180e-01" purity="5.0023406744003296e-01" nType="0">
        <Node pos="l" depth="1" NCoef="0" IVar="0" Cut="7.7744879150390625e+02" cType="1" res="-7.1208916604518890e-02" rms="4.2685607075691223e-01" purity="2.8560629487037659e-01" nType="0">
          <Node pos="l" depth="2" NCoef="0" IVar="-1" Cut="0.0000000000000000e+00" cType="1" res="-3.9366297423839569e-02" rms="3.8997191190719604e-01" purity="1.8777276575565338e-01" nType="-99"/>
          <Node pos="r" depth="2" NCoef="0" IVar="-1" Cut="0.0000000000000000e+00" cType="1" res="-4.0455386042594910e-03" rms="4.3917295336723328e-01" purity="3.4555539488792419e-01" nType="-99"/>
        </Node>
        <Node pos="r" depth="1" NCoef="0" IVar="4" Cut="1.0839855670928955e+00" cType="1" res="1.1310233734548092e-02" rms="4.4570878148078918e-01" purity="5.2737402915954590e-01" nType="0">
          <Node pos="l" depth="2" NCoef="0" IVar="-1" Cut="0.0000000000000000e+00" cType="1" res="4.0879282169044018e-03" rms="4.4558420777320862e-01" purity="5.4162085056304932e-01" nType="-99"/>
          <Node pos="r" depth="2" NCoef="0" IVar="-1" Cut="0.0000000000000000e+00" cType="1" res="-1.5384871512651443e-02" rms="4.4017150998115540e-01" purity="3.2844036817550659e-01" nType="-99"/>
        </Node>
      </Node>
    </BinaryTree>
    <BinaryTree type="DecisionTree" boostWeight="1.0000000000000000e+00" itree="48">
      <Node pos="s" depth="0" NCoef="0" IVar="3" Cut="1.1727799475193024e-01" cType="1" res="-5.9881447814404964e-03" rms="4.4925686717033386e-01" purity="4.8806241154670715e-01" nType="0">
        <Node pos="l" depth="1" NCoef="0" IVar="0" Cut="1.6439375000000000e+03" cType="1" res="2.3910189047455788e-02" rms="4.4820129871368408e-01" purity="5.9278237819671631e-01" nType="0">
          <Node pos="l" depth="2" NCoef="0" IVar="-1" Cut="0.0000000000000000e+00" cType="1" res="9.9749332293868065e-03" rms="4.5986816287040710e-01" purity="5.5481976270675659e-01" nType="-99"/>
          <Node pos="r" depth="2" NCoef="0" IVar="-1" Cut="0.0000000000000000e+00" cType="1" res="-5.8398898690938950e-03" rms="4.1720589995384216e-01" purity="6.7815852165222168e-01" nType="-99"/>
        </Node>
        <Node pos="r" depth="1" NCoef="0" IVar="2" Cut="1.0718455165624619e-01" cType="1" res="-2.3097086697816849e-02" rms="4.4896501302719116e-01" purity="4.2813774943351746e-01" nType="0">
          <Node pos="l" depth="2" NCoef="0" IVar="-1" Cut="0.0000000000000000e+00" cType="1" res="-7.2677419520914555e-03" rms="4.4803813099861145e-01" purity="4.3205979466438293e-01" nType="-99"/>
          <Node pos="r" depth="2" NCoef="0" IVar="-1" Cut="0.0000000000000000e+00" cType="1" res="2.1346179768443108e-02" rms="4.4970664381980896e-01" purity="3.7188035249710083e-01" nType="-99"/>
        </Node>
      </Node>
    </BinaryTree>
    <BinaryTree type="DecisionTree" boostWeight="1.0000000000000000e+00" itree="49">
      <Node pos="s" depth="0" NCoef="0" IVar="0" Cut="2.4815625000000000e+03" cType="1" res="8.3235148340463638e-03" rms="4.4318488240242004e-01" purity="5.0526118278503418e-01" nType="0">
        <Node pos="l" depth="1" NCoef="0" IVar="3" Cut="3.3949115872383118e-01" cType="1" res="1.2175483861938119e-03" rms="4.4795432686805725e-01" purity="4.7457340359687805e-01" nType="0">
          <Node pos="l" depth="2" NCoef="0" IVar="-1" Cut="0.0000000000000000e+00" cType="1" res="2.8205169364809990e-03" rms="4.5284596085548401e-01" purity="5.2217280864715576e-01" nType="-99"/>
          <Node pos="r" depth="2" NCoef="0" IVar="-1" Cut="0.0000000000000000e+00" cType="1" res="-1.3976830989122391e-02" rms="4.1852211952209473e-01" purity="2.3691965639591217e-01" nType="-99"/>
        </Node>
        <Node pos="r" depth="1" NCoef="0" IVar="3" Cut="1.1094974726438522e-01" cType="1" res="7.1818627417087555e-02" rms="3.9236754179000854e-01" purity="7.7947068214416504e-01" nType="0">
          <Node pos="l" depth="2" NCoef="0" IVar="-1" Cut="0.0000000000000000e+00" cType="1" res="4.4226078316569328e-03" rms="3.9263549447059631e-01" purity="7.5658816099166870e-01" nType="-99"/>
          <Node pos="r" depth="2" NCoef="0" IVar="-1" Cut="0.0000000000000000e+00" cType="1" res="2.7587095275521278e-02" rms="3.8813769817352295e-01" purity="7.9348522424697876e-01" nType="-99"/>
        </Node>
      </Node>
    </BinaryTree>
    <BinaryTree type="DecisionTree" boostWeight="1.0000000000000000e+00" itree="50">
      <Node pos="s" depth="0" NCoef="0" IVar="0" Cut="2.2337695312500000e+03" cType="1" res="5.8858715929090977e-03" rms="4.4322183728218079e-01" purity="5.0863736867904663e-01" nType="0">
        <Node pos="l" depth="1" NCoef="0" IVar="2" Cut="5.9203989803791046e-02" cType="1" res="-3.9967088960111141e-03" rms="4.5035952329635620e-01" purity="4.6741944551467896e-01" nType="0">
          <Node pos="l" depth="2" NCoef="0" IVar="-1" Cut="0.0000000000000000e+00" cType="1" res="-5.0852354615926743e-03" rms="4.5301586389541626e-01" purity="5.0039213895797729e-01" nType="-99"/>
          <Node pos="r" depth="2" NCoef="0" IVar="-1" Cut="0.0000000000000000e+00" cType="1" res="1.3347711414098740e-02" rms="4.3737944960594177e-01" purity="3.6509224772453308e-01" nType="-99"/>
        </Node>
        <Node pos="r" depth="1" NCoef="0" IVar="3" Cut="7.4011765420436859e-02" cType="1" res="7.6578952372074127e-02" rms="3.8095292448997498e-01" purity="8.0348151922225952e-01" nType="0">
          <Node pos="l" depth="2" NCoef="0" IVar="-1" Cut="0.0000000000000000e+00" cType="1" res="-3.3449945040047169e-03" rms="4.1389590501785278e-01" purity="7.3453038930892944e-01" nType="-99"/>
          <Node pos="r" depth="2" NCoef="0" IVar="-1" Cut="0.0000000000000000e+00" cType="1" res="2.9841143637895584e-02" rms="3.6147001385688782e-01" purity="8.3044195175170898e-01" nType="-99"/>
        </Node>
      </Node>
    </BinaryTree>
    <BinaryTree type="DecisionTree" boostWeight="1.0000000000000000e+00" itree="51">
      <Node pos="s" depth="0" NCoef="0" IVar="2" Cut="1.8498511984944344e-02" cType="1" res="9.1596366837620735e-03" rms="4.4160014390945435e-01" purity="5.0292426347732544e-01" nType="0">
        <Node pos="l" depth="1" NCoef="0" IVar="3" Cut="4.0729480981826782e-01" cType="1" res="3.6526184529066086e-02" rms="4.3354448676109314e-01" purity="6.5221130847930908e-01" nType="0">
          <Node pos="l" depth="2" NCoef="0" IVar="-1" Cut="0.0000000000000000e+00" cType="1" res="1.2147214263677597e-02" rms="4.2983058094978333e-01" purity="6.8794542551040649e-01" nType="-99"/>
          <Node pos="r" depth="2" NCoef="0" IVar="-1" Cut="0.0000000000000000e+00" cType="1" res="-2.4077013134956360e-02" rms="4.4792735576629639e-01" purity="2.6263219118118286e-01" nType="-99"/>
        </Node>
        <Node pos="r" depth="1" NCoef="0" IVar="4" Cut="-6.1729926615953445e-02" cType="1" res="-9.1886017471551895e-03" rms="4.4598042964935303e-01" purity="4.0283286571502686e-01" nType="0">
          <Node pos="l" depth="2" NCoef="0" IVar="-1" Cut="0.0000000000000000e+00" cType="1" res="-4.0245354175567627e-02" rms="2.4659200012683868e-01" purity="6.2481492757797241e-02" nType="-99"/>
          <Node pos="r" depth="2" NCoef="0" IVar="-1" Cut="0.0000000000000000e+00" cType="1" res="-2.6941733085550368e-04" rms="4.5731085538864136e-01" purity="4.3020081520080566e-01" nType="-99"/>
        </Node>
      </Node>
    </BinaryTree>
    <BinaryTree type="DecisionTree" boostWeight="1.0000000000000000e+00" itree="52">
      <Node pos="s" depth="0" NCoef="0" IVar="0" Cut="8.2337384033203125e+02" cType="1" res="-1.1132968589663506e-02" rms="4.4839292764663696e-01" purity="4.8570314049720764e-01" nType="0">
        <Node pos="l" depth="1" NCoef="0" IVar="3" Cut="1.9132283329963684e-01" cType="1" res="-8.4197498857975006e-02" rms="4.0896061062812805e-01" purity="2.7918180823326111e-01" nType="0">
          <Node pos="l" depth="2" NCoef="0" IVar="-1" Cut="0.0000000000000000e+00" cType="1" res="-1.1766568757593632e-02" rms="4.4374841451644897e-01" purity="3.8355982303619385e-01" nType="-99"/>
          <Node pos="r" depth="2" NCoef="0" IVar="-1" Cut="0.0000000000000000e+00" cType="1" res="-3.2895993441343307e-02" rms="3.6046978831291199e-01" purity="1.5745572745800018e-01" nType="-99"/>
        </Node>
        <Node pos="r" depth="1" NCoef="0" IVar="1" Cut="4.2882580757141113e+00" cType="1" res="-2.1674453746527433e-03" rms="4.5218268036842346e-01" purity="5.1104474067687988e-01" nType="0">
          <Node pos="l" depth="2" NCoef="0" IVar="-1" Cut="0.0000000000000000e+00" cType="1" res="5.1849554292857647e-03" rms="4.7145026922225952e-01" purity="4.3865203857421875e-01" nType="-99"/>
          <Node pos="r" depth="2" NCoef="0" IVar="-1" Cut="0.0000000000000000e+00" cType="1" res="-4.5377006754279137e-03" rms="4.3799507617950439e-01" purity="5.5975931882858276e-01" nType="-99"/>
        </Node>
      </Node>
    </BinaryTree>
    <BinaryTree type="DecisionTree" boostWeight="1.0000000000000000e+00" itree="53">
      <Node pos="s" depth="0" NCoef="0" IVar="4" Cut="5.1113480329513550e-01" cType="1" res="1.3507580151781440e-03" rms="4.3787640333175659e-01" purity="5.0675648450851440e-01" nType="0">
        <Node pos="l" depth="1" NCoef="0" IVar="4" Cut="3.6185896396636963e-01" cType="1" res="-3.2361555844545364e-02" rms="4.3271043896675110e-01" purity="3.8756725192070007e-01" nType="0">
          <Node pos="l" depth="2" NCoef="0" IVar="-1" Cut="0.0000000000000000e+00" cType="1" res="-4.0009408257901669e-03" rms="4.1575884819030762e-01" purity="3.6017119884490967e-01" nType="-99"/>
          <Node pos="r" depth="2" NCoef="0" IVar="-1" Cut="0.0000000000000000e+00" cType="1" res="-1.6336869448423386e-02" rms="4.6789130568504333e-01" purity="4.5222899317741394e-01" nType="-99"/>
        </Node>
        <Node pos="r" depth="1" NCoef="0" IVar="2" Cut="8.8733665645122528e-02" cType="1" res="2.7602301910519600e-02" rms="4.4007238745689392e-01" purity="5.9956824779510498e-01" nType="0">
          <Node pos="l" depth="2" NCoef="0" IVar="-1" Cut="0.0000000000000000e+00" cType="1" res="1.0088103823363781e-02" rms="4.4053867459297180e-01" purity="6.3616049289703369e-01" nType="-99"/>
          <Node pos="r" depth="2" NCoef="0" IVar="-1" Cut="0.0000000000000000e+00" cType="1" res="-2.4742921814322472e-02" rms="4.1276428103446960e-01" purity="2.6563653349876404e-01" nType="-99"/>
        </Node>
      </Node>
    </BinaryTree>
    <BinaryTree type="DecisionTree" boostWeight="1.0000000000000000e+00" itree="54">
      <Node pos="s" depth="0" NCoef="0" IVar="2" Cut="7.4004987254738808e-03" cType="1" res="7.7912826091051102e-03" rms="4.4126600027084351e-01" purity="5.1273709535598755e-01" nType="0">
        <Node pos="l" depth="1" NCoef="0" IVar="4" Cut="7.8389114141464233e-01" cType="1" res="6.1305496841669083e-02" rms="4.2098987102508545e-01" purity="6.9593346118927002e-01" nType="0">
          <Node pos="l" depth="2" NCoef="0" IVar="-1" Cut="0.0000000000000000e+00" cType="1" res="7.5399754568934441e-03" rms="4.4029632210731506e-01" purity="6.3379430770874023e-01" nType="-99"/>
          <Node pos="r" depth="2" NCoef="0" IVar="-1" Cut="0.0000000000000000e+00" cType="1" res="3.1795766204595566e-02" rms="3.7390017509460449e-01" purity="8.1713885068893433e-01" nType="-99"/>
        </Node>
        <Node pos="r" depth="1" NCoef="0" IVar="1" Cut="3.3415241241455078e+00" cType="1" res="-2.4635095614939928e-03" rms="4.4431072473526001e-01" purity="4.7763162851333618e-01" nType="0">
          <Node pos="l" depth="2" NCoef="0" IVar="-1" Cut="0.0000000000000000e+00" cType="1" res="-1.5993574634194374e-02" rms="4.1186749935150146e-01" purity="2.7657306194305420e-01" nType="-99"/>
          <Node pos="r" depth="2" NCoef="0" IVar="-1" Cut="0.0000000000000000e+00" cType="1" res="2.0558980759233236e-03" rms="4.4890418648719788e-01" purity="5.1318866014480591e-01" nType="-99"/>
        </Node>
      </Node>
    </BinaryTree>
    <BinaryTree type="DecisionTree" boostWeight="1.0000000000000000e+00" itree="55">
      <Node pos="s" depth="0" NCoef="0" IVar="4" Cut="1.0246478319168091e+00" cType="1" res="-9.2851771041750908e-03" rms="4.3756076693534851e-01" purity="4.9176689982414246e-01" nType="0">
        <Node pos="l" depth="1" NCoef="0" IVar="3" Cut="3.5178229212760925e-01" cType="1" res="1.1289868270978332e-03" rms="4.3863514065742493e-01" purity="5.1175045967102051e-01" nType="0">
          <Node pos="l" depth="2" NCoef="0" IVar="-1" Cut="0.0000000000000000e+00" cType="1" res="3.5153289791196585e-03" rms="4.4126698374748230e-01" purity="5.5687832832336426e-01" nType="-99"/>
          <Node pos="r" depth="2" NCoef="0" IVar="-1" Cut="0.0000000000000000e+00" cType="1" res="-2.0957645028829575e-02" rms="4.1231235861778259e-01" purity="2.3261180520057678e-01" nType="-99"/>
        </Node>
        <Node pos="r" depth="1" NCoef="0" IVar="2" Cut="3.5513803362846375e-02" cType="1" res="-1.0330148041248322e-01" rms="4.1610437631607056e-01" purity="3.1136059761047363e-01" nType="0">
          <Node pos="l" depth="2" NCoef="0" IVar="-1" Cut="0.0000000000000000e+00" cType="1" res="-8.0813802778720856e-03" rms="4.8029947280883789e-01" purity="5.1593005657196045e-01" nType="-99"/>
          <Node pos="r" depth="2" NCoef="0" IVar="-1" Cut="0.0000000000000000e+00" cType="1" res="-3.6223892122507095e-02" rms="3.6081305146217346e-01" purity="1.7647822201251984e-01" nType="-99"/>
        </Node>
      </Node>
    </BinaryTree>
    <BinaryTree type="DecisionTree" boostWeight="1.0000000000000000e+00" itree="56">
      <Node pos="s" depth="0" NCoef="0" IVar="4" Cut="1.0839000940322876e+00" cType="1" res="-7.2496309876441956e-03" rms="4.4318518042564392e-01" purity="4.8767760396003723e-01" nType="0">
        <Node pos="l" depth="1" NCoef="0" IVar="3" Cut="1.1729180812835693e-01" cType="1" res="-7.6049903873354197e-04" rms="4.4574427604675293e-01" purity="5.0245070457458496e-01" nType="0">
          <Node pos="l" depth="2" NCoef="0" IVar="-1" Cut="0.0000000000000000e+00" cType="1" res="5.0107776187360287e-03" rms="4.4297242164611816e-01" purity="6.0507893562316895e-01" nType="-99"/>
          <Node pos="r" depth="2" NCoef="0" IVar="-1" Cut="0.0000000000000000e+00" cType="1" res="-3.3473493531346321e-03" rms="4.4689303636550903e-01" purity="4.4159543514251709e-01" nType="-99"/>
        </Node>
        <Node pos="r" depth="1" NCoef="0" IVar="2" Cut="5.2077703177928925e-02" cType="1" res="-8.6127400398254395e-02" rms="4.0252679586410522e-01" purity="3.0810555815696716e-01" nType="0">
          <Node pos="l" depth="2" NCoef="0" IVar="-1" Cut="0.0000000000000000e+00" cType="1" res="-4.3551302514970303e-03" rms="4.4516471028327942e-01" purity="5.0284677743911743e-01" nType="-99"/>
          <Node pos="r" depth="2" NCoef="0" IVar="-1" Cut="0.0000000000000000e+00" cType="1" res="-3.7185758352279663e-02" rms="3.5342791676521301e-01" purity="1.4505665004253387e-01" nType="-99"/>
        </Node>
      </Node>
    </BinaryTree>
    <BinaryTree type="DecisionTree" boostWeight="1.0000000000000000e+00" itree="57">
      <Node pos="s" depth="0" NCoef="0" IVar="3" Cut="1.4814861118793488e-01" cType="1" res="-4.8579797294223681e-05" rms="4.4211757183074951e-01" purity="4.9878963828086853e-01" nType="0">
        <Node pos="l" depth="1" NCoef="0" IVar="1" Cut="3.2223570346832275e+00" cType="1" res="2.4978673085570335e-02" rms="4.3616020679473877e-01" purity="6.0550868511199951e-01" nType="0">
          <Node pos="l" depth="2" NCoef="0" IVar="-1" Cut="0.0000000000000000e+00" cType="1" res="-1.6429172828793526e-02" rms="4.6302029490470886e-01" purity="3.6044636368751526e-01" nType="-99"/>
          <Node pos="r" depth="2" NCoef="0" IVar="-1" Cut="0.0000000000000000e+00" cType="1" res="8.5605317726731300e-03" rms="4.3190488219261169e-01" purity="6.3171398639678955e-01" nType="-99"/>
        </Node>
        <Node pos="r" depth="1" NCoef="0" IVar="3" Cut="1.9158841669559479e-01" cType="1" res="-1.9675986841320992e-02" rms="4.4575193524360657e-01" purity="4.1509616374969482e-01" nType="0">
          <Node pos="l" depth="2" NCoef="0" IVar="-1" Cut="0.0000000000000000e+00" cType="1" res="-1.8061487004160881e-02" rms="4.5578682422637939e-01" purity="4.6296617388725281e-01" nType="-99"/>
          <Node pos="r" depth="2" NCoef="0" IVar="-1" Cut="0.0000000000000000e+00" cType="1" res="-1.0541154770180583e-03" rms="4.4169503450393677e-01" purity="4.0186464786529541e-01" nType="-99"/>
        </Node>
      </Node>
    </BinaryTree>
    <BinaryTree type="DecisionTree" boostWeight="1.0000000000000000e+00" itree="58">
      <Node pos="s" depth="0" NCoef="0" IVar="2" Cut="2.4051621556282043e-02" cType="1" res="-1.2079585576429963e-03" rms="4.4115370512008667e-01" purity="4.9601414799690247e-01" nType="0">
        <Node pos="l" depth="1" NCoef="0" IVar="4" Cut="9.6645855903625488e-01" cType="1" res="1.7811870202422142e-02" rms="4.4523313641548157e-01" purity="6.2867438793182373e-01" nType="0">
          <Node pos="l" depth="2" NCoef="0" IVar="-1" Cut="0.0000000000000000e+00" cType="1" res="1.8630129052326083e-03" rms="4.4761979579925537e-01" purity="6.1296486854553223e-01" nType="-99"/>
          <Node pos="r" depth="2" NCoef="0" IVar="-1" Cut="0.0000000000000000e+00" cType="1" res="2.6082567870616913e-02" rms="4.1473871469497681e-01" purity="7.6105761528015137e-01" nType="-99"/>
        </Node>
        <Node pos="r" depth="1" NCoef="0" IVar="4" Cut="9.6273899078369141e-02" cType="1" res="-1.9674751907587051e-02" rms="4.3636399507522583e-01" purity="3.6721128225326538e-01" nType="0">
          <Node pos="l" depth="2" NCoef="0" IVar="-1" Cut="0.0000000000000000e+00" cType="1" res="-2.8763946145772934e-02" rms="2.8046450018882751e-01" purity="8.9219778776168823e-02" nType="-99"/>
          <Node pos="r" depth="2" NCoef="0" IVar="-1" Cut="0.0000000000000000e+00" cType="1" res="-1.8527490319684148e-03" rms="4.6096545457839966e-01" purity="4.2410090565681458e-01" nType="-99"/>
        </Node>
      </Node>
    </BinaryTree>
    <BinaryTree type="DecisionTree" boostWeight="1.0000000000000000e+00" itree="59">
      <Node pos="s" depth="0" NCoef="0" IVar="3" Cut="2.1602132916450500e-01" cType="1" res="-5.9759900905191898e-03" rms="4.3653011322021484e-01" purity="4.9646142125129700e-01" nType="0">
        <Node pos="l" depth="1" NCoef="0" IVar="2" Cut="7.9444490373134613e-02" cType="1" res="1.0604370385408401e-02" rms="4.4088220596313477e-01" purity="5.8295875787734985e-01" nType="0">
          <Node pos="l" depth="2" NCoef="0" IVar="-1" Cut="0.0000000000000000e+00" cType="1" res="4.9794949591159821e-03" rms="4.4148141145706177e-01" purity="6.2159472703933716e-01" nType="-99"/>
          <Node pos="r" depth="2" NCoef="0" IVar="-1" Cut="0.0000000000000000e+00" cType="1" res="-1.3800757005810738e-02" rms="4.3051156401634216e-01" purity="3.1085255742073059e-01" nType="-99"/>
        </Node>
        <Node pos="r" depth="1" NCoef="0" IVar="2" Cut="9.2506231740117073e-03" cType="1" res="-3.3314485102891922e-02" rms="4.2785701155662537e-01" purity="3.5384052991867065e-01" nType="0">
          <Node pos="l" depth="2" NCoef="0" IVar="-1" Cut="0.0000000000000000e+00" cType="1" res="6.3413316383957863e-03" rms="4.5391348004341125e-01" purity="5.6700754165649414e-01" nType="-99"/>
          <Node pos="r" depth="2" NCoef="0" IVar="-1" Cut="0.0000000000000000e+00" cType="1" res="-1.2402522377669811e-02" rms="4.2014983296394348e-01" purity="3.0322599411010742e-01" nType="-99"/>
        </Node>
      </Node>
    </BinaryTree>
    <BinaryTree type="DecisionTree" boostWeight="1.0000000000000000e+00" itree="60">
      <Node pos="s" depth="0" NCoef="0" IVar="3" Cut="3.7052940577268600e-02" cType="1" res="1.5917660668492317e-02" rms="4.3701797723770142e-01" purity="5.2098923921585083e-01" nType="0">
        <Node pos="l" depth="1" NCoef="0" IVar="4" Cut="4.1036292910575867e-01" cType="1" res="-3.2676216214895248e-02" rms="4.4608768820762634e-01" purity="5.6042736768722534e-01" nType="0">
          <Node pos="l" depth="2" NCoef="0" IVar="-1" Cut="0.0000000000000000e+00" cType="1" res="-2.2689033299684525e-02" rms="4.3102630972862244e-01" purity="3.4121882915496826e-01" nType="-99"/>
          <Node pos="r" depth="2" NCoef="0" IVar="-1" Cut="0.0000000000000000e+00" cType="1" res="-1.7586955800652504e-03" rms="4.4968646764755249e-01" purity="6.5096539258956909e-01" nType="-99"/>
        </Node>
        <Node pos="r" depth="1" NCoef="0" IVar="0" Cut="2.4563330078125000e+03" cType="1" res="2.2602867335081100e-02" rms="4.3533122539520264e-01" purity="5.1556360721588135e-01" nType="0">
          <Node pos="l" depth="2" NCoef="0" IVar="-1" Cut="0.0000000000000000e+00" cType="1" res="3.6554124671965837e-03" rms="4.4307422637939453e-01" purity="4.7726067900657654e-01" nType="-99"/>
          <Node pos="r" depth="2" NCoef="0" IVar="-1" Cut="0.0000000000000000e+00" cType="1" res="2.4578064680099487e-02" rms="3.6045107245445251e-01" purity="8.2709556818008423e-01" nType="-99"/>
        </Node>
      </Node>
    </BinaryTree>
    <BinaryTree type="DecisionTree" boostWeight="1.0000000000000000e+00" itree="61">
      <Node pos="s" depth="0" NCoef="0" IVar="3" Cut="9.8781742155551910e-02" cType="1" res="1.1581164784729481e-02" rms="4.4191840291023254e-01" purity="5.1300948858261108e-01" nType="0">
        <Node pos="l" depth="1" NCoef="0" IVar="4" Cut="2.3503561317920685e-01" cType="1" res="4.1479092091321945e-02" rms="4.2763304710388184e-01" purity="6.2592357397079468e-01" nType="0">
          <Node pos="l" depth="2" NCoef="0" IVar="-1" Cut="0.0000000000000000e+00" cType="1" res="-7.1103307418525219e-03" rms="4.2685583233833313e-01" purity="3.4381374716758728e-01" nType="-99"/>
          <Node pos="r" depth="2" NCoef="0" IVar="-1" Cut="0.0000000000000000e+00" cType="1" res="1.5137854963541031e-02" rms="4.2574885487556458e-01" purity="7.0655798912048340e-01" nType="-99"/>
        </Node>
        <Node pos="r" depth="1" NCoef="0" IVar="0" Cut="1.1006972656250000e+03" cType="1" res="-2.7961756568402052e-03" rms="4.4791603088378906e-01" purity="4.5871123671531677e-01" nType="0">
          <Node pos="l" depth="2" NCoef="0" IVar="-1" Cut="0.0000000000000000e+00" cType="1" res="6.3629751093685627e-03" rms="4.5325037837028503e-01" purity="3.5980010032653809e-01" nType="-99"/>
          <Node pos="r" depth="2" NCoef="0" IVar="-1" Cut="0.0000000000000000e+00" cType="1" res="-5.9122666716575623e-03" rms="4.4257628917694092e-01" purity="5.3494113683700562e-01" nType="-99"/>
        </Node>
      </Node>
    </BinaryTree>
    <BinaryTree type="DecisionTree" boostWeight="1.0000000000000000e+00" itree="62">
      <Node pos="s" depth="0" NCoef="0" IVar="4" Cut="1.0246438980102539e+00" cType="1" res="1.3890401460230350e-03" rms="4.3220189213752747e-01" purity="5.0343221426010132e-01" nType="0">
        <Node pos="l" depth="1" NCoef="0" IVar="4" Cut="7.2207570075988770e-01" cType="1" res="8.1876888871192932e-03" rms="4.3317019939422607e-01" purity="5.1907557249069214e-01" nType="0">
          <Node pos="l" depth="2" NCoef="0" IVar="-1" Cut="0.0000000000000000e+00" cType="1" res="-2.3169214837253094e-03" rms="4.3737539649009705e-01" purity="4.4719675183296204e-01" nType="-99"/>
          <Node pos="r" depth="2" NCoef="0" IVar="-1" Cut="0.0000000000000000e+00" cType="1" res="1.2170303612947464e-02" rms="4.2050278186798096e-01" purity="6.8562650680541992e-01" nType="-99"/>
        </Node>
        <Node pos="r" depth="1" NCoef="0" IVar="1" Cut="3.8249197006225586e+00" cType="1" res="-5.8187697082757950e-02" rms="4.1892850399017334e-01" purity="3.6634942889213562e-01" nType="0">
          <Node pos="l" depth="2" NCoef="0" IVar="-1" Cut="0.0000000000000000e+00" cType="1" res="-3.8961604237556458e-02" rms="3.6458110809326172e-01" purity="1.4460507035255432e-01" nType="-99"/>
          <Node pos="r" depth="2" NCoef="0" IVar="-1" Cut="0.0000000000000000e+00" cType="1" res="-4.7207819297909737e-03" rms="4.3669044971466064e-01" purity="4.6988499164581299e-01" nType="-99"/>
        </Node>
      </Node>
    </BinaryTree>
    <BinaryTree type="DecisionTree" boostWeight="1.0000000000000000e+00" itree="63">
      <Node pos="s" depth="0" NCoef="0" IVar="1" Cut="6.3172383308410645e+00" cType="1" res="8.5521154105663300e-03" rms="4.4642743468284607e-01" purity="5.0534331798553467e-01" nType="0">
