<?xml version="1.0"?>
<MethodSetup Method="BDT::BDT-HM-10Folds_fold6">
  <GeneralInfo>
    <Info name="TMVA Release" value="4.2.1 [262657]"/>
    <Info name="ROOT Release" value="6.28/04 [400388]"/>
    <Info name="Creator" value="diegomac"/>
    <Info name="Date" value="Wed Oct  4 12:41:10 2023"/>
    <Info name="Host" value="Darwin Diegos-MacBook-Pro-2.local 22.4.0 Darwin Kernel Version 22.4.0: Mon Mar 6 20:59:28 PST 2023; root:xnu-8796.101.5~3/RELEASE_ARM64_T6000 arm64"/>
    <Info name="Dir" value="/Users/diegomac/Documents/HEP/MVA-Analysis"/>
    <Info name="Training events" value="35292"/>
    <Info name="TrainingTime" value="6.92488909e-01"/>
    <Info name="AnalysisType" value="Classification"/>
  </GeneralInfo>
  <Options>
    <Option name="V" modified="Yes">False</Option>
    <Option name="VerbosityLevel" modified="No">Default</Option>
    <Option name="VarTransform" modified="No">None</Option>
    <Option name="H" modified="Yes">False</Option>
    <Option name="CreateMVAPdfs" modified="No">False</Option>
    <Option name="IgnoreNegWeightsInTraining" modified="No">False</Option>
    <Option name="NTrees" modified="Yes">125</Option>
    <Option name="MaxDepth" modified="Yes">2</Option>
    <Option name="MinNodeSize" modified="Yes">3%</Option>
    <Option name="nCuts" modified="Yes">80</Option>
    <Option name="BoostType" modified="Yes">Grad</Option>
    <Option name="AdaBoostR2Loss" modified="No">quadratic</Option>
    <Option name="UseBaggedBoost" modified="Yes">True</Option>
    <Option name="Shrinkage" modified="Yes">1.000000e-01</Option>
    <Option name="AdaBoostBeta" modified="No">5.000000e-01</Option>
    <Option name="UseRandomisedTrees" modified="No">False</Option>
    <Option name="UseNvars" modified="Yes">2</Option>
    <Option name="UsePoissonNvars" modified="No">True</Option>
    <Option name="BaggedSampleFraction" modified="Yes">5.000000e-01</Option>
    <Option name="UseYesNoLeaf" modified="No">True</Option>
    <Option name="NegWeightTreatment" modified="No">pray</Option>
    <Option name="Css" modified="No">1.000000e+00</Option>
    <Option name="Cts_sb" modified="No">1.000000e+00</Option>
    <Option name="Ctb_ss" modified="No">1.000000e+00</Option>
    <Option name="Cbb" modified="No">1.000000e+00</Option>
    <Option name="NodePurityLimit" modified="No">5.000000e-01</Option>
    <Option name="SeparationType" modified="Yes">sdivsqrtsplusb</Option>
    <Option name="RegressionLossFunctionBDTG" modified="No">huber</Option>
    <Option name="HuberQuantile" modified="No">7.000000e-01</Option>
    <Option name="DoBoostMonitor" modified="No">False</Option>
    <Option name="UseFisherCuts" modified="No">False</Option>
    <Option name="MinLinCorrForFisher" modified="No">8.000000e-01</Option>
    <Option name="UseExclusiveVars" modified="No">False</Option>
    <Option name="DoPreselection" modified="No">False</Option>
    <Option name="SigToBkgFraction" modified="No">1.000000e+00</Option>
    <Option name="PruneMethod" modified="No">nopruning</Option>
    <Option name="PruneStrength" modified="No">0.000000e+00</Option>
    <Option name="PruningValFraction" modified="No">5.000000e-01</Option>
    <Option name="SkipNormalization" modified="No">False</Option>
    <Option name="nEventsMin" modified="No">0</Option>
    <Option name="UseBaggedGrad" modified="No">False</Option>
    <Option name="GradBaggingFraction" modified="No">5.000000e-01</Option>
    <Option name="UseNTrainEvents" modified="No">0</Option>
    <Option name="NNodesMax" modified="No">0</Option>
  </Options>
  <Variables NVar="6">
    <Variable VarIndex="0" Expression="mjj" Label="mjj" Title="m_{jj}" Unit="GeV" Internal="mjj" Type="D" Min="7.50003479e+02" Max="8.69623633e+03"/>
    <Variable VarIndex="1" Expression="deltaRapidity" Label="deltaRapidity" Title="#Delta y_{jj}" Unit="" Internal="deltaRapidity" Type="D" Min="2.00020766e+00" Max="8.59782600e+00"/>
    <Variable VarIndex="2" Expression="ptBalance" Label="ptBalance" Title="pT_{balance}" Unit="" Internal="ptBalance" Type="D" Min="1.25554126e-18" Max="1.49860099e-01"/>
    <Variable VarIndex="3" Expression="zCentrality" Label="zCentrality" Title="#xi(Z)" Unit="" Internal="zCentrality" Type="D" Min="9.20502589e-06" Max="4.99961168e-01"/>
    <Variable VarIndex="4" Expression="omega" Label="omega" Title="#Omega" Unit="" Internal="omega" Type="D" Min="-1.99983269e-01" Max="1.39996660e+00"/>
    <Variable VarIndex="5" Expression="transverseMassLep/reco_mass" Label="transRecoMassRatio" Title="m_{T}(l)/m_{reco}" Unit="" Internal="transRecoMassRatio" Type="D" Min="7.56286568e-07" Max="1.04461050e+00"/>
  </Variables>
  <Spectators NSpec="1">
    <Spectator SpecIndex="0" Expression="eventNumber" Label="eventNumber" Title="I" Unit="" Internal="eventNumber" Type="F" Min="8.40000000e+01" Max="1.15952781e+09"/>
  </Spectators>
  <Classes NClass="2">
    <Class Name="Signal" Index="0"/>
    <Class Name="Background" Index="1"/>
  </Classes>
  <Transformations NTransformations="0"/>
  <MVAPdfs/>
  <Weights NTrees="125" AnalysisType="1">
    <BinaryTree type="DecisionTree" boostWeight="1.0000000000000000e+00" itree="0">
      <Node pos="s" depth="0" NCoef="0" IVar="0" Cut="1.4367149658203125e+03" cType="1" res="6.8747252225875854e-03" rms="4.9995273351669312e-01" purity="5.0687474012374878e-01" nType="0">
        <Node pos="l" depth="1" NCoef="0" IVar="4" Cut="1.9586183130741119e-01" cType="1" res="-8.7001115083694458e-02" rms="4.9237263202667236e-01" purity="4.1299888491630554e-01" nType="0">
          <Node pos="l" depth="2" NCoef="0" IVar="-1" Cut="0.0000000000000000e+00" cType="1" res="-6.1398938298225403e-02" rms="3.9465713500976562e-01" purity="1.9300530850887299e-01" nType="-99"/>
          <Node pos="r" depth="2" NCoef="0" IVar="-1" Cut="0.0000000000000000e+00" cType="1" res="-5.1695806905627251e-03" rms="4.9933144450187683e-01" purity="4.7415211796760559e-01" nType="-99"/>
        </Node>
        <Node pos="r" depth="1" NCoef="0" IVar="4" Cut="9.6317514777183533e-02" cType="1" res="1.6369087994098663e-01" rms="4.7244608402252197e-01" purity="6.6369092464447021e-01" nType="0">
          <Node pos="l" depth="2" NCoef="0" IVar="-1" Cut="0.0000000000000000e+00" cType="1" res="-2.3740017786622047e-02" rms="4.8570597171783447e-01" purity="3.8129994273185730e-01" nType="-99"/>
          <Node pos="r" depth="2" NCoef="0" IVar="-1" Cut="0.0000000000000000e+00" cType="1" res="4.0561247617006302e-02" rms="4.5702257752418518e-01" purity="7.0280623435974121e-01" nType="-99"/>
        </Node>
      </Node>
    </BinaryTree>
    <BinaryTree type="DecisionTree" boostWeight="1.0000000000000000e+00" itree="1">
      <Node pos="s" depth="0" NCoef="0" IVar="2" Cut="2.9597617685794830e-02" cType="1" res="-8.4996788064017892e-04" rms="4.9508008360862732e-01" purity="4.9937140941619873e-01" nType="0">
        <Node pos="l" depth="1" NCoef="0" IVar="1" Cut="4.3623547554016113e+00" cType="1" res="1.0756290704011917e-01" rms="4.8323038220405579e-01" purity="6.1007630825042725e-01" nType="0">
          <Node pos="l" depth="2" NCoef="0" IVar="-1" Cut="0.0000000000000000e+00" cType="1" res="-6.1985584907233715e-03" rms="4.9618852138519287e-01" purity="4.6433120965957642e-01" nType="-99"/>
          <Node pos="r" depth="2" NCoef="0" IVar="-1" Cut="0.0000000000000000e+00" cType="1" res="4.4627409428358078e-02" rms="4.4009271264076233e-01" purity="7.3138302564620972e-01" nType="-99"/>
        </Node>
        <Node pos="r" depth="1" NCoef="0" IVar="4" Cut="4.1233065724372864e-01" cType="1" res="-1.3110886514186859e-01" rms="4.7743466496467590e-01" purity="3.6635866761207581e-01" nType="0">
          <Node pos="l" depth="2" NCoef="0" IVar="-1" Cut="0.0000000000000000e+00" cType="1" res="-5.1469009369611740e-02" rms="4.1649213433265686e-01" purity="2.2980023920536041e-01" nType="-99"/>
          <Node pos="r" depth="2" NCoef="0" IVar="-1" Cut="0.0000000000000000e+00" cType="1" res="-1.0030812583863735e-02" rms="4.9628546833992004e-01" purity="4.5432665944099426e-01" nType="-99"/>
        </Node>
      </Node>
    </BinaryTree>
    <BinaryTree type="DecisionTree" boostWeight="1.0000000000000000e+00" itree="2">
      <Node pos="s" depth="0" NCoef="0" IVar="2" Cut="2.4023259058594704e-02" cType="1" res="-1.1749213561415672e-02" rms="4.9037835001945496e-01" purity="4.8913255333900452e-01" nType="0">
        <Node pos="l" depth="1" NCoef="0" IVar="3" Cut="2.6541072130203247e-01" cType="1" res="9.9788650870323181e-02" rms="4.8038232326507568e-01" purity="6.1399054527282715e-01" nType="0">
          <Node pos="l" depth="2" NCoef="0" IVar="-1" Cut="0.0000000000000000e+00" cType="1" res="3.6201719194650650e-02" rms="4.5357722043991089e-01" purity="6.9783407449722290e-01" nType="-99"/>
          <Node pos="r" depth="2" NCoef="0" IVar="-1" Cut="0.0000000000000000e+00" cType="1" res="-2.4668371304869652e-02" rms="4.8202842473983765e-01" purity="3.8219982385635376e-01" nType="-99"/>
        </Node>
        <Node pos="r" depth="1" NCoef="0" IVar="3" Cut="2.7776029706001282e-01" cType="1" res="-1.2543955445289612e-01" rms="4.7408401966094971e-01" purity="3.6186495423316956e-01" nType="0">
          <Node pos="l" depth="2" NCoef="0" IVar="-1" Cut="0.0000000000000000e+00" cType="1" res="-1.4482542872428894e-02" rms="4.8623833060264587e-01" purity="4.1607430577278137e-01" nType="-99"/>
          <Node pos="r" depth="2" NCoef="0" IVar="-1" Cut="0.0000000000000000e+00" cType="1" res="-5.3969629108905792e-02" rms="4.0629732608795166e-01" purity="2.1583293378353119e-01" nType="-99"/>
        </Node>
      </Node>
    </BinaryTree>
    <BinaryTree type="DecisionTree" boostWeight="1.0000000000000000e+00" itree="3">
      <Node pos="s" depth="0" NCoef="0" IVar="4" Cut="2.9387304186820984e-01" cType="1" res="1.3739003799855709e-02" rms="4.8561456799507141e-01" purity="5.1300913095474243e-01" nType="0">
        <Node pos="l" depth="1" NCoef="0" IVar="2" Cut="1.3093879446387291e-02" cType="1" res="-1.6154633462429047e-01" rms="4.4786739349365234e-01" purity="3.1230157613754272e-01" nType="0">
          <Node pos="l" depth="2" NCoef="0" IVar="-1" Cut="0.0000000000000000e+00" cType="1" res="8.1966109573841095e-03" rms="4.8829492926597595e-01" purity="5.5160874128341675e-01" nType="-99"/>
          <Node pos="r" depth="2" NCoef="0" IVar="-1" Cut="0.0000000000000000e+00" cType="1" res="-4.8341888934373856e-02" rms="4.0551504492759705e-01" purity="2.2072239220142365e-01" nType="-99"/>
        </Node>
        <Node pos="r" depth="1" NCoef="0" IVar="3" Cut="2.9626208543777466e-01" cType="1" res="8.0174602568149567e-02" rms="4.8282262682914734e-01" purity="5.8908021450042725e-01" nType="0">
          <Node pos="l" depth="2" NCoef="0" IVar="-1" Cut="0.0000000000000000e+00" cType="1" res="2.6330024003982544e-02" rms="4.7073519229888916e-01" purity="6.4623618125915527e-01" nType="-99"/>
          <Node pos="r" depth="2" NCoef="0" IVar="-1" Cut="0.0000000000000000e+00" cType="1" res="-2.3030361160635948e-02" rms="4.7885569930076599e-01" purity="3.7027239799499512e-01" nType="-99"/>
        </Node>
      </Node>
    </BinaryTree>
    <BinaryTree type="DecisionTree" boostWeight="1.0000000000000000e+00" itree="4">
      <Node pos="s" depth="0" NCoef="0" IVar="2" Cut="2.9601994901895523e-02" cType="1" res="8.6531555280089378e-03" rms="4.8091104626655579e-01" purity="5.0882434844970703e-01" nType="0">
        <Node pos="l" depth="1" NCoef="0" IVar="1" Cut="5.7142424583435059e+00" cType="1" res="9.9256336688995361e-02" rms="4.7105655074119568e-01" purity="6.2417829036712646e-01" nType="0">
          <Node pos="l" depth="2" NCoef="0" IVar="-1" Cut="0.0000000000000000e+00" cType="1" res="1.0851152241230011e-02" rms="4.8392891883850098e-01" purity="5.7279515266418457e-01" nType="-99"/>
          <Node pos="r" depth="2" NCoef="0" IVar="-1" Cut="0.0000000000000000e+00" cType="1" res="7.0923276245594025e-02" rms="2.8375115990638733e-01" purity="9.0701520442962646e-01" nType="-99"/>
        </Node>
        <Node pos="r" depth="1" NCoef="0" IVar="4" Cut="5.6839756667613983e-02" cType="1" res="-1.0611482709646225e-01" rms="4.6860283613204956e-01" purity="3.6270433664321899e-01" nType="0">
          <Node pos="l" depth="2" NCoef="0" IVar="-1" Cut="0.0000000000000000e+00" cType="1" res="-6.7496478557586670e-02" rms="2.7870187163352966e-01" purity="8.5558280348777771e-02" nType="-99"/>
          <Node pos="r" depth="2" NCoef="0" IVar="-1" Cut="0.0000000000000000e+00" cType="1" res="-1.2507221661508083e-02" rms="4.8601046204566956e-01" purity="4.1790181398391724e-01" nType="-99"/>
        </Node>
      </Node>
    </BinaryTree>
    <BinaryTree type="DecisionTree" boostWeight="1.0000000000000000e+00" itree="5">
      <Node pos="s" depth="0" NCoef="0" IVar="0" Cut="1.2922807617187500e+03" cType="1" res="-8.4468303248286247e-03" rms="4.7812002897262573e-01" purity="4.9199482798576355e-01" nType="0">
        <Node pos="l" depth="1" NCoef="0" IVar="3" Cut="2.9624518752098083e-01" cType="1" res="-9.8963215947151184e-02" rms="4.7128435969352722e-01" purity="3.8045680522918701e-01" nType="0">
          <Node pos="l" depth="2" NCoef="0" IVar="-1" Cut="0.0000000000000000e+00" cType="1" res="-9.8782265558838844e-03" rms="4.8385924100875854e-01" purity="4.4250005483627319e-01" nType="-99"/>
          <Node pos="r" depth="2" NCoef="0" IVar="-1" Cut="0.0000000000000000e+00" cType="1" res="-4.6187825500965118e-02" rms="4.1042062640190125e-01" purity="2.2143034636974335e-01" nType="-99"/>
        </Node>
        <Node pos="r" depth="1" NCoef="0" IVar="3" Cut="2.5306516885757446e-01" cType="1" res="9.7766295075416565e-02" rms="4.6402448415756226e-01" purity="6.2287497520446777e-01" nType="0">
          <Node pos="l" depth="2" NCoef="0" IVar="-1" Cut="0.0000000000000000e+00" cType="1" res="3.1980331987142563e-02" rms="4.4190558791160583e-01" purity="6.9329833984375000e-01" nType="-99"/>
          <Node pos="r" depth="2" NCoef="0" IVar="-1" Cut="0.0000000000000000e+00" cType="1" res="-1.4277328737080097e-02" rms="4.8367920517921448e-01" purity="4.2266264557838440e-01" nType="-99"/>
        </Node>
      </Node>
    </BinaryTree>
    <BinaryTree type="DecisionTree" boostWeight="1.0000000000000000e+00" itree="6">
      <Node pos="s" depth="0" NCoef="0" IVar="4" Cut="1.3686376810073853e-01" cType="1" res="7.3872408829629421e-03" rms="4.7598889470100403e-01" purity="5.0970470905303955e-01" nType="0">
        <Node pos="l" depth="1" NCoef="0" IVar="2" Cut="2.7832239866256714e-02" cType="1" res="-1.8919071555137634e-01" rms="4.0835699439048767e-01" purity="2.4305750429630280e-01" nType="0">
          <Node pos="l" depth="2" NCoef="0" IVar="-1" Cut="0.0000000000000000e+00" cType="1" res="-1.7405489459633827e-02" rms="4.8227238655090332e-01" purity="4.0311199426651001e-01" nType="-99"/>
          <Node pos="r" depth="2" NCoef="0" IVar="-1" Cut="0.0000000000000000e+00" cType="1" res="-5.8106090873479843e-02" rms="3.1054028868675232e-01" purity="1.1093146353960037e-01" nType="-99"/>
        </Node>
        <Node pos="r" depth="1" NCoef="0" IVar="3" Cut="3.2710579037666321e-01" cType="1" res="4.4300492852926254e-02" rms="4.7872495651245117e-01" purity="5.5977547168731689e-01" nType="0">
          <Node pos="l" depth="2" NCoef="0" IVar="-1" Cut="0.0000000000000000e+00" cType="1" res="1.6601512208580971e-02" rms="4.7423455119132996e-01" purity="6.0913527011871338e-01" nType="-99"/>
          <Node pos="r" depth="2" NCoef="0" IVar="-1" Cut="0.0000000000000000e+00" cType="1" res="-2.8926359489560127e-02" rms="4.5655763149261475e-01" purity="3.1397166848182678e-01" nType="-99"/>
        </Node>
      </Node>
    </BinaryTree>
    <BinaryTree type="DecisionTree" boostWeight="1.0000000000000000e+00" itree="7">
      <Node pos="s" depth="0" NCoef="0" IVar="0" Cut="1.3709207763671875e+03" cType="1" res="-1.2274976819753647e-02" rms="4.7115507721900940e-01" purity="4.8606562614440918e-01" nType="0">
        <Node pos="l" depth="1" NCoef="0" IVar="4" Cut="3.1337222456932068e-01" cType="1" res="-8.5401117801666260e-02" rms="4.6680352091789246e-01" purity="3.8458901643753052e-01" nType="0">
          <Node pos="l" depth="2" NCoef="0" IVar="-1" Cut="0.0000000000000000e+00" cType="1" res="-4.5600853860378265e-02" rms="3.8808700442314148e-01" purity="1.9661584496498108e-01" nType="-99"/>
          <Node pos="r" depth="2" NCoef="0" IVar="-1" Cut="0.0000000000000000e+00" cType="1" res="-5.2843932062387466e-03" rms="4.8652395606040955e-01" purity="4.6876597404479980e-01" nType="-99"/>
        </Node>
        <Node pos="r" depth="1" NCoef="0" IVar="2" Cut="3.1372934579849243e-02" cType="1" res="1.0455282032489777e-01" rms="4.5422017574310303e-01" purity="6.4818668365478516e-01" nType="0">
          <Node pos="l" depth="2" NCoef="0" IVar="-1" Cut="0.0000000000000000e+00" cType="1" res="3.5373236984014511e-02" rms="4.2672514915466309e-01" purity="7.4277210235595703e-01" nType="-99"/>
          <Node pos="r" depth="2" NCoef="0" IVar="-1" Cut="0.0000000000000000e+00" cType="1" res="-6.6541843116283417e-03" rms="4.7749289870262146e-01" purity="4.5400047302246094e-01" nType="-99"/>
        </Node>
      </Node>
    </BinaryTree>
    <BinaryTree type="DecisionTree" boostWeight="1.0000000000000000e+00" itree="8">
      <Node pos="s" depth="0" NCoef="0" IVar="2" Cut="3.7002492696046829e-02" cType="1" res="-2.3363535292446613e-03" rms="4.6888113021850586e-01" purity="5.0029832124710083e-01" nType="0">
        <Node pos="l" depth="1" NCoef="0" IVar="4" Cut="2.1500636637210846e-01" cType="1" res="6.0170397162437439e-02" rms="4.6663361787796021e-01" purity="5.9337246417999268e-01" nType="0">
          <Node pos="l" depth="2" NCoef="0" IVar="-1" Cut="0.0000000000000000e+00" cType="1" res="-2.4563478305935860e-02" rms="4.5272237062454224e-01" purity="3.4792697429656982e-01" nType="-99"/>
          <Node pos="r" depth="2" NCoef="0" IVar="-1" Cut="0.0000000000000000e+00" cType="1" res="2.0532445982098579e-02" rms="4.6029153466224670e-01" purity="6.4799547195434570e-01" nType="-99"/>
        </Node>
        <Node pos="r" depth="1" NCoef="0" IVar="4" Cut="9.6909567713737488e-02" cType="1" res="-1.1647665500640869e-01" rms="4.5113903284072876e-01" purity="3.3034065365791321e-01" nType="0">
          <Node pos="l" depth="2" NCoef="0" IVar="-1" Cut="0.0000000000000000e+00" cType="1" res="-6.2913626432418823e-02" rms="2.3701140284538269e-01" purity="5.9301264584064484e-02" nType="-99"/>
          <Node pos="r" depth="2" NCoef="0" IVar="-1" Cut="0.0000000000000000e+00" cType="1" res="-1.6093188896775246e-02" rms="4.7876432538032532e-01" purity="3.9140611886978149e-01" nType="-99"/>
        </Node>
      </Node>
    </BinaryTree>
    <BinaryTree type="DecisionTree" boostWeight="1.0000000000000000e+00" itree="9">
      <Node pos="s" depth="0" NCoef="0" IVar="3" Cut="3.1475991010665894e-01" cType="1" res="-1.7752962594386190e-04" rms="4.6607103943824768e-01" purity="5.0001400709152222e-01" nType="0">
        <Node pos="l" depth="1" NCoef="0" IVar="1" Cut="3.3848929405212402e+00" cType="1" res="3.8646306842565536e-02" rms="4.6650189161300659e-01" purity="5.5723559856414795e-01" nType="0">
          <Node pos="l" depth="2" NCoef="0" IVar="-1" Cut="0.0000000000000000e+00" cType="1" res="-3.3330835402011871e-02" rms="4.5218056440353394e-01" purity="3.1631979346275330e-01" nType="-99"/>
          <Node pos="r" depth="2" NCoef="0" IVar="-1" Cut="0.0000000000000000e+00" cType="1" res="1.4856986701488495e-02" rms="4.6046945452690125e-01" purity="5.9672862291336060e-01" nType="-99"/>
        </Node>
        <Node pos="r" depth="1" NCoef="0" IVar="3" Cut="4.1990694403648376e-01" cType="1" res="-1.5786536037921906e-01" rms="4.2965427041053772e-01" purity="2.6760116219520569e-01" nType="0">
          <Node pos="l" depth="2" NCoef="0" IVar="-1" Cut="0.0000000000000000e+00" cType="1" res="-2.4395048618316650e-02" rms="4.4760140776634216e-01" purity="3.0898299813270569e-01" nType="-99"/>
          <Node pos="r" depth="2" NCoef="0" IVar="-1" Cut="0.0000000000000000e+00" cType="1" res="-5.1248926669359207e-02" rms="3.7240111827850342e-01" purity="1.7727236449718475e-01" nType="-99"/>
        </Node>
      </Node>
    </BinaryTree>
    <BinaryTree type="DecisionTree" boostWeight="1.0000000000000000e+00" itree="10">
      <Node pos="s" depth="0" NCoef="0" IVar="2" Cut="3.1447470188140869e-02" cType="1" res="1.9841580651700497e-03" rms="4.6603196859359741e-01" purity="5.0220334529876709e-01" nType="0">
        <Node pos="l" depth="1" NCoef="0" IVar="1" Cut="3.6788573265075684e+00" cType="1" res="7.1106180548667908e-02" rms="4.6121752262115479e-01" purity="6.1635410785675049e-01" nType="0">
          <Node pos="l" depth="2" NCoef="0" IVar="-1" Cut="0.0000000000000000e+00" cType="1" res="-1.6048476099967957e-02" rms="4.7705662250518799e-01" purity="4.1089943051338196e-01" nType="-99"/>
          <Node pos="r" depth="2" NCoef="0" IVar="-1" Cut="0.0000000000000000e+00" cType="1" res="2.3494541645050049e-02" rms="4.4787836074829102e-01" purity="6.7350614070892334e-01" nType="-99"/>
        </Node>
        <Node pos="r" depth="1" NCoef="0" IVar="1" Cut="4.9472780227661133e+00" cType="1" res="-9.1682545840740204e-02" rms="4.5605623722076416e-01" purity="3.4751847386360168e-01" nType="0">
          <Node pos="l" depth="2" NCoef="0" IVar="-1" Cut="0.0000000000000000e+00" cType="1" res="-2.7680417522788048e-02" rms="4.4084197282791138e-01" purity="2.9357591271400452e-01" nType="-99"/>
          <Node pos="r" depth="2" NCoef="0" IVar="-1" Cut="0.0000000000000000e+00" cType="1" res="3.0380748212337494e-03" rms="4.7797721624374390e-01" purity="4.9025392532348633e-01" nType="-99"/>
        </Node>
      </Node>
    </BinaryTree>
    <BinaryTree type="DecisionTree" boostWeight="1.0000000000000000e+00" itree="11">
      <Node pos="s" depth="0" NCoef="0" IVar="2" Cut="2.9557175934314728e-02" cType="1" res="1.2555915862321854e-02" rms="4.6248048543930054e-01" purity="5.1251244544982910e-01" nType="0">
        <Node pos="l" depth="1" NCoef="0" IVar="0" Cut="9.9697644042968750e+02" cType="1" res="7.9548887908458710e-02" rms="4.5625734329223633e-01" purity="6.3620531558990479e-01" nType="0">
          <Node pos="l" depth="2" NCoef="0" IVar="-1" Cut="0.0000000000000000e+00" cType="1" res="-1.0294470004737377e-02" rms="4.7828400135040283e-01" purity="4.4127961993217468e-01" nType="-99"/>
          <Node pos="r" depth="2" NCoef="0" IVar="-1" Cut="0.0000000000000000e+00" cType="1" res="2.6635451242327690e-02" rms="4.3855524063110352e-01" purity="7.0691442489624023e-01" nType="-99"/>
        </Node>
        <Node pos="r" depth="1" NCoef="0" IVar="4" Cut="7.6987519860267639e-02" cType="1" res="-7.2139225900173187e-02" rms="4.5636516809463501e-01" purity="3.5613501071929932e-01" nType="0">
          <Node pos="l" depth="2" NCoef="0" IVar="-1" Cut="0.0000000000000000e+00" cType="1" res="-5.2346009761095047e-02" rms="2.7577111124992371e-01" purity="8.3603784441947937e-02" nType="-99"/>
          <Node pos="r" depth="2" NCoef="0" IVar="-1" Cut="0.0000000000000000e+00" cType="1" res="-8.4149148315191269e-03" rms="4.8015254735946655e-01" purity="4.1350182890892029e-01" nType="-99"/>
        </Node>
      </Node>
    </BinaryTree>
    <BinaryTree type="DecisionTree" boostWeight="1.0000000000000000e+00" itree="12">
      <Node pos="s" depth="0" NCoef="0" IVar="0" Cut="1.3258618164062500e+03" cType="1" res="8.5462862625718117e-03" rms="4.6054288744926453e-01" purity="5.0961750745773315e-01" nType="0">
        <Node pos="l" depth="1" NCoef="0" IVar="4" Cut="5.1123970746994019e-01" cType="1" res="-5.1617857068777084e-02" rms="4.6292456984519958e-01" purity="4.0137496590614319e-01" nType="0">
          <Node pos="l" depth="2" NCoef="0" IVar="-1" Cut="0.0000000000000000e+00" cType="1" res="-3.0878188088536263e-02" rms="4.2060989141464233e-01" purity="2.6465937495231628e-01" nType="-99"/>
          <Node pos="r" depth="2" NCoef="0" IVar="-1" Cut="0.0000000000000000e+00" cType="1" res="5.2912198007106781e-03" rms="4.8267847299575806e-01" purity="5.1762044429779053e-01" nType="-99"/>
        </Node>
        <Node pos="r" depth="1" NCoef="0" IVar="4" Cut="1.7241843044757843e-02" cType="1" res="9.0651459991931915e-02" rms="4.4431653618812561e-01" purity="6.5733450651168823e-01" nType="0">
          <Node pos="l" depth="2" NCoef="0" IVar="-1" Cut="0.0000000000000000e+00" cType="1" res="-3.3217590302228928e-02" rms="3.7486630678176880e-01" purity="2.4589699506759644e-01" nType="-99"/>
          <Node pos="r" depth="2" NCoef="0" IVar="-1" Cut="0.0000000000000000e+00" cType="1" res="2.3338612169027328e-02" rms="4.4372445344924927e-01" purity="6.9071823358535767e-01" nType="-99"/>
        </Node>
      </Node>
    </BinaryTree>
    <BinaryTree type="DecisionTree" boostWeight="1.0000000000000000e+00" itree="13">
      <Node pos="s" depth="0" NCoef="0" IVar="2" Cut="2.4051621556282043e-02" cType="1" res="-7.0670284330844879e-03" rms="4.6240234375000000e-01" purity="4.9209463596343994e-01" nType="0">
        <Node pos="l" depth="1" NCoef="0" IVar="1" Cut="3.4011671543121338e+00" cType="1" res="5.5415675044059753e-02" rms="4.6201872825622559e-01" purity="6.2088352441787720e-01" nType="0">
          <Node pos="l" depth="2" NCoef="0" IVar="-1" Cut="0.0000000000000000e+00" cType="1" res="-1.6859896481037140e-02" rms="4.7815063595771790e-01" purity="3.9633408188819885e-01" nType="-99"/>
          <Node pos="r" depth="2" NCoef="0" IVar="-1" Cut="0.0000000000000000e+00" cType="1" res="1.7906080931425095e-02" rms="4.5322087407112122e-01" purity="6.6810905933380127e-01" nType="-99"/>
        </Node>
        <Node pos="r" depth="1" NCoef="0" IVar="0" Cut="1.0083678588867188e+03" cType="1" res="-6.6893167793750763e-02" rms="4.5479470491409302e-01" purity="3.6878138780593872e-01" nType="0">
          <Node pos="l" depth="2" NCoef="0" IVar="-1" Cut="0.0000000000000000e+00" cType="1" res="-3.2325051724910736e-02" rms="4.1524237394332886e-01" purity="2.4449436366558075e-01" nType="-99"/>
          <Node pos="r" depth="2" NCoef="0" IVar="-1" Cut="0.0000000000000000e+00" cType="1" res="-4.1177677921950817e-03" rms="4.6955198049545288e-01" purity="4.4019526243209839e-01" nType="-99"/>
        </Node>
      </Node>
    </BinaryTree>
    <BinaryTree type="DecisionTree" boostWeight="1.0000000000000000e+00" itree="14">
      <Node pos="s" depth="0" NCoef="0" IVar="1" Cut="4.2611403465270996e+00" cType="1" res="4.6214512549340725e-03" rms="4.5940864086151123e-01" purity="5.0771510601043701e-01" nType="0">
        <Node pos="l" depth="1" NCoef="0" IVar="2" Cut="1.2948958203196526e-02" cType="1" res="-7.7072121202945709e-02" rms="4.5709890127182007e-01" purity="3.6996740102767944e-01" nType="0">
          <Node pos="l" depth="2" NCoef="0" IVar="-1" Cut="0.0000000000000000e+00" cType="1" res="5.4120155982673168e-03" rms="4.8246902227401733e-01" purity="5.4430675506591797e-01" nType="-99"/>
          <Node pos="r" depth="2" NCoef="0" IVar="-1" Cut="0.0000000000000000e+00" cType="1" res="-2.4840956553816795e-02" rms="4.4068244099617004e-01" purity="3.0344334244728088e-01" nType="-99"/>
        </Node>
        <Node pos="r" depth="1" NCoef="0" IVar="3" Cut="3.6407312750816345e-01" cType="1" res="7.0177368819713593e-02" rms="4.5066836476325989e-01" purity="6.1825221776962280e-01" nType="0">
          <Node pos="l" depth="2" NCoef="0" IVar="-1" Cut="0.0000000000000000e+00" cType="1" res="1.9074613228440285e-02" rms="4.4708931446075439e-01" purity="6.4771795272827148e-01" nType="-99"/>
          <Node pos="r" depth="2" NCoef="0" IVar="-1" Cut="0.0000000000000000e+00" cType="1" res="-3.0027864500880241e-02" rms="4.3671780824661255e-01" purity="2.8881558775901794e-01" nType="-99"/>
        </Node>
      </Node>
    </BinaryTree>
    <BinaryTree type="DecisionTree" boostWeight="1.0000000000000000e+00" itree="15">
      <Node pos="s" depth="0" NCoef="0" IVar="4" Cut="1.3583773374557495e-01" cType="1" res="7.2028329595923424e-03" rms="4.5834735035896301e-01" purity="5.0929707288742065e-01" nType="0">
        <Node pos="l" depth="1" NCoef="0" IVar="4" Cut="4.4639352709054947e-02" cType="1" res="-1.4796310663223267e-01" rms="3.7576171755790710e-01" purity="2.0898669958114624e-01" nType="0">
          <Node pos="l" depth="2" NCoef="0" IVar="-1" Cut="0.0000000000000000e+00" cType="1" res="-4.5623973011970520e-02" rms="3.2494542002677917e-01" purity="1.3594143092632294e-01" nType="-99"/>
          <Node pos="r" depth="2" NCoef="0" IVar="-1" Cut="0.0000000000000000e+00" cType="1" res="-1.6241151839494705e-02" rms="4.4358363747596741e-01" purity="3.4054875373840332e-01" nType="-99"/>
        </Node>
        <Node pos="r" depth="1" NCoef="0" IVar="4" Cut="1.0409190654754639e+00" cType="1" res="3.8575392216444016e-02" rms="4.6707373857498169e-01" purity="5.7001596689224243e-01" nType="0">
          <Node pos="l" depth="2" NCoef="0" IVar="-1" Cut="0.0000000000000000e+00" cType="1" res="1.3785570859909058e-02" rms="4.6253943443298340e-01" purity="5.9978628158569336e-01" nType="-99"/>
          <Node pos="r" depth="2" NCoef="0" IVar="-1" Cut="0.0000000000000000e+00" cType="1" res="-3.7068806588649750e-02" rms="4.4623678922653198e-01" purity="3.2694613933563232e-01" nType="-99"/>
        </Node>
      </Node>
    </BinaryTree>
    <BinaryTree type="DecisionTree" boostWeight="1.0000000000000000e+00" itree="16">
      <Node pos="s" depth="0" NCoef="0" IVar="1" Cut="4.0365495681762695e+00" cType="1" res="4.1420510970056057e-03" rms="4.5819810032844543e-01" purity="5.0918447971343994e-01" nType="0">
        <Node pos="l" depth="1" NCoef="0" IVar="2" Cut="2.5855526328086853e-02" cType="1" res="-6.5885104238986969e-02" rms="4.5582884550094604e-01" purity="3.7375900149345398e-01" nType="0">
          <Node pos="l" depth="2" NCoef="0" IVar="-1" Cut="0.0000000000000000e+00" cType="1" res="6.3533778302371502e-04" rms="4.7969806194305420e-01" purity="4.9960634112358093e-01" nType="-99"/>
          <Node pos="r" depth="2" NCoef="0" IVar="-1" Cut="0.0000000000000000e+00" cType="1" res="-2.9210859909653664e-02" rms="4.2033508419990540e-01" purity="2.5048619508743286e-01" nType="-99"/>
        </Node>
        <Node pos="r" depth="1" NCoef="0" IVar="4" Cut="5.1084184646606445e-01" cType="1" res="4.6523358672857285e-02" rms="4.5441401004791260e-01" purity="5.9114575386047363e-01" nType="0">
          <Node pos="l" depth="2" NCoef="0" IVar="-1" Cut="0.0000000000000000e+00" cType="1" res="-8.6023854091763496e-03" rms="4.5258471369743347e-01" purity="4.5009335875511169e-01" nType="-99"/>
          <Node pos="r" depth="2" NCoef="0" IVar="-1" Cut="0.0000000000000000e+00" cType="1" res="2.3390093818306923e-02" rms="4.4539886713027954e-01" purity="6.9464969635009766e-01" nType="-99"/>
        </Node>
      </Node>
    </BinaryTree>
    <BinaryTree type="DecisionTree" boostWeight="1.0000000000000000e+00" itree="17">
      <Node pos="s" depth="0" NCoef="0" IVar="2" Cut="4.9945980310440063e-02" cType="1" res="-8.2374894991517067e-03" rms="4.5396977663040161e-01" purity="4.9422639608383179e-01" nType="0">
        <Node pos="l" depth="1" NCoef="0" IVar="0" Cut="1.0443144531250000e+03" cType="1" res="3.0112642794847488e-02" rms="4.5735737681388855e-01" purity="5.7158279418945312e-01" nType="0">
          <Node pos="l" depth="2" NCoef="0" IVar="-1" Cut="0.0000000000000000e+00" cType="1" res="-1.1960357427597046e-02" rms="4.6812245249748230e-01" purity="4.0126204490661621e-01" nType="-99"/>
          <Node pos="r" depth="2" NCoef="0" IVar="-1" Cut="0.0000000000000000e+00" cType="1" res="1.5792954713106155e-02" rms="4.4581469893455505e-01" purity="6.5498155355453491e-01" nType="-99"/>
        </Node>
        <Node pos="r" depth="1" NCoef="0" IVar="4" Cut="1.0837680101394653e+00" cType="1" res="-1.1052131652832031e-01" rms="4.2833402752876282e-01" purity="2.8790885210037231e-01" nType="0">
          <Node pos="l" depth="2" NCoef="0" IVar="-1" Cut="0.0000000000000000e+00" cType="1" res="-1.9646793603897095e-02" rms="4.2707288265228271e-01" purity="3.0188030004501343e-01" nType="-99"/>
          <Node pos="r" depth="2" NCoef="0" IVar="-1" Cut="0.0000000000000000e+00" cType="1" res="-4.6528909355401993e-02" rms="4.1640803217887878e-01" purity="2.1614733338356018e-01" nType="-99"/>
        </Node>
      </Node>
    </BinaryTree>
    <BinaryTree type="DecisionTree" boostWeight="1.0000000000000000e+00" itree="18">
      <Node pos="s" depth="0" NCoef="0" IVar="3" Cut="1.6667948663234711e-01" cType="1" res="-5.3780963644385338e-03" rms="4.5576313138008118e-01" purity="4.9782669544219971e-01" nType="0">
        <Node pos="l" depth="1" NCoef="0" IVar="4" Cut="5.7020097970962524e-01" cType="1" res="5.5282093584537506e-02" rms="4.5291841030120850e-01" purity="5.9513205289840698e-01" nType="0">
          <Node pos="l" depth="2" NCoef="0" IVar="-1" Cut="0.0000000000000000e+00" cType="1" res="-3.7529994733631611e-04" rms="4.6346330642700195e-01" purity="4.8756194114685059e-01" nType="-99"/>
          <Node pos="r" depth="2" NCoef="0" IVar="-1" Cut="0.0000000000000000e+00" cType="1" res="2.2323351353406906e-02" rms="4.3784114718437195e-01" purity="6.8719619512557983e-01" nType="-99"/>
        </Node>
        <Node pos="r" depth="1" NCoef="0" IVar="0" Cut="1.8720871582031250e+03" cType="1" res="-6.9355674088001251e-02" rms="4.4996926188468933e-01" purity="3.9519995450973511e-01" nType="0">
          <Node pos="l" depth="2" NCoef="0" IVar="-1" Cut="0.0000000000000000e+00" cType="1" res="-2.1721452474594116e-02" rms="4.4467756152153015e-01" purity="3.3771416544914246e-01" nType="-99"/>
          <Node pos="r" depth="2" NCoef="0" IVar="-1" Cut="0.0000000000000000e+00" cType="1" res="1.6163062304258347e-02" rms="4.4658023118972778e-01" purity="6.6193443536758423e-01" nType="-99"/>
        </Node>
      </Node>
    </BinaryTree>
    <BinaryTree type="DecisionTree" boostWeight="1.0000000000000000e+00" itree="19">
      <Node pos="s" depth="0" NCoef="0" IVar="4" Cut="1.9508622586727142e-01" cType="1" res="-2.0164544694125652e-03" rms="4.5165365934371948e-01" purity="4.9580842256546021e-01" nType="0">
        <Node pos="l" depth="1" NCoef="0" IVar="0" Cut="1.9500872802734375e+03" cType="1" res="-9.9162980914115906e-02" rms="3.9909946918487549e-01" purity="2.6185211539268494e-01" nType="0">
          <Node pos="l" depth="2" NCoef="0" IVar="-1" Cut="0.0000000000000000e+00" cType="1" res="-2.9486356303095818e-02" rms="3.8066214323043823e-01" purity="2.0502208173274994e-01" nType="-99"/>
          <Node pos="r" depth="2" NCoef="0" IVar="-1" Cut="0.0000000000000000e+00" cType="1" res="-5.8809120673686266e-04" rms="4.5998299121856689e-01" purity="5.1366627216339111e-01" nType="-99"/>
        </Node>
        <Node pos="r" depth="1" NCoef="0" IVar="3" Cut="1.1726927757263184e-01" cType="1" res="2.3061690852046013e-02" rms="4.6094229817390442e-01" purity="5.5620366334915161e-01" nType="0">
          <Node pos="l" depth="2" NCoef="0" IVar="-1" Cut="0.0000000000000000e+00" cType="1" res="2.0914856344461441e-02" rms="4.4290095567703247e-01" purity="6.7452132701873779e-01" nType="-99"/>
          <Node pos="r" depth="2" NCoef="0" IVar="-1" Cut="0.0000000000000000e+00" cType="1" res="-4.5880489051342010e-03" rms="4.6574443578720093e-01" purity="4.8535510897636414e-01" nType="-99"/>
        </Node>
      </Node>
    </BinaryTree>
    <BinaryTree type="DecisionTree" boostWeight="1.0000000000000000e+00" itree="20">
      <Node pos="s" depth="0" NCoef="0" IVar="3" Cut="1.6666504740715027e-01" cType="1" res="-6.8027675151824951e-03" rms="4.5298072695732117e-01" purity="4.9590191245079041e-01" nType="0">
        <Node pos="l" depth="1" NCoef="0" IVar="2" Cut="7.7643178403377533e-02" cType="1" res="4.9367919564247131e-02" rms="4.5077571272850037e-01" purity="5.9509259462356567e-01" nType="0">
          <Node pos="l" depth="2" NCoef="0" IVar="-1" Cut="0.0000000000000000e+00" cType="1" res="1.5650345012545586e-02" rms="4.4679874181747437e-01" purity="6.3479423522949219e-01" nType="-99"/>
          <Node pos="r" depth="2" NCoef="0" IVar="-1" Cut="0.0000000000000000e+00" cType="1" res="-2.0128397271037102e-02" rms="4.5043230056762695e-01" purity="3.3728674054145813e-01" nType="-99"/>
        </Node>
        <Node pos="r" depth="1" NCoef="0" IVar="2" Cut="1.4798808842897415e-02" cType="1" res="-6.4504280686378479e-02" rms="4.4795984029769897e-01" purity="3.9400801062583923e-01" nType="0">
          <Node pos="l" depth="2" NCoef="0" IVar="-1" Cut="0.0000000000000000e+00" cType="1" res="4.1752969846129417e-03" rms="4.7105547785758972e-01" purity="5.5812007188796997e-01" nType="-99"/>
          <Node pos="r" depth="2" NCoef="0" IVar="-1" Cut="0.0000000000000000e+00" cType="1" res="-2.3077463731169701e-02" rms="4.3092083930969238e-01" purity="3.1640872359275818e-01" nType="-99"/>
        </Node>
      </Node>
    </BinaryTree>
    <BinaryTree type="DecisionTree" boostWeight="1.0000000000000000e+00" itree="21">
      <Node pos="s" depth="0" NCoef="0" IVar="0" Cut="2.3953007812500000e+03" cType="1" res="7.0660689380019903e-04" rms="4.5053291320800781e-01" purity="5.0290632247924805e-01" nType="0">
        <Node pos="l" depth="1" NCoef="0" IVar="4" Cut="4.1166406869888306e-01" cType="1" res="-1.6108591109514236e-02" rms="4.5422399044036865e-01" purity="4.6949920058250427e-01" nType="0">
          <Node pos="l" depth="2" NCoef="0" IVar="-1" Cut="0.0000000000000000e+00" cType="1" res="-1.7744222655892372e-02" rms="4.2693370580673218e-01" purity="3.3056220412254333e-01" nType="-99"/>
          <Node pos="r" depth="2" NCoef="0" IVar="-1" Cut="0.0000000000000000e+00" cType="1" res="4.2683295905590057e-03" rms="4.6568822860717773e-01" purity="5.5084782838821411e-01" nType="-99"/>
        </Node>
        <Node pos="r" depth="1" NCoef="0" IVar="5" Cut="1.1449188739061356e-01" cType="1" res="1.4378525316715240e-01" rms="3.8947007060050964e-01" purity="7.8716379404067993e-01" nType="0">
          <Node pos="l" depth="2" NCoef="0" IVar="-1" Cut="0.0000000000000000e+00" cType="1" res="2.1044310182332993e-02" rms="4.0541717410087585e-01" purity="7.5814145803451538e-01" nType="-99"/>
          <Node pos="r" depth="2" NCoef="0" IVar="-1" Cut="0.0000000000000000e+00" cType="1" res="4.3445780873298645e-02" rms="3.6855036020278931e-01" purity="8.1274920701980591e-01" nType="-99"/>
        </Node>
      </Node>
    </BinaryTree>
    <BinaryTree type="DecisionTree" boostWeight="1.0000000000000000e+00" itree="22">
      <Node pos="s" depth="0" NCoef="0" IVar="4" Cut="4.3253678083419800e-01" cType="1" res="9.1978331329301000e-04" rms="4.4568514823913574e-01" purity="4.9976572394371033e-01" nType="0">
        <Node pos="l" depth="1" NCoef="0" IVar="5" Cut="6.0629141330718994e-01" cType="1" res="-7.3179922997951508e-02" rms="4.2729479074478149e-01" purity="3.3578512072563171e-01" nType="0">
          <Node pos="l" depth="2" NCoef="0" IVar="-1" Cut="0.0000000000000000e+00" cType="1" res="-1.1463668197393417e-02" rms="4.4829928874969482e-01" purity="3.8405328989028931e-01" nType="-99"/>
          <Node pos="r" depth="2" NCoef="0" IVar="-1" Cut="0.0000000000000000e+00" cType="1" res="-5.3475007414817810e-02" rms="2.5427016615867615e-01" purity="7.2074137628078461e-02" nType="-99"/>
        </Node>
        <Node pos="r" depth="1" NCoef="0" IVar="4" Cut="1.0535920858383179e+00" cType="1" res="4.4628784060478210e-02" rms="4.5050629973411560e-01" purity="5.9649258852005005e-01" nType="0">
          <Node pos="l" depth="2" NCoef="0" IVar="-1" Cut="0.0000000000000000e+00" cType="1" res="1.6249025240540504e-02" rms="4.4659110903739929e-01" purity="6.3906323909759521e-01" nType="-99"/>
          <Node pos="r" depth="2" NCoef="0" IVar="-1" Cut="0.0000000000000000e+00" cType="1" res="-3.2700665295124054e-02" rms="4.2473867535591125e-01" purity="3.1699705123901367e-01" nType="-99"/>
        </Node>
      </Node>
    </BinaryTree>
    <BinaryTree type="DecisionTree" boostWeight="1.0000000000000000e+00" itree="23">
      <Node pos="s" depth="0" NCoef="0" IVar="2" Cut="4.4396426528692245e-02" cType="1" res="-1.0658734478056431e-02" rms="4.4579654932022095e-01" purity="4.8762360215187073e-01" nType="0">
        <Node pos="l" depth="1" NCoef="0" IVar="0" Cut="1.0486042480468750e+03" cType="1" res="2.6438275352120399e-02" rms="4.5127391815185547e-01" purity="5.8127897977828979e-01" nType="0">
          <Node pos="l" depth="2" NCoef="0" IVar="-1" Cut="0.0000000000000000e+00" cType="1" res="-1.3324862346053123e-02" rms="4.6465069055557251e-01" purity="3.8798955082893372e-01" nType="-99"/>
          <Node pos="r" depth="2" NCoef="0" IVar="-1" Cut="0.0000000000000000e+00" cType="1" res="1.5901725739240646e-02" rms="4.3771636486053467e-01" purity="6.7800503969192505e-01" nType="-99"/>
        </Node>
        <Node pos="r" depth="1" NCoef="0" IVar="4" Cut="1.0628585815429688e+00" cType="1" res="-9.0083941817283630e-02" rms="4.2303627729415894e-01" purity="2.8710609674453735e-01" nType="0">
          <Node pos="l" depth="2" NCoef="0" IVar="-1" Cut="0.0000000000000000e+00" cType="1" res="-1.3254294171929359e-02" rms="4.2820140719413757e-01" purity="3.1449165940284729e-01" nType="-99"/>
          <Node pos="r" depth="2" NCoef="0" IVar="-1" Cut="0.0000000000000000e+00" cType="1" res="-5.9525430202484131e-02" rms="3.3314087986946106e-01" purity="1.2695921957492828e-01" nType="-99"/>
        </Node>
      </Node>
    </BinaryTree>
    <BinaryTree type="DecisionTree" boostWeight="1.0000000000000000e+00" itree="24">
      <Node pos="s" depth="0" NCoef="0" IVar="1" Cut="3.3034870624542236e+00" cType="1" res="3.8695195689797401e-04" rms="4.4985184073448181e-01" purity="5.0115573406219482e-01" nType="0">
        <Node pos="l" depth="1" NCoef="0" IVar="2" Cut="3.3233478665351868e-02" cType="1" res="-1.0757072269916534e-01" rms="4.3550589680671692e-01" purity="2.9114127159118652e-01" nType="0">
          <Node pos="l" depth="2" NCoef="0" IVar="-1" Cut="0.0000000000000000e+00" cType="1" res="-2.7956239879131317e-02" rms="4.5054042339324951e-01" purity="3.1514742970466614e-01" nType="-99"/>
          <Node pos="r" depth="2" NCoef="0" IVar="-1" Cut="0.0000000000000000e+00" cType="1" res="-1.7552021890878677e-02" rms="4.1288098692893982e-01" purity="2.5993749499320984e-01" nType="-99"/>
        </Node>
        <Node pos="r" depth="1" NCoef="0" IVar="4" Cut="5.1114976406097412e-01" cType="1" res="1.8400048837065697e-02" rms="4.4968521595001221e-01" purity="5.3619730472564697e-01" nType="0">
          <Node pos="l" depth="2" NCoef="0" IVar="-1" Cut="0.0000000000000000e+00" cType="1" res="-6.9947778247296810e-03" rms="4.4136455655097961e-01" purity="4.1157540678977966e-01" nType="-99"/>
          <Node pos="r" depth="2" NCoef="0" IVar="-1" Cut="0.0000000000000000e+00" cType="1" res="1.1951324529945850e-02" rms="4.5235109329223633e-01" purity="6.2831395864486694e-01" nType="-99"/>
        </Node>
      </Node>
    </BinaryTree>
    <BinaryTree type="DecisionTree" boostWeight="1.0000000000000000e+00" itree="25">
      <Node pos="s" depth="0" NCoef="0" IVar="2" Cut="3.1447470188140869e-02" cType="1" res="-1.7643757164478302e-03" rms="4.4674667716026306e-01" purity="5.0009888410568237e-01" nType="0">
        <Node pos="l" depth="1" NCoef="0" IVar="3" Cut="3.2094597816467285e-01" cType="1" res="3.4862898290157318e-02" rms="4.5180040597915649e-01" purity="6.1566507816314697e-01" nType="0">
          <Node pos="l" depth="2" NCoef="0" IVar="-1" Cut="0.0000000000000000e+00" cType="1" res="1.3845873065292835e-02" rms="4.4638606905937195e-01" purity="6.7312419414520264e-01" nType="-99"/>
          <Node pos="r" depth="2" NCoef="0" IVar="-1" Cut="0.0000000000000000e+00" cType="1" res="-1.8657628446817398e-02" rms="4.5595592260360718e-01" purity="3.5492208600044250e-01" nType="-99"/>
        </Node>
        <Node pos="r" depth="1" NCoef="0" IVar="4" Cut="1.0245463848114014e+00" cType="1" res="-5.4082937538623810e-02" rms="4.3409988284111023e-01" purity="3.3502349257469177e-01" nType="0">
          <Node pos="l" depth="2" NCoef="0" IVar="-1" Cut="0.0000000000000000e+00" cType="1" res="-6.1590052209794521e-03" rms="4.3651983141899109e-01" purity="3.5939937829971313e-01" nType="-99"/>
          <Node pos="r" depth="2" NCoef="0" IVar="-1" Cut="0.0000000000000000e+00" cType="1" res="-3.8203369826078415e-02" rms="4.0031743049621582e-01" purity="2.2427769005298615e-01" nType="-99"/>
        </Node>
      </Node>
    </BinaryTree>
    <BinaryTree type="DecisionTree" boostWeight="1.0000000000000000e+00" itree="26">
      <Node pos="s" depth="0" NCoef="0" IVar="0" Cut="1.8344851074218750e+03" cType="1" res="1.0228285565972328e-02" rms="4.5051905512809753e-01" purity="5.1118505001068115e-01" nType="0">
        <Node pos="l" depth="1" NCoef="0" IVar="4" Cut="5.7156760245561600e-02" cType="1" res="-8.8057480752468109e-03" rms="4.5629617571830750e-01" purity="4.5363962650299072e-01" nType="0">
          <Node pos="l" depth="2" NCoef="0" IVar="-1" Cut="0.0000000000000000e+00" cType="1" res="-2.9127698391675949e-02" rms="3.3606079220771790e-01" purity="1.5200713276863098e-01" nType="-99"/>
          <Node pos="r" depth="2" NCoef="0" IVar="-1" Cut="0.0000000000000000e+00" cType="1" res="7.3496176628395915e-04" rms="4.6817401051521301e-01" purity="4.9252972006797791e-01" nType="-99"/>
        </Node>
        <Node pos="r" depth="1" NCoef="0" IVar="1" Cut="4.9915356636047363e+00" cType="1" res="7.6286025345325470e-02" rms="4.2327916622161865e-01" purity="7.1089667081832886e-01" nType="0">
          <Node pos="l" depth="2" NCoef="0" IVar="-1" Cut="0.0000000000000000e+00" cType="1" res="-1.5089220833033323e-03" rms="4.6242329478263855e-01" purity="5.9154850244522095e-01" nType="-99"/>
          <Node pos="r" depth="2" NCoef="0" IVar="-1" Cut="0.0000000000000000e+00" cType="1" res="2.3215785622596741e-02" rms="4.0916928648948669e-01" purity="7.4318927526473999e-01" nType="-99"/>
        </Node>
      </Node>
    </BinaryTree>
    <BinaryTree type="DecisionTree" boostWeight="1.0000000000000000e+00" itree="27">
      <Node pos="s" depth="0" NCoef="0" IVar="2" Cut="2.7729706838726997e-02" cType="1" res="3.0183871276676655e-03" rms="4.4512712955474854e-01" purity="5.0313901901245117e-01" nType="0">
        <Node pos="l" depth="1" NCoef="0" IVar="4" Cut="7.3177492618560791e-01" cType="1" res="3.9391085505485535e-02" rms="4.4429853558540344e-01" purity="6.3227057456970215e-01" nType="0">
          <Node pos="l" depth="2" NCoef="0" IVar="-1" Cut="0.0000000000000000e+00" cType="1" res="3.2531449687667191e-04" rms="4.5873332023620605e-01" purity="5.6580477952957153e-01" nType="-99"/>
          <Node pos="r" depth="2" NCoef="0" IVar="-1" Cut="0.0000000000000000e+00" cType="1" res="2.3529065772891045e-02" rms="4.1145077347755432e-01" purity="7.4301773309707642e-01" nType="-99"/>
        </Node>
        <Node pos="r" depth="1" NCoef="0" IVar="3" Cut="5.5587045848369598e-02" cType="1" res="-4.0026210248470306e-02" rms="4.4225764274597168e-01" purity="3.5032069683074951e-01" nType="0">
          <Node pos="l" depth="2" NCoef="0" IVar="-1" Cut="0.0000000000000000e+00" cType="1" res="1.2770608067512512e-02" rms="4.6235573291778564e-01" purity="4.9519127607345581e-01" nType="-99"/>
          <Node pos="r" depth="2" NCoef="0" IVar="-1" Cut="0.0000000000000000e+00" cType="1" res="-1.4456130564212799e-02" rms="4.3437436223030090e-01" purity="3.1687709689140320e-01" nType="-99"/>
        </Node>
      </Node>
    </BinaryTree>
    <BinaryTree type="DecisionTree" boostWeight="1.0000000000000000e+00" itree="28">
      <Node pos="s" depth="0" NCoef="0" IVar="0" Cut="1.0443139648437500e+03" cType="1" res="-1.1404688470065594e-02" rms="4.3904754519462585e-01" purity="4.8392608761787415e-01" nType="0">
        <Node pos="l" depth="1" NCoef="0" IVar="1" Cut="3.1353828907012939e+00" cType="1" res="-7.6731674373149872e-02" rms="4.2902660369873047e-01" purity="3.1384488940238953e-01" nType="0">
          <Node pos="l" depth="2" NCoef="0" IVar="-1" Cut="0.0000000000000000e+00" cType="1" res="-3.6779742687940598e-02" rms="3.8781344890594482e-01" purity="1.9962775707244873e-01" nType="-99"/>
          <Node pos="r" depth="2" NCoef="0" IVar="-1" Cut="0.0000000000000000e+00" cType="1" res="-1.2398045510053635e-02" rms="4.3653136491775513e-01" purity="3.4401780366897583e-01" nType="-99"/>
        </Node>
        <Node pos="r" depth="1" NCoef="0" IVar="4" Cut="6.6912531852722168e-01" cType="1" res="2.4317869916558266e-02" rms="4.4035193324089050e-01" purity="5.7693111896514893e-01" nType="0">
          <Node pos="l" depth="2" NCoef="0" IVar="-1" Cut="0.0000000000000000e+00" cType="1" res="-4.0893782861530781e-03" rms="4.4866237044334412e-01" purity="4.9469253420829773e-01" nType="-99"/>
          <Node pos="r" depth="2" NCoef="0" IVar="-1" Cut="0.0000000000000000e+00" cType="1" res="1.7510728910565376e-02" rms="4.2379114031791687e-01" purity="6.8005836009979248e-01" nType="-99"/>
        </Node>
      </Node>
    </BinaryTree>
    <BinaryTree type="DecisionTree" boostWeight="1.0000000000000000e+00" itree="29">
      <Node pos="s" depth="0" NCoef="0" IVar="3" Cut="3.0243384838104248e-01" cType="1" res="-1.9377409480512142e-03" rms="4.4878792762756348e-01" purity="4.9496686458587646e-01" nType="0">
        <Node pos="l" depth="1" NCoef="0" IVar="1" Cut="3.1305584907531738e+00" cType="1" res="1.9123299047350883e-02" rms="4.5187595486640930e-01" purity="5.4980075359344482e-01" nType="0">
          <Node pos="l" depth="2" NCoef="0" IVar="-1" Cut="0.0000000000000000e+00" cType="1" res="-2.3517027497291565e-02" rms="4.4129964709281921e-01" purity="2.9620340466499329e-01" nType="-99"/>
          <Node pos="r" depth="2" NCoef="0" IVar="-1" Cut="0.0000000000000000e+00" cType="1" res="7.2140479460358620e-03" rms="4.5100536942481995e-01" purity="5.7537055015563965e-01" nType="-99"/>
        </Node>
        <Node pos="r" depth="1" NCoef="0" IVar="0" Cut="8.7446899414062500e+02" cType="1" res="-8.3200424909591675e-02" rms="4.2704123258590698e-01" purity="2.8339397907257080e-01" nType="0">
          <Node pos="l" depth="2" NCoef="0" IVar="-1" Cut="0.0000000000000000e+00" cType="1" res="-3.3696990460157394e-02" rms="3.6868369579315186e-01" purity="1.6809491813182831e-01" nType="-99"/>
          <Node pos="r" depth="2" NCoef="0" IVar="-1" Cut="0.0000000000000000e+00" cType="1" res="-1.5516961924731731e-02" rms="4.4162178039550781e-01" purity="3.1752201914787292e-01" nType="-99"/>
        </Node>
      </Node>
    </BinaryTree>
    <BinaryTree type="DecisionTree" boostWeight="1.0000000000000000e+00" itree="30">
      <Node pos="s" depth="0" NCoef="0" IVar="0" Cut="1.0790620117187500e+03" cType="1" res="-9.7135012038052082e-04" rms="4.4379970431327820e-01" purity="5.0045645236968994e-01" nType="0">
        <Node pos="l" depth="1" NCoef="0" IVar="4" Cut="5.7086068391799927e-01" cType="1" res="-4.5010261237621307e-02" rms="4.3834763765335083e-01" purity="3.4700027108192444e-01" nType="0">
          <Node pos="l" depth="2" NCoef="0" IVar="-1" Cut="0.0000000000000000e+00" cType="1" res="-2.3524569347500801e-02" rms="4.0416732430458069e-01" purity="2.3772136867046356e-01" nType="-99"/>
          <Node pos="r" depth="2" NCoef="0" IVar="-1" Cut="0.0000000000000000e+00" cType="1" res="2.0750614348798990e-03" rms="4.6559140086174011e-01" purity="4.6253088116645813e-01" nType="-99"/>
        </Node>
        <Node pos="r" depth="1" NCoef="0" IVar="3" Cut="1.6666227579116821e-01" cType="1" res="2.7273260056972504e-02" rms="4.4497320055961609e-01" purity="5.9887635707855225e-01" nType="0">
          <Node pos="l" depth="2" NCoef="0" IVar="-1" Cut="0.0000000000000000e+00" cType="1" res="1.4146126806735992e-02" rms="4.2563313245773315e-01" purity="6.7990964651107788e-01" nType="-99"/>
          <Node pos="r" depth="2" NCoef="0" IVar="-1" Cut="0.0000000000000000e+00" cType="1" res="-2.3226048797369003e-03" rms="4.6310815215110779e-01" purity="5.0682365894317627e-01" nType="-99"/>
        </Node>
      </Node>
    </BinaryTree>
    <BinaryTree type="DecisionTree" boostWeight="1.0000000000000000e+00" itree="31">
      <Node pos="s" depth="0" NCoef="0" IVar="3" Cut="3.3329012989997864e-01" cType="1" res="-1.6217367956414819e-03" rms="4.4804430007934570e-01" purity="4.9812525510787964e-01" nType="0">
        <Node pos="l" depth="1" NCoef="0" IVar="4" Cut="1.0839000940322876e+00" cType="1" res="1.5518101863563061e-02" rms="4.5132046937942505e-01" purity="5.4679453372955322e-01" nType="0">
          <Node pos="l" depth="2" NCoef="0" IVar="-1" Cut="0.0000000000000000e+00" cType="1" res="6.0597104020416737e-03" rms="4.5011615753173828e-01" purity="5.6373578310012817e-01" nType="-99"/>
          <Node pos="r" depth="2" NCoef="0" IVar="-1" Cut="0.0000000000000000e+00" cType="1" res="-2.3991892114281654e-02" rms="4.4580459594726562e-01" purity="3.5211381316184998e-01" nType="-99"/>
        </Node>
        <Node pos="r" depth="1" NCoef="0" IVar="1" Cut="4.5465474128723145e+00" cType="1" res="-8.3941161632537842e-02" rms="4.2238003015518188e-01" purity="2.6437607407569885e-01" nType="0">
          <Node pos="l" depth="2" NCoef="0" IVar="-1" Cut="0.0000000000000000e+00" cType="1" res="-1.1825163848698139e-02" rms="4.2433074116706848e-01" purity="2.6736706495285034e-01" nType="-99"/>
          <Node pos="r" depth="2" NCoef="0" IVar="-1" Cut="0.0000000000000000e+00" cType="1" res="-3.4919731318950653e-02" rms="4.0950259566307068e-01" purity="2.5851792097091675e-01" nType="-99"/>
        </Node>
      </Node>
    </BinaryTree>
    <BinaryTree type="DecisionTree" boostWeight="1.0000000000000000e+00" itree="32">
      <Node pos="s" depth="0" NCoef="0" IVar="4" Cut="1.1628115177154541e+00" cType="1" res="7.0830882759764791e-04" rms="4.4620612263679504e-01" purity="4.9880576133728027e-01" nType="0">
        <Node pos="l" depth="1" NCoef="0" IVar="5" Cut="6.3193374872207642e-01" cType="1" res="7.9830707982182503e-03" rms="4.4689884781837463e-01" purity="5.0952744483947754e-01" nType="0">
          <Node pos="l" depth="2" NCoef="0" IVar="-1" Cut="0.0000000000000000e+00" cType="1" res="3.5512936301529408e-03" rms="4.5357030630111694e-01" purity="5.3212797641754150e-01" nType="-99"/>
          <Node pos="r" depth="2" NCoef="0" IVar="-1" Cut="0.0000000000000000e+00" cType="1" res="-4.0642362087965012e-02" rms="2.6284927129745483e-01" purity="9.5058947801589966e-02" nType="-99"/>
        </Node>
        <Node pos="r" depth="1" NCoef="0" IVar="-1" Cut="0.0000000000000000e+00" cType="1" res="-3.7881821393966675e-02" rms="3.9457547664642334e-01" purity="2.5231921672821045e-01" nType="-99"/>
      </Node>
    </BinaryTree>
    <BinaryTree type="DecisionTree" boostWeight="1.0000000000000000e+00" itree="33">
      <Node pos="s" depth="0" NCoef="0" IVar="3" Cut="2.9625892639160156e-01" cType="1" res="3.3726168330758810e-03" rms="4.4489678740501404e-01" purity="4.9907869100570679e-01" nType="0">
        <Node pos="l" depth="1" NCoef="0" IVar="2" Cut="2.5862528011202812e-02" cType="1" res="2.2075131535530090e-02" rms="4.4804862141609192e-01" purity="5.5769044160842896e-01" nType="0">
          <Node pos="l" depth="2" NCoef="0" IVar="-1" Cut="0.0000000000000000e+00" cType="1" res="1.2720800936222076e-02" rms="4.3294927477836609e-01" purity="6.9517773389816284e-01" nType="-99"/>
          <Node pos="r" depth="2" NCoef="0" IVar="-1" Cut="0.0000000000000000e+00" cType="1" res="-2.6875741314142942e-03" rms="4.6082171797752380e-01" purity="4.1418221592903137e-01" nType="-99"/>
        </Node>
        <Node pos="r" depth="1" NCoef="0" IVar="4" Cut="9.6544170379638672e-01" cType="1" res="-6.0108948498964310e-02" rms="4.2797565460205078e-01" purity="3.0013406276702881e-01" nType="0">
          <Node pos="l" depth="2" NCoef="0" IVar="-1" Cut="0.0000000000000000e+00" cType="1" res="-1.9186748191714287e-02" rms="4.2489770054817200e-01" purity="2.8015273809432983e-01" nType="-99"/>
          <Node pos="r" depth="2" NCoef="0" IVar="-1" Cut="0.0000000000000000e+00" cType="1" res="1.2392347678542137e-02" rms="4.2732232809066772e-01" purity="4.1137170791625977e-01" nType="-99"/>
        </Node>
      </Node>
    </BinaryTree>
    <BinaryTree type="DecisionTree" boostWeight="1.0000000000000000e+00" itree="34">
      <Node pos="s" depth="0" NCoef="0" IVar="2" Cut="1.4800997450947762e-02" cType="1" res="-8.7063619866967201e-03" rms="4.4364100694656372e-01" purity="4.8940944671630859e-01" nType="0">
        <Node pos="l" depth="1" NCoef="0" IVar="1" Cut="3.0285582542419434e+00" cType="1" res="4.0314856916666031e-02" rms="4.4094443321228027e-01" purity="6.5022742748260498e-01" nType="0">
          <Node pos="l" depth="2" NCoef="0" IVar="-1" Cut="0.0000000000000000e+00" cType="1" res="-2.4176750332117081e-02" rms="4.6850353479385376e-01" purity="3.2887673377990723e-01" nType="-99"/>
          <Node pos="r" depth="2" NCoef="0" IVar="-1" Cut="0.0000000000000000e+00" cType="1" res="1.3290669769048691e-02" rms="4.3453133106231689e-01" purity="6.8519115447998047e-01" nType="-99"/>
        </Node>
        <Node pos="r" depth="1" NCoef="0" IVar="4" Cut="5.6839756667613983e-02" cType="1" res="-3.2228030264377594e-02" rms="4.4300740957260132e-01" purity="4.1224476695060730e-01" nType="0">
          <Node pos="l" depth="2" NCoef="0" IVar="-1" Cut="0.0000000000000000e+00" cType="1" res="-4.0117707103490829e-02" rms="2.6759627461433411e-01" purity="9.4371095299720764e-02" nType="-99"/>
          <Node pos="r" depth="2" NCoef="0" IVar="-1" Cut="0.0000000000000000e+00" cType="1" res="-3.7597357295453548e-03" rms="4.6357253193855286e-01" purity="4.6410328149795532e-01" nType="-99"/>
        </Node>
      </Node>
    </BinaryTree>
    <BinaryTree type="DecisionTree" boostWeight="1.0000000000000000e+00" itree="35">
      <Node pos="s" depth="0" NCoef="0" IVar="1" Cut="3.3037242889404297e+00" cType="1" res="-4.0759523399174213e-03" rms="4.4561964273452759e-01" purity="4.9505415558815002e-01" nType="0">
        <Node pos="l" depth="1" NCoef="0" IVar="3" Cut="1.7292968928813934e-01" cType="1" res="-9.5453463494777679e-02" rms="4.2669498920440674e-01" purity="2.6916915178298950e-01" nType="0">
          <Node pos="l" depth="2" NCoef="0" IVar="-1" Cut="0.0000000000000000e+00" cType="1" res="-3.3262506127357483e-02" rms="4.2864549160003662e-01" purity="2.6574772596359253e-01" nType="-99"/>
          <Node pos="r" depth="2" NCoef="0" IVar="-1" Cut="0.0000000000000000e+00" cType="1" res="-1.5228033065795898e-02" rms="4.2234885692596436e-01" purity="2.7120679616928101e-01" nType="-99"/>
        </Node>
        <Node pos="r" depth="1" NCoef="0" IVar="3" Cut="4.1967684030532837e-01" cType="1" res="1.0080268606543541e-02" rms="4.4681134819984436e-01" purity="5.3004831075668335e-01" nType="0">
          <Node pos="l" depth="2" NCoef="0" IVar="-1" Cut="0.0000000000000000e+00" cType="1" res="4.2705824598670006e-03" rms="4.4785580039024353e-01" purity="5.4916882514953613e-01" nType="-99"/>
          <Node pos="r" depth="2" NCoef="0" IVar="-1" Cut="0.0000000000000000e+00" cType="1" res="-3.3552363514900208e-02" rms="3.9947682619094849e-01" purity="1.8774726986885071e-01" nType="-99"/>
        </Node>
      </Node>
    </BinaryTree>
    <BinaryTree type="DecisionTree" boostWeight="1.0000000000000000e+00" itree="36">
      <Node pos="s" depth="0" NCoef="0" IVar="0" Cut="2.1485024414062500e+03" cType="1" res="-4.4833058491349220e-03" rms="4.4467046856880188e-01" purity="4.9360558390617371e-01" nType="0">
        <Node pos="l" depth="1" NCoef="0" IVar="3" Cut="7.4076160788536072e-02" cType="1" res="-1.7227163538336754e-02" rms="4.5049169659614563e-01" purity="4.5175087451934814e-01" nType="0">
          <Node pos="l" depth="2" NCoef="0" IVar="-1" Cut="0.0000000000000000e+00" cType="1" res="1.0394412092864513e-02" rms="4.3263095617294312e-01" purity="5.8108413219451904e-01" nType="-99"/>
          <Node pos="r" depth="2" NCoef="0" IVar="-1" Cut="0.0000000000000000e+00" cType="1" res="-8.0242995172739029e-03" rms="4.5387053489685059e-01" purity="4.1534456610679626e-01" nType="-99"/>
        </Node>
        <Node pos="r" depth="1" NCoef="0" IVar="5" Cut="1.5151812136173248e-01" cType="1" res="7.6627500355243683e-02" rms="3.9617308974266052e-01" purity="7.5999814271926880e-01" nType="0">
          <Node pos="l" depth="2" NCoef="0" IVar="-1" Cut="0.0000000000000000e+00" cType="1" res="3.6751024425029755e-02" rms="3.3191671967506409e-01" purity="8.5427045822143555e-01" nType="-99"/>
          <Node pos="r" depth="2" NCoef="0" IVar="-1" Cut="0.0000000000000000e+00" cType="1" res="-9.8716023785527796e-05" rms="4.4862952828407288e-01" purity="6.4861869812011719e-01" nType="-99"/>
        </Node>
      </Node>
    </BinaryTree>
    <BinaryTree type="DecisionTree" boostWeight="1.0000000000000000e+00" itree="37">
      <Node pos="s" depth="0" NCoef="0" IVar="2" Cut="9.2492558062076569e-02" cType="1" res="6.3727842643857002e-03" rms="4.4650334119796753e-01" purity="5.0445675849914551e-01" nType="0">
        <Node pos="l" depth="1" NCoef="0" IVar="3" Cut="2.9628473520278931e-01" cType="1" res="1.6492867842316628e-02" rms="4.5008987188339233e-01" purity="5.3242540359497070e-01" nType="0">
          <Node pos="l" depth="2" NCoef="0" IVar="-1" Cut="0.0000000000000000e+00" cType="1" res="7.1436837315559387e-03" rms="4.5179656147956848e-01" purity="5.9182018041610718e-01" nType="-99"/>
          <Node pos="r" depth="2" NCoef="0" IVar="-1" Cut="0.0000000000000000e+00" cType="1" res="-7.8593967482447624e-03" rms="4.4058680534362793e-01" purity="3.2682096958160400e-01" nType="-99"/>
        </Node>
        <Node pos="r" depth="1" NCoef="0" IVar="0" Cut="1.0654265136718750e+03" cType="1" res="-8.6204320192337036e-02" rms="4.0055161714553833e-01" purity="2.4860334396362305e-01" nType="0">
          <Node pos="l" depth="2" NCoef="0" IVar="-1" Cut="0.0000000000000000e+00" cType="1" res="-3.3448353409767151e-02" rms="3.5932472348213196e-01" purity="1.6177594661712646e-01" nType="-99"/>
          <Node pos="r" depth="2" NCoef="0" IVar="-1" Cut="0.0000000000000000e+00" cType="1" res="-9.8549742251634598e-03" rms="4.3459063768386841e-01" purity="3.3760279417037964e-01" nType="-99"/>
        </Node>
      </Node>
    </BinaryTree>
    <BinaryTree type="DecisionTree" boostWeight="1.0000000000000000e+00" itree="38">
      <Node pos="s" depth="0" NCoef="0" IVar="0" Cut="8.9930731201171875e+02" cType="1" res="2.0815671887248755e-03" rms="4.4550180435180664e-01" purity="5.0431770086288452e-01" nType="0">
        <Node pos="l" depth="1" NCoef="0" IVar="1" Cut="3.9024319648742676e+00" cType="1" res="-6.3961587846279144e-02" rms="4.3900966644287109e-01" purity="3.0974051356315613e-01" nType="0">
          <Node pos="l" depth="2" NCoef="0" IVar="-1" Cut="0.0000000000000000e+00" cType="1" res="-8.7862769141793251e-03" rms="4.3841260671615601e-01" purity="3.1860604882240295e-01" nType="-99"/>
          <Node pos="r" depth="2" NCoef="0" IVar="-1" Cut="0.0000000000000000e+00" cType="1" res="-2.5275312364101410e-02" rms="4.3617558479309082e-01" purity="2.9453900456428528e-01" nType="-99"/>
        </Node>
        <Node pos="r" depth="1" NCoef="0" IVar="4" Cut="1.0048918724060059e+00" cType="1" res="1.8913649022579193e-02" rms="4.4557875394821167e-01" purity="5.5390864610671997e-01" nType="0">
          <Node pos="l" depth="2" NCoef="0" IVar="-1" Cut="0.0000000000000000e+00" cType="1" res="6.9075622595846653e-03" rms="4.4511237740516663e-01" purity="5.6801712512969971e-01" nType="-99"/>
          <Node pos="r" depth="2" NCoef="0" IVar="-1" Cut="0.0000000000000000e+00" cType="1" res="-1.3443674892187119e-02" rms="4.4120705127716064e-01" purity="4.4768604636192322e-01" nType="-99"/>
        </Node>
      </Node>
    </BinaryTree>
    <BinaryTree type="DecisionTree" boostWeight="1.0000000000000000e+00" itree="39">
      <Node pos="s" depth="0" NCoef="0" IVar="5" Cut="6.2114781141281128e-01" cType="1" res="-1.0787045583128929e-02" rms="4.3956863880157471e-01" purity="4.8533275723457336e-01" nType="0">
        <Node pos="l" depth="1" NCoef="0" IVar="0" Cut="9.9680297851562500e+02" cType="1" res="-3.7965492811053991e-03" rms="4.4714221358299255e-01" purity="5.0781124830245972e-01" nType="0">
          <Node pos="l" depth="2" NCoef="0" IVar="-1" Cut="0.0000000000000000e+00" cType="1" res="-1.1931364424526691e-02" rms="4.3840375542640686e-01" purity="3.2526355981826782e-01" nType="-99"/>
          <Node pos="r" depth="2" NCoef="0" IVar="-1" Cut="0.0000000000000000e+00" cType="1" res="4.0387362241744995e-03" rms="4.4936740398406982e-01" purity="5.8933222293853760e-01" nType="-99"/>
        </Node>
        <Node pos="r" depth="1" NCoef="0" IVar="-1" Cut="0.0000000000000000e+00" cType="1" res="-4.6013642102479935e-02" rms="2.3245231807231903e-01" purity="7.6521016657352448e-02" nType="-99"/>
      </Node>
    </BinaryTree>
    <BinaryTree type="DecisionTree" boostWeight="1.0000000000000000e+00" itree="40">
      <Node pos="s" depth="0" NCoef="0" IVar="1" Cut="5.9099073410034180e+00" cType="1" res="3.3189861569553614e-03" rms="4.4373291730880737e-01" purity="4.9988883733749390e-01" nType="0">
        <Node pos="l" depth="1" NCoef="0" IVar="5" Cut="6.8113142251968384e-01" cType="1" res="-5.0383158959448338e-03" rms="4.4872826337814331e-01" purity="4.7126489877700806e-01" nType="0">
          <Node pos="l" depth="2" NCoef="0" IVar="-1" Cut="0.0000000000000000e+00" cType="1" res="-1.0099081555381417e-04" rms="4.5467996597290039e-01" purity="4.8672190308570862e-01" nType="-99"/>
          <Node pos="r" depth="2" NCoef="0" IVar="-1" Cut="0.0000000000000000e+00" cType="1" res="-4.9892060458660126e-02" rms="1.8719224631786346e-01" purity="4.1797339916229248e-02" nType="-99"/>
        </Node>
        <Node pos="r" depth="1" NCoef="0" IVar="3" Cut="1.3715399801731110e-01" cType="1" res="8.3166569471359253e-02" rms="3.8374677300453186e-01" purity="7.7336913347244263e-01" nType="0">
          <Node pos="l" depth="2" NCoef="0" IVar="-1" Cut="0.0000000000000000e+00" cType="1" res="8.7655251845717430e-03" rms="3.9861938357353210e-01" purity="7.5180304050445557e-01" nType="-99"/>
          <Node pos="r" depth="2" NCoef="0" IVar="-1" Cut="0.0000000000000000e+00" cType="1" res="3.8721136748790741e-02" rms="3.4942534565925598e-01" purity="8.0363917350769043e-01" nType="-99"/>
        </Node>
      </Node>
    </BinaryTree>
    <BinaryTree type="DecisionTree" boostWeight="1.0000000000000000e+00" itree="41">
      <Node pos="s" depth="0" NCoef="0" IVar="3" Cut="3.1480467319488525e-01" cType="1" res="-3.6222846247255802e-03" rms="4.3833908438682556e-01" purity="4.8802959918975830e-01" nType="0">
        <Node pos="l" depth="1" NCoef="0" IVar="4" Cut="1.1570448428392410e-01" cType="1" res="1.4684275723993778e-02" rms="4.4228053092956543e-01" purity="5.4571419954299927e-01" nType="0">
          <Node pos="l" depth="2" NCoef="0" IVar="-1" Cut="0.0000000000000000e+00" cType="1" res="-2.0180659368634224e-02" rms="3.7086910009384155e-01" purity="2.2702814638614655e-01" nType="-99"/>
          <Node pos="r" depth="2" NCoef="0" IVar="-1" Cut="0.0000000000000000e+00" cType="1" res="6.8536191247403622e-03" rms="4.5198723673820496e-01" purity="6.0194784402847290e-01" nType="-99"/>
        </Node>
        <Node pos="r" depth="1" NCoef="0" IVar="5" Cut="2.7791622281074524e-01" cType="1" res="-7.8173130750656128e-02" rms="4.1362267732620239e-01" purity="2.5311732292175293e-01" nType="0">
          <Node pos="l" depth="2" NCoef="0" IVar="-1" Cut="0.0000000000000000e+00" cType="1" res="-2.5022359564900398e-02" rms="4.2148008942604065e-01" purity="2.6161122322082520e-01" nType="-99"/>
          <Node pos="r" depth="2" NCoef="0" IVar="-1" Cut="0.0000000000000000e+00" cType="1" res="-2.3757838644087315e-03" rms="3.8625124096870422e-01" purity="2.3398359119892120e-01" nType="-99"/>
        </Node>
      </Node>
    </BinaryTree>
    <BinaryTree type="DecisionTree" boostWeight="1.0000000000000000e+00" itree="42">
      <Node pos="s" depth="0" NCoef="0" IVar="2" Cut="2.4032033979892731e-02" cType="1" res="9.3026645481586456e-03" rms="4.3964105844497681e-01" purity="5.0428104400634766e-01" nType="0">
        <Node pos="l" depth="1" NCoef="0" IVar="3" Cut="1.6662980616092682e-01" cType="1" res="3.7885610014200211e-02" rms="4.3554335832595825e-01" purity="6.3927876949310303e-01" nType="0">
          <Node pos="l" depth="2" NCoef="0" IVar="-1" Cut="0.0000000000000000e+00" cType="1" res="1.8161013722419739e-02" rms="4.0276896953582764e-01" purity="7.5067311525344849e-01" nType="-99"/>
          <Node pos="r" depth="2" NCoef="0" IVar="-1" Cut="0.0000000000000000e+00" cType="1" res="6.4044157625176013e-05" rms="4.6492883563041687e-01" purity="5.2087140083312988e-01" nType="-99"/>
        </Node>
        <Node pos="r" depth="1" NCoef="0" IVar="3" Cut="2.4776354432106018e-02" cType="1" res="-1.7662076279520988e-02" rms="4.4178012013435364e-01" purity="3.7692606449127197e-01" nType="0">
          <Node pos="l" depth="2" NCoef="0" IVar="-1" Cut="0.0000000000000000e+00" cType="1" res="2.4324642494320869e-02" rms="4.5690691471099854e-01" purity="5.6748211383819580e-01" nType="-99"/>
          <Node pos="r" depth="2" NCoef="0" IVar="-1" Cut="0.0000000000000000e+00" cType="1" res="-7.4087600223720074e-03" rms="4.3811595439910889e-01" purity="3.5751166939735413e-01" nType="-99"/>
        </Node>
      </Node>
    </BinaryTree>
    <BinaryTree type="DecisionTree" boostWeight="1.0000000000000000e+00" itree="43">
      <Node pos="s" depth="0" NCoef="0" IVar="3" Cut="1.7900641262531281e-01" cType="1" res="-9.3362554907798767e-03" rms="4.4187831878662109e-01" purity="4.8795473575592041e-01" nType="0">
        <Node pos="l" depth="1" NCoef="0" IVar="1" Cut="3.7921533584594727e+00" cType="1" res="2.3695105686783791e-02" rms="4.4490113854408264e-01" purity="5.9091353416442871e-01" nType="0">
          <Node pos="l" depth="2" NCoef="0" IVar="-1" Cut="0.0000000000000000e+00" cType="1" res="-1.1044627986848354e-02" rms="4.5968204736709595e-01" purity="3.9042091369628906e-01" nType="-99"/>
          <Node pos="r" depth="2" NCoef="0" IVar="-1" Cut="0.0000000000000000e+00" cType="1" res="1.0554352775216103e-02" rms="4.3867275118827820e-01" purity="6.4556187391281128e-01" nType="-99"/>
        </Node>
        <Node pos="r" depth="1" NCoef="0" IVar="2" Cut="7.3917722329497337e-03" cType="1" res="-4.7531735152006149e-02" rms="4.3524277210235596e-01" purity="3.6889928579330444e-01" nType="0">
          <Node pos="l" depth="2" NCoef="0" IVar="-1" Cut="0.0000000000000000e+00" cType="1" res="1.2905652634799480e-02" rms="4.4538837671279907e-01" purity="6.0378932952880859e-01" nType="-99"/>
          <Node pos="r" depth="2" NCoef="0" IVar="-1" Cut="0.0000000000000000e+00" cType="1" res="-1.5529030933976173e-02" rms="4.3136054277420044e-01" purity="3.3240994811058044e-01" nType="-99"/>
        </Node>
      </Node>
    </BinaryTree>
    <BinaryTree type="DecisionTree" boostWeight="1.0000000000000000e+00" itree="44">
      <Node pos="s" depth="0" NCoef="0" IVar="3" Cut="1.0494919866323471e-01" cType="1" res="1.7474059015512466e-02" rms="4.4161719083786011e-01" purity="5.1582443714141846e-01" nType="0">
        <Node pos="l" depth="1" NCoef="0" IVar="2" Cut="1.2940325774252415e-02" cType="1" res="5.4857894778251648e-02" rms="4.3203717470169067e-01" purity="6.3111901283264160e-01" nType="0">
          <Node pos="l" depth="2" NCoef="0" IVar="-1" Cut="0.0000000000000000e+00" cType="1" res="2.8611481189727783e-02" rms="3.7672367691993713e-01" purity="8.1062102317810059e-01" nType="-99"/>
          <Node pos="r" depth="2" NCoef="0" IVar="-1" Cut="0.0000000000000000e+00" cType="1" res="7.3685804381966591e-03" rms="4.5103949308395386e-01" purity="5.5612051486968994e-01" nType="-99"/>
        </Node>
        <Node pos="r" depth="1" NCoef="0" IVar="0" Cut="8.4819946289062500e+02" cType="1" res="-1.5189637197181582e-03" rms="4.4520467519760132e-01" purity="4.5724850893020630e-01" nType="0">
          <Node pos="l" depth="2" NCoef="0" IVar="-1" Cut="0.0000000000000000e+00" cType="1" res="-1.9575765356421471e-02" rms="4.1309642791748047e-01" purity="2.4409201741218567e-01" nType="-99"/>
          <Node pos="r" depth="2" NCoef="0" IVar="-1" Cut="0.0000000000000000e+00" cType="1" res="2.7415561489760876e-03" rms="4.4917756319046021e-01" purity="4.9383395910263062e-01" nType="-99"/>
        </Node>
      </Node>
    </BinaryTree>
    <BinaryTree type="DecisionTree" boostWeight="1.0000000000000000e+00" itree="45">
      <Node pos="s" depth="0" NCoef="0" IVar="4" Cut="1.1037597656250000e+00" cType="1" res="-4.3582809157669544e-03" rms="4.4465112686157227e-01" purity="4.8899182677268982e-01" nType="0">
        <Node pos="l" depth="1" NCoef="0" IVar="4" Cut="9.5861035585403442e-01" cType="1" res="3.1288864556699991e-03" rms="4.4627222418785095e-01" purity="5.0207656621932983e-01" nType="0">
          <Node pos="l" depth="2" NCoef="0" IVar="-1" Cut="0.0000000000000000e+00" cType="1" res="-1.2209645938128233e-03" rms="4.4650408625602722e-01" purity="4.8880475759506226e-01" nType="-99"/>
          <Node pos="r" depth="2" NCoef="0" IVar="-1" Cut="0.0000000000000000e+00" cType="1" res="2.2514164447784424e-02" rms="4.3259650468826294e-01" purity="6.5524405241012573e-01" nType="-99"/>
        </Node>
        <Node pos="r" depth="1" NCoef="0" IVar="2" Cut="5.5928155779838562e-02" cType="1" res="-1.0978976637125015e-01" rms="4.0678206086158752e-01" purity="3.0473667383193970e-01" nType="0">
          <Node pos="l" depth="2" NCoef="0" IVar="-1" Cut="0.0000000000000000e+00" cType="1" res="-1.4101122505962849e-02" rms="4.3639543652534485e-01" purity="4.3991389870643616e-01" nType="-99"/>
          <Node pos="r" depth="2" NCoef="0" IVar="-1" Cut="0.0000000000000000e+00" cType="1" res="-3.5300258547067642e-02" rms="3.7473022937774658e-01" purity="1.8899109959602356e-01" nType="-99"/>
        </Node>
      </Node>
    </BinaryTree>
    <BinaryTree type="DecisionTree" boostWeight="1.0000000000000000e+00" itree="46">
      <Node pos="s" depth="0" NCoef="0" IVar="4" Cut="3.1381234526634216e-01" cType="1" res="-7.5334543362259865e-04" rms="4.3865364789962769e-01" purity="4.9595105648040771e-01" nType="0">
        <Node pos="l" depth="1" NCoef="0" IVar="2" Cut="2.7698066085577011e-02" cType="1" res="-4.9073360860347748e-02" rms="4.0356278419494629e-01" purity="3.0129322409629822e-01" nType="0">
          <Node pos="l" depth="2" NCoef="0" IVar="-1" Cut="0.0000000000000000e+00" cType="1" res="-3.1958671752363443e-03" rms="4.6259132027626038e-01" purity="4.6952110528945923e-01" nType="-99"/>
          <Node pos="r" depth="2" NCoef="0" IVar="-1" Cut="0.0000000000000000e+00" cType="1" res="-2.5556161999702454e-02" rms="3.3636164665222168e-01" purity="1.4491203427314758e-01" nType="-99"/>
        </Node>
        <Node pos="r" depth="1" NCoef="0" IVar="3" Cut="4.2588916420936584e-01" cType="1" res="1.8400661647319794e-02" rms="4.5037743449211121e-01" purity="5.7311326265335083e-01" nType="0">
          <Node pos="l" depth="2" NCoef="0" IVar="-1" Cut="0.0000000000000000e+00" cType="1" res="6.1713443137705326e-03" rms="4.5251113176345825e-01" purity="5.9616786241531372e-01" nType="-99"/>
          <Node pos="r" depth="2" NCoef="0" IVar="-1" Cut="0.0000000000000000e+00" cType="1" res="-2.6620419695973396e-02" rms="3.9411801099777222e-01" purity="2.1025919914245605e-01" nType="-99"/>
        </Node>
      </Node>
    </BinaryTree>
    <BinaryTree type="DecisionTree" boostWeight="1.0000000000000000e+00" itree="47">
      <Node pos="s" depth="0" NCoef="0" IVar="2" Cut="1.4798808842897415e-02" cType="1" res="5.5842762812972069e-03" rms="4.4239974021911621e-01" purity="5.1164770126342773e-01" nType="0">
        <Node pos="l" depth="1" NCoef="0" IVar="0" Cut="1.0443935546875000e+03" cType="1" res="4.9701172858476639e-02" rms="4.2962369322776794e-01" purity="6.8059849739074707e-01" nType="0">
          <Node pos="l" depth="2" NCoef="0" IVar="-1" Cut="0.0000000000000000e+00" cType="1" res="-6.0518784448504448e-03" rms="4.6567684412002563e-01" purity="4.5764628052711487e-01" nType="-99"/>
          <Node pos="r" depth="2" NCoef="0" IVar="-1" Cut="0.0000000000000000e+00" cType="1" res="1.9735399633646011e-02" rms="4.1199550032615662e-01" purity="7.6235848665237427e-01" nType="-99"/>
        </Node>
        <Node pos="r" depth="1" NCoef="0" IVar="4" Cut="1.0839499235153198e+00" cType="1" res="-1.6609204933047295e-02" rms="4.4704636931419373e-01" purity="4.2665514349937439e-01" nType="0">
          <Node pos="l" depth="2" NCoef="0" IVar="-1" Cut="0.0000000000000000e+00" cType="1" res="-1.4464308042079210e-03" rms="4.5052775740623474e-01" purity="4.4525203108787537e-01" nType="-99"/>
          <Node pos="r" depth="2" NCoef="0" IVar="-1" Cut="0.0000000000000000e+00" cType="1" res="-2.5882579386234283e-02" rms="4.0262851119041443e-01" purity="2.6120746135711670e-01" nType="-99"/>
        </Node>
      </Node>
    </BinaryTree>
    <BinaryTree type="DecisionTree" boostWeight="1.0000000000000000e+00" itree="48">
      <Node pos="s" depth="0" NCoef="0" IVar="2" Cut="7.9491823911666870e-02" cType="1" res="7.8113949857652187e-03" rms="4.4360807538032532e-01" purity="5.0237435102462769e-01" nType="0">
        <Node pos="l" depth="1" NCoef="0" IVar="5" Cut="6.3007049262523651e-02" cType="1" res="1.6913747414946556e-02" rms="4.4891023635864258e-01" purity="5.3999632596969604e-01" nType="0">
          <Node pos="l" depth="2" NCoef="0" IVar="-1" Cut="0.0000000000000000e+00" cType="1" res="-5.1589189097285271e-03" rms="4.6917489171028137e-01" purity="5.8171451091766357e-01" nType="-99"/>
          <Node pos="r" depth="2" NCoef="0" IVar="-1" Cut="0.0000000000000000e+00" cType="1" res="6.8318867124617100e-03" rms="4.4205239415168762e-01" purity="5.2757263183593750e-01" nType="-99"/>
        </Node>
        <Node pos="r" depth="1" NCoef="0" IVar="4" Cut="9.0618538856506348e-01" cType="1" res="-4.5900933444499969e-02" rms="4.0680390596389771e-01" purity="2.8037008643150330e-01" nType="0">
          <Node pos="l" depth="2" NCoef="0" IVar="-1" Cut="0.0000000000000000e+00" cType="1" res="-7.1761151775717735e-04" rms="4.1098955273628235e-01" purity="3.1494900584220886e-01" nType="-99"/>
          <Node pos="r" depth="2" NCoef="0" IVar="-1" Cut="0.0000000000000000e+00" cType="1" res="-3.7682134658098221e-02" rms="3.7191706895828247e-01" purity="1.8861781060695648e-01" nType="-99"/>
        </Node>
      </Node>
    </BinaryTree>
    <BinaryTree type="DecisionTree" boostWeight="1.0000000000000000e+00" itree="49">
      <Node pos="s" depth="0" NCoef="0" IVar="0" Cut="2.3196347656250000e+03" cType="1" res="-1.2331125326454639e-02" rms="4.4581276178359985e-01" purity="4.8563575744628906e-01" nType="0">
        <Node pos="l" depth="1" NCoef="0" IVar="4" Cut="1.1809034347534180e+00" cType="1" res="-1.9080199301242828e-02" rms="4.4881570339202881e-01" purity="4.5371353626251221e-01" nType="0">
          <Node pos="l" depth="2" NCoef="0" IVar="-1" Cut="0.0000000000000000e+00" cType="1" res="-3.2823011279106140e-03" rms="4.5126923918724060e-01" purity="4.6591264009475708e-01" nType="-99"/>
          <Node pos="r" depth="2" NCoef="0" IVar="-1" Cut="0.0000000000000000e+00" cType="1" res="-3.0300309881567955e-02" rms="3.8360789418220520e-01" purity="2.1732103824615479e-01" nType="-99"/>
        </Node>
        <Node pos="r" depth="1" NCoef="0" IVar="3" Cut="1.1100680381059647e-01" cType="1" res="4.1086092591285706e-02" rms="4.1745910048484802e-01" purity="7.3829233646392822e-01" nType="0">
          <Node pos="l" depth="2" NCoef="0" IVar="-1" Cut="0.0000000000000000e+00" cType="1" res="-3.0633977148681879e-03" rms="4.2260736227035522e-01" purity="7.0903593301773071e-01" nType="-99"/>
          <Node pos="r" depth="2" NCoef="0" IVar="-1" Cut="0.0000000000000000e+00" cType="1" res="2.1604763343930244e-02" rms="4.0783596038818359e-01" purity="7.6321780681610107e-01" nType="-99"/>
        </Node>
      </Node>
    </BinaryTree>
    <BinaryTree type="DecisionTree" boostWeight="1.0000000000000000e+00" itree="50">
      <Node pos="s" depth="0" NCoef="0" IVar="3" Cut="9.2592664062976837e-02" cType="1" res="4.0279668755829334e-03" rms="4.4175922870635986e-01" purity="5.0282216072082520e-01" nType="0">
        <Node pos="l" depth="1" NCoef="0" IVar="4" Cut="7.6415789127349854e-01" cType="1" res="6.8469397723674774e-02" rms="4.2960971593856812e-01" purity="6.3941246271133423e-01" nType="0">
          <Node pos="l" depth="2" NCoef="0" IVar="-1" Cut="0.0000000000000000e+00" cType="1" res="7.0206094533205032e-03" rms="4.3621715903282166e-01" purity="5.6965976953506470e-01" nType="-99"/>
          <Node pos="r" depth="2" NCoef="0" IVar="-1" Cut="0.0000000000000000e+00" cType="1" res="3.2500859349966049e-02" rms="4.0997758507728577e-01" purity="7.5509285926818848e-01" nType="-99"/>
        </Node>
        <Node pos="r" depth="1" NCoef="0" IVar="0" Cut="2.2892277832031250e+03" cType="1" res="-2.3636780679225922e-02" rms="4.4401350617408752e-01" purity="4.4418385624885559e-01" nType="0">
          <Node pos="l" depth="2" NCoef="0" IVar="-1" Cut="0.0000000000000000e+00" cType="1" res="-8.2538751885294914e-03" rms="4.4685479998588562e-01" purity="4.0393209457397461e-01" nType="-99"/>
          <Node pos="r" depth="2" NCoef="0" IVar="-1" Cut="0.0000000000000000e+00" cType="1" res="1.8310844898223877e-02" rms="4.0705281496047974e-01" purity="7.9375863075256348e-01" nType="-99"/>
        </Node>
      </Node>
    </BinaryTree>
    <BinaryTree type="DecisionTree" boostWeight="1.0000000000000000e+00" itree="51">
      <Node pos="s" depth="0" NCoef="0" IVar="2" Cut="1.1284092068672180e-01" cType="1" res="-4.7777574509382248e-03" rms="4.4482982158660889e-01" purity="4.8945418000221252e-01" nType="0">
        <Node pos="l" depth="1" NCoef="0" IVar="5" Cut="2.5822646915912628e-02" cType="1" res="2.8377608396112919e-04" rms="4.4781142473220825e-01" purity="5.0506210327148438e-01" nType="0">
          <Node pos="l" depth="2" NCoef="0" IVar="-1" Cut="0.0000000000000000e+00" cType="1" res="-1.6357850283384323e-02" rms="4.6708053350448608e-01" purity="5.4086393117904663e-01" nType="-99"/>
          <Node pos="r" depth="2" NCoef="0" IVar="-1" Cut="0.0000000000000000e+00" cType="1" res="1.7466908320784569e-03" rms="4.4524455070495605e-01" purity="5.0146222114562988e-01" nType="-99"/>
        </Node>
        <Node pos="r" depth="1" NCoef="0" IVar="-1" Cut="0.0000000000000000e+00" cType="1" res="-2.4784622713923454e-02" rms="3.7690228223800659e-01" purity="2.1219412982463837e-01" nType="-99"/>
      </Node>
    </BinaryTree>
    <BinaryTree type="DecisionTree" boostWeight="1.0000000000000000e+00" itree="52">
      <Node pos="s" depth="0" NCoef="0" IVar="4" Cut="5.5087840557098389e-01" cType="1" res="-1.1796559192589484e-05" rms="4.4853979349136353e-01" purity="4.9488377571105957e-01" nType="0">
        <Node pos="l" depth="1" NCoef="0" IVar="5" Cut="2.8399798274040222e-01" cType="1" res="-2.9232477769255638e-02" rms="4.4205051660537720e-01" purity="3.9422398805618286e-01" nType="0">
          <Node pos="l" depth="2" NCoef="0" IVar="-1" Cut="0.0000000000000000e+00" cType="1" res="-1.7301652580499649e-02" rms="4.5840480923652649e-01" purity="4.2825284600257874e-01" nType="-99"/>
          <Node pos="r" depth="2" NCoef="0" IVar="-1" Cut="0.0000000000000000e+00" cType="1" res="2.4184484500437975e-03" rms="4.2395579814910889e-01" purity="3.6538389325141907e-01" nType="-99"/>
        </Node>
        <Node pos="r" depth="1" NCoef="0" IVar="3" Cut="3.0242484807968140e-01" cType="1" res="2.6402544230222702e-02" rms="4.5270588994026184e-01" purity="5.8587628602981567e-01" nType="0">
          <Node pos="l" depth="2" NCoef="0" IVar="-1" Cut="0.0000000000000000e+00" cType="1" res="2.5228790473192930e-03" rms="4.5030927658081055e-01" purity="6.1847466230392456e-01" nType="-99"/>
          <Node pos="r" depth="2" NCoef="0" IVar="-1" Cut="0.0000000000000000e+00" cType="1" res="2.1438803523778915e-02" rms="4.5672959089279175e-01" purity="4.5253789424896240e-01" nType="-99"/>
        </Node>
      </Node>
    </BinaryTree>
    <BinaryTree type="DecisionTree" boostWeight="1.0000000000000000e+00" itree="53">
      <Node pos="s" depth="0" NCoef="0" IVar="4" Cut="2.5437089800834656e-01" cType="1" res="1.3621906873595435e-05" rms="4.4011771678924561e-01" purity="4.9579626321792603e-01" nType="0">
        <Node pos="l" depth="1" NCoef="0" IVar="3" Cut="2.5921094417572021e-01" cType="1" res="-3.7830043584108353e-02" rms="4.0303531289100647e-01" purity="2.9199689626693726e-01" nType="0">
          <Node pos="l" depth="2" NCoef="0" IVar="-1" Cut="0.0000000000000000e+00" cType="1" res="-1.5520773828029633e-02" rms="4.0767678618431091e-01" purity="3.2210496068000793e-01" nType="-99"/>
          <Node pos="r" depth="2" NCoef="0" IVar="-1" Cut="0.0000000000000000e+00" cType="1" res="2.8071540873497725e-03" rms="3.8915440440177917e-01" purity="2.2963091731071472e-01" nType="-99"/>
        </Node>
        <Node pos="r" depth="1" NCoef="0" IVar="3" Cut="3.6413845419883728e-01" cType="1" res="1.1970203369855881e-02" rms="4.5054033398628235e-01" purity="5.6018608808517456e-01" nType="0">
          <Node pos="l" depth="2" NCoef="0" IVar="-1" Cut="0.0000000000000000e+00" cType="1" res="4.7893146984279156e-03" rms="4.5098426938056946e-01" purity="5.9962254762649536e-01" nType="-99"/>
          <Node pos="r" depth="2" NCoef="0" IVar="-1" Cut="0.0000000000000000e+00" cType="1" res="-1.0043705813586712e-02" rms="4.4377982616424561e-01" purity="3.0350700020790100e-01" nType="-99"/>
        </Node>
      </Node>
    </BinaryTree>
    <BinaryTree type="DecisionTree" boostWeight="1.0000000000000000e+00" itree="54">
      <Node pos="s" depth="0" NCoef="0" IVar="1" Cut="4.9072046279907227e+00" cType="1" res="6.1426684260368347e-03" rms="4.3902587890625000e-01" purity="5.0081968307495117e-01" nType="0">
        <Node pos="l" depth="1" NCoef="0" IVar="1" Cut="2.4673280715942383e+00" cType="1" res="-1.2172148562967777e-02" rms="4.4710093736648560e-01" purity="4.2127642035484314e-01" nType="0">
          <Node pos="l" depth="2" NCoef="0" IVar="-1" Cut="0.0000000000000000e+00" cType="1" res="-2.6527483016252518e-02" rms="4.0984684228897095e-01" purity="2.0103313028812408e-01" nType="-99"/>
          <Node pos="r" depth="2" NCoef="0" IVar="-1" Cut="0.0000000000000000e+00" cType="1" res="-1.9033793359994888e-03" rms="4.4830113649368286e-01" purity="4.3145462870597839e-01" nType="-99"/>
        </Node>
        <Node pos="r" depth="1" NCoef="0" IVar="0" Cut="1.4298424072265625e+03" cType="1" res="4.4997610151767731e-02" rms="4.1873854398727417e-01" purity="6.6957086324691772e-01" nType="0">
          <Node pos="l" depth="2" NCoef="0" IVar="-1" Cut="0.0000000000000000e+00" cType="1" res="-2.4134716950356960e-03" rms="4.2724102735519409e-01" purity="5.0781279802322388e-01" nType="-99"/>
          <Node pos="r" depth="2" NCoef="0" IVar="-1" Cut="0.0000000000000000e+00" cType="1" res="1.6313353553414345e-02" rms="4.1429898142814636e-01" purity="7.2282272577285767e-01" nType="-99"/>
        </Node>
      </Node>
    </BinaryTree>
    <BinaryTree type="DecisionTree" boostWeight="1.0000000000000000e+00" itree="55">
      <Node pos="s" depth="0" NCoef="0" IVar="3" Cut="1.1110284924507141e-01" cType="1" res="-8.8804736733436584e-03" rms="4.4140455126762390e-01" purity="4.9010360240936279e-01" nType="0">
        <Node pos="l" depth="1" NCoef="0" IVar="3" Cut="1.2352102436125278e-02" cType="1" res="2.1221868693828583e-02" rms="4.3647879362106323e-01" purity="6.1280840635299683e-01" nType="0">
          <Node pos="l" depth="2" NCoef="0" IVar="-1" Cut="0.0000000000000000e+00" cType="1" res="-2.2844327613711357e-02" rms="4.6014046669006348e-01" purity="5.1911002397537231e-01" nType="-99"/>
          <Node pos="r" depth="2" NCoef="0" IVar="-1" Cut="0.0000000000000000e+00" cType="1" res="8.4496363997459412e-03" rms="4.3152225017547607e-01" purity="6.2426519393920898e-01" nType="-99"/>
        </Node>
        <Node pos="r" depth="1" NCoef="0" IVar="4" Cut="9.4578272104263306e-01" cType="1" res="-2.5988604873418808e-02" rms="4.4326958060264587e-01" purity="4.2036646604537964e-01" nType="0">
          <Node pos="l" depth="2" NCoef="0" IVar="-1" Cut="0.0000000000000000e+00" cType="1" res="-9.4666248187422752e-03" rms="4.4378566741943359e-01" purity="4.0731200575828552e-01" nType="-99"/>
          <Node pos="r" depth="2" NCoef="0" IVar="-1" Cut="0.0000000000000000e+00" cType="1" res="1.0055828839540482e-02" rms="4.3420857191085815e-01" purity="4.9145486950874329e-01" nType="-99"/>
        </Node>
      </Node>
    </BinaryTree>
    <BinaryTree type="DecisionTree" boostWeight="1.0000000000000000e+00" itree="56">
      <Node pos="s" depth="0" NCoef="0" IVar="4" Cut="1.0444221496582031e+00" cType="1" res="1.2862536124885082e-02" rms="4.4009593129158020e-01" purity="5.0172472000122070e-01" nType="0">
        <Node pos="l" depth="1" NCoef="0" IVar="5" Cut="6.3014574348926544e-02" cType="1" res="2.1170992404222488e-02" rms="4.4155761599540710e-01" purity="5.1863551139831543e-01" nType="0">
          <Node pos="l" depth="2" NCoef="0" IVar="-1" Cut="0.0000000000000000e+00" cType="1" res="-6.3639250583946705e-03" rms="4.5905387401580811e-01" purity="5.7028019428253174e-01" nType="-99"/>
          <Node pos="r" depth="2" NCoef="0" IVar="-1" Cut="0.0000000000000000e+00" cType="1" res="8.2479678094387054e-03" rms="4.3630415201187134e-01" purity="5.0583636760711670e-01" nType="-99"/>
        </Node>
        <Node pos="r" depth="1" NCoef="0" IVar="5" Cut="7.2539478540420532e-02" cType="1" res="-6.7452877759933472e-02" rms="4.1726398468017578e-01" purity="3.3825328946113586e-01" nType="0">
          <Node pos="l" depth="2" NCoef="0" IVar="-1" Cut="0.0000000000000000e+00" cType="1" res="1.5088850632309914e-02" rms="4.3930351734161377e-01" purity="5.8209311962127686e-01" nType="-99"/>
          <Node pos="r" depth="2" NCoef="0" IVar="-1" Cut="0.0000000000000000e+00" cType="1" res="-3.4026939421892166e-02" rms="3.8530802726745605e-01" purity="2.0169973373413086e-01" nType="-99"/>
        </Node>
      </Node>
    </BinaryTree>
    <BinaryTree type="DecisionTree" boostWeight="1.0000000000000000e+00" itree="57">
      <Node pos="s" depth="0" NCoef="0" IVar="4" Cut="1.1036795377731323e+00" cType="1" res="-6.3713272102177143e-03" rms="4.4107052683830261e-01" purity="4.9187347292900085e-01" nType="0">
        <Node pos="l" depth="1" NCoef="0" IVar="5" Cut="6.5890306234359741e-01" cType="1" res="-3.5137790837325156e-04" rms="4.4299378991127014e-01" purity="5.0543868541717529e-01" nType="0">
          <Node pos="l" depth="2" NCoef="0" IVar="-1" Cut="0.0000000000000000e+00" cType="1" res="8.7957188952714205e-04" rms="4.4960364699363708e-01" purity="5.2470904588699341e-01" nType="-99"/>
          <Node pos="r" depth="2" NCoef="0" IVar="-1" Cut="0.0000000000000000e+00" cType="1" res="-3.3457975834608078e-02" rms="2.4888224899768829e-01" purity="9.1978743672370911e-02" nType="-99"/>
        </Node>
        <Node pos="r" depth="1" NCoef="0" IVar="-1" Cut="0.0000000000000000e+00" cType="1" res="-2.4759469553828239e-02" rms="3.9759126305580139e-01" purity="2.7763608098030090e-01" nType="-99"/>
      </Node>
    </BinaryTree>
    <BinaryTree type="DecisionTree" boostWeight="1.0000000000000000e+00" itree="58">
      <Node pos="s" depth="0" NCoef="0" IVar="4" Cut="1.0442968606948853e+00" cType="1" res="-3.2106335274875164e-03" rms="4.4356492161750793e-01" purity="4.9625602364540100e-01" nType="0">
        <Node pos="l" depth="1" NCoef="0" IVar="4" Cut="9.5210909843444824e-01" cType="1" res="4.0014064870774746e-03" rms="4.4378492236137390e-01" purity="5.1363760232925415e-01" nType="0">
          <Node pos="l" depth="2" NCoef="0" IVar="-1" Cut="0.0000000000000000e+00" cType="1" res="-6.6250434610992670e-04" rms="4.4492167234420776e-01" purity="4.9841159582138062e-01" nType="-99"/>
          <Node pos="r" depth="2" NCoef="0" IVar="-1" Cut="0.0000000000000000e+00" cType="1" res="2.2337401285767555e-02" rms="4.1889524459838867e-01" purity="7.1303212642669678e-01" nType="-99"/>
        </Node>
        <Node pos="r" depth="1" NCoef="0" IVar="2" Cut="3.7386264652013779e-02" cType="1" res="-7.2272613644599915e-02" rms="4.3544533848762512e-01" purity="3.2981103658676147e-01" nType="0">
          <Node pos="l" depth="2" NCoef="0" IVar="-1" Cut="0.0000000000000000e+00" cType="1" res="6.2164561823010445e-03" rms="4.8903933167457581e-01" purity="5.6829172372817993e-01" nType="-99"/>
          <Node pos="r" depth="2" NCoef="0" IVar="-1" Cut="0.0000000000000000e+00" cType="1" res="-3.1034452840685844e-02" rms="3.9249044656753540e-01" purity="1.9914136826992035e-01" nType="-99"/>
        </Node>
      </Node>
    </BinaryTree>
    <BinaryTree type="DecisionTree" boostWeight="1.0000000000000000e+00" itree="59">
      <Node pos="s" depth="0" NCoef="0" IVar="4" Cut="2.3457100987434387e-01" cType="1" res="5.8106333017349243e-04" rms="4.3646809458732605e-01" purity="5.0285834074020386e-01" nType="0">
        <Node pos="l" depth="1" NCoef="0" IVar="5" Cut="3.4823885560035706e-01" cType="1" res="-4.8498440533876419e-02" rms="3.8536414504051208e-01" purity="2.6676610112190247e-01" nType="0">
          <Node pos="l" depth="2" NCoef="0" IVar="-1" Cut="0.0000000000000000e+00" cType="1" res="-2.3356219753623009e-02" rms="4.0792575478553772e-01" purity="2.9552561044692993e-01" nType="-99"/>
          <Node pos="r" depth="2" NCoef="0" IVar="-1" Cut="0.0000000000000000e+00" cType="1" res="-7.4895936995744705e-03" rms="3.7085199356079102e-01" purity="2.5187635421752930e-01" nType="-99"/>
        </Node>
        <Node pos="r" depth="1" NCoef="0" IVar="1" Cut="3.6819782257080078e+00" cType="1" res="1.4283712953329086e-02" rms="4.4874259829521179e-01" purity="5.6877362728118896e-01" nType="0">
          <Node pos="l" depth="2" NCoef="0" IVar="-1" Cut="0.0000000000000000e+00" cType="1" res="1.2235106900334358e-02" rms="4.6717119216918945e-01" purity="4.6832841634750366e-01" nType="-99"/>
          <Node pos="r" depth="2" NCoef="0" IVar="-1" Cut="0.0000000000000000e+00" cType="1" res="3.7954471190460026e-04" rms="4.4194155931472778e-01" purity="6.0084241628646851e-01" nType="-99"/>
        </Node>
      </Node>
    </BinaryTree>
    <BinaryTree type="DecisionTree" boostWeight="1.0000000000000000e+00" itree="60">
      <Node pos="s" depth="0" NCoef="0" IVar="4" Cut="2.9411724209785461e-01" cType="1" res="1.6907813027501106e-02" rms="4.3841969966888428e-01" purity="5.2128791809082031e-01" nType="0">
        <Node pos="l" depth="1" NCoef="0" IVar="5" Cut="2.0668433606624603e-01" cType="1" res="-1.7138905823230743e-02" rms="4.2379927635192871e-01" purity="3.3434504270553589e-01" nType="0">
          <Node pos="l" depth="2" NCoef="0" IVar="-1" Cut="0.0000000000000000e+00" cType="1" res="-2.2513734176754951e-02" rms="4.3733608722686768e-01" purity="3.5741057991981506e-01" nType="-99"/>
          <Node pos="r" depth="2" NCoef="0" IVar="-1" Cut="0.0000000000000000e+00" cType="1" res="-5.5053766118362546e-04" rms="4.1943714022636414e-01" purity="3.2986691594123840e-01" nType="-99"/>
        </Node>
        <Node pos="r" depth="1" NCoef="0" IVar="1" Cut="5.1769447326660156e+00" cType="1" res="2.9126696288585663e-02" rms="4.4291153550148010e-01" purity="5.8837902545928955e-01" nType="0">
          <Node pos="l" depth="2" NCoef="0" IVar="-1" Cut="0.0000000000000000e+00" cType="1" res="3.7235491909086704e-03" rms="4.5933538675308228e-01" purity="5.2458423376083374e-01" nType="-99"/>
          <Node pos="r" depth="2" NCoef="0" IVar="-1" Cut="0.0000000000000000e+00" cType="1" res="1.7769848927855492e-02" rms="3.8898327946662903e-01" purity="7.7343791723251343e-01" nType="-99"/>
        </Node>
      </Node>
    </BinaryTree>
    <BinaryTree type="DecisionTree" boostWeight="1.0000000000000000e+00" itree="61">
      <Node pos="s" depth="0" NCoef="0" IVar="2" Cut="2.0348362624645233e-02" cType="1" res="-8.7430616840720177e-03" rms="4.3294766545295715e-01" purity="4.9921849370002747e-01" nType="0">
        <Node pos="l" depth="1" NCoef="0" IVar="4" Cut="8.6081676185131073e-02" cType="1" res="2.9045356437563896e-02" rms="4.2527583241462708e-01" purity="6.5749609470367432e-01" nType="0">
          <Node pos="l" depth="2" NCoef="0" IVar="-1" Cut="0.0000000000000000e+00" cType="1" res="2.2993059828877449e-02" rms="4.6147370338439941e-01" purity="4.9019446969032288e-01" nType="-99"/>
          <Node pos="r" depth="2" NCoef="0" IVar="-1" Cut="0.0000000000000000e+00" cType="1" res="5.3770192898809910e-03" rms="4.2024469375610352e-01" purity="6.7644929885864258e-01" nType="-99"/>
        </Node>
        <Node pos="r" depth="1" NCoef="0" IVar="3" Cut="7.4136473238468170e-02" cType="1" res="-3.9487943053245544e-02" rms="4.3668469786643982e-01" purity="3.7044289708137512e-01" nType="0">
          <Node pos="l" depth="2" NCoef="0" IVar="-1" Cut="0.0000000000000000e+00" cType="1" res="3.8171352935023606e-04" rms="4.6081909537315369e-01" purity="5.0609457492828369e-01" nType="-99"/>
          <Node pos="r" depth="2" NCoef="0" IVar="-1" Cut="0.0000000000000000e+00" cType="1" res="-1.3421764597296715e-02" rms="4.2723867297172546e-01" purity="3.2418251037597656e-01" nType="-99"/>
        </Node>
      </Node>
    </BinaryTree>
    <BinaryTree type="DecisionTree" boostWeight="1.0000000000000000e+00" itree="62">
      <Node pos="s" depth="0" NCoef="0" IVar="4" Cut="1.0245463848114014e+00" cType="1" res="2.1271700970828533e-03" rms="4.4090846180915833e-01" purity="5.0867897272109985e-01" nType="0">
        <Node pos="l" depth="1" NCoef="0" IVar="4" Cut="7.3722755908966064e-01" cType="1" res="8.5055790841579437e-03" rms="4.4172492623329163e-01" purity="5.2261102199554443e-01" nType="0">
          <Node pos="l" depth="2" NCoef="0" IVar="-1" Cut="0.0000000000000000e+00" cType="1" res="-9.8493171390146017e-04" rms="4.4032871723175049e-01" purity="4.6824520826339722e-01" nType="-99"/>
          <Node pos="r" depth="2" NCoef="0" IVar="-1" Cut="0.0000000000000000e+00" cType="1" res="9.2315450310707092e-03" rms="4.4363209605216980e-01" purity="6.5130257606506348e-01" nType="-99"/>
        </Node>
        <Node pos="r" depth="1" NCoef="0" IVar="5" Cut="5.4311841726303101e-02" cType="1" res="-5.0937186926603317e-02" rms="4.3040743470191956e-01" purity="3.9277330040931702e-01" nType="0">
          <Node pos="l" depth="2" NCoef="0" IVar="-1" Cut="0.0000000000000000e+00" cType="1" res="1.1614034883677959e-02" rms="3.9792671799659729e-01" purity="6.3901174068450928e-01" nType="-99"/>
          <Node pos="r" depth="2" NCoef="0" IVar="-1" Cut="0.0000000000000000e+00" cType="1" res="-2.2703621536493301e-02" rms="4.3708589673042297e-01" purity="2.8454062342643738e-01" nType="-99"/>
        </Node>
      </Node>
    </BinaryTree>
    <BinaryTree type="DecisionTree" boostWeight="1.0000000000000000e+00" itree="63">
      <Node pos="s" depth="0" NCoef="0" IVar="1" Cut="2.4891092777252197e+00" cType="1" res="-3.6738242488354445e-04" rms="4.3990209698677063e-01" purity="4.9300134181976318e-01" nType="0">
        <Node pos="l" depth="1" NCoef="0" IVar="-1" Cut="0.0000000000000000e+00" cType="1" res="-3.0678255483508110e-02" rms="3.8781344890594482e-01" purity="1.9244401156902313e-01" nType="-99"/>
        <Node pos="r" depth="1" NCoef="0" IVar="4" Cut="1.0444155931472778e+00" cType="1" res="3.7074233405292034e-03" rms="4.4101813435554504e-01" purity="5.0333660840988159e-01" nType="0">
          <Node pos="l" depth="2" NCoef="0" IVar="-1" Cut="0.0000000000000000e+00" cType="1" res="2.6474795304238796e-03" rms="4.4232314825057983e-01" purity="5.2047467231750488e-01" nType="-99"/>
          <Node pos="r" depth="2" NCoef="0" IVar="-1" Cut="0.0000000000000000e+00" cType="1" res="-1.4447865076363087e-02" rms="4.2404273152351379e-01" purity="3.4995397925376892e-01" nType="-99"/>
        </Node>
      </Node>
    </BinaryTree>
    <BinaryTree type="DecisionTree" boostWeight="1.0000000000000000e+00" itree="64">
