<?xml version="1.0"?>
<MethodSetup Method="BDT::BDT-HM-NOmT-10Folds_fold3">
  <GeneralInfo>
    <Info name="TMVA Release" value="4.2.1 [262657]"/>
    <Info name="ROOT Release" value="6.28/04 [400388]"/>
    <Info name="Creator" value="diegomac"/>
    <Info name="Date" value="Wed Sep 13 14:43:57 2023"/>
    <Info name="Host" value="Darwin Diegos-MacBook-Pro-2.local 22.4.0 Darwin Kernel Version 22.4.0: Mon Mar 6 20:59:28 PST 2023; root:xnu-8796.101.5~3/RELEASE_ARM64_T6000 arm64"/>
    <Info name="Dir" value="/Users/diegomac/Documents/HEP/MVA-Analysis"/>
    <Info name="Training events" value="32205"/>
    <Info name="TrainingTime" value="6.39281034e-01"/>
    <Info name="AnalysisType" value="Classification"/>
  </GeneralInfo>
  <Options>
    <Option name="V" modified="Yes">False</Option>
    <Option name="VerbosityLevel" modified="No">Default</Option>
    <Option name="VarTransform" modified="No">None</Option>
    <Option name="H" modified="Yes">False</Option>
    <Option name="CreateMVAPdfs" modified="No">False</Option>
    <Option name="IgnoreNegWeightsInTraining" modified="No">False</Option>
    <Option name="NTrees" modified="Yes">125</Option>
    <Option name="MaxDepth" modified="Yes">2</Option>
    <Option name="MinNodeSize" modified="Yes">3%</Option>
    <Option name="nCuts" modified="Yes">80</Option>
    <Option name="BoostType" modified="Yes">Grad</Option>
    <Option name="AdaBoostR2Loss" modified="No">quadratic</Option>
    <Option name="UseBaggedBoost" modified="Yes">True</Option>
    <Option name="Shrinkage" modified="Yes">1.000000e-01</Option>
    <Option name="AdaBoostBeta" modified="No">5.000000e-01</Option>
    <Option name="UseRandomisedTrees" modified="No">False</Option>
    <Option name="UseNvars" modified="Yes">2</Option>
    <Option name="UsePoissonNvars" modified="No">True</Option>
    <Option name="BaggedSampleFraction" modified="Yes">5.000000e-01</Option>
    <Option name="UseYesNoLeaf" modified="No">True</Option>
    <Option name="NegWeightTreatment" modified="No">pray</Option>
    <Option name="Css" modified="No">1.000000e+00</Option>
    <Option name="Cts_sb" modified="No">1.000000e+00</Option>
    <Option name="Ctb_ss" modified="No">1.000000e+00</Option>
    <Option name="Cbb" modified="No">1.000000e+00</Option>
    <Option name="NodePurityLimit" modified="No">5.000000e-01</Option>
    <Option name="SeparationType" modified="Yes">sdivsqrtsplusb</Option>
    <Option name="RegressionLossFunctionBDTG" modified="No">huber</Option>
    <Option name="HuberQuantile" modified="No">7.000000e-01</Option>
    <Option name="DoBoostMonitor" modified="No">False</Option>
    <Option name="UseFisherCuts" modified="No">False</Option>
    <Option name="MinLinCorrForFisher" modified="No">8.000000e-01</Option>
    <Option name="UseExclusiveVars" modified="No">False</Option>
    <Option name="DoPreselection" modified="No">False</Option>
    <Option name="SigToBkgFraction" modified="No">1.000000e+00</Option>
    <Option name="PruneMethod" modified="No">nopruning</Option>
    <Option name="PruneStrength" modified="No">0.000000e+00</Option>
    <Option name="PruningValFraction" modified="No">5.000000e-01</Option>
    <Option name="SkipNormalization" modified="No">False</Option>
    <Option name="nEventsMin" modified="No">0</Option>
    <Option name="UseBaggedGrad" modified="No">False</Option>
    <Option name="GradBaggingFraction" modified="No">5.000000e-01</Option>
    <Option name="UseNTrainEvents" modified="No">0</Option>
    <Option name="NNodesMax" modified="No">0</Option>
  </Options>
  <Variables NVar="5">
    <Variable VarIndex="0" Expression="mjj" Label="mjj" Title="m_{jj}" Unit="GeV" Internal="mjj" Type="D" Min="7.50003479e+02" Max="8.69623633e+03"/>
    <Variable VarIndex="1" Expression="deltaRapidity" Label="deltaRapidity" Title="#Delta y_{jj}" Unit="" Internal="deltaRapidity" Type="D" Min="2.00020766e+00" Max="8.59782600e+00"/>
    <Variable VarIndex="2" Expression="ptBalance" Label="ptBalance" Title="pT_{balance}" Unit="" Internal="ptBalance" Type="D" Min="1.25554126e-18" Max="1.49860099e-01"/>
    <Variable VarIndex="3" Expression="zCentrality" Label="zCentrality" Title="#xi(Z)" Unit="" Internal="zCentrality" Type="D" Min="9.20502589e-06" Max="4.99961168e-01"/>
    <Variable VarIndex="4" Expression="omega" Label="omega" Title="#Omega" Unit="" Internal="omega" Type="D" Min="-1.99983269e-01" Max="1.39996660e+00"/>
  </Variables>
  <Spectators NSpec="1">
    <Spectator SpecIndex="0" Expression="eventNumber" Label="eventNumber" Title="I" Unit="" Internal="eventNumber" Type="F" Min="8.40000000e+01" Max="1.15952781e+09"/>
  </Spectators>
  <Classes NClass="2">
    <Class Name="Signal" Index="0"/>
    <Class Name="Background" Index="1"/>
  </Classes>
  <Transformations NTransformations="0"/>
  <MVAPdfs/>
  <Weights NTrees="125" AnalysisType="1">
    <BinaryTree type="DecisionTree" boostWeight="1.0000000000000000e+00" itree="0">
      <Node pos="s" depth="0" NCoef="0" IVar="0" Cut="1.2933114013671875e+03" cType="1" res="5.6402003392577171e-03" rms="4.9996820092201233e-01" purity="5.0564020872116089e-01" nType="0">
        <Node pos="l" depth="1" NCoef="0" IVar="4" Cut="5.1157641410827637e-01" cType="1" res="-1.0208426415920258e-01" rms="4.8946788907051086e-01" purity="3.9791572093963623e-01" nType="0">
          <Node pos="l" depth="2" NCoef="0" IVar="-1" Cut="0.0000000000000000e+00" cType="1" res="-4.8241008073091507e-02" rms="4.3797275424003601e-01" purity="2.5879493355751038e-01" nType="-99"/>
          <Node pos="r" depth="2" NCoef="0" IVar="-1" Cut="0.0000000000000000e+00" cType="1" res="3.2009175047278404e-03" rms="4.9974378943443298e-01" purity="5.1600456237792969e-01" nType="-99"/>
        </Node>
        <Node pos="r" depth="1" NCoef="0" IVar="4" Cut="5.6868456304073334e-02" cType="1" res="1.4058135449886322e-01" rms="4.7983005642890930e-01" purity="6.4058136940002441e-01" nType="0">
          <Node pos="l" depth="2" NCoef="0" IVar="-1" Cut="0.0000000000000000e+00" cType="1" res="-4.4140703976154327e-02" rms="4.4865348935127258e-01" purity="2.7929645776748657e-01" nType="-99"/>
          <Node pos="r" depth="2" NCoef="0" IVar="-1" Cut="0.0000000000000000e+00" cType="1" res="3.6359220743179321e-02" rms="4.6577909588813782e-01" purity="6.8179607391357422e-01" nType="-99"/>
        </Node>
      </Node>
    </BinaryTree>
    <BinaryTree type="DecisionTree" boostWeight="1.0000000000000000e+00" itree="1">
      <Node pos="s" depth="0" NCoef="0" IVar="2" Cut="2.9597617685794830e-02" cType="1" res="1.4798618853092194e-02" rms="4.9442985653877258e-01" purity="5.1556313037872314e-01" nType="0">
        <Node pos="l" depth="1" NCoef="0" IVar="3" Cut="2.9619470238685608e-01" cType="1" res="1.2205889075994492e-01" rms="4.7879329323768616e-01" purity="6.2480652332305908e-01" nType="0">
          <Node pos="l" depth="2" NCoef="0" IVar="-1" Cut="0.0000000000000000e+00" cType="1" res="3.8147844374179840e-02" rms="4.5561856031417847e-01" purity="6.9446396827697754e-01" nType="-99"/>
          <Node pos="r" depth="2" NCoef="0" IVar="-1" Cut="0.0000000000000000e+00" cType="1" res="-2.1024441346526146e-02" rms="4.8369950056076050e-01" purity="3.9378839731216431e-01" nType="-99"/>
        </Node>
        <Node pos="r" depth="1" NCoef="0" IVar="4" Cut="1.1604439467191696e-01" cType="1" res="-1.1308125406503677e-01" rms="4.8221832513809204e-01" purity="3.8531893491744995e-01" nType="0">
          <Node pos="l" depth="2" NCoef="0" IVar="-1" Cut="0.0000000000000000e+00" cType="1" res="-6.8845510482788086e-02" rms="3.3929958939552307e-01" purity="1.3489080965518951e-01" nType="-99"/>
          <Node pos="r" depth="2" NCoef="0" IVar="-1" Cut="0.0000000000000000e+00" cType="1" res="-1.2091591022908688e-02" rms="4.9443709850311279e-01" purity="4.4258275628089905e-01" nType="-99"/>
        </Node>
      </Node>
    </BinaryTree>
    <BinaryTree type="DecisionTree" boostWeight="1.0000000000000000e+00" itree="2">
      <Node pos="s" depth="0" NCoef="0" IVar="2" Cut="2.5901746004819870e-02" cType="1" res="-1.5762452036142349e-02" rms="4.9016261100769043e-01" purity="4.8709172010421753e-01" nType="0">
        <Node pos="l" depth="1" NCoef="0" IVar="3" Cut="2.6535651087760925e-01" cType="1" res="9.4843730330467224e-02" rms="4.8114216327667236e-01" purity="6.1016446352005005e-01" nType="0">
          <Node pos="l" depth="2" NCoef="0" IVar="-1" Cut="0.0000000000000000e+00" cType="1" res="3.0973756685853004e-02" rms="4.6406286954879761e-01" purity="6.7688679695129395e-01" nType="-99"/>
          <Node pos="r" depth="2" NCoef="0" IVar="-1" Cut="0.0000000000000000e+00" cType="1" res="-1.4288764446973801e-02" rms="4.8893105983734131e-01" purity="4.2395713925361633e-01" nType="-99"/>
        </Node>
        <Node pos="r" depth="1" NCoef="0" IVar="3" Cut="2.4069410562515259e-01" cType="1" res="-1.3712617754936218e-01" rms="4.7087195515632629e-01" purity="3.5204896330833435e-01" nType="0">
          <Node pos="l" depth="2" NCoef="0" IVar="-1" Cut="0.0000000000000000e+00" cType="1" res="-1.3363946229219437e-02" rms="4.8647993803024292e-01" purity="4.2393684387207031e-01" nType="-99"/>
          <Node pos="r" depth="2" NCoef="0" IVar="-1" Cut="0.0000000000000000e+00" cType="1" res="-5.4222490638494492e-02" rms="4.0796416997909546e-01" purity="2.1639686822891235e-01" nType="-99"/>
        </Node>
      </Node>
    </BinaryTree>
    <BinaryTree type="DecisionTree" boostWeight="1.0000000000000000e+00" itree="3">
      <Node pos="s" depth="0" NCoef="0" IVar="4" Cut="3.9262837171554565e-01" cType="1" res="-7.8931711614131927e-03" rms="4.8640325665473938e-01" purity="4.9335649609565735e-01" nType="0">
        <Node pos="l" depth="1" NCoef="0" IVar="2" Cut="2.5897916406393051e-02" cType="1" res="-1.3814780116081238e-01" rms="4.5847943425178528e-01" purity="3.4414583444595337e-01" nType="0">
          <Node pos="l" depth="2" NCoef="0" IVar="-1" Cut="0.0000000000000000e+00" cType="1" res="-4.5202006585896015e-03" rms="4.8965266346931458e-01" purity="4.9184173345565796e-01" nType="-99"/>
          <Node pos="r" depth="2" NCoef="0" IVar="-1" Cut="0.0000000000000000e+00" cType="1" res="-5.0724823027849197e-02" rms="3.9488756656646729e-01" purity="2.0079985260963440e-01" nType="-99"/>
        </Node>
        <Node pos="r" depth="1" NCoef="0" IVar="3" Cut="3.0859258770942688e-01" cType="1" res="5.6805968284606934e-02" rms="4.8690903186798096e-01" purity="5.6747138500213623e-01" nType="0">
          <Node pos="l" depth="2" NCoef="0" IVar="-1" Cut="0.0000000000000000e+00" cType="1" res="2.0771149545907974e-02" rms="4.7894668579101562e-01" purity="6.2108933925628662e-01" nType="-99"/>
          <Node pos="r" depth="2" NCoef="0" IVar="-1" Cut="0.0000000000000000e+00" cType="1" res="-2.8993153944611549e-02" rms="4.6944144368171692e-01" purity="3.3565795421600342e-01" nType="-99"/>
        </Node>
      </Node>
    </BinaryTree>
    <BinaryTree type="DecisionTree" boostWeight="1.0000000000000000e+00" itree="4">
      <Node pos="s" depth="0" NCoef="0" IVar="2" Cut="3.7002492696046829e-02" cType="1" res="9.4333337619900703e-03" rms="4.8188310861587524e-01" purity="5.0978428125381470e-01" nType="0">
        <Node pos="l" depth="1" NCoef="0" IVar="0" Cut="1.2554522705078125e+03" cType="1" res="8.2087412476539612e-02" rms="4.7671288251876831e-01" purity="6.0228008031845093e-01" nType="0">
          <Node pos="l" depth="2" NCoef="0" IVar="-1" Cut="0.0000000000000000e+00" cType="1" res="-4.0280362591147423e-03" rms="4.8946332931518555e-01" purity="4.8268854618072510e-01" nType="-99"/>
          <Node pos="r" depth="2" NCoef="0" IVar="-1" Cut="0.0000000000000000e+00" cType="1" res="3.5459801554679871e-02" rms="4.4464868307113647e-01" purity="7.1171802282333374e-01" nType="-99"/>
        </Node>
        <Node pos="r" depth="1" NCoef="0" IVar="4" Cut="3.9262837171554565e-01" cType="1" res="-1.1702214926481247e-01" rms="4.6439111232757568e-01" purity="3.4879401326179504e-01" nType="0">
          <Node pos="l" depth="2" NCoef="0" IVar="-1" Cut="0.0000000000000000e+00" cType="1" res="-4.9636494368314743e-02" rms="3.8007521629333496e-01" purity="1.8345557153224945e-01" nType="-99"/>
          <Node pos="r" depth="2" NCoef="0" IVar="-1" Cut="0.0000000000000000e+00" cType="1" res="-7.0822709240019321e-03" rms="4.9530887603759766e-01" purity="4.5689395070075989e-01" nType="-99"/>
        </Node>
      </Node>
    </BinaryTree>
    <BinaryTree type="DecisionTree" boostWeight="1.0000000000000000e+00" itree="5">
      <Node pos="s" depth="0" NCoef="0" IVar="0" Cut="1.6329233398437500e+03" cType="1" res="-8.0541800707578659e-03" rms="4.7713035345077515e-01" purity="4.9074706435203552e-01" nType="0">
        <Node pos="l" depth="1" NCoef="0" IVar="3" Cut="2.9625892639160156e-01" cType="1" res="-6.7255236208438873e-02" rms="4.7395333647727966e-01" purity="4.1830322146415710e-01" nType="0">
          <Node pos="l" depth="2" NCoef="0" IVar="-1" Cut="0.0000000000000000e+00" cType="1" res="-2.6476052589714527e-03" rms="4.8239320516586304e-01" purity="4.8659151792526245e-01" nType="-99"/>
          <Node pos="r" depth="2" NCoef="0" IVar="-1" Cut="0.0000000000000000e+00" cType="1" res="-4.3176744133234024e-02" rms="4.1727292537689209e-01" purity="2.3546370863914490e-01" nType="-99"/>
        </Node>
        <Node pos="r" depth="1" NCoef="0" IVar="2" Cut="1.8475461751222610e-02" cType="1" res="1.4556936919689178e-01" rms="4.5033261179924011e-01" purity="6.7873489856719971e-01" nType="0">
          <Node pos="l" depth="2" NCoef="0" IVar="-1" Cut="0.0000000000000000e+00" cType="1" res="4.9014929682016373e-02" rms="3.9252436161041260e-01" purity="8.0417126417160034e-01" nType="-99"/>
          <Node pos="r" depth="2" NCoef="0" IVar="-1" Cut="0.0000000000000000e+00" cType="1" res="1.2491445057094097e-02" rms="4.8053389787673950e-01" purity="5.6780582666397095e-01" nType="-99"/>
        </Node>
      </Node>
    </BinaryTree>
    <BinaryTree type="DecisionTree" boostWeight="1.0000000000000000e+00" itree="6">
      <Node pos="s" depth="0" NCoef="0" IVar="2" Cut="2.4051621556282043e-02" cType="1" res="1.1213567107915878e-02" rms="4.7681576013565063e-01" purity="5.1072049140930176e-01" nType="0">
        <Node pos="l" depth="1" NCoef="0" IVar="0" Cut="1.0792132568359375e+03" cType="1" res="1.0035664588212967e-01" rms="4.6598201990127563e-01" purity="6.3723921775817871e-01" nType="0">
          <Node pos="l" depth="2" NCoef="0" IVar="-1" Cut="0.0000000000000000e+00" cType="1" res="-2.3713344708085060e-03" rms="4.9226644635200500e-01" purity="4.8872712254524231e-01" nType="-99"/>
          <Node pos="r" depth="2" NCoef="0" IVar="-1" Cut="0.0000000000000000e+00" cType="1" res="3.2468795776367188e-02" rms="4.4045144319534302e-01" purity="7.1477925777435303e-01" nType="-99"/>
        </Node>
        <Node pos="r" depth="1" NCoef="0" IVar="4" Cut="5.7156760245561600e-02" cType="1" res="-7.7240213751792908e-02" rms="4.7093439102172852e-01" purity="3.8518002629280090e-01" nType="0">
          <Node pos="l" depth="2" NCoef="0" IVar="-1" Cut="0.0000000000000000e+00" cType="1" res="-6.0706965625286102e-02" rms="2.9702115058898926e-01" purity="9.9820449948310852e-02" nType="-99"/>
          <Node pos="r" depth="2" NCoef="0" IVar="-1" Cut="0.0000000000000000e+00" cType="1" res="-8.5737593472003937e-03" rms="4.8523604869842529e-01" purity="4.3261545896530151e-01" nType="-99"/>
        </Node>
      </Node>
    </BinaryTree>
    <BinaryTree type="DecisionTree" boostWeight="1.0000000000000000e+00" itree="7">
      <Node pos="s" depth="0" NCoef="0" IVar="4" Cut="2.9382842779159546e-01" cType="1" res="-1.7883497639559209e-04" rms="4.7259473800659180e-01" purity="5.0024002790451050e-01" nType="0">
        <Node pos="l" depth="1" NCoef="0" IVar="2" Cut="2.5897916406393051e-02" cType="1" res="-1.5383836627006531e-01" rms="4.2655500769615173e-01" purity="2.9485377669334412e-01" nType="0">
          <Node pos="l" depth="2" NCoef="0" IVar="-1" Cut="0.0000000000000000e+00" cType="1" res="-1.2575778178870678e-02" rms="4.8509326577186584e-01" purity="4.6900883316993713e-01" nType="-99"/>
          <Node pos="r" depth="2" NCoef="0" IVar="-1" Cut="0.0000000000000000e+00" cType="1" res="-4.7823574393987656e-02" rms="3.5943135619163513e-01" purity="1.6042135655879974e-01" nType="-99"/>
        </Node>
        <Node pos="r" depth="1" NCoef="0" IVar="1" Cut="3.7767302989959717e+00" cType="1" res="5.5433794856071472e-02" rms="4.7611966729164124e-01" purity="5.7457363605499268e-01" nType="0">
          <Node pos="l" depth="2" NCoef="0" IVar="-1" Cut="0.0000000000000000e+00" cType="1" res="-1.6167553141713142e-02" rms="4.8522740602493286e-01" purity="4.1141071915626526e-01" nType="-99"/>
          <Node pos="r" depth="2" NCoef="0" IVar="-1" Cut="0.0000000000000000e+00" cType="1" res="2.1916100755333900e-02" rms="4.6213006973266602e-01" purity="6.3734441995620728e-01" nType="-99"/>
        </Node>
      </Node>
    </BinaryTree>
    <BinaryTree type="DecisionTree" boostWeight="1.0000000000000000e+00" itree="8">
      <Node pos="s" depth="0" NCoef="0" IVar="0" Cut="1.0443239746093750e+03" cType="1" res="-9.7918501123785973e-03" rms="4.6981433033943176e-01" purity="4.8988655209541321e-01" nType="0">
        <Node pos="l" depth="1" NCoef="0" IVar="4" Cut="5.7145215570926666e-02" cType="1" res="-1.2038183957338333e-01" rms="4.5375639200210571e-01" purity="3.3679816126823425e-01" nType="0">
          <Node pos="l" depth="2" NCoef="0" IVar="-1" Cut="0.0000000000000000e+00" cType="1" res="-6.5498210489749908e-02" rms="2.4367578327655792e-01" purity="6.3276015222072601e-02" nType="-99"/>
          <Node pos="r" depth="2" NCoef="0" IVar="-1" Cut="0.0000000000000000e+00" cType="1" res="-1.8681950867176056e-02" rms="4.7291669249534607e-01" purity="3.8084936141967773e-01" nType="-99"/>
        </Node>
        <Node pos="r" depth="1" NCoef="0" IVar="4" Cut="1.1660962551832199e-01" cType="1" res="5.5060602724552155e-02" rms="4.6695253252983093e-01" purity="5.7966095209121704e-01" nType="0">
          <Node pos="l" depth="2" NCoef="0" IVar="-1" Cut="0.0000000000000000e+00" cType="1" res="-3.6914020776748657e-02" rms="4.0412744879722595e-01" purity="2.5971600413322449e-01" nType="-99"/>
          <Node pos="r" depth="2" NCoef="0" IVar="-1" Cut="0.0000000000000000e+00" cType="1" res="1.8479345366358757e-02" rms="4.6596473455429077e-01" purity="6.2866014242172241e-01" nType="-99"/>
        </Node>
      </Node>
    </BinaryTree>
    <BinaryTree type="DecisionTree" boostWeight="1.0000000000000000e+00" itree="9">
      <Node pos="s" depth="0" NCoef="0" IVar="4" Cut="2.5458765029907227e-01" cType="1" res="-7.8042256645858288e-03" rms="4.6835529804229736e-01" purity="4.9276158213615417e-01" nType="0">
        <Node pos="l" depth="1" NCoef="0" IVar="0" Cut="1.5650755615234375e+03" cType="1" res="-1.3835021853446960e-01" rms="4.2195057868957520e-01" purity="2.8507962822914124e-01" nType="0">
          <Node pos="l" depth="2" NCoef="0" IVar="-1" Cut="0.0000000000000000e+00" cType="1" res="-3.9068214595317841e-02" rms="3.9579248428344727e-01" purity="2.1697480976581573e-01" nType="-99"/>
          <Node pos="r" depth="2" NCoef="0" IVar="-1" Cut="0.0000000000000000e+00" cType="1" res="-5.4788473062217236e-03" rms="4.6390941739082336e-01" purity="4.5921725034713745e-01" nType="-99"/>
        </Node>
        <Node pos="r" depth="1" NCoef="0" IVar="3" Cut="3.3327534794807434e-01" cType="1" res="3.4234795719385147e-02" rms="4.7476905584335327e-01" purity="5.5964028835296631e-01" nType="0">
          <Node pos="l" depth="2" NCoef="0" IVar="-1" Cut="0.0000000000000000e+00" cType="1" res="1.5112283639609814e-02" rms="4.7007969021797180e-01" purity="6.1428326368331909e-01" nType="-99"/>
          <Node pos="r" depth="2" NCoef="0" IVar="-1" Cut="0.0000000000000000e+00" cType="1" res="-3.1321864575147629e-02" rms="4.5129445195198059e-01" purity="3.0006611347198486e-01" nType="-99"/>
        </Node>
      </Node>
    </BinaryTree>
    <BinaryTree type="DecisionTree" boostWeight="1.0000000000000000e+00" itree="10">
      <Node pos="s" depth="0" NCoef="0" IVar="0" Cut="1.4921032714843750e+03" cType="1" res="-1.4716019853949547e-02" rms="4.6814560890197754e-01" purity="4.8459118604660034e-01" nType="0">
        <Node pos="l" depth="1" NCoef="0" IVar="3" Cut="1.7899841070175171e-01" cType="1" res="-6.9597132503986359e-02" rms="4.6703642606735229e-01" purity="4.0028962492942810e-01" nType="0">
          <Node pos="l" depth="2" NCoef="0" IVar="-1" Cut="0.0000000000000000e+00" cType="1" res="1.1999632988590747e-04" rms="4.7848463058471680e-01" purity="4.9693006277084351e-01" nType="-99"/>
          <Node pos="r" depth="2" NCoef="0" IVar="-1" Cut="0.0000000000000000e+00" cType="1" res="-2.8702704235911369e-02" rms="4.4508087635040283e-01" purity="3.0611291527748108e-01" nType="-99"/>
        </Node>
        <Node pos="r" depth="1" NCoef="0" IVar="1" Cut="4.8446087837219238e+00" cType="1" res="9.3003302812576294e-02" rms="4.5131036639213562e-01" purity="6.5005630254745483e-01" nType="0">
          <Node pos="l" depth="2" NCoef="0" IVar="-1" Cut="0.0000000000000000e+00" cType="1" res="-5.1554986275732517e-03" rms="4.8313683271408081e-01" purity="5.1333230733871460e-01" nType="-99"/>
          <Node pos="r" depth="2" NCoef="0" IVar="-1" Cut="0.0000000000000000e+00" cType="1" res="2.9402934014797211e-02" rms="4.2872694134712219e-01" purity="7.0527315139770508e-01" nType="-99"/>
        </Node>
      </Node>
    </BinaryTree>
    <BinaryTree type="DecisionTree" boostWeight="1.0000000000000000e+00" itree="11">
      <Node pos="s" depth="0" NCoef="0" IVar="2" Cut="2.5861142203211784e-02" cType="1" res="9.2420252040028572e-03" rms="4.6455040574073792e-01" purity="5.1030421257019043e-01" nType="0">
        <Node pos="l" depth="1" NCoef="0" IVar="1" Cut="4.6426434516906738e+00" cType="1" res="8.8918872177600861e-02" rms="4.5663183927536011e-01" purity="6.4577794075012207e-01" nType="0">
          <Node pos="l" depth="2" NCoef="0" IVar="-1" Cut="0.0000000000000000e+00" cType="1" res="4.3770698830485344e-03" rms="4.8151198029518127e-01" purity="5.4115211963653564e-01" nType="-99"/>
          <Node pos="r" depth="2" NCoef="0" IVar="-1" Cut="0.0000000000000000e+00" cType="1" res="3.6815986037254333e-02" rms="4.0792959928512573e-01" purity="7.7683764696121216e-01" nType="-99"/>
        </Node>
        <Node pos="r" depth="1" NCoef="0" IVar="0" Cut="8.9823602294921875e+02" cType="1" res="-7.5981266796588898e-02" rms="4.5777282118797302e-01" purity="3.6539989709854126e-01" nType="0">
          <Node pos="l" depth="2" NCoef="0" IVar="-1" Cut="0.0000000000000000e+00" cType="1" res="-3.9508190006017685e-02" rms="4.0041950345039368e-01" purity="2.1824476122856140e-01" nType="-99"/>
          <Node pos="r" depth="2" NCoef="0" IVar="-1" Cut="0.0000000000000000e+00" cType="1" res="-8.3004208281636238e-03" rms="4.6966916322708130e-01" purity="4.1413956880569458e-01" nType="-99"/>
        </Node>
      </Node>
    </BinaryTree>
    <BinaryTree type="DecisionTree" boostWeight="1.0000000000000000e+00" itree="12">
      <Node pos="s" depth="0" NCoef="0" IVar="2" Cut="2.9578352347016335e-02" cType="1" res="5.1634237170219421e-03" rms="4.6207314729690552e-01" purity="5.0571632385253906e-01" nType="0">
        <Node pos="l" depth="1" NCoef="0" IVar="4" Cut="6.0907775163650513e-01" cType="1" res="8.0042041838169098e-02" rms="4.5545631647109985e-01" purity="6.3621640205383301e-01" nType="0">
          <Node pos="l" depth="2" NCoef="0" IVar="-1" Cut="0.0000000000000000e+00" cType="1" res="3.5679095890372992e-03" rms="4.7107771039009094e-01" purity="5.4955464601516724e-01" nType="-99"/>
          <Node pos="r" depth="2" NCoef="0" IVar="-1" Cut="0.0000000000000000e+00" cType="1" res="3.0326470732688904e-02" rms="4.2955273389816284e-01" purity="7.2468429803848267e-01" nType="-99"/>
        </Node>
        <Node pos="r" depth="1" NCoef="0" IVar="4" Cut="1.0641479492187500e+00" cType="1" res="-8.8360749185085297e-02" rms="4.5314988493919373e-01" purity="3.4272035956382751e-01" nType="0">
          <Node pos="l" depth="2" NCoef="0" IVar="-1" Cut="0.0000000000000000e+00" cType="1" res="-1.2121171690523624e-02" rms="4.5453584194183350e-01" purity="3.6639508605003357e-01" nType="-99"/>
          <Node pos="r" depth="2" NCoef="0" IVar="-1" Cut="0.0000000000000000e+00" cType="1" res="-5.8472447097301483e-02" rms="3.8858470320701599e-01" purity="1.9126327335834503e-01" nType="-99"/>
        </Node>
      </Node>
    </BinaryTree>
    <BinaryTree type="DecisionTree" boostWeight="1.0000000000000000e+00" itree="13">
      <Node pos="s" depth="0" NCoef="0" IVar="2" Cut="2.2201495245099068e-02" cType="1" res="-1.1653726920485497e-02" rms="4.6072015166282654e-01" purity="4.8598539829254150e-01" nType="0">
        <Node pos="l" depth="1" NCoef="0" IVar="1" Cut="5.1136965751647949e+00" cType="1" res="6.6862061619758606e-02" rms="4.6070563793182373e-01" purity="6.3338512182235718e-01" nType="0">
          <Node pos="l" depth="2" NCoef="0" IVar="-1" Cut="0.0000000000000000e+00" cType="1" res="7.1396315470337868e-03" rms="4.7782394289970398e-01" purity="5.7273691892623901e-01" nType="-99"/>
          <Node pos="r" depth="2" NCoef="0" IVar="-1" Cut="0.0000000000000000e+00" cType="1" res="3.3835709095001221e-02" rms="3.9828249812126160e-01" purity="7.9667651653289795e-01" nType="-99"/>
        </Node>
        <Node pos="r" depth="1" NCoef="0" IVar="3" Cut="2.9010942578315735e-01" cType="1" res="-7.8815348446369171e-02" rms="4.4998949766159058e-01" purity="3.5990104079246521e-01" nType="0">
          <Node pos="l" depth="2" NCoef="0" IVar="-1" Cut="0.0000000000000000e+00" cType="1" res="-8.7323794141411781e-03" rms="4.6535077691078186e-01" purity="4.1665393114089966e-01" nType="-99"/>
          <Node pos="r" depth="2" NCoef="0" IVar="-1" Cut="0.0000000000000000e+00" cType="1" res="-4.0840160101652145e-02" rms="3.8134783506393433e-01" purity="1.9344243407249451e-01" nType="-99"/>
        </Node>
      </Node>
    </BinaryTree>
    <BinaryTree type="DecisionTree" boostWeight="1.0000000000000000e+00" itree="14">
      <Node pos="s" depth="0" NCoef="0" IVar="0" Cut="2.3953007812500000e+03" cType="1" res="1.9299905747175217e-02" rms="4.6220108866691589e-01" purity="5.2010136842727661e-01" nType="0">
        <Node pos="l" depth="1" NCoef="0" IVar="4" Cut="1.9539204239845276e-01" cType="1" res="-8.3319074474275112e-04" rms="4.6688562631607056e-01" purity="4.8648336529731750e-01" nType="0">
          <Node pos="l" depth="2" NCoef="0" IVar="-1" Cut="0.0000000000000000e+00" cType="1" res="-2.7232715860009193e-02" rms="4.0944615006446838e-01" purity="2.5644379854202271e-01" nType="-99"/>
          <Node pos="r" depth="2" NCoef="0" IVar="-1" Cut="0.0000000000000000e+00" cType="1" res="6.2083513475954533e-03" rms="4.7566556930541992e-01" purity="5.4545110464096069e-01" nType="-99"/>
        </Node>
        <Node pos="r" depth="1" NCoef="0" IVar="1" Cut="5.5608396530151367e+00" cType="1" res="1.7318548262119293e-01" rms="3.9189812541007996e-01" purity="7.7705746889114380e-01" nType="0">
          <Node pos="l" depth="2" NCoef="0" IVar="-1" Cut="0.0000000000000000e+00" cType="1" res="1.0845239274203777e-02" rms="4.5903471112251282e-01" purity="6.4098745584487915e-01" nType="-99"/>
          <Node pos="r" depth="2" NCoef="0" IVar="-1" Cut="0.0000000000000000e+00" cType="1" res="4.7816272825002670e-02" rms="3.5217469930648804e-01" purity="8.2876634597778320e-01" nType="-99"/>
        </Node>
      </Node>
    </BinaryTree>
    <BinaryTree type="DecisionTree" boostWeight="1.0000000000000000e+00" itree="15">
      <Node pos="s" depth="0" NCoef="0" IVar="4" Cut="1.2019315958023071e+00" cType="1" res="8.1042638048529625e-03" rms="4.5898139476776123e-01" purity="5.0948017835617065e-01" nType="0">
        <Node pos="l" depth="1" NCoef="0" IVar="4" Cut="5.0952780246734619e-01" cType="1" res="1.8642934039235115e-02" rms="4.5801523327827454e-01" purity="5.2048105001449585e-01" nType="0">
          <Node pos="l" depth="2" NCoef="0" IVar="-1" Cut="0.0000000000000000e+00" cType="1" res="-1.0153621435165405e-02" rms="4.4780036807060242e-01" purity="3.9756464958190918e-01" nType="-99"/>
          <Node pos="r" depth="2" NCoef="0" IVar="-1" Cut="0.0000000000000000e+00" cType="1" res="1.5300043858587742e-02" rms="4.5933228731155396e-01" purity="6.2261909246444702e-01" nType="-99"/>
        </Node>
        <Node pos="r" depth="1" NCoef="0" IVar="-1" Cut="0.0000000000000000e+00" cType="1" res="-5.8310694992542267e-02" rms="3.8373011350631714e-01" purity="2.0544739067554474e-01" nType="-99"/>
      </Node>
    </BinaryTree>
    <BinaryTree type="DecisionTree" boostWeight="1.0000000000000000e+00" itree="16">
      <Node pos="s" depth="0" NCoef="0" IVar="1" Cut="3.2220356464385986e+00" cType="1" res="9.0967556461691856e-03" rms="4.5978125929832458e-01" purity="5.1361835002899170e-01" nType="0">
        <Node pos="l" depth="1" NCoef="0" IVar="1" Cut="2.5583086013793945e+00" cType="1" res="-1.6186918318271637e-01" rms="4.3601894378662109e-01" purity="2.8724160790443420e-01" nType="0">
          <Node pos="l" depth="2" NCoef="0" IVar="-1" Cut="0.0000000000000000e+00" cType="1" res="-4.7634907066822052e-02" rms="3.9260151982307434e-01" purity="2.1197830140590668e-01" nType="-99"/>
          <Node pos="r" depth="2" NCoef="0" IVar="-1" Cut="0.0000000000000000e+00" cType="1" res="-2.8326757252216339e-02" rms="4.5067209005355835e-01" purity="3.1951814889907837e-01" nType="-99"/>
        </Node>
        <Node pos="r" depth="1" NCoef="0" IVar="3" Cut="3.7649321556091309e-01" cType="1" res="3.3542603254318237e-02" rms="4.5789241790771484e-01" purity="5.4598712921142578e-01" nType="0">
          <Node pos="l" depth="2" NCoef="0" IVar="-1" Cut="0.0000000000000000e+00" cType="1" res="1.1415812186896801e-02" rms="4.5793107151985168e-01" purity="5.7999980449676514e-01" nType="-99"/>
          <Node pos="r" depth="2" NCoef="0" IVar="-1" Cut="0.0000000000000000e+00" cType="1" res="-2.8108133003115654e-02" rms="4.2386755347251892e-01" purity="2.6785904169082642e-01" nType="-99"/>
        </Node>
      </Node>
    </BinaryTree>
    <BinaryTree type="DecisionTree" boostWeight="1.0000000000000000e+00" itree="17">
      <Node pos="s" depth="0" NCoef="0" IVar="1" Cut="5.1770730018615723e+00" cType="1" res="-1.1678896844387054e-02" rms="4.5676660537719727e-01" purity="4.9201118946075439e-01" nType="0">
        <Node pos="l" depth="1" NCoef="0" IVar="4" Cut="2.9426118731498718e-01" cType="1" res="-4.6832900494337082e-02" rms="4.6014803647994995e-01" purity="4.2505946755409241e-01" nType="0">
          <Node pos="l" depth="2" NCoef="0" IVar="-1" Cut="0.0000000000000000e+00" cType="1" res="-2.9049973934888840e-02" rms="4.0643897652626038e-01" purity="2.4256370961666107e-01" nType="-99"/>
          <Node pos="r" depth="2" NCoef="0" IVar="-1" Cut="0.0000000000000000e+00" cType="1" res="-2.8885281644761562e-03" rms="4.7618547081947327e-01" purity="4.9871355295181274e-01" nType="-99"/>
        </Node>
        <Node pos="r" depth="1" NCoef="0" IVar="2" Cut="5.9046804904937744e-02" cType="1" res="9.6759602427482605e-02" rms="4.2836993932723999e-01" purity="6.9853514432907104e-01" nType="0">
          <Node pos="l" depth="2" NCoef="0" IVar="-1" Cut="0.0000000000000000e+00" cType="1" res="2.7011472731828690e-02" rms="4.1471204161643982e-01" purity="7.4469476938247681e-01" nType="-99"/>
          <Node pos="r" depth="2" NCoef="0" IVar="-1" Cut="0.0000000000000000e+00" cType="1" res="-5.8133825659751892e-03" rms="4.7276309132575989e-01" purity="4.6331661939620972e-01" nType="-99"/>
        </Node>
      </Node>
    </BinaryTree>
    <BinaryTree type="DecisionTree" boostWeight="1.0000000000000000e+00" itree="18">
      <Node pos="s" depth="0" NCoef="0" IVar="4" Cut="1.0637966394424438e+00" cType="1" res="9.1536650434136391e-03" rms="4.5794335007667542e-01" purity="5.0979828834533691e-01" nType="0">
        <Node pos="l" depth="1" NCoef="0" IVar="4" Cut="6.4254271984100342e-01" cType="1" res="2.5291681289672852e-02" rms="4.5745423436164856e-01" purity="5.2848356962203979e-01" nType="0">
          <Node pos="l" depth="2" NCoef="0" IVar="-1" Cut="0.0000000000000000e+00" cType="1" res="-3.7170785944908857e-03" rms="4.5751184225082397e-01" purity="4.4195550680160522e-01" nType="-99"/>
          <Node pos="r" depth="2" NCoef="0" IVar="-1" Cut="0.0000000000000000e+00" cType="1" res="1.9183373078703880e-02" rms="4.4973003864288330e-01" purity="6.6063612699508667e-01" nType="-99"/>
        </Node>
        <Node pos="r" depth="1" NCoef="0" IVar="2" Cut="5.5824596434831619e-02" cType="1" res="-1.8474054336547852e-01" rms="4.1757324337959290e-01" purity="2.8529962897300720e-01" nType="0">
          <Node pos="l" depth="2" NCoef="0" IVar="-1" Cut="0.0000000000000000e+00" cType="1" res="-1.9305570051074028e-02" rms="4.5204237103462219e-01" purity="4.1829302906990051e-01" nType="-99"/>
          <Node pos="r" depth="2" NCoef="0" IVar="-1" Cut="0.0000000000000000e+00" cType="1" res="-5.6736957281827927e-02" rms="3.6082297563552856e-01" purity="1.5906517207622528e-01" nType="-99"/>
        </Node>
      </Node>
    </BinaryTree>
    <BinaryTree type="DecisionTree" boostWeight="1.0000000000000000e+00" itree="19">
      <Node pos="s" depth="0" NCoef="0" IVar="4" Cut="3.7109140306711197e-02" cType="1" res="5.2266647107899189e-03" rms="4.5527538657188416e-01" purity="5.0566917657852173e-01" nType="0">
        <Node pos="l" depth="1" NCoef="0" IVar="2" Cut="5.5539216846227646e-02" cType="1" res="-1.6496652364730835e-01" rms="3.3014902472496033e-01" purity="1.4992937445640564e-01" nType="0">
          <Node pos="l" depth="2" NCoef="0" IVar="-1" Cut="0.0000000000000000e+00" cType="1" res="-3.0405806377530098e-02" rms="3.9229273796081543e-01" purity="2.2603702545166016e-01" nType="-99"/>
          <Node pos="r" depth="2" NCoef="0" IVar="-1" Cut="0.0000000000000000e+00" cType="1" res="-5.6900303810834885e-02" rms="1.9991429150104523e-01" purity="3.9571672677993774e-02" nType="-99"/>
        </Node>
        <Node pos="r" depth="1" NCoef="0" IVar="1" Cut="4.6068878173828125e+00" cType="1" res="2.4548124521970749e-02" rms="4.6343401074409485e-01" purity="5.4605513811111450e-01" nType="0">
          <Node pos="l" depth="2" NCoef="0" IVar="-1" Cut="0.0000000000000000e+00" cType="1" res="-5.4916166700422764e-03" rms="4.7331473231315613e-01" purity="4.4590416550636292e-01" nType="-99"/>
          <Node pos="r" depth="2" NCoef="0" IVar="-1" Cut="0.0000000000000000e+00" cType="1" res="2.0203122869133949e-02" rms="4.4069066643714905e-01" purity="6.8077158927917480e-01" nType="-99"/>
        </Node>
      </Node>
    </BinaryTree>
    <BinaryTree type="DecisionTree" boostWeight="1.0000000000000000e+00" itree="20">
      <Node pos="s" depth="0" NCoef="0" IVar="3" Cut="2.9627704620361328e-01" cType="1" res="-7.0023752050474286e-04" rms="4.5445770025253296e-01" purity="4.9797487258911133e-01" nType="0">
        <Node pos="l" depth="1" NCoef="0" IVar="1" Cut="3.7924823760986328e+00" cType="1" res="3.1510766595602036e-02" rms="4.5730802416801453e-01" purity="5.6097865104675293e-01" nType="0">
          <Node pos="l" depth="2" NCoef="0" IVar="-1" Cut="0.0000000000000000e+00" cType="1" res="-1.2347451411187649e-02" rms="4.7057005763053894e-01" purity="4.0613889694213867e-01" nType="-99"/>
          <Node pos="r" depth="2" NCoef="0" IVar="-1" Cut="0.0000000000000000e+00" cType="1" res="1.3842198997735977e-02" rms="4.4817036390304565e-01" purity="6.1585062742233276e-01" nType="-99"/>
        </Node>
        <Node pos="r" depth="1" NCoef="0" IVar="2" Cut="5.1815472543239594e-02" cType="1" res="-1.1324105411767960e-01" rms="4.2563056945800781e-01" purity="2.7784839272499084e-01" nType="0">
          <Node pos="l" depth="2" NCoef="0" IVar="-1" Cut="0.0000000000000000e+00" cType="1" res="-1.6483401879668236e-02" rms="4.5796903967857361e-01" purity="3.5128229856491089e-01" nType="-99"/>
          <Node pos="r" depth="2" NCoef="0" IVar="-1" Cut="0.0000000000000000e+00" cType="1" res="-4.5372318476438522e-02" rms="3.3690339326858521e-01" purity="1.2547308206558228e-01" nType="-99"/>
        </Node>
      </Node>
    </BinaryTree>
    <BinaryTree type="DecisionTree" boostWeight="1.0000000000000000e+00" itree="21">
      <Node pos="s" depth="0" NCoef="0" IVar="2" Cut="4.4402990490198135e-02" cType="1" res="4.8944340087473392e-03" rms="4.5338284969329834e-01" purity="5.0447577238082886e-01" nType="0">
        <Node pos="l" depth="1" NCoef="0" IVar="3" Cut="4.1972374916076660e-01" cType="1" res="3.6154244095087051e-02" rms="4.5853760838508606e-01" purity="5.8661067485809326e-01" nType="0">
          <Node pos="l" depth="2" NCoef="0" IVar="-1" Cut="0.0000000000000000e+00" cType="1" res="1.0560616850852966e-02" rms="4.5817673206329346e-01" purity="6.1206942796707153e-01" nType="-99"/>
          <Node pos="r" depth="2" NCoef="0" IVar="-1" Cut="0.0000000000000000e+00" cType="1" res="-2.6243450120091438e-02" rms="4.3336275219917297e-01" purity="2.6693663001060486e-01" nType="-99"/>
        </Node>
        <Node pos="r" depth="1" NCoef="0" IVar="4" Cut="7.6545447111129761e-02" cType="1" res="-6.1517629772424698e-02" rms="4.3483632802963257e-01" purity="3.2997861504554749e-01" nType="0">
          <Node pos="l" depth="2" NCoef="0" IVar="-1" Cut="0.0000000000000000e+00" cType="1" res="-4.7151766717433929e-02" rms="2.5118210911750793e-01" purity="6.5871097147464752e-02" nType="-99"/>
          <Node pos="r" depth="2" NCoef="0" IVar="-1" Cut="0.0000000000000000e+00" cType="1" res="-7.5090029276907444e-03" rms="4.6591833233833313e-01" purity="3.9582511782646179e-01" nType="-99"/>
        </Node>
      </Node>
    </BinaryTree>
    <BinaryTree type="DecisionTree" boostWeight="1.0000000000000000e+00" itree="22">
      <Node pos="s" depth="0" NCoef="0" IVar="4" Cut="1.9555190205574036e-01" cType="1" res="-5.8958665467798710e-03" rms="4.4908392429351807e-01" purity="4.9796324968338013e-01" nType="0">
        <Node pos="l" depth="1" NCoef="0" IVar="1" Cut="5.0279526710510254e+00" cType="1" res="-1.1583158373832703e-01" rms="3.8786113262176514e-01" purity="2.3463360965251923e-01" nType="0">
          <Node pos="l" depth="2" NCoef="0" IVar="-1" Cut="0.0000000000000000e+00" cType="1" res="-3.3578630536794662e-02" rms="3.6697027087211609e-01" purity="1.7885336279869080e-01" nType="-99"/>
          <Node pos="r" depth="2" NCoef="0" IVar="-1" Cut="0.0000000000000000e+00" cType="1" res="-1.2755715288221836e-02" rms="4.4077831506729126e-01" purity="4.0600529313087463e-01" nType="-99"/>
        </Node>
        <Node pos="r" depth="1" NCoef="0" IVar="2" Cut="2.9578352347016335e-02" cType="1" res="2.1295620128512383e-02" rms="4.5893505215644836e-01" purity="5.6309515237808228e-01" nType="0">
          <Node pos="l" depth="2" NCoef="0" IVar="-1" Cut="0.0000000000000000e+00" cType="1" res="1.5046684071421623e-02" rms="4.4428738951683044e-01" purity="6.6894602775573730e-01" nType="-99"/>
          <Node pos="r" depth="2" NCoef="0" IVar="-1" Cut="0.0000000000000000e+00" cType="1" res="-9.3434583395719528e-03" rms="4.7070598602294922e-01" purity="4.1540858149528503e-01" nType="-99"/>
        </Node>
      </Node>
    </BinaryTree>
    <BinaryTree type="DecisionTree" boostWeight="1.0000000000000000e+00" itree="23">
      <Node pos="s" depth="0" NCoef="0" IVar="0" Cut="9.9681292724609375e+02" cType="1" res="-1.8466305918991566e-03" rms="4.4671389460563660e-01" purity="4.9962201714515686e-01" nType="0">
        <Node pos="l" depth="1" NCoef="0" IVar="0" Cut="7.7744055175781250e+02" cType="1" res="-8.9630246162414551e-02" rms="4.4328922033309937e-01" purity="3.1921842694282532e-01" nType="0">
          <Node pos="l" depth="2" NCoef="0" IVar="-1" Cut="0.0000000000000000e+00" cType="1" res="-4.8388130962848663e-02" rms="3.8549050688743591e-01" purity="1.9091846048831940e-01" nType="-99"/>
          <Node pos="r" depth="2" NCoef="0" IVar="-1" Cut="0.0000000000000000e+00" cType="1" res="-1.6031607985496521e-02" rms="4.4731199741363525e-01" purity="3.3555671572685242e-01" nType="-99"/>
        </Node>
        <Node pos="r" depth="1" NCoef="0" IVar="3" Cut="2.5301676988601685e-01" cType="1" res="3.9852689951658249e-02" rms="4.4226890802383423e-01" purity="5.8531808853149414e-01" nType="0">
          <Node pos="l" depth="2" NCoef="0" IVar="-1" Cut="0.0000000000000000e+00" cType="1" res="1.8513074144721031e-02" rms="4.2954483628273010e-01" purity="6.5890133380889893e-01" nType="-99"/>
          <Node pos="r" depth="2" NCoef="0" IVar="-1" Cut="0.0000000000000000e+00" cType="1" res="-1.6614004969596863e-02" rms="4.5445126295089722e-01" purity="3.9093649387359619e-01" nType="-99"/>
        </Node>
      </Node>
    </BinaryTree>
    <BinaryTree type="DecisionTree" boostWeight="1.0000000000000000e+00" itree="24">
      <Node pos="s" depth="0" NCoef="0" IVar="1" Cut="3.3849384784698486e+00" cType="1" res="1.7219287110492587e-03" rms="4.5036748051643372e-01" purity="5.0979095697402954e-01" nType="0">
        <Node pos="l" depth="1" NCoef="0" IVar="2" Cut="1.1202492751181126e-02" cType="1" res="-1.1283069103956223e-01" rms="4.3575048446655273e-01" purity="3.0178877711296082e-01" nType="0">
          <Node pos="l" depth="2" NCoef="0" IVar="-1" Cut="0.0000000000000000e+00" cType="1" res="-1.0130820795893669e-02" rms="4.6845680475234985e-01" purity="4.4461250305175781e-01" nType="-99"/>
          <Node pos="r" depth="2" NCoef="0" IVar="-1" Cut="0.0000000000000000e+00" cType="1" res="-3.0897554010152817e-02" rms="4.1961324214935303e-01" purity="2.4589769542217255e-01" nType="-99"/>
        </Node>
        <Node pos="r" depth="1" NCoef="0" IVar="4" Cut="5.5065274238586426e-01" cType="1" res="2.3344282060861588e-02" rms="4.4981250166893005e-01" purity="5.4905235767364502e-01" nType="0">
          <Node pos="l" depth="2" NCoef="0" IVar="-1" Cut="0.0000000000000000e+00" cType="1" res="-4.6338359825313091e-03" rms="4.4699949026107788e-01" purity="4.3537321686744690e-01" nType="-99"/>
          <Node pos="r" depth="2" NCoef="0" IVar="-1" Cut="0.0000000000000000e+00" cType="1" res="1.3197391293942928e-02" rms="4.4886797666549683e-01" purity="6.4404040575027466e-01" nType="-99"/>
        </Node>
      </Node>
    </BinaryTree>
    <BinaryTree type="DecisionTree" boostWeight="1.0000000000000000e+00" itree="25">
      <Node pos="s" depth="0" NCoef="0" IVar="3" Cut="1.1727775633335114e-01" cType="1" res="-1.1380363255739212e-02" rms="4.4617962837219238e-01" purity="4.9233037233352661e-01" nType="0">
        <Node pos="l" depth="1" NCoef="0" IVar="4" Cut="1.5704536437988281e-01" cType="1" res="4.4941931962966919e-02" rms="4.4133561849594116e-01" purity="6.0205948352813721e-01" nType="0">
          <Node pos="l" depth="2" NCoef="0" IVar="-1" Cut="0.0000000000000000e+00" cType="1" res="-1.7623947933316231e-02" rms="4.1623854637145996e-01" purity="2.9180735349655151e-01" nType="-99"/>
          <Node pos="r" depth="2" NCoef="0" IVar="-1" Cut="0.0000000000000000e+00" cType="1" res="1.4927824959158897e-02" rms="4.4235652685165405e-01" purity="6.6213667392730713e-01" nType="-99"/>
        </Node>
        <Node pos="r" depth="1" NCoef="0" IVar="0" Cut="2.3196425781250000e+03" cType="1" res="-4.3342184275388718e-02" rms="4.4575127959251404e-01" purity="4.3006122112274170e-01" nType="0">
          <Node pos="l" depth="2" NCoef="0" IVar="-1" Cut="0.0000000000000000e+00" cType="1" res="-1.3097590766847134e-02" rms="4.4480812549591064e-01" purity="3.9602169394493103e-01" nType="-99"/>
          <Node pos="r" depth="2" NCoef="0" IVar="-1" Cut="0.0000000000000000e+00" cType="1" res="2.1622577682137489e-02" rms="4.3018534779548645e-01" purity="7.3085993528366089e-01" nType="-99"/>
        </Node>
      </Node>
    </BinaryTree>
    <BinaryTree type="DecisionTree" boostWeight="1.0000000000000000e+00" itree="26">
      <Node pos="s" depth="0" NCoef="0" IVar="0" Cut="1.2405117187500000e+03" cType="1" res="3.3835000358521938e-03" rms="4.5066505670547485e-01" purity="5.0455951690673828e-01" nType="0">
        <Node pos="l" depth="1" NCoef="0" IVar="4" Cut="1.0445433855056763e+00" cType="1" res="-4.2098347097635269e-02" rms="4.5490875840187073e-01" purity="3.8574329018592834e-01" nType="0">
          <Node pos="l" depth="2" NCoef="0" IVar="-1" Cut="0.0000000000000000e+00" cType="1" res="-6.3065048307180405e-03" rms="4.5518368482589722e-01" purity="4.0124410390853882e-01" nType="-99"/>
          <Node pos="r" depth="2" NCoef="0" IVar="-1" Cut="0.0000000000000000e+00" cType="1" res="-3.3913023769855499e-02" rms="4.3569833040237427e-01" purity="2.5383597612380981e-01" nType="-99"/>
        </Node>
        <Node pos="r" depth="1" NCoef="0" IVar="3" Cut="2.9009500145912170e-01" cType="1" res="5.2561189979314804e-02" rms="4.4078180193901062e-01" purity="6.3303077220916748e-01" nType="0">
          <Node pos="l" depth="2" NCoef="0" IVar="-1" Cut="0.0000000000000000e+00" cType="1" res="1.6407465562224388e-02" rms="4.3307769298553467e-01" purity="6.7970579862594604e-01" nType="-99"/>
          <Node pos="r" depth="2" NCoef="0" IVar="-1" Cut="0.0000000000000000e+00" cType="1" res="-7.7073615975677967e-03" rms="4.6398574113845825e-01" purity="4.2149916291236877e-01" nType="-99"/>
        </Node>
      </Node>
    </BinaryTree>
    <BinaryTree type="DecisionTree" boostWeight="1.0000000000000000e+00" itree="27">
      <Node pos="s" depth="0" NCoef="0" IVar="0" Cut="1.0443239746093750e+03" cType="1" res="-5.9617368970066309e-04" rms="4.3995082378387451e-01" purity="5.0157707929611206e-01" nType="0">
        <Node pos="l" depth="1" NCoef="0" IVar="3" Cut="1.5429563820362091e-01" cType="1" res="-7.3166191577911377e-02" rms="4.3051221966743469e-01" purity="3.2264178991317749e-01" nType="0">
          <Node pos="l" depth="2" NCoef="0" IVar="-1" Cut="0.0000000000000000e+00" cType="1" res="-9.3389986432157457e-05" rms="4.6075609326362610e-01" purity="4.4924148917198181e-01" nType="-99"/>
          <Node pos="r" depth="2" NCoef="0" IVar="-1" Cut="0.0000000000000000e+00" cType="1" res="-2.8944544494152069e-02" rms="3.9924931526184082e-01" purity="2.3154745995998383e-01" nType="-99"/>
        </Node>
        <Node pos="r" depth="1" NCoef="0" IVar="4" Cut="1.0246697664260864e+00" cType="1" res="3.9874371141195297e-02" rms="4.3995881080627441e-01" purity="6.0136502981185913e-01" nType="0">
          <Node pos="l" depth="2" NCoef="0" IVar="-1" Cut="0.0000000000000000e+00" cType="1" res="1.3012215495109558e-02" rms="4.3467530608177185e-01" purity="6.2133818864822388e-01" nType="-99"/>
          <Node pos="r" depth="2" NCoef="0" IVar="-1" Cut="0.0000000000000000e+00" cType="1" res="-2.3151203989982605e-02" rms="4.5664706826210022e-01" purity="4.3214738368988037e-01" nType="-99"/>
        </Node>
      </Node>
    </BinaryTree>
    <BinaryTree type="DecisionTree" boostWeight="1.0000000000000000e+00" itree="28">
      <Node pos="s" depth="0" NCoef="0" IVar="1" Cut="3.2626264095306396e+00" cType="1" res="-3.0922000296413898e-03" rms="4.4647043943405151e-01" purity="4.9918484687805176e-01" nType="0">
        <Node pos="l" depth="1" NCoef="0" IVar="2" Cut="3.4983232617378235e-02" cType="1" res="-1.1405859142541885e-01" rms="4.3402114510536194e-01" purity="2.8727245330810547e-01" nType="0">
          <Node pos="l" depth="2" NCoef="0" IVar="-1" Cut="0.0000000000000000e+00" cType="1" res="-3.1110567972064018e-02" rms="4.3239563703536987e-01" purity="3.0137294530868530e-01" nType="-99"/>
          <Node pos="r" depth="2" NCoef="0" IVar="-1" Cut="0.0000000000000000e+00" cType="1" res="-1.3198459520936012e-02" rms="4.3063130974769592e-01" purity="2.6170435547828674e-01" nType="-99"/>
        </Node>
        <Node pos="r" depth="1" NCoef="0" IVar="2" Cut="3.6960188299417496e-02" cType="1" res="1.3836632482707500e-02" rms="4.4591814279556274e-01" purity="5.3151386976242065e-01" nType="0">
          <Node pos="l" depth="2" NCoef="0" IVar="-1" Cut="0.0000000000000000e+00" cType="1" res="1.2640068307518959e-02" rms="4.4418603181838989e-01" purity="6.4332741498947144e-01" nType="-99"/>
          <Node pos="r" depth="2" NCoef="0" IVar="-1" Cut="0.0000000000000000e+00" cType="1" res="-1.2990999966859818e-02" rms="4.3971335887908936e-01" purity="3.4315019845962524e-01" nType="-99"/>
        </Node>
      </Node>
    </BinaryTree>
    <BinaryTree type="DecisionTree" boostWeight="1.0000000000000000e+00" itree="29">
      <Node pos="s" depth="0" NCoef="0" IVar="3" Cut="3.5799950361251831e-01" cType="1" res="1.0158941149711609e-02" rms="4.4438070058822632e-01" purity="5.1108115911483765e-01" nType="0">
        <Node pos="l" depth="1" NCoef="0" IVar="4" Cut="1.0443959236145020e+00" cType="1" res="2.8482701629400253e-02" rms="4.4567894935607910e-01" purity="5.5285370349884033e-01" nType="0">
          <Node pos="l" depth="2" NCoef="0" IVar="-1" Cut="0.0000000000000000e+00" cType="1" res="9.5622800290584564e-03" rms="4.4363710284233093e-01" purity="5.7058441638946533e-01" nType="-99"/>
          <Node pos="r" depth="2" NCoef="0" IVar="-1" Cut="0.0000000000000000e+00" cType="1" res="-2.3850804194808006e-02" rms="4.4276651740074158e-01" purity="3.7400519847869873e-01" nType="-99"/>
        </Node>
        <Node pos="r" depth="1" NCoef="0" IVar="4" Cut="7.6809418201446533e-01" cType="1" res="-1.0811068117618561e-01" rms="4.1696667671203613e-01" purity="2.4146232008934021e-01" nType="0">
          <Node pos="l" depth="2" NCoef="0" IVar="-1" Cut="0.0000000000000000e+00" cType="1" res="-1.9785534590482712e-02" rms="3.9880836009979248e-01" purity="2.2998379170894623e-01" nType="-99"/>
          <Node pos="r" depth="2" NCoef="0" IVar="-1" Cut="0.0000000000000000e+00" cType="1" res="-3.6532271653413773e-02" rms="4.4589367508888245e-01" purity="2.6477351784706116e-01" nType="-99"/>
        </Node>
      </Node>
    </BinaryTree>
    <BinaryTree type="DecisionTree" boostWeight="1.0000000000000000e+00" itree="30">
      <Node pos="s" depth="0" NCoef="0" IVar="4" Cut="-1.8941201269626617e-03" cType="1" res="-1.0925458744168282e-02" rms="4.4400051236152649e-01" purity="4.8909980058670044e-01" nType="0">
        <Node pos="l" depth="1" NCoef="0" IVar="1" Cut="4.3206028938293457e+00" cType="1" res="-1.4906497299671173e-01" rms="2.9403933882713318e-01" purity="1.1154764890670776e-01" nType="0">
          <Node pos="l" depth="2" NCoef="0" IVar="-1" Cut="0.0000000000000000e+00" cType="1" res="-3.2867178320884705e-02" rms="2.9339340329170227e-01" purity="1.0621210932731628e-01" nType="-99"/>
          <Node pos="r" depth="2" NCoef="0" IVar="-1" Cut="0.0000000000000000e+00" cType="1" res="-4.8230759799480438e-02" rms="2.8969538211822510e-01" purity="1.1585658043622971e-01" nType="-99"/>
        </Node>
        <Node pos="r" depth="1" NCoef="0" IVar="3" Cut="2.6541945338249207e-01" cType="1" res="2.3204782046377659e-03" rms="4.5358997583389282e-01" purity="5.2530258893966675e-01" nType="0">
          <Node pos="l" depth="2" NCoef="0" IVar="-1" Cut="0.0000000000000000e+00" cType="1" res="6.5345959737896919e-03" rms="4.5383825898170471e-01" purity="6.0067921876907349e-01" nType="-99"/>
          <Node pos="r" depth="2" NCoef="0" IVar="-1" Cut="0.0000000000000000e+00" cType="1" res="-1.5481836162507534e-02" rms="4.4518634676933289e-01" purity="3.2587119936943054e-01" nType="-99"/>
        </Node>
      </Node>
    </BinaryTree>
    <BinaryTree type="DecisionTree" boostWeight="1.0000000000000000e+00" itree="31">
      <Node pos="s" depth="0" NCoef="0" IVar="4" Cut="1.0442968606948853e+00" cType="1" res="-1.4665564522147179e-03" rms="4.5151230692863464e-01" purity="4.9511304497718811e-01" nType="0">
        <Node pos="l" depth="1" NCoef="0" IVar="4" Cut="5.0663340091705322e-01" cType="1" res="1.0504849255084991e-02" rms="4.5082446932792664e-01" purity="5.1315987110137939e-01" nType="0">
          <Node pos="l" depth="2" NCoef="0" IVar="-1" Cut="0.0000000000000000e+00" cType="1" res="-6.2686163000762463e-03" rms="4.4749000668525696e-01" purity="3.9526635408401489e-01" nType="-99"/>
          <Node pos="r" depth="2" NCoef="0" IVar="-1" Cut="0.0000000000000000e+00" cType="1" res="1.0354026220738888e-02" rms="4.5112037658691406e-01" purity="6.2664294242858887e-01" nType="-99"/>
        </Node>
        <Node pos="r" depth="1" NCoef="0" IVar="2" Cut="5.9512265026569366e-02" cType="1" res="-1.0893674194812775e-01" rms="4.4339436292648315e-01" purity="3.3310270309448242e-01" nType="0">
          <Node pos="l" depth="2" NCoef="0" IVar="-1" Cut="0.0000000000000000e+00" cType="1" res="-1.1679357849061489e-02" rms="4.7362574934959412e-01" purity="4.3661245703697205e-01" nType="-99"/>
          <Node pos="r" depth="2" NCoef="0" IVar="-1" Cut="0.0000000000000000e+00" cType="1" res="-4.0080979466438293e-02" rms="3.8842600584030151e-01" purity="1.9687032699584961e-01" nType="-99"/>
        </Node>
      </Node>
    </BinaryTree>
    <BinaryTree type="DecisionTree" boostWeight="1.0000000000000000e+00" itree="32">
      <Node pos="s" depth="0" NCoef="0" IVar="3" Cut="3.8264140486717224e-01" cType="1" res="1.3711193576455116e-02" rms="4.4045475125312805e-01" purity="5.1264339685440063e-01" nType="0">
        <Node pos="l" depth="1" NCoef="0" IVar="2" Cut="9.2506237328052521e-02" cType="1" res="2.8785668313503265e-02" rms="4.4179964065551758e-01" purity="5.4946070909500122e-01" nType="0">
          <Node pos="l" depth="2" NCoef="0" IVar="-1" Cut="0.0000000000000000e+00" cType="1" res="9.8890569061040878e-03" rms="4.4500327110290527e-01" purity="5.8081436157226562e-01" nType="-99"/>
          <Node pos="r" depth="2" NCoef="0" IVar="-1" Cut="0.0000000000000000e+00" cType="1" res="-2.6579577475786209e-02" rms="3.8182887434959412e-01" purity="2.4701622128486633e-01" nType="-99"/>
        </Node>
        <Node pos="r" depth="1" NCoef="0" IVar="1" Cut="3.9982304573059082e+00" cType="1" res="-1.0448234528303146e-01" rms="4.1103026270866394e-01" purity="2.2397142648696899e-01" nType="0">
          <Node pos="l" depth="2" NCoef="0" IVar="-1" Cut="0.0000000000000000e+00" cType="1" res="-3.2207029871642590e-03" rms="4.3195432424545288e-01" purity="2.7387636899948120e-01" nType="-99"/>
          <Node pos="r" depth="2" NCoef="0" IVar="-1" Cut="0.0000000000000000e+00" cType="1" res="-4.3422501534223557e-02" rms="3.7265929579734802e-01" purity="1.7935727536678314e-01" nType="-99"/>
        </Node>
      </Node>
    </BinaryTree>
    <BinaryTree type="DecisionTree" boostWeight="1.0000000000000000e+00" itree="33">
      <Node pos="s" depth="0" NCoef="0" IVar="3" Cut="9.8780333995819092e-02" cType="1" res="-9.0672192163765430e-04" rms="4.5009681582450867e-01" purity="4.9734675884246826e-01" nType="0">
        <Node pos="l" depth="1" NCoef="0" IVar="1" Cut="3.3073887825012207e+00" cType="1" res="5.7091690599918365e-02" rms="4.3948388099670410e-01" purity="6.1646920442581177e-01" nType="0">
          <Node pos="l" depth="2" NCoef="0" IVar="-1" Cut="0.0000000000000000e+00" cType="1" res="-3.0411902815103531e-02" rms="4.5132851600646973e-01" purity="2.9846966266632080e-01" nType="-99"/>
          <Node pos="r" depth="2" NCoef="0" IVar="-1" Cut="0.0000000000000000e+00" cType="1" res="1.7921639606356621e-02" rms="4.3287664651870728e-01" purity="6.5050315856933594e-01" nType="-99"/>
        </Node>
        <Node pos="r" depth="1" NCoef="0" IVar="0" Cut="8.4811083984375000e+02" cType="1" res="-2.6630755513906479e-02" rms="4.5235037803649902e-01" purity="4.4451236724853516e-01" nType="0">
          <Node pos="l" depth="2" NCoef="0" IVar="-1" Cut="0.0000000000000000e+00" cType="1" res="-2.3922529071569443e-02" rms="4.0041911602020264e-01" purity="2.4819621443748474e-01" nType="-99"/>
          <Node pos="r" depth="2" NCoef="0" IVar="-1" Cut="0.0000000000000000e+00" cType="1" res="-2.8054527938365936e-03" rms="4.6035376191139221e-01" purity="4.8251804709434509e-01" nType="-99"/>
        </Node>
      </Node>
    </BinaryTree>
    <BinaryTree type="DecisionTree" boostWeight="1.0000000000000000e+00" itree="34">
      <Node pos="s" depth="0" NCoef="0" IVar="1" Cut="5.8286037445068359e+00" cType="1" res="-5.5976705625653267e-03" rms="4.4021773338317871e-01" purity="4.9528032541275024e-01" nType="0">
        <Node pos="l" depth="1" NCoef="0" IVar="4" Cut="4.3214383721351624e-01" cType="1" res="-1.6819467768073082e-02" rms="4.4623604416847229e-01" purity="4.6166461706161499e-01" nType="0">
          <Node pos="l" depth="2" NCoef="0" IVar="-1" Cut="0.0000000000000000e+00" cType="1" res="-1.3825933448970318e-02" rms="4.2068406939506531e-01" purity="3.2913273572921753e-01" nType="-99"/>
          <Node pos="r" depth="2" NCoef="0" IVar="-1" Cut="0.0000000000000000e+00" cType="1" res="1.9063215004280210e-03" rms="4.5972588658332825e-01" purity="5.4481524229049683e-01" nType="-99"/>
        </Node>
        <Node pos="r" depth="1" NCoef="0" IVar="2" Cut="2.7678189799189568e-02" cType="1" res="8.0081202089786530e-02" rms="3.8046911358833313e-01" purity="7.5193762779235840e-01" nType="0">
          <Node pos="l" depth="2" NCoef="0" IVar="-1" Cut="0.0000000000000000e+00" cType="1" res="3.7894830107688904e-02" rms="3.1151175498962402e-01" purity="8.9432835578918457e-01" nType="-99"/>
          <Node pos="r" depth="2" NCoef="0" IVar="-1" Cut="0.0000000000000000e+00" cType="1" res="-1.3891267590224743e-03" rms="4.5383188128471375e-01" purity="5.3243094682693481e-01" nType="-99"/>
        </Node>
      </Node>
    </BinaryTree>
    <BinaryTree type="DecisionTree" boostWeight="1.0000000000000000e+00" itree="35">
      <Node pos="s" depth="0" NCoef="0" IVar="1" Cut="3.2221553325653076e+00" cType="1" res="-3.8433731533586979e-03" rms="4.4554421305656433e-01" purity="4.9729382991790771e-01" nType="0">
        <Node pos="l" depth="1" NCoef="0" IVar="4" Cut="4.8991799354553223e-01" cType="1" res="-8.9958839118480682e-02" rms="4.2882668972015381e-01" purity="2.8155487775802612e-01" nType="0">
          <Node pos="l" depth="2" NCoef="0" IVar="-1" Cut="0.0000000000000000e+00" cType="1" res="-1.2056848034262657e-02" rms="4.0617978572845459e-01" purity="2.5848230719566345e-01" nType="-99"/>
          <Node pos="r" depth="2" NCoef="0" IVar="-1" Cut="0.0000000000000000e+00" cType="1" res="-2.6427321135997772e-02" rms="4.4292077422142029e-01" purity="2.9956728219985962e-01" nType="-99"/>
        </Node>
        <Node pos="r" depth="1" NCoef="0" IVar="2" Cut="1.4784075319766998e-02" cType="1" res="9.0537443757057190e-03" rms="4.4656673073768616e-01" purity="5.2960407733917236e-01" nType="0">
          <Node pos="l" depth="2" NCoef="0" IVar="-1" Cut="0.0000000000000000e+00" cType="1" res="1.4041007496416569e-02" rms="4.3264889717102051e-01" purity="6.9092625379562378e-01" nType="-99"/>
          <Node pos="r" depth="2" NCoef="0" IVar="-1" Cut="0.0000000000000000e+00" cType="1" res="-3.2300017774105072e-03" rms="4.5088729262351990e-01" purity="4.5600625872612000e-01" nType="-99"/>
        </Node>
      </Node>
    </BinaryTree>
    <BinaryTree type="DecisionTree" boostWeight="1.0000000000000000e+00" itree="36">
      <Node pos="s" depth="0" NCoef="0" IVar="3" Cut="2.5304955244064331e-01" cType="1" res="-6.8261106498539448e-03" rms="4.4491767883300781e-01" purity="4.9369618296623230e-01" nType="0">
        <Node pos="l" depth="1" NCoef="0" IVar="4" Cut="4.1171321272850037e-01" cType="1" res="1.3457546941936016e-02" rms="4.4105696678161621e-01" purity="5.6340080499649048e-01" nType="0">
          <Node pos="l" depth="2" NCoef="0" IVar="-1" Cut="0.0000000000000000e+00" cType="1" res="-1.0114751756191254e-02" rms="4.4154605269432068e-01" purity="3.9111402630805969e-01" nType="-99"/>
          <Node pos="r" depth="2" NCoef="0" IVar="-1" Cut="0.0000000000000000e+00" cType="1" res="1.0389588773250580e-02" rms="4.3757447600364685e-01" purity="6.6022557020187378e-01" nType="-99"/>
        </Node>
        <Node pos="r" depth="1" NCoef="0" IVar="1" Cut="5.3586688041687012e+00" cType="1" res="-5.2678491920232773e-02" rms="4.5016828179359436e-01" purity="3.3612480759620667e-01" nType="0">
          <Node pos="l" depth="2" NCoef="0" IVar="-1" Cut="0.0000000000000000e+00" cType="1" res="-7.6384986750781536e-03" rms="4.4227483868598938e-01" purity="3.2048469781875610e-01" nType="-99"/>
          <Node pos="r" depth="2" NCoef="0" IVar="-1" Cut="0.0000000000000000e+00" cType="1" res="-3.7723612040281296e-02" rms="4.7519892454147339e-01" purity="4.2438516020774841e-01" nType="-99"/>
        </Node>
      </Node>
    </BinaryTree>
    <BinaryTree type="DecisionTree" boostWeight="1.0000000000000000e+00" itree="37">
      <Node pos="s" depth="0" NCoef="0" IVar="1" Cut="3.6158854961395264e+00" cType="1" res="1.2602484785020351e-03" rms="4.4200372695922852e-01" purity="5.0431901216506958e-01" nType="0">
        <Node pos="l" depth="1" NCoef="0" IVar="2" Cut="7.2070069611072540e-02" cType="1" res="-5.8981250971555710e-02" rms="4.4571232795715332e-01" purity="3.2864946126937866e-01" nType="0">
          <Node pos="l" depth="2" NCoef="0" IVar="-1" Cut="0.0000000000000000e+00" cType="1" res="-1.7680864781141281e-02" rms="4.3945473432540894e-01" purity="3.2658711075782776e-01" nType="-99"/>
          <Node pos="r" depth="2" NCoef="0" IVar="-1" Cut="0.0000000000000000e+00" cType="1" res="1.4499754644930363e-02" rms="4.6508726477622986e-01" purity="3.4089264273643494e-01" nType="-99"/>
        </Node>
        <Node pos="r" depth="1" NCoef="0" IVar="4" Cut="4.3235751986503601e-01" cType="1" res="1.9194457679986954e-02" rms="4.3930077552795410e-01" purity="5.5661684274673462e-01" nType="0">
          <Node pos="l" depth="2" NCoef="0" IVar="-1" Cut="0.0000000000000000e+00" cType="1" res="-7.4429553933441639e-03" rms="4.4122451543807983e-01" purity="3.9950191974639893e-01" nType="-99"/>
          <Node pos="r" depth="2" NCoef="0" IVar="-1" Cut="0.0000000000000000e+00" cType="1" res="1.1770684272050858e-02" rms="4.3512392044067383e-01" purity="6.5457147359848022e-01" nType="-99"/>
        </Node>
      </Node>
    </BinaryTree>
    <BinaryTree type="DecisionTree" boostWeight="1.0000000000000000e+00" itree="38">
      <Node pos="s" depth="0" NCoef="0" IVar="2" Cut="3.7002492696046829e-02" cType="1" res="-7.9058931441977620e-04" rms="4.3985044956207275e-01" purity="4.9578917026519775e-01" nType="0">
        <Node pos="l" depth="1" NCoef="0" IVar="4" Cut="1.9503812491893768e-01" cType="1" res="3.0185120180249214e-02" rms="4.4127136468887329e-01" purity="6.0163289308547974e-01" nType="0">
          <Node pos="l" depth="2" NCoef="0" IVar="-1" Cut="0.0000000000000000e+00" cType="1" res="-1.2993093580007553e-02" rms="4.3533372879028320e-01" purity="3.6567103862762451e-01" nType="-99"/>
          <Node pos="r" depth="2" NCoef="0" IVar="-1" Cut="0.0000000000000000e+00" cType="1" res="1.1233663186430931e-02" rms="4.4033440947532654e-01" purity="6.5121597051620483e-01" nType="-99"/>
        </Node>
        <Node pos="r" depth="1" NCoef="0" IVar="3" Cut="9.2642650008201599e-02" cType="1" res="-5.0824072211980820e-02" rms="4.3288907408714294e-01" purity="3.2482516765594482e-01" nType="0">
          <Node pos="l" depth="2" NCoef="0" IVar="-1" Cut="0.0000000000000000e+00" cType="1" res="4.4569121673703194e-03" rms="4.6915179491043091e-01" purity="4.4824072718620300e-01" nType="-99"/>
          <Node pos="r" depth="2" NCoef="0" IVar="-1" Cut="0.0000000000000000e+00" cType="1" res="-1.9459350034594536e-02" rms="4.1315209865570068e-01" purity="2.7309393882751465e-01" nType="-99"/>
        </Node>
      </Node>
    </BinaryTree>
    <BinaryTree type="DecisionTree" boostWeight="1.0000000000000000e+00" itree="39">
      <Node pos="s" depth="0" NCoef="0" IVar="4" Cut="1.1431689262390137e+00" cType="1" res="7.5094902422279119e-04" rms="4.4299742579460144e-01" purity="5.0399577617645264e-01" nType="0">
        <Node pos="l" depth="1" NCoef="0" IVar="1" Cut="5.6335034370422363e+00" cType="1" res="8.3153462037444115e-03" rms="4.4276270270347595e-01" purity="5.1772731542587280e-01" nType="0">
          <Node pos="l" depth="2" NCoef="0" IVar="-1" Cut="0.0000000000000000e+00" cType="1" res="-8.1425538519397378e-04" rms="4.4876343011856079e-01" purity="4.7564071416854858e-01" nType="-99"/>
          <Node pos="r" depth="2" NCoef="0" IVar="-1" Cut="0.0000000000000000e+00" cType="1" res="2.0178193226456642e-02" rms="3.9829924702644348e-01" purity="7.6681590080261230e-01" nType="-99"/>
        </Node>
        <Node pos="r" depth="1" NCoef="0" IVar="-1" Cut="0.0000000000000000e+00" cType="1" res="-3.1072201207280159e-02" rms="4.2512312531471252e-01" purity="2.5906801223754883e-01" nType="-99"/>
      </Node>
    </BinaryTree>
    <BinaryTree type="DecisionTree" boostWeight="1.0000000000000000e+00" itree="40">
      <Node pos="s" depth="0" NCoef="0" IVar="4" Cut="5.3090125322341919e-01" cType="1" res="-6.6133909858763218e-03" rms="4.4147512316703796e-01" purity="4.8970603942871094e-01" nType="0">
        <Node pos="l" depth="1" NCoef="0" IVar="0" Cut="1.0998261718750000e+03" cType="1" res="-3.6190848797559738e-02" rms="4.3095436692237854e-01" purity="3.7802827358245850e-01" nType="0">
          <Node pos="l" depth="2" NCoef="0" IVar="-1" Cut="0.0000000000000000e+00" cType="1" res="-2.0912757143378258e-02" rms="4.0339115262031555e-01" purity="2.3193067312240601e-01" nType="-99"/>
          <Node pos="r" depth="2" NCoef="0" IVar="-1" Cut="0.0000000000000000e+00" cType="1" res="-7.6195766450837255e-04" rms="4.4669729471206665e-01" purity="4.8232087492942810e-01" nType="-99"/>
        </Node>
        <Node pos="r" depth="1" NCoef="0" IVar="4" Cut="1.0459049940109253e+00" cType="1" res="1.8830591812729836e-02" rms="4.4877192378044128e-01" purity="5.8577674627304077e-01" nType="0">
          <Node pos="l" depth="2" NCoef="0" IVar="-1" Cut="0.0000000000000000e+00" cType="1" res="8.6381789296865463e-03" rms="4.4779410958290100e-01" purity="6.3513219356536865e-01" nType="-99"/>
          <Node pos="r" depth="2" NCoef="0" IVar="-1" Cut="0.0000000000000000e+00" cType="1" res="-1.6271743923425674e-02" rms="4.4265875220298767e-01" purity="3.4468516707420349e-01" nType="-99"/>
        </Node>
      </Node>
    </BinaryTree>
    <BinaryTree type="DecisionTree" boostWeight="1.0000000000000000e+00" itree="41">
      <Node pos="s" depth="0" NCoef="0" IVar="2" Cut="1.2940529733896255e-02" cType="1" res="-6.6372123546898365e-04" rms="4.4374793767929077e-01" purity="4.9968904256820679e-01" nType="0">
        <Node pos="l" depth="1" NCoef="0" IVar="3" Cut="3.5181510448455811e-01" cType="1" res="5.8905046433210373e-02" rms="4.3580147624015808e-01" purity="6.6867047548294067e-01" nType="0">
          <Node pos="l" depth="2" NCoef="0" IVar="-1" Cut="0.0000000000000000e+00" cType="1" res="1.8146267160773277e-02" rms="4.2554214596748352e-01" purity="7.1679693460464478e-01" nType="-99"/>
          <Node pos="r" depth="2" NCoef="0" IVar="-1" Cut="0.0000000000000000e+00" cType="1" res="-1.0482688434422016e-02" rms="4.8249319195747375e-01" purity="3.6315959692001343e-01" nType="-99"/>
        </Node>
        <Node pos="r" depth="1" NCoef="0" IVar="2" Cut="6.6990725696086884e-02" cType="1" res="-2.4801334366202354e-02" rms="4.4466152787208557e-01" purity="4.3121680617332458e-01" nType="0">
          <Node pos="l" depth="2" NCoef="0" IVar="-1" Cut="0.0000000000000000e+00" cType="1" res="-2.1631456911563873e-03" rms="4.5174193382263184e-01" purity="4.8506066203117371e-01" nType="-99"/>
          <Node pos="r" depth="2" NCoef="0" IVar="-1" Cut="0.0000000000000000e+00" cType="1" res="-1.7355009913444519e-02" rms="4.1982886195182800e-01" purity="2.7280831336975098e-01" nType="-99"/>
        </Node>
      </Node>
    </BinaryTree>
    <BinaryTree type="DecisionTree" boostWeight="1.0000000000000000e+00" itree="42">
      <Node pos="s" depth="0" NCoef="0" IVar="4" Cut="5.7247478514909744e-02" cType="1" res="9.4551080837845802e-03" rms="4.3855926394462585e-01" purity="5.0580644607543945e-01" nType="0">
        <Node pos="l" depth="1" NCoef="0" IVar="1" Cut="4.5320615768432617e+00" cType="1" res="-8.8794618844985962e-02" rms="3.5702970623970032e-01" purity="1.6024376451969147e-01" nType="0">
          <Node pos="l" depth="2" NCoef="0" IVar="-1" Cut="0.0000000000000000e+00" cType="1" res="-1.6608813777565956e-02" rms="3.5507810115814209e-01" purity="1.5977233648300171e-01" nType="-99"/>
          <Node pos="r" depth="2" NCoef="0" IVar="-1" Cut="0.0000000000000000e+00" cType="1" res="-3.7923429161310196e-02" rms="3.5315480828285217e-01" purity="1.6091917455196381e-01" nType="-99"/>
        </Node>
        <Node pos="r" depth="1" NCoef="0" IVar="4" Cut="1.0352810621261597e+00" cType="1" res="2.2195508703589439e-02" rms="4.4646537303924561e-01" purity="5.5061680078506470e-01" nType="0">
          <Node pos="l" depth="2" NCoef="0" IVar="-1" Cut="0.0000000000000000e+00" cType="1" res="7.9927826300263405e-03" rms="4.4639778137207031e-01" purity="5.7602769136428833e-01" nType="-99"/>
          <Node pos="r" depth="2" NCoef="0" IVar="-1" Cut="0.0000000000000000e+00" cType="1" res="-1.7656007781624794e-02" rms="4.3454512953758240e-01" purity="3.4503817558288574e-01" nType="-99"/>
        </Node>
      </Node>
    </BinaryTree>
    <BinaryTree type="DecisionTree" boostWeight="1.0000000000000000e+00" itree="43">
      <Node pos="s" depth="0" NCoef="0" IVar="2" Cut="2.7719145640730858e-02" cType="1" res="-7.4099902994930744e-03" rms="4.4440001249313354e-01" purity="4.9708661437034607e-01" nType="0">
        <Node pos="l" depth="1" NCoef="0" IVar="4" Cut="9.0637034177780151e-01" cType="1" res="2.0024288445711136e-02" rms="4.4650712609291077e-01" purity="6.2263542413711548e-01" nType="0">
          <Node pos="l" depth="2" NCoef="0" IVar="-1" Cut="0.0000000000000000e+00" cType="1" res="4.9063301412388682e-04" rms="4.5114234089851379e-01" purity="5.9703654050827026e-01" nType="-99"/>
          <Node pos="r" depth="2" NCoef="0" IVar="-1" Cut="0.0000000000000000e+00" cType="1" res="2.4118741974234581e-02" rms="4.1548559069633484e-01" purity="7.3802059888839722e-01" nType="-99"/>
        </Node>
        <Node pos="r" depth="1" NCoef="0" IVar="3" Cut="6.1731670051813126e-02" cType="1" res="-4.0025532245635986e-02" rms="4.3966013193130493e-01" purity="3.4782657027244568e-01" nType="0">
          <Node pos="l" depth="2" NCoef="0" IVar="-1" Cut="0.0000000000000000e+00" cType="1" res="5.0380136817693710e-03" rms="4.6520796418190002e-01" purity="4.6167269349098206e-01" nType="-99"/>
          <Node pos="r" depth="2" NCoef="0" IVar="-1" Cut="0.0000000000000000e+00" cType="1" res="-1.3518982566893101e-02" rms="4.3123105168342590e-01" purity="3.1798076629638672e-01" nType="-99"/>
        </Node>
      </Node>
    </BinaryTree>
    <BinaryTree type="DecisionTree" boostWeight="1.0000000000000000e+00" itree="44">
      <Node pos="s" depth="0" NCoef="0" IVar="4" Cut="1.1431561708450317e+00" cType="1" res="7.3373080231249332e-03" rms="4.4088071584701538e-01" purity="5.0150644779205322e-01" nType="0">
        <Node pos="l" depth="1" NCoef="0" IVar="2" Cut="1.1099106818437576e-01" cType="1" res="1.5019156970083714e-02" rms="4.4172492623329163e-01" purity="5.1707512140274048e-01" nType="0">
          <Node pos="l" depth="2" NCoef="0" IVar="-1" Cut="0.0000000000000000e+00" cType="1" res="5.0764903426170349e-03" rms="4.4330456852912903e-01" purity="5.3372240066528320e-01" nType="-99"/>
          <Node pos="r" depth="2" NCoef="0" IVar="-1" Cut="0.0000000000000000e+00" cType="1" res="-2.5278413668274879e-02" rms="3.9591312408447266e-01" purity="2.2110505402088165e-01" nType="-99"/>
        </Node>
        <Node pos="r" depth="1" NCoef="0" IVar="-1" Cut="0.0000000000000000e+00" cType="1" res="-2.8855159878730774e-02" rms="4.0551593899726868e-01" purity="2.4124960601329803e-01" nType="-99"/>
      </Node>
    </BinaryTree>
    <BinaryTree type="DecisionTree" boostWeight="1.0000000000000000e+00" itree="45">
      <Node pos="s" depth="0" NCoef="0" IVar="2" Cut="1.2950873002409935e-02" cType="1" res="-1.5105496160686016e-02" rms="4.4739750027656555e-01" purity="4.8057380318641663e-01" nType="0">
        <Node pos="l" depth="1" NCoef="0" IVar="4" Cut="8.8584184646606445e-01" cType="1" res="1.6231544315814972e-02" rms="4.5465517044067383e-01" purity="6.3668638467788696e-01" nType="0">
          <Node pos="l" depth="2" NCoef="0" IVar="-1" Cut="0.0000000000000000e+00" cType="1" res="-1.4283033087849617e-03" rms="4.6433797478675842e-01" purity="6.0218918323516846e-01" nType="-99"/>
          <Node pos="r" depth="2" NCoef="0" IVar="-1" Cut="0.0000000000000000e+00" cType="1" res="2.5478372350335121e-02" rms="4.0407574176788330e-01" purity="7.6939433813095093e-01" nType="-99"/>
        </Node>
        <Node pos="r" depth="1" NCoef="0" IVar="3" Cut="3.4564462304115295e-01" cType="1" res="-2.7583261951804161e-02" rms="4.4385924935340881e-01" purity="4.1841295361518860e-01" nType="0">
          <Node pos="l" depth="2" NCoef="0" IVar="-1" Cut="0.0000000000000000e+00" cType="1" res="-4.1053504683077335e-03" rms="4.5128557085990906e-01" purity="4.5889824628829956e-01" nType="-99"/>
          <Node pos="r" depth="2" NCoef="0" IVar="-1" Cut="0.0000000000000000e+00" cType="1" res="-2.2163704037666321e-02" rms="3.9664953947067261e-01" purity="1.9797109067440033e-01" nType="-99"/>
        </Node>
      </Node>
    </BinaryTree>
    <BinaryTree type="DecisionTree" boostWeight="1.0000000000000000e+00" itree="46">
      <Node pos="s" depth="0" NCoef="0" IVar="4" Cut="2.3507022857666016e-01" cType="1" res="4.2232582345604897e-03" rms="4.4135057926177979e-01" purity="5.0376224517822266e-01" nType="0">
        <Node pos="l" depth="1" NCoef="0" IVar="1" Cut="4.9250082969665527e+00" cType="1" res="-4.7877129167318344e-02" rms="4.0678936243057251e-01" purity="2.8788191080093384e-01" nType="0">
          <Node pos="l" depth="2" NCoef="0" IVar="-1" Cut="0.0000000000000000e+00" cType="1" res="-1.9124070182442665e-02" rms="3.9166253805160522e-01" purity="2.1431274712085724e-01" nType="-99"/>
          <Node pos="r" depth="2" NCoef="0" IVar="-1" Cut="0.0000000000000000e+00" cType="1" res="-4.1404372313991189e-04" rms="4.3324321508407593e-01" purity="4.4237723946571350e-01" nType="-99"/>
        </Node>
        <Node pos="r" depth="1" NCoef="0" IVar="0" Cut="8.2465802001953125e+02" cType="1" res="2.0019402727484703e-02" rms="4.5011672377586365e-01" purity="5.6921422481536865e-01" nType="0">
          <Node pos="l" depth="2" NCoef="0" IVar="-1" Cut="0.0000000000000000e+00" cType="1" res="-1.5213017351925373e-02" rms="4.3633061647415161e-01" purity="3.2523030042648315e-01" nType="-99"/>
          <Node pos="r" depth="2" NCoef="0" IVar="-1" Cut="0.0000000000000000e+00" cType="1" res="6.9497348740696907e-03" rms="4.5059415698051453e-01" purity="5.9633648395538330e-01" nType="-99"/>
        </Node>
      </Node>
    </BinaryTree>
    <BinaryTree type="DecisionTree" boostWeight="1.0000000000000000e+00" itree="47">
      <Node pos="s" depth="0" NCoef="0" IVar="0" Cut="8.3245843505859375e+02" cType="1" res="1.7002172535285354e-03" rms="4.4312286376953125e-01" purity="5.0081175565719604e-01" nType="0">
        <Node pos="l" depth="1" NCoef="0" IVar="2" Cut="1.4846272766590118e-02" cType="1" res="-9.1888383030891418e-02" rms="4.2274811863899231e-01" purity="2.5529545545578003e-01" nType="0">
          <Node pos="l" depth="2" NCoef="0" IVar="-1" Cut="0.0000000000000000e+00" cType="1" res="-3.9277948439121246e-02" rms="4.3751800060272217e-01" purity="2.6221814751625061e-01" nType="-99"/>
          <Node pos="r" depth="2" NCoef="0" IVar="-1" Cut="0.0000000000000000e+00" cType="1" res="-1.5002788044512272e-02" rms="4.1180238127708435e-01" purity="2.5263622403144836e-01" nType="-99"/>
        </Node>
        <Node pos="r" depth="1" NCoef="0" IVar="2" Cut="4.2546574026346207e-02" cType="1" res="1.4659395441412926e-02" rms="4.4431966543197632e-01" purity="5.3480827808380127e-01" nType="0">
          <Node pos="l" depth="2" NCoef="0" IVar="-1" Cut="0.0000000000000000e+00" cType="1" res="7.8028030693531036e-03" rms="4.4611945748329163e-01" purity="6.2662088871002197e-01" nType="-99"/>
          <Node pos="r" depth="2" NCoef="0" IVar="-1" Cut="0.0000000000000000e+00" cType="1" res="-6.0819224454462528e-03" rms="4.3775078654289246e-01" purity="3.3517307043075562e-01" nType="-99"/>
        </Node>
      </Node>
    </BinaryTree>
    <BinaryTree type="DecisionTree" boostWeight="1.0000000000000000e+00" itree="48">
      <Node pos="s" depth="0" NCoef="0" IVar="0" Cut="1.7310198974609375e+03" cType="1" res="2.8576471959240735e-04" rms="4.4134917855262756e-01" purity="4.9649733304977417e-01" nType="0">
        <Node pos="l" depth="1" NCoef="0" IVar="3" Cut="1.1724504828453064e-01" cType="1" res="-1.4128329232335091e-02" rms="4.4618573784828186e-01" purity="4.3121469020843506e-01" nType="0">
          <Node pos="l" depth="2" NCoef="0" IVar="-1" Cut="0.0000000000000000e+00" cType="1" res="6.1962394975125790e-03" rms="4.5103049278259277e-01" purity="5.5139017105102539e-01" nType="-99"/>
          <Node pos="r" depth="2" NCoef="0" IVar="-1" Cut="0.0000000000000000e+00" cType="1" res="-8.4871631115674973e-03" rms="4.4217723608016968e-01" purity="3.6925780773162842e-01" nType="-99"/>
        </Node>
        <Node pos="r" depth="1" NCoef="0" IVar="4" Cut="7.4719536304473877e-01" cType="1" res="4.4965881854295731e-02" rms="4.2289796471595764e-01" purity="6.9885742664337158e-01" nType="0">
          <Node pos="l" depth="2" NCoef="0" IVar="-1" Cut="0.0000000000000000e+00" cType="1" res="2.5953527074307203e-03" rms="4.4179958105087280e-01" purity="6.3818562030792236e-01" nType="-99"/>
          <Node pos="r" depth="2" NCoef="0" IVar="-1" Cut="0.0000000000000000e+00" cType="1" res="2.6753176003694534e-02" rms="3.8369920849800110e-01" purity="7.9739528894424438e-01" nType="-99"/>
        </Node>
      </Node>
    </BinaryTree>
    <BinaryTree type="DecisionTree" boostWeight="1.0000000000000000e+00" itree="49">
      <Node pos="s" depth="0" NCoef="0" IVar="0" Cut="2.2992561035156250e+03" cType="1" res="-1.7591408686712384e-03" rms="4.4475451111793518e-01" purity="4.9716702103614807e-01" nType="0">
        <Node pos="l" depth="1" NCoef="0" IVar="3" Cut="3.1479665637016296e-01" cType="1" res="-9.9597005173563957e-03" rms="4.4971171021461487e-01" purity="4.6403726935386658e-01" nType="0">
          <Node pos="l" depth="2" NCoef="0" IVar="-1" Cut="0.0000000000000000e+00" cType="1" res="6.1055552214384079e-04" rms="4.5785874128341675e-01" purity="5.1992189884185791e-01" nType="-99"/>
          <Node pos="r" depth="2" NCoef="0" IVar="-1" Cut="0.0000000000000000e+00" cType="1" res="-1.4959390275180340e-02" rms="4.1409969329833984e-01" purity="2.5305968523025513e-01" nType="-99"/>
        </Node>
        <Node pos="r" depth="1" NCoef="0" IVar="0" Cut="2.8256997070312500e+03" cType="1" res="6.3133984804153442e-02" rms="3.9746147394180298e-01" purity="7.5933128595352173e-01" nType="0">
          <Node pos="l" depth="2" NCoef="0" IVar="-1" Cut="0.0000000000000000e+00" cType="1" res="3.2653965055942535e-02" rms="3.6593997478485107e-01" purity="8.1403756141662598e-01" nType="-99"/>
          <Node pos="r" depth="2" NCoef="0" IVar="-1" Cut="0.0000000000000000e+00" cType="1" res="2.0470619201660156e-03" rms="4.1629883646965027e-01" purity="7.0974946022033691e-01" nType="-99"/>
        </Node>
      </Node>
    </BinaryTree>
    <BinaryTree type="DecisionTree" boostWeight="1.0000000000000000e+00" itree="50">
      <Node pos="s" depth="0" NCoef="0" IVar="3" Cut="1.2961269915103912e-01" cType="1" res="5.8976234868168831e-03" rms="4.4274118542671204e-01" purity="5.1594203710556030e-01" nType="0">
        <Node pos="l" depth="1" NCoef="0" IVar="1" Cut="3.1973323822021484e+00" cType="1" res="4.0758173912763596e-02" rms="4.3750101327896118e-01" purity="6.3038110733032227e-01" nType="0">
          <Node pos="l" depth="2" NCoef="0" IVar="-1" Cut="0.0000000000000000e+00" cType="1" res="-1.5233548358082771e-02" rms="4.4202402234077454e-01" purity="3.2960897684097290e-01" nType="-99"/>
          <Node pos="r" depth="2" NCoef="0" IVar="-1" Cut="0.0000000000000000e+00" cType="1" res="1.2176917865872383e-02" rms="4.3582504987716675e-01" purity="6.5647244453430176e-01" nType="-99"/>
        </Node>
        <Node pos="r" depth="1" NCoef="0" IVar="0" Cut="1.9272281494140625e+03" cType="1" res="-1.8083795905113220e-02" rms="4.4472664594650269e-01" purity="4.3721657991409302e-01" nType="0">
          <Node pos="l" depth="2" NCoef="0" IVar="-1" Cut="0.0000000000000000e+00" cType="1" res="-7.7097536996006966e-03" rms="4.5126020908355713e-01" purity="3.8169243931770325e-01" nType="-99"/>
          <Node pos="r" depth="2" NCoef="0" IVar="-1" Cut="0.0000000000000000e+00" cType="1" res="1.3197077438235283e-02" rms="4.0299493074417114e-01" purity="7.1711337566375732e-01" nType="-99"/>
        </Node>
      </Node>
    </BinaryTree>
    <BinaryTree type="DecisionTree" boostWeight="1.0000000000000000e+00" itree="51">
      <Node pos="s" depth="0" NCoef="0" IVar="3" Cut="1.2344086170196533e-01" cType="1" res="-4.8647033981978893e-03" rms="4.4767779111862183e-01" purity="4.9247303605079651e-01" nType="0">
        <Node pos="l" depth="1" NCoef="0" IVar="1" Cut="4.5882902145385742e+00" cType="1" res="1.8260579556226730e-02" rms="4.4961416721343994e-01" purity="5.9629833698272705e-01" nType="0">
          <Node pos="l" depth="2" NCoef="0" IVar="-1" Cut="0.0000000000000000e+00" cType="1" res="9.4342306256294250e-03" rms="4.6172448992729187e-01" purity="5.4426139593124390e-01" nType="-99"/>
          <Node pos="r" depth="2" NCoef="0" IVar="-1" Cut="0.0000000000000000e+00" cType="1" res="-1.3084871461614966e-03" rms="4.3584012985229492e-01" purity="6.4864778518676758e-01" nType="-99"/>
        </Node>
        <Node pos="r" depth="1" NCoef="0" IVar="2" Cut="7.4004987254738808e-03" cType="1" res="-1.9521260634064674e-02" rms="4.4582554697990417e-01" purity="4.2666965723037720e-01" nType="0">
          <Node pos="l" depth="2" NCoef="0" IVar="-1" Cut="0.0000000000000000e+00" cType="1" res="1.0240421630442142e-02" rms="4.6499437093734741e-01" purity="6.1801981925964355e-01" nType="-99"/>
          <Node pos="r" depth="2" NCoef="0" IVar="-1" Cut="0.0000000000000000e+00" cType="1" res="-7.6324781402945518e-03" rms="4.4129091501235962e-01" purity="3.9187398552894592e-01" nType="-99"/>
        </Node>
      </Node>
    </BinaryTree>
    <BinaryTree type="DecisionTree" boostWeight="1.0000000000000000e+00" itree="52">
      <Node pos="s" depth="0" NCoef="0" IVar="3" Cut="1.2372153811156750e-02" cType="1" res="-3.0700463685207069e-04" rms="4.4547215104103088e-01" purity="4.9716094136238098e-01" nType="0">
        <Node pos="l" depth="1" NCoef="0" IVar="-1" Cut="0.0000000000000000e+00" cType="1" res="-2.7890490368008614e-02" rms="4.6222010254859924e-01" purity="4.5566523075103760e-01" nType="-99"/>
        <Node pos="r" depth="1" NCoef="0" IVar="2" Cut="1.1284092068672180e-01" cType="1" res="5.1379823125898838e-03" rms="4.4392448663711548e-01" purity="4.9914339184761047e-01" nType="0">
          <Node pos="l" depth="2" NCoef="0" IVar="-1" Cut="0.0000000000000000e+00" cType="1" res="2.5243079289793968e-03" rms="4.4723197817802429e-01" purity="5.1412069797515869e-01" nType="-99"/>
          <Node pos="r" depth="2" NCoef="0" IVar="-1" Cut="0.0000000000000000e+00" cType="1" res="-2.8394704684615135e-02" rms="3.5146644711494446e-01" purity="1.8869027495384216e-01" nType="-99"/>
        </Node>
      </Node>
    </BinaryTree>
    <BinaryTree type="DecisionTree" boostWeight="1.0000000000000000e+00" itree="53">
      <Node pos="s" depth="0" NCoef="0" IVar="1" Cut="3.2113447189331055e+00" cType="1" res="-4.8921150155365467e-03" rms="4.4253695011138916e-01" purity="4.9820145964622498e-01" nType="0">
        <Node pos="l" depth="1" NCoef="0" IVar="2" Cut="2.7847049757838249e-02" cType="1" res="-6.7604415118694305e-02" rms="4.2536890506744385e-01" purity="2.7602684497833252e-01" nType="0">
          <Node pos="l" depth="2" NCoef="0" IVar="-1" Cut="0.0000000000000000e+00" cType="1" res="-2.3815914988517761e-02" rms="4.4337451457977295e-01" purity="3.0315506458282471e-01" nType="-99"/>
          <Node pos="r" depth="2" NCoef="0" IVar="-1" Cut="0.0000000000000000e+00" cType="1" res="-5.9848004020750523e-03" rms="3.9871695637702942e-01" purity="2.4475519359111786e-01" nType="-99"/>
        </Node>
        <Node pos="r" depth="1" NCoef="0" IVar="4" Cut="1.0441418886184692e+00" cType="1" res="3.9019468240439892e-03" rms="4.4418415427207947e-01" purity="5.2935665845870972e-01" nType="0">
          <Node pos="l" depth="2" NCoef="0" IVar="-1" Cut="0.0000000000000000e+00" cType="1" res="2.6500034146010876e-03" rms="4.4370195269584656e-01" purity="5.4459071159362793e-01" nType="-99"/>
          <Node pos="r" depth="2" NCoef="0" IVar="-1" Cut="0.0000000000000000e+00" cType="1" res="-1.5307018533349037e-02" rms="4.4297310709953308e-01" purity="3.7571883201599121e-01" nType="-99"/>
        </Node>
      </Node>
    </BinaryTree>
    <BinaryTree type="DecisionTree" boostWeight="1.0000000000000000e+00" itree="54">
      <Node pos="s" depth="0" NCoef="0" IVar="3" Cut="9.2593587934970856e-02" cType="1" res="4.2277220636606216e-03" rms="4.3956053256988525e-01" purity="5.0296741724014282e-01" nType="0">
        <Node pos="l" depth="1" NCoef="0" IVar="4" Cut="7.0437186956405640e-01" cType="1" res="5.4492805153131485e-02" rms="4.2727169394493103e-01" purity="6.4163106679916382e-01" nType="0">
          <Node pos="l" depth="2" NCoef="0" IVar="-1" Cut="0.0000000000000000e+00" cType="1" res="7.0129744708538055e-03" rms="4.4495990872383118e-01" purity="5.7502967119216919e-01" nType="-99"/>
          <Node pos="r" depth="2" NCoef="0" IVar="-1" Cut="0.0000000000000000e+00" cType="1" res="2.3874936625361443e-02" rms="3.9281076192855835e-01" purity="7.5170618295669556e-01" nType="-99"/>
        </Node>
        <Node pos="r" depth="1" NCoef="0" IVar="0" Cut="8.9931683349609375e+02" cType="1" res="-1.5148974955081940e-02" rms="4.4268545508384705e-01" purity="4.4951385259628296e-01" nType="0">
          <Node pos="l" depth="2" NCoef="0" IVar="-1" Cut="0.0000000000000000e+00" cType="1" res="-1.4540144242346287e-02" rms="4.0953135490417480e-01" purity="2.6205259561538696e-01" nType="-99"/>
          <Node pos="r" depth="2" NCoef="0" IVar="-1" Cut="0.0000000000000000e+00" cType="1" res="-8.5331336595118046e-04" rms="4.5079293847084045e-01" purity="5.0168323516845703e-01" nType="-99"/>
        </Node>
      </Node>
    </BinaryTree>
    <BinaryTree type="DecisionTree" boostWeight="1.0000000000000000e+00" itree="55">
      <Node pos="s" depth="0" NCoef="0" IVar="1" Cut="5.5026741027832031e+00" cType="1" res="-3.6688300315290689e-03" rms="4.4749867916107178e-01" purity="4.9930498003959656e-01" nType="0">
        <Node pos="l" depth="1" NCoef="0" IVar="1" Cut="2.4758636951446533e+00" cType="1" res="6.4406055025756359e-03" rms="4.4758245348930359e-01" purity="4.7307527065277100e-01" nType="0">
          <Node pos="l" depth="2" NCoef="0" IVar="-1" Cut="0.0000000000000000e+00" cType="1" res="-2.7306599542498589e-02" rms="3.6484822630882263e-01" purity="2.2226652503013611e-01" nType="-99"/>
          <Node pos="r" depth="2" NCoef="0" IVar="-1" Cut="0.0000000000000000e+00" cType="1" res="2.6778127066791058e-03" rms="4.5001810789108276e-01" purity="4.8336774110794067e-01" nType="-99"/>
        </Node>
        <Node pos="r" depth="1" NCoef="0" IVar="0" Cut="1.9288433837890625e+03" cType="1" res="-5.1484622061252594e-02" rms="4.4399392604827881e-01" purity="6.2336671352386475e-01" nType="0">
          <Node pos="l" depth="2" NCoef="0" IVar="-1" Cut="0.0000000000000000e+00" cType="1" res="-4.6133372932672501e-02" rms="4.8411783576011658e-01" purity="4.3302437663078308e-01" nType="-99"/>
          <Node pos="r" depth="2" NCoef="0" IVar="-1" Cut="0.0000000000000000e+00" cType="1" res="7.0899296551942825e-03" rms="3.9941328763961792e-01" purity="7.3193961381912231e-01" nType="-99"/>
        </Node>
      </Node>
    </BinaryTree>
    <BinaryTree type="DecisionTree" boostWeight="1.0000000000000000e+00" itree="56">
      <Node pos="s" depth="0" NCoef="0" IVar="0" Cut="3.0063413085937500e+03" cType="1" res="-1.3692054199054837e-04" rms="4.4165077805519104e-01" purity="4.9620202183723450e-01" nType="0">
        <Node pos="l" depth="1" NCoef="0" IVar="3" Cut="1.9749985635280609e-01" cType="1" res="-5.7636541314423084e-03" rms="4.4524320960044861e-01" purity="4.7918838262557983e-01" nType="0">
          <Node pos="l" depth="2" NCoef="0" IVar="-1" Cut="0.0000000000000000e+00" cType="1" res="3.2410342246294022e-03" rms="4.4861197471618652e-01" purity="5.7135093212127686e-01" nType="-99"/>
          <Node pos="r" depth="2" NCoef="0" IVar="-1" Cut="0.0000000000000000e+00" cType="1" res="-7.6106758788228035e-03" rms="4.3965628743171692e-01" purity="3.6139062047004700e-01" nType="-99"/>
        </Node>
        <Node pos="r" depth="1" NCoef="0" IVar="-1" Cut="0.0000000000000000e+00" cType="1" res="3.5176366567611694e-02" rms="3.3384063839912415e-01" purity="8.6121183633804321e-01" nType="-99"/>
      </Node>
    </BinaryTree>
    <BinaryTree type="DecisionTree" boostWeight="1.0000000000000000e+00" itree="57">
      <Node pos="s" depth="0" NCoef="0" IVar="2" Cut="1.4798808842897415e-02" cType="1" res="3.8015353493392467e-03" rms="4.3837982416152954e-01" purity="5.0171792507171631e-01" nType="0">
        <Node pos="l" depth="1" NCoef="0" IVar="3" Cut="2.9622638225555420e-01" cType="1" res="5.2342731505632401e-02" rms="4.2414778470993042e-01" purity="6.7664223909378052e-01" nType="0">
          <Node pos="l" depth="2" NCoef="0" IVar="-1" Cut="0.0000000000000000e+00" cType="1" res="1.7801303416490555e-02" rms="4.0876069664955139e-01" purity="7.4594384431838989e-01" nType="-99"/>
          <Node pos="r" depth="2" NCoef="0" IVar="-1" Cut="0.0000000000000000e+00" cType="1" res="-2.9150960035622120e-03" rms="4.7105336189270020e-01" purity="4.2013743519783020e-01" nType="-99"/>
        </Node>
        <Node pos="r" depth="1" NCoef="0" IVar="4" Cut="1.2023006677627563e+00" cType="1" res="-1.9431918859481812e-02" rms="4.4315320253372192e-01" purity="4.1799318790435791e-01" nType="0">
          <Node pos="l" depth="2" NCoef="0" IVar="-1" Cut="0.0000000000000000e+00" cType="1" res="-3.5359882749617100e-03" rms="4.4532057642936707e-01" purity="4.2923837900161743e-01" nType="-99"/>
          <Node pos="r" depth="2" NCoef="0" IVar="-1" Cut="0.0000000000000000e+00" cType="1" res="-2.8723813593387604e-02" rms="3.8728117942810059e-01" purity="2.0212990045547485e-01" nType="-99"/>
        </Node>
      </Node>
    </BinaryTree>
    <BinaryTree type="DecisionTree" boostWeight="1.0000000000000000e+00" itree="58">
      <Node pos="s" depth="0" NCoef="0" IVar="1" Cut="3.4204216003417969e+00" cType="1" res="-9.1877738013863564e-03" rms="4.4294720888137817e-01" purity="4.9485224485397339e-01" nType="0">
        <Node pos="l" depth="1" NCoef="0" IVar="2" Cut="7.3866778984665871e-03" cType="1" res="-5.0298277288675308e-02" rms="4.3012028932571411e-01" purity="3.0912494659423828e-01" nType="0">
          <Node pos="l" depth="2" NCoef="0" IVar="-1" Cut="0.0000000000000000e+00" cType="1" res="1.4867048710584641e-02" rms="4.8478144407272339e-01" purity="5.5554997920989990e-01" nType="-99"/>
          <Node pos="r" depth="2" NCoef="0" IVar="-1" Cut="0.0000000000000000e+00" cType="1" res="-1.9004169851541519e-02" rms="4.1261830925941467e-01" purity="2.5515538454055786e-01" nType="-99"/>
        </Node>
        <Node pos="r" depth="1" NCoef="0" IVar="1" Cut="4.7705526351928711e+00" cType="1" res="3.0890380730852485e-04" rms="4.4531852006912231e-01" purity="5.3775596618652344e-01" nType="0">
          <Node pos="l" depth="2" NCoef="0" IVar="-1" Cut="0.0000000000000000e+00" cType="1" res="4.6283067204058170e-03" rms="4.5442435145378113e-01" purity="4.8156639933586121e-01" nType="-99"/>
          <Node pos="r" depth="2" NCoef="0" IVar="-1" Cut="0.0000000000000000e+00" cType="1" res="-5.9730629436671734e-03" rms="4.3275102972984314e-01" purity="6.0657000541687012e-01" nType="-99"/>
        </Node>
      </Node>
    </BinaryTree>
    <BinaryTree type="DecisionTree" boostWeight="1.0000000000000000e+00" itree="59">
      <Node pos="s" depth="0" NCoef="0" IVar="4" Cut="-4.1979447007179260e-02" cType="1" res="5.8768694289028645e-03" rms="4.3839594721794128e-01" purity="5.0233119726181030e-01" nType="0">
        <Node pos="l" depth="1" NCoef="0" IVar="-1" Cut="0.0000000000000000e+00" cType="1" res="-3.5088658332824707e-02" rms="2.7341946959495544e-01" purity="8.8977947831153870e-02" nType="-99"/>
        <Node pos="r" depth="1" NCoef="0" IVar="4" Cut="1.1506354808807373e+00" cType="1" res="1.2327705509960651e-02" rms="4.4588279724121094e-01" purity="5.2812820672988892e-01" nType="0">
          <Node pos="l" depth="2" NCoef="0" IVar="-1" Cut="0.0000000000000000e+00" cType="1" res="4.2771273292601109e-03" rms="4.4783753156661987e-01" purity="5.4349875450134277e-01" nType="-99"/>
          <Node pos="r" depth="2" NCoef="0" IVar="-1" Cut="0.0000000000000000e+00" cType="1" res="-2.0318713039159775e-02" rms="3.9885541796684265e-01" purity="2.5918787717819214e-01" nType="-99"/>
        </Node>
      </Node>
    </BinaryTree>
    <BinaryTree type="DecisionTree" boostWeight="1.0000000000000000e+00" itree="60">
      <Node pos="s" depth="0" NCoef="0" IVar="1" Cut="5.2584695816040039e+00" cType="1" res="9.1250585392117500e-03" rms="4.3773099780082703e-01" purity="5.1220983266830444e-01" nType="0">
        <Node pos="l" depth="1" NCoef="0" IVar="3" Cut="1.8525945022702217e-02" cType="1" res="-5.4457024671137333e-03" rms="4.4714292883872986e-01" purity="4.5218446850776672e-01" nType="0">
          <Node pos="l" depth="2" NCoef="0" IVar="-1" Cut="0.0000000000000000e+00" cType="1" res="2.9805818572640419e-02" rms="4.4897016882896423e-01" purity="6.6826635599136353e-01" nType="-99"/>
          <Node pos="r" depth="2" NCoef="0" IVar="-1" Cut="0.0000000000000000e+00" cType="1" res="-3.0905294697731733e-03" rms="4.4587007164955139e-01" purity="4.4044175744056702e-01" nType="-99"/>
        </Node>
        <Node pos="r" depth="1" NCoef="0" IVar="3" Cut="1.4127445220947266e-01" cType="1" res="6.0804560780525208e-02" rms="3.9830335974693298e-01" purity="7.2510761022567749e-01" nType="0">
          <Node pos="l" depth="2" NCoef="0" IVar="-1" Cut="0.0000000000000000e+00" cType="1" res="1.7464354168623686e-03" rms="3.9384689927101135e-01" purity="7.0839315652847290e-01" nType="-99"/>
          <Node pos="r" depth="2" NCoef="0" IVar="-1" Cut="0.0000000000000000e+00" cType="1" res="3.0766418203711510e-02" rms="3.9435765147209167e-01" purity="7.4387717247009277e-01" nType="-99"/>
        </Node>
      </Node>
    </BinaryTree>
    <BinaryTree type="DecisionTree" boostWeight="1.0000000000000000e+00" itree="61">
      <Node pos="s" depth="0" NCoef="0" IVar="2" Cut="1.2948958203196526e-02" cType="1" res="-1.0076511651277542e-02" rms="4.4024479389190674e-01" purity="4.9054294824600220e-01" nType="0">
        <Node pos="l" depth="1" NCoef="0" IVar="4" Cut="2.0441664755344391e-01" cType="1" res="2.8579803183674812e-02" rms="4.3680053949356079e-01" purity="6.6910970211029053e-01" nType="0">
          <Node pos="l" depth="2" NCoef="0" IVar="-1" Cut="0.0000000000000000e+00" cType="1" res="2.4196114391088486e-02" rms="4.4814202189445496e-01" purity="6.1376601457595825e-01" nType="-99"/>
          <Node pos="r" depth="2" NCoef="0" IVar="-1" Cut="0.0000000000000000e+00" cType="1" res="2.6934037450700998e-03" rms="4.3207848072052002e-01" purity="6.8222111463546753e-01" nType="-99"/>
        </Node>
        <Node pos="r" depth="1" NCoef="0" IVar="4" Cut="9.6297495067119598e-02" cType="1" res="-2.5947658345103264e-02" rms="4.4067028164863586e-01" purity="4.1722869873046875e-01" nType="0">
          <Node pos="l" depth="2" NCoef="0" IVar="-1" Cut="0.0000000000000000e+00" cType="1" res="-2.5767028331756592e-02" rms="3.3255741000175476e-01" purity="1.5013816952705383e-01" nType="-99"/>
          <Node pos="r" depth="2" NCoef="0" IVar="-1" Cut="0.0000000000000000e+00" cType="1" res="-3.5246680490672588e-03" rms="4.5853471755981445e-01" purity="4.7085869312286377e-01" nType="-99"/>
        </Node>
      </Node>
    </BinaryTree>
    <BinaryTree type="DecisionTree" boostWeight="1.0000000000000000e+00" itree="62">
      <Node pos="s" depth="0" NCoef="0" IVar="2" Cut="1.2931264005601406e-02" cType="1" res="1.3364818878471851e-02" rms="4.3755584955215454e-01" purity="5.1853668689727783e-01" nType="0">
        <Node pos="l" depth="1" NCoef="0" IVar="4" Cut="8.8584184646606445e-01" cType="1" res="5.2205227315425873e-02" rms="4.1577905416488647e-01" purity="6.9856929779052734e-01" nType="0">
          <Node pos="l" depth="2" NCoef="0" IVar="-1" Cut="0.0000000000000000e+00" cType="1" res="7.4500604532659054e-03" rms="4.2748099565505981e-01" purity="6.6637736558914185e-01" nType="-99"/>
          <Node pos="r" depth="2" NCoef="0" IVar="-1" Cut="0.0000000000000000e+00" cType="1" res="3.6967314779758453e-02" rms="3.5164245963096619e-01" purity="8.2663488388061523e-01" nType="-99"/>
        </Node>
        <Node pos="r" depth="1" NCoef="0" IVar="3" Cut="3.7034600973129272e-01" cType="1" res="-1.9696671515703201e-03" rms="4.4492810964584351e-01" purity="4.4745847582817078e-01" nType="0">
          <Node pos="l" depth="2" NCoef="0" IVar="-1" Cut="0.0000000000000000e+00" cType="1" res="1.3041407801210880e-03" rms="4.5339420437812805e-01" purity="4.8043867945671082e-01" nType="-99"/>
          <Node pos="r" depth="2" NCoef="0" IVar="-1" Cut="0.0000000000000000e+00" cType="1" res="-1.8086565658450127e-02" rms="3.6517244577407837e-01" purity="1.8421298265457153e-01" nType="-99"/>
        </Node>
      </Node>
    </BinaryTree>
    <BinaryTree type="DecisionTree" boostWeight="1.0000000000000000e+00" itree="63">
      <Node pos="s" depth="0" NCoef="0" IVar="4" Cut="1.2025520801544189e+00" cType="1" res="1.0719537734985352e-02" rms="4.4605532288551331e-01" purity="5.0429433584213257e-01" nType="0">
        <Node pos="l" depth="1" NCoef="0" IVar="1" Cut="6.4800906181335449e+00" cType="1" res="1.4386420138180256e-02" rms="4.4733822345733643e-01" purity="5.1542580127716064e-01" nType="0">
          <Node pos="l" depth="2" NCoef="0" IVar="-1" Cut="0.0000000000000000e+00" cType="1" res="4.4746780768036842e-03" rms="4.4790786504745483e-01" purity="5.1088994741439819e-01" nType="-99"/>
          <Node pos="r" depth="2" NCoef="0" IVar="-1" Cut="0.0000000000000000e+00" cType="1" res="-1.9763378426432610e-02" rms="4.2410892248153687e-01" purity="6.2308150529861450e-01" nType="-99"/>
        </Node>
        <Node pos="r" depth="1" NCoef="0" IVar="-1" Cut="0.0000000000000000e+00" cType="1" res="-2.1601535379886627e-02" rms="4.0070745348930359e-01" purity="2.1992176771163940e-01" nType="-99"/>
      </Node>
    </BinaryTree>
    <BinaryTree type="DecisionTree" boostWeight="1.0000000000000000e+00" itree="64">
      <Node pos="s" depth="0" NCoef="0" IVar="4" Cut="8.0740082263946533e-01" cType="1" res="1.4597864355891943e-03" rms="4.4236886501312256e-01" purity="4.9982351064682007e-01" nType="0">
        <Node pos="l" depth="1" NCoef="0" IVar="2" Cut="6.2894940376281738e-02" cType="1" res="-1.0476912371814251e-02" rms="4.4498988986015320e-01" purity="4.6571615338325500e-01" nType="0">
          <Node pos="l" depth="2" NCoef="0" IVar="-1" Cut="0.0000000000000000e+00" cType="1" res="-5.3329537622630596e-03" rms="4.4720399379730225e-01" purity="4.9648210406303406e-01" nType="-99"/>
          <Node pos="r" depth="2" NCoef="0" IVar="-1" Cut="0.0000000000000000e+00" cType="1" res="1.0071045719087124e-02" rms="4.3244785070419312e-01" purity="3.3791437745094299e-01" nType="-99"/>
        </Node>
        <Node pos="r" depth="1" NCoef="0" IVar="2" Cut="4.4366832822561264e-02" cType="1" res="2.8301091864705086e-02" rms="4.3522348999977112e-01" purity="5.7651847600936890e-01" nType="0">
