<?xml version="1.0"?>
<MethodSetup Method="BDT::BDT-HM-10Folds_fold6">
  <GeneralInfo>
    <Info name="TMVA Release" value="4.2.1 [262657]"/>
    <Info name="ROOT Release" value="6.28/04 [400388]"/>
    <Info name="Creator" value="diegomac"/>
    <Info name="Date" value="Wed Oct  4 12:47:05 2023"/>
    <Info name="Host" value="Darwin Diegos-MacBook-Pro-2.local 22.4.0 Darwin Kernel Version 22.4.0: Mon Mar 6 20:59:28 PST 2023; root:xnu-8796.101.5~3/RELEASE_ARM64_T6000 arm64"/>
    <Info name="Dir" value="/Users/diegomac/Documents/HEP/MVA-Analysis"/>
    <Info name="Training events" value="35292"/>
    <Info name="TrainingTime" value="6.89736128e-01"/>
    <Info name="AnalysisType" value="Classification"/>
  </GeneralInfo>
  <Options>
    <Option name="V" modified="Yes">False</Option>
    <Option name="VerbosityLevel" modified="No">Default</Option>
    <Option name="VarTransform" modified="No">None</Option>
    <Option name="H" modified="Yes">False</Option>
    <Option name="CreateMVAPdfs" modified="No">False</Option>
    <Option name="IgnoreNegWeightsInTraining" modified="No">False</Option>
    <Option name="NTrees" modified="Yes">125</Option>
    <Option name="MaxDepth" modified="Yes">2</Option>
    <Option name="MinNodeSize" modified="Yes">3%</Option>
    <Option name="nCuts" modified="Yes">80</Option>
    <Option name="BoostType" modified="Yes">Grad</Option>
    <Option name="AdaBoostR2Loss" modified="No">quadratic</Option>
    <Option name="UseBaggedBoost" modified="Yes">True</Option>
    <Option name="Shrinkage" modified="Yes">1.000000e-01</Option>
    <Option name="AdaBoostBeta" modified="No">5.000000e-01</Option>
    <Option name="UseRandomisedTrees" modified="No">False</Option>
    <Option name="UseNvars" modified="Yes">2</Option>
    <Option name="UsePoissonNvars" modified="No">True</Option>
    <Option name="BaggedSampleFraction" modified="Yes">5.000000e-01</Option>
    <Option name="UseYesNoLeaf" modified="No">True</Option>
    <Option name="NegWeightTreatment" modified="No">pray</Option>
    <Option name="Css" modified="No">1.000000e+00</Option>
    <Option name="Cts_sb" modified="No">1.000000e+00</Option>
    <Option name="Ctb_ss" modified="No">1.000000e+00</Option>
    <Option name="Cbb" modified="No">1.000000e+00</Option>
    <Option name="NodePurityLimit" modified="No">5.000000e-01</Option>
    <Option name="SeparationType" modified="Yes">sdivsqrtsplusb</Option>
    <Option name="RegressionLossFunctionBDTG" modified="No">huber</Option>
    <Option name="HuberQuantile" modified="No">7.000000e-01</Option>
    <Option name="DoBoostMonitor" modified="No">False</Option>
    <Option name="UseFisherCuts" modified="No">False</Option>
    <Option name="MinLinCorrForFisher" modified="No">8.000000e-01</Option>
    <Option name="UseExclusiveVars" modified="No">False</Option>
    <Option name="DoPreselection" modified="No">False</Option>
    <Option name="SigToBkgFraction" modified="No">1.000000e+00</Option>
    <Option name="PruneMethod" modified="No">nopruning</Option>
    <Option name="PruneStrength" modified="No">0.000000e+00</Option>
    <Option name="PruningValFraction" modified="No">5.000000e-01</Option>
    <Option name="SkipNormalization" modified="No">False</Option>
    <Option name="nEventsMin" modified="No">0</Option>
    <Option name="UseBaggedGrad" modified="No">False</Option>
    <Option name="GradBaggingFraction" modified="No">5.000000e-01</Option>
    <Option name="UseNTrainEvents" modified="No">0</Option>
    <Option name="NNodesMax" modified="No">0</Option>
  </Options>
  <Variables NVar="6">
    <Variable VarIndex="0" Expression="mjj" Label="mjj" Title="m_{jj}" Unit="GeV" Internal="mjj" Type="D" Min="7.50003479e+02" Max="8.69623633e+03"/>
    <Variable VarIndex="1" Expression="deltaRapidity" Label="deltaRapidity" Title="#Delta y_{jj}" Unit="" Internal="deltaRapidity" Type="D" Min="2.00020766e+00" Max="8.59782600e+00"/>
    <Variable VarIndex="2" Expression="ptBalance" Label="ptBalance" Title="pT_{balance}" Unit="" Internal="ptBalance" Type="D" Min="1.25554126e-18" Max="1.49860099e-01"/>
    <Variable VarIndex="3" Expression="zCentrality" Label="zCentrality" Title="#xi(Z)" Unit="" Internal="zCentrality" Type="D" Min="9.20502589e-06" Max="4.99961168e-01"/>
    <Variable VarIndex="4" Expression="omega" Label="omega" Title="#Omega" Unit="" Internal="omega" Type="D" Min="-1.99983269e-01" Max="1.39996660e+00"/>
    <Variable VarIndex="5" Expression="transverseMassLep" Label="transverseMassLep" Title="m_{T}(l)" Unit="GeV" Internal="transverseMassLep" Type="D" Min="3.45221651e-03" Max="1.75094043e+03"/>
  </Variables>
  <Spectators NSpec="1">
    <Spectator SpecIndex="0" Expression="eventNumber" Label="eventNumber" Title="I" Unit="" Internal="eventNumber" Type="F" Min="8.40000000e+01" Max="1.15952781e+09"/>
  </Spectators>
  <Classes NClass="2">
    <Class Name="Signal" Index="0"/>
    <Class Name="Background" Index="1"/>
  </Classes>
  <Transformations NTransformations="0"/>
  <MVAPdfs/>
  <Weights NTrees="125" AnalysisType="1">
    <BinaryTree type="DecisionTree" boostWeight="1.0000000000000000e+00" itree="0">
      <Node pos="s" depth="0" NCoef="0" IVar="5" Cut="7.1202003479003906e+01" cType="1" res="6.8747252225875854e-03" rms="4.9995273351669312e-01" purity="5.0687474012374878e-01" nType="0">
        <Node pos="l" depth="1" NCoef="0" IVar="0" Cut="1.4367149658203125e+03" cType="1" res="1.3288544118404388e-01" rms="4.8201811313629150e-01" purity="6.3288545608520508e-01" nType="0">
          <Node pos="l" depth="2" NCoef="0" IVar="-1" Cut="0.0000000000000000e+00" cType="1" res="7.6671531423926353e-03" rms="4.9852821230888367e-01" purity="5.3833574056625366e-01" nType="-99"/>
          <Node pos="r" depth="2" NCoef="0" IVar="-1" Cut="0.0000000000000000e+00" cType="1" res="5.5469103157520294e-02" rms="4.1602820158004761e-01" purity="7.7734553813934326e-01" nType="-99"/>
        </Node>
        <Node pos="r" depth="1" NCoef="0" IVar="2" Cut="2.2198213264346123e-02" cType="1" res="-2.8254148364067078e-01" rms="4.1251704096794128e-01" purity="2.1745853126049042e-01" nType="0">
          <Node pos="l" depth="2" NCoef="0" IVar="-1" Cut="0.0000000000000000e+00" cType="1" res="-3.1798686832189560e-02" rms="4.7404757142066956e-01" purity="3.4100660681724548e-01" nType="-99"/>
          <Node pos="r" depth="2" NCoef="0" IVar="-1" Cut="0.0000000000000000e+00" cType="1" res="-7.4480116367340088e-02" rms="3.3364319801330566e-01" purity="1.2759940326213837e-01" nType="-99"/>
        </Node>
      </Node>
    </BinaryTree>
    <BinaryTree type="DecisionTree" boostWeight="1.0000000000000000e+00" itree="1">
      <Node pos="s" depth="0" NCoef="0" IVar="5" Cut="5.7635803222656250e+01" cType="1" res="-5.2896869601681828e-04" rms="4.9091026186943054e-01" purity="4.9937140941619873e-01" nType="0">
        <Node pos="l" depth="1" NCoef="0" IVar="3" Cut="2.9010477662086487e-01" cType="1" res="1.3956208527088165e-01" rms="4.7383221983909607e-01" purity="6.5253126621246338e-01" nType="0">
          <Node pos="l" depth="2" NCoef="0" IVar="-1" Cut="0.0000000000000000e+00" cType="1" res="4.1352786123752594e-02" rms="4.4672998785972595e-01" purity="7.2007709741592407e-01" nType="-99"/>
          <Node pos="r" depth="2" NCoef="0" IVar="-1" Cut="0.0000000000000000e+00" cType="1" res="-2.1474931389093399e-02" rms="4.8894932866096497e-01" purity="4.0344327688217163e-01" nType="-99"/>
        </Node>
        <Node pos="r" depth="1" NCoef="0" IVar="5" Cut="8.5049957275390625e+01" cType="1" res="-2.2802469134330750e-01" rms="4.2909660935401917e-01" purity="2.5065314769744873e-01" nType="0">
          <Node pos="l" depth="2" NCoef="0" IVar="-1" Cut="0.0000000000000000e+00" cType="1" res="-1.6093308106064796e-02" rms="4.9109411239624023e-01" purity="4.1310486197471619e-01" nType="-99"/>
          <Node pos="r" depth="2" NCoef="0" IVar="-1" Cut="0.0000000000000000e+00" cType="1" res="-6.0677651315927505e-02" rms="3.7280228734016418e-01" purity="1.6902574896812439e-01" nType="-99"/>
        </Node>
      </Node>
    </BinaryTree>
    <BinaryTree type="DecisionTree" boostWeight="1.0000000000000000e+00" itree="2">
      <Node pos="s" depth="0" NCoef="0" IVar="5" Cut="6.4859085083007812e+01" cType="1" res="-1.1053158901631832e-02" rms="4.8318585753440857e-01" purity="4.8913255333900452e-01" nType="0">
        <Node pos="l" depth="1" NCoef="0" IVar="2" Cut="2.9567088931798935e-02" cType="1" res="9.2131584882736206e-02" rms="4.8045229911804199e-01" purity="6.1750960350036621e-01" nType="0">
          <Node pos="l" depth="2" NCoef="0" IVar="-1" Cut="0.0000000000000000e+00" cType="1" res="3.8481660187244415e-02" rms="4.4392257928848267e-01" purity="7.1867215633392334e-01" nType="-99"/>
          <Node pos="r" depth="2" NCoef="0" IVar="-1" Cut="0.0000000000000000e+00" cType="1" res="-1.1876071803271770e-02" rms="4.9424317479133606e-01" purity="4.6357855200767517e-01" nType="-99"/>
        </Node>
        <Node pos="r" depth="1" NCoef="0" IVar="0" Cut="1.4170499267578125e+03" cType="1" res="-2.1056507527828217e-01" rms="4.2210215330123901e-01" purity="2.4091015756130219e-01" nType="0">
          <Node pos="l" depth="2" NCoef="0" IVar="-1" Cut="0.0000000000000000e+00" cType="1" res="-5.6344218552112579e-02" rms="3.7252360582351685e-01" purity="1.7070393264293671e-01" nType="-99"/>
          <Node pos="r" depth="2" NCoef="0" IVar="-1" Cut="0.0000000000000000e+00" cType="1" res="-1.4813507907092571e-02" rms="4.7933393716812134e-01" purity="3.8300886750221252e-01" nType="-99"/>
        </Node>
      </Node>
    </BinaryTree>
    <BinaryTree type="DecisionTree" boostWeight="1.0000000000000000e+00" itree="3">
      <Node pos="s" depth="0" NCoef="0" IVar="5" Cut="5.6963703155517578e+01" cType="1" res="1.2819560244679451e-02" rms="4.7448015213012695e-01" purity="5.1300913095474243e-01" nType="0">
        <Node pos="l" depth="1" NCoef="0" IVar="3" Cut="2.9626208543777466e-01" cType="1" res="1.3741058111190796e-01" rms="4.6083861589431763e-01" purity="6.7390298843383789e-01" nType="0">
          <Node pos="l" depth="2" NCoef="0" IVar="-1" Cut="0.0000000000000000e+00" cType="1" res="3.7972405552864075e-02" rms="4.3790894746780396e-01" purity="7.3147541284561157e-01" nType="-99"/>
          <Node pos="r" depth="2" NCoef="0" IVar="-1" Cut="0.0000000000000000e+00" cType="1" res="-1.3583191670477390e-02" rms="4.9308806657791138e-01" purity="4.4118866324424744e-01" nType="-99"/>
        </Node>
        <Node pos="r" depth="1" NCoef="0" IVar="2" Cut="2.4131385609507561e-02" cType="1" res="-1.9212074577808380e-01" rms="4.2259296774864197e-01" purity="2.4835430085659027e-01" nType="0">
          <Node pos="l" depth="2" NCoef="0" IVar="-1" Cut="0.0000000000000000e+00" cType="1" res="-1.8294608220458031e-02" rms="4.7303879261016846e-01" purity="3.6275744438171387e-01" nType="-99"/>
          <Node pos="r" depth="2" NCoef="0" IVar="-1" Cut="0.0000000000000000e+00" cType="1" res="-5.6437183171510696e-02" rms="3.5530608892440796e-01" purity="1.5485972166061401e-01" nType="-99"/>
        </Node>
      </Node>
    </BinaryTree>
    <BinaryTree type="DecisionTree" boostWeight="1.0000000000000000e+00" itree="4">
      <Node pos="s" depth="0" NCoef="0" IVar="5" Cut="5.2618518829345703e+01" cType="1" res="7.5438693165779114e-03" rms="4.6847459673881531e-01" purity="5.0882434844970703e-01" nType="0">
        <Node pos="l" depth="1" NCoef="0" IVar="2" Cut="3.1402815133333206e-02" cType="1" res="1.1979401856660843e-01" rms="4.5970121026039124e-01" purity="6.6974723339080811e-01" nType="0">
          <Node pos="l" depth="2" NCoef="0" IVar="-1" Cut="0.0000000000000000e+00" cType="1" res="4.0768686681985855e-02" rms="4.1899499297142029e-01" purity="7.6102519035339355e-01" nType="-99"/>
          <Node pos="r" depth="2" NCoef="0" IVar="-1" Cut="0.0000000000000000e+00" cType="1" res="-3.5410996060818434e-03" rms="4.9241787195205688e-01" purity="5.1388800144195557e-01" nType="-99"/>
        </Node>
        <Node pos="r" depth="1" NCoef="0" IVar="5" Cut="1.0264334869384766e+02" cType="1" res="-1.5876412391662598e-01" rms="4.3035671114921570e-01" purity="2.7040356397628784e-01" nType="0">
          <Node pos="l" depth="2" NCoef="0" IVar="-1" Cut="0.0000000000000000e+00" cType="1" res="-1.4171852730214596e-02" rms="4.7803249955177307e-01" purity="3.8731515407562256e-01" nType="-99"/>
          <Node pos="r" depth="2" NCoef="0" IVar="-1" Cut="0.0000000000000000e+00" cType="1" res="-5.2628345787525177e-02" rms="3.5050186514854431e-01" purity="1.4811864495277405e-01" nType="-99"/>
        </Node>
      </Node>
    </BinaryTree>
    <BinaryTree type="DecisionTree" boostWeight="1.0000000000000000e+00" itree="5">
      <Node pos="s" depth="0" NCoef="0" IVar="5" Cut="8.6474090576171875e+01" cType="1" res="-9.9256979301571846e-03" rms="4.6488079428672791e-01" purity="4.9199482798576355e-01" nType="0">
        <Node pos="l" depth="1" NCoef="0" IVar="3" Cut="2.9625892639160156e-01" cType="1" res="5.4091341793537140e-02" rms="4.7416132688522339e-01" purity="5.9493917226791382e-01" nType="0">
          <Node pos="l" depth="2" NCoef="0" IVar="-1" Cut="0.0000000000000000e+00" cType="1" res="2.2943206131458282e-02" rms="4.5917877554893494e-01" purity="6.6455918550491333e-01" nType="-99"/>
          <Node pos="r" depth="2" NCoef="0" IVar="-1" Cut="0.0000000000000000e+00" cType="1" res="-2.9413625597953796e-02" rms="4.7048398852348328e-01" purity="3.5455048084259033e-01" nType="-99"/>
        </Node>
        <Node pos="r" depth="1" NCoef="0" IVar="2" Cut="1.2948958203196526e-02" cType="1" res="-2.1172015368938446e-01" rms="3.6742886900901794e-01" purity="1.6749368607997894e-01" nType="0">
          <Node pos="l" depth="2" NCoef="0" IVar="-1" Cut="0.0000000000000000e+00" cType="1" res="-1.5832658857107162e-02" rms="4.6526849269866943e-01" purity="3.2675546407699585e-01" nType="-99"/>
          <Node pos="r" depth="2" NCoef="0" IVar="-1" Cut="0.0000000000000000e+00" cType="1" res="-5.5041536688804626e-02" rms="3.1613907217979431e-01" purity="1.1478845030069351e-01" nType="-99"/>
        </Node>
      </Node>
    </BinaryTree>
    <BinaryTree type="DecisionTree" boostWeight="1.0000000000000000e+00" itree="6">
      <Node pos="s" depth="0" NCoef="0" IVar="5" Cut="8.6474090576171875e+01" cType="1" res="6.2160915695130825e-03" rms="4.5960822701454163e-01" purity="5.0970470905303955e-01" nType="0">
        <Node pos="l" depth="1" NCoef="0" IVar="0" Cut="1.2405170898437500e+03" cType="1" res="6.9385521113872528e-02" rms="4.6901509165763855e-01" purity="6.1610138416290283e-01" nType="0">
          <Node pos="l" depth="2" NCoef="0" IVar="-1" Cut="0.0000000000000000e+00" cType="1" res="-4.1442951187491417e-03" rms="4.8441913723945618e-01" purity="5.1278048753738403e-01" nType="-99"/>
          <Node pos="r" depth="2" NCoef="0" IVar="-1" Cut="0.0000000000000000e+00" cType="1" res="3.2134477049112320e-02" rms="4.3644380569458008e-01" purity="7.1594697237014771e-01" nType="-99"/>
        </Node>
        <Node pos="r" depth="1" NCoef="0" IVar="0" Cut="1.6142175292968750e+03" cType="1" res="-2.0762695372104645e-01" rms="3.4990152716636658e-01" purity="1.4952741563320160e-01" nType="0">
          <Node pos="l" depth="2" NCoef="0" IVar="-1" Cut="0.0000000000000000e+00" cType="1" res="-5.4123427718877792e-02" rms="3.0552995204925537e-01" purity="1.0580468177795410e-01" nType="-99"/>
          <Node pos="r" depth="2" NCoef="0" IVar="-1" Cut="0.0000000000000000e+00" cType="1" res="-1.0783622041344643e-02" rms="4.5831987261772156e-01" purity="3.2747212052345276e-01" nType="-99"/>
        </Node>
      </Node>
    </BinaryTree>
    <BinaryTree type="DecisionTree" boostWeight="1.0000000000000000e+00" itree="7">
      <Node pos="s" depth="0" NCoef="0" IVar="5" Cut="5.6963703155517578e+01" cType="1" res="-1.1591590940952301e-02" rms="4.5263856649398804e-01" purity="4.8606562614440918e-01" nType="0">
        <Node pos="l" depth="1" NCoef="0" IVar="3" Cut="3.5174611210823059e-01" cType="1" res="6.8967640399932861e-02" rms="4.6177881956100464e-01" purity="6.4000070095062256e-01" nType="0">
          <Node pos="l" depth="2" NCoef="0" IVar="-1" Cut="0.0000000000000000e+00" cType="1" res="2.2868663072586060e-02" rms="4.4899985194206238e-01" purity="6.9363141059875488e-01" nType="-99"/>
          <Node pos="r" depth="2" NCoef="0" IVar="-1" Cut="0.0000000000000000e+00" cType="1" res="-3.4351911395788193e-02" rms="4.6162605285644531e-01" purity="3.2929694652557373e-01" nType="-99"/>
        </Node>
        <Node pos="r" depth="1" NCoef="0" IVar="0" Cut="1.3369160156250000e+03" cType="1" res="-1.4019174873828888e-01" rms="4.0576043725013733e-01" purity="2.4033255875110626e-01" nType="0">
          <Node pos="l" depth="2" NCoef="0" IVar="-1" Cut="0.0000000000000000e+00" cType="1" res="-4.6479187905788422e-02" rms="3.4728902578353882e-01" purity="1.5349458158016205e-01" nType="-99"/>
          <Node pos="r" depth="2" NCoef="0" IVar="-1" Cut="0.0000000000000000e+00" cType="1" res="-1.7044029664248228e-03" rms="4.6803006529808044e-01" purity="4.0070158243179321e-01" nType="-99"/>
        </Node>
      </Node>
    </BinaryTree>
    <BinaryTree type="DecisionTree" boostWeight="1.0000000000000000e+00" itree="8">
      <Node pos="s" depth="0" NCoef="0" IVar="5" Cut="5.3227077484130859e+01" cType="1" res="-4.5218737795948982e-03" rms="4.5084628462791443e-01" purity="5.0029832124710083e-01" nType="0">
        <Node pos="l" depth="1" NCoef="0" IVar="2" Cut="3.6972358822822571e-02" cType="1" res="7.2544604539871216e-02" rms="4.5870515704154968e-01" purity="6.5583640336990356e-01" nType="0">
          <Node pos="l" depth="2" NCoef="0" IVar="-1" Cut="0.0000000000000000e+00" cType="1" res="2.9123499989509583e-02" rms="4.2780655622482300e-01" purity="7.3988628387451172e-01" nType="-99"/>
          <Node pos="r" depth="2" NCoef="0" IVar="-1" Cut="0.0000000000000000e+00" cType="1" res="-1.3778880238533020e-02" rms="4.8969286680221558e-01" purity="4.7698733210563660e-01" nType="-99"/>
        </Node>
        <Node pos="r" depth="1" NCoef="0" IVar="2" Cut="3.1452119350433350e-02" cType="1" res="-1.2509018182754517e-01" rms="4.1018405556678772e-01" purity="2.5696355104446411e-01" nType="0">
          <Node pos="l" depth="2" NCoef="0" IVar="-1" Cut="0.0000000000000000e+00" cType="1" res="-1.1022745631635189e-02" rms="4.5166924595832825e-01" purity="3.5197180509567261e-01" nType="-99"/>
          <Node pos="r" depth="2" NCoef="0" IVar="-1" Cut="0.0000000000000000e+00" cType="1" res="-4.6713497489690781e-02" rms="3.3865508437156677e-01" purity="1.4928239583969116e-01" nType="-99"/>
        </Node>
      </Node>
    </BinaryTree>
    <BinaryTree type="DecisionTree" boostWeight="1.0000000000000000e+00" itree="9">
      <Node pos="s" depth="0" NCoef="0" IVar="5" Cut="4.2726417541503906e+01" cType="1" res="2.5650730822235346e-04" rms="4.4577768445014954e-01" purity="5.0001400709152222e-01" nType="0">
        <Node pos="l" depth="1" NCoef="0" IVar="3" Cut="3.1475991010665894e-01" cType="1" res="8.6184188723564148e-02" rms="4.4845539331436157e-01" purity="6.7386764287948608e-01" nType="0">
          <Node pos="l" depth="2" NCoef="0" IVar="-1" Cut="0.0000000000000000e+00" cType="1" res="2.7957698330283165e-02" rms="4.2840865254402161e-01" purity="7.4039757251739502e-01" nType="-99"/>
          <Node pos="r" depth="2" NCoef="0" IVar="-1" Cut="0.0000000000000000e+00" cType="1" res="-2.3625329136848450e-02" rms="4.7742635011672974e-01" purity="3.8009566068649292e-01" nType="-99"/>
        </Node>
        <Node pos="r" depth="1" NCoef="0" IVar="4" Cut="6.4952182769775391e-01" cType="1" res="-9.6356220543384552e-02" rms="4.2236211895942688e-01" purity="3.0454170703887939e-01" nType="0">
          <Node pos="l" depth="2" NCoef="0" IVar="-1" Cut="0.0000000000000000e+00" cType="1" res="-1.4055153355002403e-02" rms="4.2220491170883179e-01" purity="3.2857966423034668e-01" nType="-99"/>
          <Node pos="r" depth="2" NCoef="0" IVar="-1" Cut="0.0000000000000000e+00" cType="1" res="-7.6313383877277374e-02" rms="3.1458789110183716e-01" purity="1.0953874886035919e-01" nType="-99"/>
        </Node>
      </Node>
    </BinaryTree>
    <BinaryTree type="DecisionTree" boostWeight="1.0000000000000000e+00" itree="10">
      <Node pos="s" depth="0" NCoef="0" IVar="2" Cut="3.1447470188140869e-02" cType="1" res="4.1325236670672894e-03" rms="4.4685208797454834e-01" purity="5.0220334529876709e-01" nType="0">
        <Node pos="l" depth="1" NCoef="0" IVar="1" Cut="3.7551569938659668e+00" cType="1" res="8.2951813936233521e-02" rms="4.3843275308609009e-01" purity="6.1635410785675049e-01" nType="0">
          <Node pos="l" depth="2" NCoef="0" IVar="-1" Cut="0.0000000000000000e+00" cType="1" res="-1.5269385650753975e-02" rms="4.5802876353263855e-01" purity="4.2182672023773193e-01" nType="-99"/>
          <Node pos="r" depth="2" NCoef="0" IVar="-1" Cut="0.0000000000000000e+00" cType="1" res="2.8314054012298584e-02" rms="4.2074772715568542e-01" purity="6.7700493335723877e-01" nType="-99"/>
        </Node>
        <Node pos="r" depth="1" NCoef="0" IVar="5" Cut="2.5427373886108398e+01" cType="1" res="-1.0267486423254013e-01" rms="4.3583333492279053e-01" purity="3.4751847386360168e-01" nType="0">
          <Node pos="l" depth="2" NCoef="0" IVar="-1" Cut="0.0000000000000000e+00" cType="1" res="4.0297958184964955e-04" rms="4.8000404238700867e-01" purity="5.5245792865753174e-01" nType="-99"/>
          <Node pos="r" depth="2" NCoef="0" IVar="-1" Cut="0.0000000000000000e+00" cType="1" res="-3.2659150660037994e-02" rms="4.0732541680335999e-01" purity="2.5970092415809631e-01" nType="-99"/>
        </Node>
      </Node>
    </BinaryTree>
    <BinaryTree type="DecisionTree" boostWeight="1.0000000000000000e+00" itree="11">
      <Node pos="s" depth="0" NCoef="0" IVar="2" Cut="2.4015204980969429e-02" cType="1" res="1.3470680452883244e-02" rms="4.4175425171852112e-01" purity="5.1251244544982910e-01" nType="0">
        <Node pos="l" depth="1" NCoef="0" IVar="0" Cut="9.9707067871093750e+02" cType="1" res="9.6572935581207275e-02" rms="4.2913705110549927e-01" purity="6.4592522382736206e-01" nType="0">
          <Node pos="l" depth="2" NCoef="0" IVar="-1" Cut="0.0000000000000000e+00" cType="1" res="-1.1356656439602375e-02" rms="4.4008287787437439e-01" purity="4.4276335835456848e-01" nType="-99"/>
          <Node pos="r" depth="2" NCoef="0" IVar="-1" Cut="0.0000000000000000e+00" cType="1" res="3.2571617513895035e-02" rms="4.1220229864120483e-01" purity="7.1844756603240967e-01" nType="-99"/>
        </Node>
        <Node pos="r" depth="1" NCoef="0" IVar="5" Cut="2.8831245422363281e+01" cType="1" res="-6.8868644535541534e-02" rms="4.3864771723747253e-01" purity="3.8032439351081848e-01" nType="0">
          <Node pos="l" depth="2" NCoef="0" IVar="-1" Cut="0.0000000000000000e+00" cType="1" res="5.5514131672680378e-03" rms="4.7713276743888855e-01" purity="5.9655958414077759e-01" nType="-99"/>
          <Node pos="r" depth="2" NCoef="0" IVar="-1" Cut="0.0000000000000000e+00" cType="1" res="-2.5879818946123123e-02" rms="4.1096934676170349e-01" purity="2.7609115839004517e-01" nType="-99"/>
        </Node>
      </Node>
    </BinaryTree>
    <BinaryTree type="DecisionTree" boostWeight="1.0000000000000000e+00" itree="12">
      <Node pos="s" depth="0" NCoef="0" IVar="0" Cut="1.3258618164062500e+03" cType="1" res="6.5129273571074009e-03" rms="4.4130563735961914e-01" purity="5.0961750745773315e-01" nType="0">
        <Node pos="l" depth="1" NCoef="0" IVar="5" Cut="5.3231029510498047e+01" cType="1" res="-6.3233330845832825e-02" rms="4.3835666775703430e-01" purity="4.0137496590614319e-01" nType="0">
          <Node pos="l" depth="2" NCoef="0" IVar="-1" Cut="0.0000000000000000e+00" cType="1" res="-2.2180336236488074e-04" rms="4.7694313526153564e-01" purity="5.6884652376174927e-01" nType="-99"/>
          <Node pos="r" depth="2" NCoef="0" IVar="-1" Cut="0.0000000000000000e+00" cType="1" res="-3.4617356956005096e-02" rms="3.6368802189826965e-01" purity="1.7546965181827545e-01" nType="-99"/>
        </Node>
        <Node pos="r" depth="1" NCoef="0" IVar="5" Cut="1.1527644348144531e+02" cType="1" res="1.0169467329978943e-01" rms="4.2730864882469177e-01" purity="6.5733450651168823e-01" nType="0">
          <Node pos="l" depth="2" NCoef="0" IVar="-1" Cut="0.0000000000000000e+00" cType="1" res="2.8987357392907143e-02" rms="4.2240726947784424e-01" purity="7.2295784950256348e-01" nType="-99"/>
          <Node pos="r" depth="2" NCoef="0" IVar="-1" Cut="0.0000000000000000e+00" cType="1" res="-2.3905981332063675e-02" rms="4.0053683519363403e-01" purity="2.3024366796016693e-01" nType="-99"/>
        </Node>
      </Node>
    </BinaryTree>
    <BinaryTree type="DecisionTree" boostWeight="1.0000000000000000e+00" itree="13">
      <Node pos="s" depth="0" NCoef="0" IVar="2" Cut="2.4051621556282043e-02" cType="1" res="-9.0803978964686394e-03" rms="4.4140669703483582e-01" purity="4.9209463596343994e-01" nType="0">
        <Node pos="l" depth="1" NCoef="0" IVar="1" Cut="3.4011671543121338e+00" cType="1" res="6.0572151094675064e-02" rms="4.3909844756126404e-01" purity="6.2088352441787720e-01" nType="0">
          <Node pos="l" depth="2" NCoef="0" IVar="-1" Cut="0.0000000000000000e+00" cType="1" res="-2.1833324804902077e-02" rms="4.5427390933036804e-01" purity="3.9633408188819885e-01" nType="-99"/>
          <Node pos="r" depth="2" NCoef="0" IVar="-1" Cut="0.0000000000000000e+00" cType="1" res="2.0849710330367088e-02" rms="4.2814517021179199e-01" purity="6.6810905933380127e-01" nType="-99"/>
        </Node>
        <Node pos="r" depth="1" NCoef="0" IVar="1" Cut="3.2643713951110840e+00" cType="1" res="-7.5771547853946686e-02" rms="4.3323546648025513e-01" purity="3.6878138780593872e-01" nType="0">
          <Node pos="l" depth="2" NCoef="0" IVar="-1" Cut="0.0000000000000000e+00" cType="1" res="-5.2592363208532333e-02" rms="3.7391090393066406e-01" purity="1.7943470180034637e-01" nType="-99"/>
          <Node pos="r" depth="2" NCoef="0" IVar="-1" Cut="0.0000000000000000e+00" cType="1" res="-1.1469798162579536e-02" rms="4.3654015660285950e-01" purity="3.9755451679229736e-01" nType="-99"/>
        </Node>
      </Node>
    </BinaryTree>
    <BinaryTree type="DecisionTree" boostWeight="1.0000000000000000e+00" itree="14">
      <Node pos="s" depth="0" NCoef="0" IVar="1" Cut="4.2611403465270996e+00" cType="1" res="5.3484863601624966e-03" rms="4.4022062420845032e-01" purity="5.0771510601043701e-01" nType="0">
        <Node pos="l" depth="1" NCoef="0" IVar="2" Cut="1.2948958203196526e-02" cType="1" res="-8.2498989999294281e-02" rms="4.4113406538963318e-01" purity="3.6996740102767944e-01" nType="0">
          <Node pos="l" depth="2" NCoef="0" IVar="-1" Cut="0.0000000000000000e+00" cType="1" res="5.3913136944174767e-03" rms="4.6314224600791931e-01" purity="5.4430675506591797e-01" nType="-99"/>
          <Node pos="r" depth="2" NCoef="0" IVar="-1" Cut="0.0000000000000000e+00" cType="1" res="-2.7740994468331337e-02" rms="4.2535853385925293e-01" purity="3.0344334244728088e-01" nType="-99"/>
        </Node>
        <Node pos="r" depth="1" NCoef="0" IVar="5" Cut="7.4215087890625000e+01" cType="1" res="7.5842671096324921e-02" rms="4.2659819126129150e-01" purity="6.1825221776962280e-01" nType="0">
          <Node pos="l" depth="2" NCoef="0" IVar="-1" Cut="0.0000000000000000e+00" cType="1" res="2.6568103581666946e-02" rms="4.1962468624114990e-01" purity="7.3296773433685303e-01" nType="-99"/>
          <Node pos="r" depth="2" NCoef="0" IVar="-1" Cut="0.0000000000000000e+00" cType="1" res="-1.3855305500328541e-02" rms="4.1851872205734253e-01" purity="2.7470281720161438e-01" nType="-99"/>
        </Node>
      </Node>
    </BinaryTree>
    <BinaryTree type="DecisionTree" boostWeight="1.0000000000000000e+00" itree="15">
      <Node pos="s" depth="0" NCoef="0" IVar="4" Cut="1.0443145036697388e+00" cType="1" res="8.0391019582748413e-03" rms="4.3724286556243896e-01" purity="5.0929707288742065e-01" nType="0">
        <Node pos="l" depth="1" NCoef="0" IVar="5" Cut="1.0643243408203125e+02" cType="1" res="3.0403099954128265e-02" rms="4.3132692575454712e-01" purity="5.2730011940002441e-01" nType="0">
          <Node pos="l" depth="2" NCoef="0" IVar="-1" Cut="0.0000000000000000e+00" cType="1" res="1.6093911603093147e-02" rms="4.4249740242958069e-01" purity="6.3103711605072021e-01" nType="-99"/>
          <Node pos="r" depth="2" NCoef="0" IVar="-1" Cut="0.0000000000000000e+00" cType="1" res="-3.2095238566398621e-02" rms="3.4578436613082886e-01" purity="1.5100911259651184e-01" nType="-99"/>
        </Node>
        <Node pos="r" depth="1" NCoef="0" IVar="5" Cut="2.7116952896118164e+01" cType="1" res="-2.2274772822856903e-01" rms="4.3102642893791199e-01" purity="3.2351291179656982e-01" nType="0">
          <Node pos="l" depth="2" NCoef="0" IVar="-1" Cut="0.0000000000000000e+00" cType="1" res="-2.9476134106516838e-02" rms="4.8052281141281128e-01" purity="4.6446418762207031e-01" nType="-99"/>
          <Node pos="r" depth="2" NCoef="0" IVar="-1" Cut="0.0000000000000000e+00" cType="1" res="-7.8043647110462189e-02" rms="2.7953395247459412e-01" purity="8.7903752923011780e-02" nType="-99"/>
        </Node>
      </Node>
    </BinaryTree>
    <BinaryTree type="DecisionTree" boostWeight="1.0000000000000000e+00" itree="16">
      <Node pos="s" depth="0" NCoef="0" IVar="5" Cut="6.4857643127441406e+01" cType="1" res="4.5183151960372925e-03" rms="4.3133419752120972e-01" purity="5.0918447971343994e-01" nType="0">
        <Node pos="l" depth="1" NCoef="0" IVar="4" Cut="1.0446635484695435e+00" cType="1" res="5.2266288548707962e-02" rms="4.4391229748725891e-01" purity="6.5469384193420410e-01" nType="0">
          <Node pos="l" depth="2" NCoef="0" IVar="-1" Cut="0.0000000000000000e+00" cType="1" res="1.8748663365840912e-02" rms="4.3480461835861206e-01" purity="6.9625341892242432e-01" nType="-99"/>
          <Node pos="r" depth="2" NCoef="0" IVar="-1" Cut="0.0000000000000000e+00" cType="1" res="-3.9864882826805115e-02" rms="4.3457353115081787e-01" purity="3.5506597161293030e-01" nType="-99"/>
        </Node>
        <Node pos="r" depth="1" NCoef="0" IVar="4" Cut="3.5303011536598206e-01" cType="1" res="-9.1681391000747681e-02" rms="3.8732588291168213e-01" purity="2.1602112054824829e-01" nType="0">
          <Node pos="l" depth="2" NCoef="0" IVar="-1" Cut="0.0000000000000000e+00" cType="1" res="-1.3867708854377270e-02" rms="3.9948970079421997e-01" purity="2.3969213664531708e-01" nType="-99"/>
          <Node pos="r" depth="2" NCoef="0" IVar="-1" Cut="0.0000000000000000e+00" cType="1" res="-4.2946510016918182e-02" rms="3.3654752373695374e-01" purity="1.5491648018360138e-01" nType="-99"/>
        </Node>
      </Node>
    </BinaryTree>
    <BinaryTree type="DecisionTree" boostWeight="1.0000000000000000e+00" itree="17">
      <Node pos="s" depth="0" NCoef="0" IVar="2" Cut="4.9945980310440063e-02" cType="1" res="-8.9369686320424080e-03" rms="4.3220302462577820e-01" purity="4.9422639608383179e-01" nType="0">
        <Node pos="l" depth="1" NCoef="0" IVar="0" Cut="1.1424160156250000e+03" cType="1" res="3.2297097146511078e-02" rms="4.3341398239135742e-01" purity="5.7158279418945312e-01" nType="0">
          <Node pos="l" depth="2" NCoef="0" IVar="-1" Cut="0.0000000000000000e+00" cType="1" res="-1.1883210390806198e-02" rms="4.3647930026054382e-01" purity="4.2013719677925110e-01" nType="-99"/>
          <Node pos="r" depth="2" NCoef="0" IVar="-1" Cut="0.0000000000000000e+00" cType="1" res="2.0738799124956131e-02" rms="4.2149519920349121e-01" purity="6.7489683628082275e-01" nType="-99"/>
        </Node>
        <Node pos="r" depth="1" NCoef="0" IVar="0" Cut="1.7188902587890625e+03" cType="1" res="-1.1891254782676697e-01" rms="4.0911415219306946e-01" purity="2.8790885210037231e-01" nType="0">
          <Node pos="l" depth="2" NCoef="0" IVar="-1" Cut="0.0000000000000000e+00" cType="1" res="-3.3452279865741730e-02" rms="3.9505428075790405e-01" purity="2.4488687515258789e-01" nType="-99"/>
          <Node pos="r" depth="2" NCoef="0" IVar="-1" Cut="0.0000000000000000e+00" cType="1" res="4.2220889008603990e-04" rms="4.5057708024978638e-01" purity="4.9089089035987854e-01" nType="-99"/>
        </Node>
      </Node>
    </BinaryTree>
    <BinaryTree type="DecisionTree" boostWeight="1.0000000000000000e+00" itree="18">
      <Node pos="s" depth="0" NCoef="0" IVar="3" Cut="1.6050760447978973e-01" cType="1" res="-4.5885047875344753e-03" rms="4.3237140774726868e-01" purity="4.9782669544219971e-01" nType="0">
        <Node pos="l" depth="1" NCoef="0" IVar="2" Cut="2.5881059467792511e-02" cType="1" res="6.1671823263168335e-02" rms="4.2478603124618530e-01" purity="5.9654617309570312e-01" nType="0">
          <Node pos="l" depth="2" NCoef="0" IVar="-1" Cut="0.0000000000000000e+00" cType="1" res="2.7870556339621544e-02" rms="4.0070742368698120e-01" purity="7.2454333305358887e-01" nType="-99"/>
          <Node pos="r" depth="2" NCoef="0" IVar="-1" Cut="0.0000000000000000e+00" cType="1" res="-1.1134032392874360e-03" rms="4.4145137071609497e-01" purity="4.5008441805839539e-01" nType="-99"/>
        </Node>
        <Node pos="r" depth="1" NCoef="0" IVar="0" Cut="1.8720871582031250e+03" cType="1" res="-7.0195324718952179e-02" rms="4.2980390787124634e-01" purity="4.0008082985877991e-01" nType="0">
          <Node pos="l" depth="2" NCoef="0" IVar="-1" Cut="0.0000000000000000e+00" cType="1" res="-2.3353178054094315e-02" rms="4.2349261045455933e-01" purity="3.4146469831466675e-01" nType="-99"/>
          <Node pos="r" depth="2" NCoef="0" IVar="-1" Cut="0.0000000000000000e+00" cType="1" res="1.7966587096452713e-02" rms="4.2650347948074341e-01" purity="6.6583037376403809e-01" nType="-99"/>
        </Node>
      </Node>
    </BinaryTree>
    <BinaryTree type="DecisionTree" boostWeight="1.0000000000000000e+00" itree="19">
      <Node pos="s" depth="0" NCoef="0" IVar="5" Cut="4.3248859405517578e+01" cType="1" res="-1.1266539804637432e-03" rms="4.2881515622138977e-01" purity="4.9580842256546021e-01" nType="0">
        <Node pos="l" depth="1" NCoef="0" IVar="4" Cut="1.0436732769012451e+00" cType="1" res="5.3210537880659103e-02" rms="4.3370866775512695e-01" purity="6.7292666435241699e-01" nType="0">
          <Node pos="l" depth="2" NCoef="0" IVar="-1" Cut="0.0000000000000000e+00" cType="1" res="1.7877480015158653e-02" rms="4.2220667004585266e-01" purity="7.1545678377151489e-01" nType="-99"/>
          <Node pos="r" depth="2" NCoef="0" IVar="-1" Cut="0.0000000000000000e+00" cType="1" res="-2.0752759650349617e-02" rms="4.6750387549400330e-01" purity="4.2325541377067566e-01" nType="-99"/>
        </Node>
        <Node pos="r" depth="1" NCoef="0" IVar="4" Cut="6.0982561111450195e-01" cType="1" res="-5.9935145080089569e-02" rms="4.1552421450614929e-01" purity="3.0411544442176819e-01" nType="0">
          <Node pos="l" depth="2" NCoef="0" IVar="-1" Cut="0.0000000000000000e+00" cType="1" res="-8.3203790709376335e-03" rms="4.1490262746810913e-01" purity="3.2188379764556885e-01" nType="-99"/>
          <Node pos="r" depth="2" NCoef="0" IVar="-1" Cut="0.0000000000000000e+00" cType="1" res="-5.1367867738008499e-02" rms="3.7965953350067139e-01" purity="1.8826860189437866e-01" nType="-99"/>
        </Node>
      </Node>
    </BinaryTree>
    <BinaryTree type="DecisionTree" boostWeight="1.0000000000000000e+00" itree="20">
      <Node pos="s" depth="0" NCoef="0" IVar="3" Cut="1.6666504740715027e-01" cType="1" res="-5.3971358574926853e-03" rms="4.2878013849258423e-01" purity="4.9590191245079041e-01" nType="0">
        <Node pos="l" depth="1" NCoef="0" IVar="0" Cut="1.0443083496093750e+03" cType="1" res="5.7528741657733917e-02" rms="4.2617610096931458e-01" purity="5.9509259462356567e-01" nType="0">
          <Node pos="l" depth="2" NCoef="0" IVar="-1" Cut="0.0000000000000000e+00" cType="1" res="-5.4882182739675045e-03" rms="4.3481600284576416e-01" purity="4.3512156605720520e-01" nType="-99"/>
          <Node pos="r" depth="2" NCoef="0" IVar="-1" Cut="0.0000000000000000e+00" cType="1" res="2.2208359092473984e-02" rms="4.1695669293403625e-01" purity="6.6810947656631470e-01" nType="-99"/>
        </Node>
        <Node pos="r" depth="1" NCoef="0" IVar="2" Cut="1.4798808842897415e-02" cType="1" res="-7.0037938654422760e-02" rms="4.2177408933639526e-01" purity="3.9400801062583923e-01" nType="0">
          <Node pos="l" depth="2" NCoef="0" IVar="-1" Cut="0.0000000000000000e+00" cType="1" res="4.3369894847273827e-03" rms="4.3692258000373840e-01" purity="5.5812007188796997e-01" nType="-99"/>
          <Node pos="r" depth="2" NCoef="0" IVar="-1" Cut="0.0000000000000000e+00" cType="1" res="-2.6121661067008972e-02" rms="4.0764701366424561e-01" purity="3.1640872359275818e-01" nType="-99"/>
        </Node>
      </Node>
    </BinaryTree>
    <BinaryTree type="DecisionTree" boostWeight="1.0000000000000000e+00" itree="21">
      <Node pos="s" depth="0" NCoef="0" IVar="0" Cut="1.6549195556640625e+03" cType="1" res="-6.9824600359424949e-04" rms="4.2413708567619324e-01" purity="5.0290632247924805e-01" nType="0">
        <Node pos="l" depth="1" NCoef="0" IVar="5" Cut="9.3130920410156250e+01" cType="1" res="-3.7139818072319031e-02" rms="4.2647883296012878e-01" purity="4.2555269598960876e-01" nType="0">
          <Node pos="l" depth="2" NCoef="0" IVar="-1" Cut="0.0000000000000000e+00" cType="1" res="-1.5455086249858141e-03" rms="4.5626071095466614e-01" purity="5.2543067932128906e-01" nType="-99"/>
          <Node pos="r" depth="2" NCoef="0" IVar="-1" Cut="0.0000000000000000e+00" cType="1" res="-3.8662295788526535e-02" rms="2.8852394223213196e-01" purity="9.8837867379188538e-02" nType="-99"/>
        </Node>
        <Node pos="r" depth="1" NCoef="0" IVar="5" Cut="1.2971865844726562e+02" cType="1" res="8.8692806661128998e-02" rms="4.0466988086700439e-01" purity="6.9265437126159668e-01" nType="0">
          <Node pos="l" depth="2" NCoef="0" IVar="-1" Cut="0.0000000000000000e+00" cType="1" res="2.5603896006941795e-02" rms="3.9895209670066833e-01" purity="7.4720484018325806e-01" nType="-99"/>
          <Node pos="r" depth="2" NCoef="0" IVar="-1" Cut="0.0000000000000000e+00" cType="1" res="-1.6991572454571724e-02" rms="4.1333264112472534e-01" purity="2.5693675875663757e-01" nType="-99"/>
        </Node>
      </Node>
    </BinaryTree>
    <BinaryTree type="DecisionTree" boostWeight="1.0000000000000000e+00" itree="22">
      <Node pos="s" depth="0" NCoef="0" IVar="5" Cut="4.3242656707763672e+01" cType="1" res="8.4193010115996003e-04" rms="4.1805234551429749e-01" purity="4.9976572394371033e-01" nType="0">
        <Node pos="l" depth="1" NCoef="0" IVar="4" Cut="1.0445579290390015e+00" cType="1" res="5.8341752737760544e-02" rms="4.2305195331573486e-01" purity="6.8605840206146240e-01" nType="0">
          <Node pos="l" depth="2" NCoef="0" IVar="-1" Cut="0.0000000000000000e+00" cType="1" res="1.9897293299436569e-02" rms="4.1190734505653381e-01" purity="7.2948235273361206e-01" nType="-99"/>
          <Node pos="r" depth="2" NCoef="0" IVar="-1" Cut="0.0000000000000000e+00" cType="1" res="-2.7946250513195992e-02" rms="4.4747656583786011e-01" purity="3.9163401722908020e-01" nType="-99"/>
        </Node>
        <Node pos="r" depth="1" NCoef="0" IVar="4" Cut="5.9047901630401611e-01" cType="1" res="-6.2546767294406891e-02" rms="4.0307432413101196e-01" purity="2.9439389705657959e-01" nType="0">
          <Node pos="l" depth="2" NCoef="0" IVar="-1" Cut="0.0000000000000000e+00" cType="1" res="-9.5461606979370117e-03" rms="4.0308237075805664e-01" purity="3.1359636783599854e-01" nType="-99"/>
          <Node pos="r" depth="2" NCoef="0" IVar="-1" Cut="0.0000000000000000e+00" cType="1" res="-4.7049246728420258e-02" rms="3.7419885396957397e-01" purity="1.8379814922809601e-01" nType="-99"/>
        </Node>
      </Node>
    </BinaryTree>
    <BinaryTree type="DecisionTree" boostWeight="1.0000000000000000e+00" itree="23">
      <Node pos="s" depth="0" NCoef="0" IVar="2" Cut="4.4396426528692245e-02" cType="1" res="-1.1352953501045704e-02" rms="4.1930943727493286e-01" purity="4.8762360215187073e-01" nType="0">
        <Node pos="l" depth="1" NCoef="0" IVar="0" Cut="1.1232529296875000e+03" cType="1" res="2.7451394125819206e-02" rms="4.2124158143997192e-01" purity="5.8127897977828979e-01" nType="0">
          <Node pos="l" depth="2" NCoef="0" IVar="-1" Cut="0.0000000000000000e+00" cType="1" res="-1.1209351941943169e-02" rms="4.3417060375213623e-01" purity="4.0954643487930298e-01" nType="-99"/>
          <Node pos="r" depth="2" NCoef="0" IVar="-1" Cut="0.0000000000000000e+00" cType="1" res="1.8392547965049744e-02" rms="4.0539875626564026e-01" purity="6.9104915857315063e-01" nType="-99"/>
        </Node>
        <Node pos="r" depth="1" NCoef="0" IVar="4" Cut="9.0505743026733398e-01" cType="1" res="-9.4433598220348358e-02" rms="4.0276163816452026e-01" purity="2.8710609674453735e-01" nType="0">
          <Node pos="l" depth="2" NCoef="0" IVar="-1" Cut="0.0000000000000000e+00" cType="1" res="-1.3377934694290161e-02" rms="4.0193447470664978e-01" purity="3.0850073695182800e-01" nType="-99"/>
          <Node pos="r" depth="2" NCoef="0" IVar="-1" Cut="0.0000000000000000e+00" cType="1" res="-5.0423447042703629e-02" rms="3.7500050663948059e-01" purity="2.1555249392986298e-01" nType="-99"/>
        </Node>
      </Node>
    </BinaryTree>
    <BinaryTree type="DecisionTree" boostWeight="1.0000000000000000e+00" itree="24">
      <Node pos="s" depth="0" NCoef="0" IVar="5" Cut="1.0522151184082031e+02" cType="1" res="-9.4054843066260219e-04" rms="4.2411550879478455e-01" purity="5.0115573406219482e-01" nType="0">
        <Node pos="l" depth="1" NCoef="0" IVar="1" Cut="3.3038034439086914e+00" cType="1" res="2.4335797876119614e-02" rms="4.4136053323745728e-01" purity="5.8183556795120239e-01" nType="0">
          <Node pos="l" depth="2" NCoef="0" IVar="-1" Cut="0.0000000000000000e+00" cType="1" res="-2.5284374132752419e-02" rms="4.5001387596130371e-01" purity="3.4478086233139038e-01" nType="-99"/>
          <Node pos="r" depth="2" NCoef="0" IVar="-1" Cut="0.0000000000000000e+00" cType="1" res="1.0757016949355602e-02" rms="4.3581894040107727e-01" purity="6.1965620517730713e-01" nType="-99"/>
        </Node>
        <Node pos="r" depth="1" NCoef="0" IVar="3" Cut="2.6534327864646912e-01" cType="1" res="-1.2229824811220169e-01" rms="3.0069839954376221e-01" purity="1.1379251629114151e-01" nType="0">
          <Node pos="l" depth="2" NCoef="0" IVar="-1" Cut="0.0000000000000000e+00" cType="1" res="-2.7403790503740311e-02" rms="3.3507630228996277e-01" purity="1.4841116964817047e-01" nType="-99"/>
          <Node pos="r" depth="2" NCoef="0" IVar="-1" Cut="0.0000000000000000e+00" cType="1" res="-5.2643168717622757e-02" rms="2.0287592709064484e-01" purity="4.1873961687088013e-02" nType="-99"/>
        </Node>
      </Node>
    </BinaryTree>
    <BinaryTree type="DecisionTree" boostWeight="1.0000000000000000e+00" itree="25">
      <Node pos="s" depth="0" NCoef="0" IVar="3" Cut="2.5307130813598633e-01" cType="1" res="-2.5545158423483372e-03" rms="4.1711556911468506e-01" purity="5.0009888410568237e-01" nType="0">
        <Node pos="l" depth="1" NCoef="0" IVar="2" Cut="3.1426999717950821e-02" cType="1" res="3.0930383130908012e-02" rms="4.1301539540290833e-01" purity="5.6904435157775879e-01" nType="0">
          <Node pos="l" depth="2" NCoef="0" IVar="-1" Cut="0.0000000000000000e+00" cType="1" res="1.7432851716876030e-02" rms="4.0310588479042053e-01" purity="6.8676847219467163e-01" nType="-99"/>
          <Node pos="r" depth="2" NCoef="0" IVar="-1" Cut="0.0000000000000000e+00" cType="1" res="-6.6797537729144096e-03" rms="4.2021092772483826e-01" purity="3.9587751030921936e-01" nType="-99"/>
        </Node>
        <Node pos="r" depth="1" NCoef="0" IVar="2" Cut="7.3999315500259399e-03" cType="1" res="-7.8866116702556610e-02" rms="4.1636955738067627e-01" purity="3.4297293424606323e-01" nType="0">
          <Node pos="l" depth="2" NCoef="0" IVar="-1" Cut="0.0000000000000000e+00" cType="1" res="1.1828155256807804e-02" rms="4.4013333320617676e-01" purity="5.7848060131072998e-01" nType="-99"/>
          <Node pos="r" depth="2" NCoef="0" IVar="-1" Cut="0.0000000000000000e+00" cType="1" res="-2.4186771363019943e-02" rms="4.0814492106437683e-01" purity="3.0359032750129700e-01" nType="-99"/>
        </Node>
      </Node>
    </BinaryTree>
    <BinaryTree type="DecisionTree" boostWeight="1.0000000000000000e+00" itree="26">
      <Node pos="s" depth="0" NCoef="0" IVar="0" Cut="1.8344851074218750e+03" cType="1" res="1.0061152279376984e-02" rms="4.2610624432563782e-01" purity="5.1118505001068115e-01" nType="0">
        <Node pos="l" depth="1" NCoef="0" IVar="5" Cut="8.0139259338378906e+01" cType="1" res="-1.1379234492778778e-02" rms="4.3055161833763123e-01" purity="4.5363962650299072e-01" nType="0">
          <Node pos="l" depth="2" NCoef="0" IVar="-1" Cut="0.0000000000000000e+00" cType="1" res="2.6701716706156731e-03" rms="4.5600989460945129e-01" purity="5.6918716430664062e-01" nType="-99"/>
          <Node pos="r" depth="2" NCoef="0" IVar="-1" Cut="0.0000000000000000e+00" cType="1" res="-2.1212708204984665e-02" rms="3.4956532716751099e-01" purity="1.5592584013938904e-01" nType="-99"/>
        </Node>
        <Node pos="r" depth="1" NCoef="0" IVar="4" Cut="3.9152964949607849e-01" cType="1" res="8.4470160305500031e-02" rms="4.0151977539062500e-01" purity="7.1089667081832886e-01" nType="0">
          <Node pos="l" depth="2" NCoef="0" IVar="-1" Cut="0.0000000000000000e+00" cType="1" res="3.7105128169059753e-02" rms="4.1387546062469482e-01" purity="6.3661205768585205e-01" nType="-99"/>
          <Node pos="r" depth="2" NCoef="0" IVar="-1" Cut="0.0000000000000000e+00" cType="1" res="1.3451034203171730e-02" rms="3.9199581742286682e-01" purity="7.4140477180480957e-01" nType="-99"/>
        </Node>
      </Node>
    </BinaryTree>
    <BinaryTree type="DecisionTree" boostWeight="1.0000000000000000e+00" itree="27">
      <Node pos="s" depth="0" NCoef="0" IVar="3" Cut="2.9627314209938049e-01" cType="1" res="3.3890907652676105e-03" rms="4.1606143116950989e-01" purity="5.0313901901245117e-01" nType="0">
        <Node pos="l" depth="1" NCoef="0" IVar="2" Cut="1.8486469984054565e-02" cType="1" res="2.6786530390381813e-02" rms="4.1294911503791809e-01" purity="5.5906265974044800e-01" nType="0">
          <Node pos="l" depth="2" NCoef="0" IVar="-1" Cut="0.0000000000000000e+00" cType="1" res="2.1138926967978477e-02" rms="3.8621646165847778e-01" purity="7.1822607517242432e-01" nType="-99"/>
          <Node pos="r" depth="2" NCoef="0" IVar="-1" Cut="0.0000000000000000e+00" cType="1" res="-2.9931613244116306e-03" rms="4.2569693922996521e-01" purity="4.5105656981468201e-01" nType="-99"/>
        </Node>
        <Node pos="r" depth="1" NCoef="0" IVar="4" Cut="5.8984196186065674e-01" cType="1" res="-7.7358670532703400e-02" rms="4.1665574908256531e-01" purity="3.1013882160186768e-01" nType="0">
          <Node pos="l" depth="2" NCoef="0" IVar="-1" Cut="0.0000000000000000e+00" cType="1" res="-1.0024198330938816e-02" rms="3.9903450012207031e-01" purity="2.8186407685279846e-01" nType="-99"/>
          <Node pos="r" depth="2" NCoef="0" IVar="-1" Cut="0.0000000000000000e+00" cType="1" res="-2.7271658182144165e-02" rms="4.3239897489547729e-01" purity="3.4440213441848755e-01" nType="-99"/>
        </Node>
      </Node>
    </BinaryTree>
    <BinaryTree type="DecisionTree" boostWeight="1.0000000000000000e+00" itree="28">
      <Node pos="s" depth="0" NCoef="0" IVar="5" Cut="6.4859222412109375e+01" cType="1" res="-1.3333411887288094e-02" rms="4.0998372435569763e-01" purity="4.8392608761787415e-01" nType="0">
        <Node pos="l" depth="1" NCoef="0" IVar="1" Cut="3.3727765083312988e+00" cType="1" res="2.2523771971464157e-02" rms="4.3229892849922180e-01" purity="6.3497120141983032e-01" nType="0">
          <Node pos="l" depth="2" NCoef="0" IVar="-1" Cut="0.0000000000000000e+00" cType="1" res="-2.8607757762074471e-02" rms="4.6831992268562317e-01" purity="3.7512803077697754e-01" nType="-99"/>
          <Node pos="r" depth="2" NCoef="0" IVar="-1" Cut="0.0000000000000000e+00" cType="1" res="1.1585400439798832e-02" rms="4.1992628574371338e-01" purity="6.8007814884185791e-01" nType="-99"/>
        </Node>
        <Node pos="r" depth="1" NCoef="0" IVar="4" Cut="4.8987919092178345e-01" cType="1" res="-8.4831722080707550e-02" rms="3.5061770677566528e-01" purity="1.8274603784084320e-01" nType="0">
          <Node pos="l" depth="2" NCoef="0" IVar="-1" Cut="0.0000000000000000e+00" cType="1" res="-1.7880408093333244e-02" rms="3.5688167810440063e-01" purity="1.9919951260089874e-01" nType="-99"/>
          <Node pos="r" depth="2" NCoef="0" IVar="-1" Cut="0.0000000000000000e+00" cType="1" res="-5.2447415888309479e-02" rms="2.8362444043159485e-01" purity="8.7089374661445618e-02" nType="-99"/>
        </Node>
      </Node>
    </BinaryTree>
    <BinaryTree type="DecisionTree" boostWeight="1.0000000000000000e+00" itree="29">
      <Node pos="s" depth="0" NCoef="0" IVar="3" Cut="3.0860564112663269e-01" cType="1" res="-2.2282069548964500e-03" rms="4.2451336979866028e-01" purity="4.9496686458587646e-01" nType="0">
        <Node pos="l" depth="1" NCoef="0" IVar="2" Cut="2.5881059467792511e-02" cType="1" res="2.0179461687803268e-02" rms="4.2473638057708740e-01" purity="5.4898279905319214e-01" nType="0">
          <Node pos="l" depth="2" NCoef="0" IVar="-1" Cut="0.0000000000000000e+00" cType="1" res="1.5287926420569420e-02" rms="4.1006305813789368e-01" purity="6.8193304538726807e-01" nType="-99"/>
          <Node pos="r" depth="2" NCoef="0" IVar="-1" Cut="0.0000000000000000e+00" cType="1" res="-6.0167871415615082e-03" rms="4.3581926822662354e-01" purity="4.0360468626022339e-01" nType="-99"/>
        </Node>
        <Node pos="r" depth="1" NCoef="0" IVar="5" Cut="1.9254652023315430e+01" cType="1" res="-9.1697193682193756e-02" rms="4.1163802146911621e-01" purity="2.7929300069808960e-01" nType="0">
          <Node pos="l" depth="2" NCoef="0" IVar="-1" Cut="0.0000000000000000e+00" cType="1" res="-1.8548250955063850e-04" rms="4.7492656111717224e-01" purity="4.7959795594215393e-01" nType="-99"/>
          <Node pos="r" depth="2" NCoef="0" IVar="-1" Cut="0.0000000000000000e+00" cType="1" res="-2.8661638498306274e-02" rms="3.9104101061820984e-01" purity="2.2942851483821869e-01" nType="-99"/>
        </Node>
      </Node>
    </BinaryTree>
    <BinaryTree type="DecisionTree" boostWeight="1.0000000000000000e+00" itree="30">
      <Node pos="s" depth="0" NCoef="0" IVar="0" Cut="1.0790620117187500e+03" cType="1" res="1.5207530232146382e-03" rms="4.1795697808265686e-01" purity="5.0045645236968994e-01" nType="0">
        <Node pos="l" depth="1" NCoef="0" IVar="5" Cut="4.9627906799316406e+01" cType="1" res="-5.3355123847723007e-02" rms="4.1241139173507690e-01" purity="3.4700027108192444e-01" nType="0">
          <Node pos="l" depth="2" NCoef="0" IVar="-1" Cut="0.0000000000000000e+00" cType="1" res="-3.4864947665482759e-03" rms="4.6863400936126709e-01" purity="5.2545595169067383e-01" nType="-99"/>
          <Node pos="r" depth="2" NCoef="0" IVar="-1" Cut="0.0000000000000000e+00" cType="1" res="-2.8314260765910149e-02" rms="3.3201959729194641e-01" purity="1.4354868233203888e-01" nType="-99"/>
        </Node>
        <Node pos="r" depth="1" NCoef="0" IVar="3" Cut="1.6666227579116821e-01" cType="1" res="3.6715716123580933e-02" rms="4.1769769787788391e-01" purity="5.9887635707855225e-01" nType="0">
          <Node pos="l" depth="2" NCoef="0" IVar="-1" Cut="0.0000000000000000e+00" cType="1" res="1.8708741292357445e-02" rms="3.9502796530723572e-01" purity="6.7990964651107788e-01" nType="-99"/>
          <Node pos="r" depth="2" NCoef="0" IVar="-1" Cut="0.0000000000000000e+00" cType="1" res="-1.3703348813578486e-03" rms="4.3820214271545410e-01" purity="5.0682365894317627e-01" nType="-99"/>
        </Node>
      </Node>
    </BinaryTree>
    <BinaryTree type="DecisionTree" boostWeight="1.0000000000000000e+00" itree="31">
      <Node pos="s" depth="0" NCoef="0" IVar="3" Cut="3.2711824774742126e-01" cType="1" res="-1.9161545205861330e-03" rms="4.2209896445274353e-01" purity="4.9812525510787964e-01" nType="0">
        <Node pos="l" depth="1" NCoef="0" IVar="0" Cut="1.0598669433593750e+03" cType="1" res="1.6161940991878510e-02" rms="4.2345908284187317e-01" purity="5.4858809709548950e-01" nType="0">
          <Node pos="l" depth="2" NCoef="0" IVar="-1" Cut="0.0000000000000000e+00" cType="1" res="-1.0234982706606388e-02" rms="4.3077832460403442e-01" purity="3.8611561059951782e-01" nType="-99"/>
          <Node pos="r" depth="2" NCoef="0" IVar="-1" Cut="0.0000000000000000e+00" cType="1" res="1.1599154211580753e-02" rms="4.1635730862617493e-01" purity="6.3351947069168091e-01" nType="-99"/>
        </Node>
        <Node pos="r" depth="1" NCoef="0" IVar="1" Cut="4.5465474128723145e+00" cType="1" res="-8.3944752812385559e-02" rms="4.0587881207466125e-01" purity="2.6915237307548523e-01" nType="0">
          <Node pos="l" depth="2" NCoef="0" IVar="-1" Cut="0.0000000000000000e+00" cType="1" res="-1.1814730241894722e-02" rms="4.0647551417350769e-01" purity="2.6905709505081177e-01" nType="-99"/>
          <Node pos="r" depth="2" NCoef="0" IVar="-1" Cut="0.0000000000000000e+00" cType="1" res="-3.6754328757524490e-02" rms="3.9460682868957520e-01" purity="2.6933404803276062e-01" nType="-99"/>
        </Node>
      </Node>
    </BinaryTree>
    <BinaryTree type="DecisionTree" boostWeight="1.0000000000000000e+00" itree="32">
      <Node pos="s" depth="0" NCoef="0" IVar="4" Cut="1.0048155784606934e+00" cType="1" res="-2.4615339934825897e-03" rms="4.1890561580657959e-01" purity="4.9880576133728027e-01" nType="0">
        <Node pos="l" depth="1" NCoef="0" IVar="5" Cut="1.0808598327636719e+02" cType="1" res="9.5250671729445457e-03" rms="4.1651424765586853e-01" purity="5.1176792383193970e-01" nType="0">
          <Node pos="l" depth="2" NCoef="0" IVar="-1" Cut="0.0000000000000000e+00" cType="1" res="7.1885278448462486e-03" rms="4.3291464447975159e-01" purity="6.0291886329650879e-01" nType="-99"/>
          <Node pos="r" depth="2" NCoef="0" IVar="-1" Cut="0.0000000000000000e+00" cType="1" res="-2.4170836433768272e-02" rms="3.2645034790039062e-01" purity="1.3271072506904602e-01" nType="-99"/>
        </Node>
        <Node pos="r" depth="1" NCoef="0" IVar="5" Cut="2.1778348922729492e+01" cType="1" res="-1.0327386111021042e-01" rms="4.2533835768699646e-01" purity="3.8978844881057739e-01" nType="0">
          <Node pos="l" depth="2" NCoef="0" IVar="-1" Cut="0.0000000000000000e+00" cType="1" res="-3.7265953142195940e-03" rms="4.6042895317077637e-01" purity="5.5554574728012085e-01" nType="-99"/>
          <Node pos="r" depth="2" NCoef="0" IVar="-1" Cut="0.0000000000000000e+00" cType="1" res="-6.1203733086585999e-02" rms="3.0397990345954895e-01" purity="1.0454251617193222e-01" nType="-99"/>
        </Node>
      </Node>
    </BinaryTree>
    <BinaryTree type="DecisionTree" boostWeight="1.0000000000000000e+00" itree="33">
      <Node pos="s" depth="0" NCoef="0" IVar="3" Cut="2.9625892639160156e-01" cType="1" res="4.2640911415219307e-03" rms="4.1758683323860168e-01" purity="4.9907869100570679e-01" nType="0">
        <Node pos="l" depth="1" NCoef="0" IVar="4" Cut="9.6550530195236206e-01" cType="1" res="2.4338964372873306e-02" rms="4.1561436653137207e-01" purity="5.5769044160842896e-01" nType="0">
          <Node pos="l" depth="2" NCoef="0" IVar="-1" Cut="0.0000000000000000e+00" cType="1" res="1.0319594293832779e-02" rms="4.0897825360298157e-01" purity="5.7174754142761230e-01" nType="-99"/>
          <Node pos="r" depth="2" NCoef="0" IVar="-1" Cut="0.0000000000000000e+00" cType="1" res="-1.6564389690756798e-02" rms="4.4056743383407593e-01" purity="4.7538688778877258e-01" nType="-99"/>
        </Node>
        <Node pos="r" depth="1" NCoef="0" IVar="0" Cut="9.1281988525390625e+02" cType="1" res="-6.3875637948513031e-02" rms="4.1706854104995728e-01" purity="3.0013406276702881e-01" nType="0">
          <Node pos="l" depth="2" NCoef="0" IVar="-1" Cut="0.0000000000000000e+00" cType="1" res="-3.5742793232202530e-02" rms="3.4157106280326843e-01" purity="1.5236249566078186e-01" nType="-99"/>
          <Node pos="r" depth="2" NCoef="0" IVar="-1" Cut="0.0000000000000000e+00" cType="1" res="-8.9256521314382553e-03" rms="4.4011953473091125e-01" purity="3.5762399435043335e-01" nType="-99"/>
        </Node>
      </Node>
    </BinaryTree>
    <BinaryTree type="DecisionTree" boostWeight="1.0000000000000000e+00" itree="34">
      <Node pos="s" depth="0" NCoef="0" IVar="5" Cut="4.3242656707763672e+01" cType="1" res="-4.4022025540471077e-03" rms="4.1115957498550415e-01" purity="4.8940944671630859e-01" nType="0">
        <Node pos="l" depth="1" NCoef="0" IVar="4" Cut="8.4787958860397339e-01" cType="1" res="3.8728810846805573e-02" rms="4.2226803302764893e-01" purity="6.8145042657852173e-01" nType="0">
          <Node pos="l" depth="2" NCoef="0" IVar="-1" Cut="0.0000000000000000e+00" cType="1" res="2.1115200594067574e-02" rms="3.9540177583694458e-01" purity="7.5667774677276611e-01" nType="-99"/>
          <Node pos="r" depth="2" NCoef="0" IVar="-1" Cut="0.0000000000000000e+00" cType="1" res="-3.5797243472188711e-03" rms="4.4525140523910522e-01" purity="5.9462678432464600e-01" nType="-99"/>
        </Node>
        <Node pos="r" depth="1" NCoef="0" IVar="4" Cut="6.2957513332366943e-01" cType="1" res="-4.9167543649673462e-02" rms="3.9434576034545898e-01" purity="2.9009154438972473e-01" nType="0">
          <Node pos="l" depth="2" NCoef="0" IVar="-1" Cut="0.0000000000000000e+00" cType="1" res="-6.7132939584553242e-03" rms="3.9659067988395691e-01" purity="3.1401991844177246e-01" nType="-99"/>
          <Node pos="r" depth="2" NCoef="0" IVar="-1" Cut="0.0000000000000000e+00" cType="1" res="-4.8831898719072342e-02" rms="3.4983471035957336e-01" purity="1.5054982900619507e-01" nType="-99"/>
        </Node>
      </Node>
    </BinaryTree>
    <BinaryTree type="DecisionTree" boostWeight="1.0000000000000000e+00" itree="35">
      <Node pos="s" depth="0" NCoef="0" IVar="1" Cut="3.3037242889404297e+00" cType="1" res="-5.0763031467795372e-03" rms="4.1482615470886230e-01" purity="4.9505415558815002e-01" nType="0">
        <Node pos="l" depth="1" NCoef="0" IVar="4" Cut="7.8590571880340576e-01" cType="1" res="-9.8632298409938812e-02" rms="4.0750741958618164e-01" purity="2.6916915178298950e-01" nType="0">
          <Node pos="l" depth="2" NCoef="0" IVar="-1" Cut="0.0000000000000000e+00" cType="1" res="-1.5703584998846054e-02" rms="4.0907806158065796e-01" purity="2.7321887016296387e-01" nType="-99"/>
          <Node pos="r" depth="2" NCoef="0" IVar="-1" Cut="0.0000000000000000e+00" cType="1" res="-4.1466154158115387e-02" rms="3.9200201630592346e-01" purity="2.6090383529663086e-01" nType="-99"/>
        </Node>
        <Node pos="r" depth="1" NCoef="0" IVar="5" Cut="2.2540899276733398e+01" cType="1" res="9.4174072146415710e-03" rms="4.1406166553497314e-01" purity="5.3004831075668335e-01" nType="0">
          <Node pos="l" depth="2" NCoef="0" IVar="-1" Cut="0.0000000000000000e+00" cType="1" res="1.7213361337780952e-02" rms="4.0364232659339905e-01" purity="7.4118292331695557e-01" nType="-99"/>
          <Node pos="r" depth="2" NCoef="0" IVar="-1" Cut="0.0000000000000000e+00" cType="1" res="-4.2411792092025280e-03" rms="4.1583618521690369e-01" purity="4.3842172622680664e-01" nType="-99"/>
        </Node>
      </Node>
    </BinaryTree>
    <BinaryTree type="DecisionTree" boostWeight="1.0000000000000000e+00" itree="36">
      <Node pos="s" depth="0" NCoef="0" IVar="5" Cut="9.3129417419433594e+01" cType="1" res="-1.8353428458794951e-03" rms="4.1345635056495667e-01" purity="4.9360558390617371e-01" nType="0">
        <Node pos="l" depth="1" NCoef="0" IVar="0" Cut="2.1485024414062500e+03" cType="1" res="1.7342548817396164e-02" rms="4.3248197436332703e-01" purity="5.9242653846740723e-01" nType="0">
          <Node pos="l" depth="2" NCoef="0" IVar="-1" Cut="0.0000000000000000e+00" cType="1" res="1.5922681996016763e-05" rms="4.4557133316993713e-01" purity="5.4892706871032715e-01" nType="-99"/>
          <Node pos="r" depth="2" NCoef="0" IVar="-1" Cut="0.0000000000000000e+00" cType="1" res="3.1328052282333374e-02" rms="3.3254814147949219e-01" purity="8.3906841278076172e-01" nType="-99"/>
        </Node>
        <Node pos="r" depth="1" NCoef="0" IVar="4" Cut="3.6785829067230225e-01" cType="1" res="-7.0803843438625336e-02" rms="3.2708862423896790e-01" purity="1.3822078704833984e-01" nType="0">
          <Node pos="l" depth="2" NCoef="0" IVar="-1" Cut="0.0000000000000000e+00" cType="1" res="-1.8483035266399384e-02" rms="3.3688831329345703e-01" purity="1.4927214384078979e-01" nType="-99"/>
          <Node pos="r" depth="2" NCoef="0" IVar="-1" Cut="0.0000000000000000e+00" cType="1" res="-4.2207878082990646e-02" rms="2.6461276412010193e-01" purity="8.4442846477031708e-02" nType="-99"/>
        </Node>
      </Node>
    </BinaryTree>
    <BinaryTree type="DecisionTree" boostWeight="1.0000000000000000e+00" itree="37">
      <Node pos="s" depth="0" NCoef="0" IVar="3" Cut="1.0495234280824661e-01" cType="1" res="6.5909628756344318e-03" rms="4.1878849267959595e-01" purity="5.0445675849914551e-01" nType="0">
        <Node pos="l" depth="1" NCoef="0" IVar="4" Cut="1.1473639309406281e-01" cType="1" res="5.5311098694801331e-02" rms="3.9619579911231995e-01" purity="6.1478662490844727e-01" nType="0">
          <Node pos="l" depth="2" NCoef="0" IVar="-1" Cut="0.0000000000000000e+00" cType="1" res="-1.7322627827525139e-02" rms="3.6671820282936096e-01" purity="2.2804550826549530e-01" nType="-99"/>
          <Node pos="r" depth="2" NCoef="0" IVar="-1" Cut="0.0000000000000000e+00" cType="1" res="1.8695030361413956e-02" rms="3.9738884568214417e-01" purity="6.7264360189437866e-01" nType="-99"/>
        </Node>
        <Node pos="r" depth="1" NCoef="0" IVar="2" Cut="5.1795832812786102e-02" cType="1" res="-1.7706388607621193e-02" rms="4.2754217982292175e-01" purity="4.4943377375602722e-01" nType="0">
          <Node pos="l" depth="2" NCoef="0" IVar="-1" Cut="0.0000000000000000e+00" cType="1" res="6.3576566753908992e-04" rms="4.3492367863655090e-01" purity="5.2283465862274170e-01" nType="-99"/>
          <Node pos="r" depth="2" NCoef="0" IVar="-1" Cut="0.0000000000000000e+00" cType="1" res="-1.9522348418831825e-02" rms="4.0195712447166443e-01" purity="2.5174513459205627e-01" nType="-99"/>
        </Node>
      </Node>
    </BinaryTree>
    <BinaryTree type="DecisionTree" boostWeight="1.0000000000000000e+00" itree="38">
      <Node pos="s" depth="0" NCoef="0" IVar="0" Cut="8.9930731201171875e+02" cType="1" res="9.1335544129833579e-04" rms="4.2103582620620728e-01" purity="5.0431770086288452e-01" nType="0">
        <Node pos="l" depth="1" NCoef="0" IVar="4" Cut="6.8885761499404907e-01" cType="1" res="-6.7073993384838104e-02" rms="4.1464173793792725e-01" purity="3.0974051356315613e-01" nType="0">
          <Node pos="l" depth="2" NCoef="0" IVar="-1" Cut="0.0000000000000000e+00" cType="1" res="-8.9274663478136063e-03" rms="3.9777377247810364e-01" purity="2.8582420945167542e-01" nType="-99"/>
          <Node pos="r" depth="2" NCoef="0" IVar="-1" Cut="0.0000000000000000e+00" cType="1" res="-2.7881206944584846e-02" rms="4.3414291739463806e-01" purity="3.4752482175827026e-01" nType="-99"/>
        </Node>
        <Node pos="r" depth="1" NCoef="0" IVar="4" Cut="9.2588365077972412e-01" cType="1" res="1.8240943551063538e-02" rms="4.2089751362800598e-01" purity="5.5390864610671997e-01" nType="0">
          <Node pos="l" depth="2" NCoef="0" IVar="-1" Cut="0.0000000000000000e+00" cType="1" res="8.7724784389138222e-03" rms="4.1622644662857056e-01" purity="5.6055778264999390e-01" nType="-99"/>
          <Node pos="r" depth="2" NCoef="0" IVar="-1" Cut="0.0000000000000000e+00" cType="1" res="-1.3677306473255157e-02" rms="4.3463116884231567e-01" purity="5.2266901731491089e-01" nType="-99"/>
        </Node>
      </Node>
    </BinaryTree>
    <BinaryTree type="DecisionTree" boostWeight="1.0000000000000000e+00" itree="39">
      <Node pos="s" depth="0" NCoef="0" IVar="5" Cut="1.0086587524414062e+02" cType="1" res="-1.1156325228512287e-02" rms="4.0942004323005676e-01" purity="4.8533275723457336e-01" nType="0">
        <Node pos="l" depth="1" NCoef="0" IVar="4" Cut="3.7253028154373169e-01" cType="1" res="6.7888339981436729e-03" rms="4.3031287193298340e-01" purity="5.7280635833740234e-01" nType="0">
          <Node pos="l" depth="2" NCoef="0" IVar="-1" Cut="0.0000000000000000e+00" cType="1" res="1.8839774653315544e-02" rms="4.1930609941482544e-01" purity="5.4775559902191162e-01" nType="-99"/>
          <Node pos="r" depth="2" NCoef="0" IVar="-1" Cut="0.0000000000000000e+00" cType="1" res="-3.2064118422567844e-03" rms="4.3122568726539612e-01" purity="5.7976967096328735e-01" nType="-99"/>
        </Node>
        <Node pos="r" depth="1" NCoef="0" IVar="2" Cut="1.1091882362961769e-02" cType="1" res="-8.8014751672744751e-02" rms="2.9188403487205505e-01" purity="1.1068674921989441e-01" nType="0">
          <Node pos="l" depth="2" NCoef="0" IVar="-1" Cut="0.0000000000000000e+00" cType="1" res="-4.5071728527545929e-03" rms="4.1480395197868347e-01" purity="2.6476556062698364e-01" nType="-99"/>
          <Node pos="r" depth="2" NCoef="0" IVar="-1" Cut="0.0000000000000000e+00" cType="1" res="-3.9207566529512405e-02" rms="2.4249547719955444e-01" purity="6.7073889076709747e-02" nType="-99"/>
        </Node>
      </Node>
    </BinaryTree>
    <BinaryTree type="DecisionTree" boostWeight="1.0000000000000000e+00" itree="40">
      <Node pos="s" depth="0" NCoef="0" IVar="5" Cut="1.4419139862060547e+01" cType="1" res="3.5833115689456463e-03" rms="4.1698378324508667e-01" purity="4.9988883733749390e-01" nType="0">
        <Node pos="l" depth="1" NCoef="0" IVar="2" Cut="6.2843315303325653e-02" cType="1" res="8.2235880196094513e-02" rms="4.0492483973503113e-01" purity="7.3675966262817383e-01" nType="0">
          <Node pos="l" depth="2" NCoef="0" IVar="-1" Cut="0.0000000000000000e+00" cType="1" res="2.4811720475554466e-02" rms="3.9093443751335144e-01" purity="7.7687376737594604e-01" nType="-99"/>
          <Node pos="r" depth="2" NCoef="0" IVar="-1" Cut="0.0000000000000000e+00" cType="1" res="-2.6392017025500536e-03" rms="4.6585968136787415e-01" purity="5.0764328241348267e-01" nType="-99"/>
        </Node>
        <Node pos="r" depth="1" NCoef="0" IVar="4" Cut="8.0740082263946533e-01" cType="1" res="-1.6129743307828903e-02" rms="4.1763684153556824e-01" purity="4.4052085280418396e-01" nType="0">
          <Node pos="l" depth="2" NCoef="0" IVar="-1" Cut="0.0000000000000000e+00" cType="1" res="3.0210630502551794e-03" rms="4.1183745861053467e-01" purity="4.5701912045478821e-01" nType="-99"/>
          <Node pos="r" depth="2" NCoef="0" IVar="-1" Cut="0.0000000000000000e+00" cType="1" res="-3.9763044565916061e-02" rms="4.1823360323905945e-01" purity="3.5479912161827087e-01" nType="-99"/>
        </Node>
      </Node>
    </BinaryTree>
    <BinaryTree type="DecisionTree" boostWeight="1.0000000000000000e+00" itree="41">
      <Node pos="s" depth="0" NCoef="0" IVar="3" Cut="3.3949220180511475e-01" cType="1" res="-2.1897056140005589e-03" rms="4.0781807899475098e-01" purity="4.8802959918975830e-01" nType="0">
        <Node pos="l" depth="1" NCoef="0" IVar="2" Cut="2.4018101394176483e-02" cType="1" res="1.6003448516130447e-02" rms="4.0701714158058167e-01" purity="5.3526055812835693e-01" nType="0">
          <Node pos="l" depth="2" NCoef="0" IVar="-1" Cut="0.0000000000000000e+00" cType="1" res="1.4508160762488842e-02" rms="3.8782665133476257e-01" purity="6.7716026306152344e-01" nType="-99"/>
          <Node pos="r" depth="2" NCoef="0" IVar="-1" Cut="0.0000000000000000e+00" cType="1" res="-5.3343111649155617e-03" rms="4.2093020677566528e-01" purity="4.0168187022209167e-01" nType="-99"/>
        </Node>
        <Node pos="r" depth="1" NCoef="0" IVar="2" Cut="2.5693781673908234e-02" cType="1" res="-9.9704742431640625e-02" rms="3.9815866947174072e-01" purity="2.3487237095832825e-01" nType="0">
          <Node pos="l" depth="2" NCoef="0" IVar="-1" Cut="0.0000000000000000e+00" cType="1" res="-4.0393948554992676e-02" rms="4.0416809916496277e-01" purity="2.4746409058570862e-01" nType="-99"/>
          <Node pos="r" depth="2" NCoef="0" IVar="-1" Cut="0.0000000000000000e+00" cType="1" res="-6.9894422776997089e-03" rms="3.7699294090270996e-01" purity="2.2193254530429840e-01" nType="-99"/>
        </Node>
      </Node>
    </BinaryTree>
    <BinaryTree type="DecisionTree" boostWeight="1.0000000000000000e+00" itree="42">
      <Node pos="s" depth="0" NCoef="0" IVar="5" Cut="8.6478218078613281e+01" cType="1" res="8.2800164818763733e-03" rms="4.0610963106155396e-01" purity="5.0428104400634766e-01" nType="0">
        <Node pos="l" depth="1" NCoef="0" IVar="4" Cut="6.5070569515228271e-01" cType="1" res="2.6853816583752632e-02" rms="4.2383804917335510e-01" purity="6.1709946393966675e-01" nType="0">
          <Node pos="l" depth="2" NCoef="0" IVar="-1" Cut="0.0000000000000000e+00" cType="1" res="1.8169907853007317e-02" rms="4.1762936115264893e-01" purity="6.5635240077972412e-01" nType="-99"/>
          <Node pos="r" depth="2" NCoef="0" IVar="-1" Cut="0.0000000000000000e+00" cType="1" res="-2.4035077076405287e-03" rms="4.2469936609268188e-01" purity="5.8799117803573608e-01" nType="-99"/>
        </Node>
        <Node pos="r" depth="1" NCoef="0" IVar="0" Cut="1.5970981445312500e+03" cType="1" res="-4.9145217984914780e-02" rms="3.3921986818313599e-01" purity="1.5547640621662140e-01" nType="0">
          <Node pos="l" depth="2" NCoef="0" IVar="-1" Cut="0.0000000000000000e+00" cType="1" res="-2.5893799960613251e-02" rms="2.9197683930397034e-01" purity="1.0058210790157318e-01" nType="-99"/>
          <Node pos="r" depth="2" NCoef="0" IVar="-1" Cut="0.0000000000000000e+00" cType="1" res="4.5792837627232075e-03" rms="4.5376393198966980e-01" purity="3.3376407623291016e-01" nType="-99"/>
        </Node>
      </Node>
    </BinaryTree>
    <BinaryTree type="DecisionTree" boostWeight="1.0000000000000000e+00" itree="43">
      <Node pos="s" depth="0" NCoef="0" IVar="3" Cut="1.8517793715000153e-01" cType="1" res="-1.0538052767515182e-02" rms="4.1174697875976562e-01" purity="4.8795473575592041e-01" nType="0">
        <Node pos="l" depth="1" NCoef="0" IVar="5" Cut="2.9791055679321289e+01" cType="1" res="2.1387370303273201e-02" rms="4.0834107995033264e-01" purity="5.8717757463455200e-01" nType="0">
          <Node pos="l" depth="2" NCoef="0" IVar="-1" Cut="0.0000000000000000e+00" cType="1" res="1.7719805240631104e-02" rms="3.9173707365989685e-01" purity="7.8356957435607910e-01" nType="-99"/>
          <Node pos="r" depth="2" NCoef="0" IVar="-1" Cut="0.0000000000000000e+00" cType="1" res="-2.9626043979078531e-03" rms="4.1703614592552185e-01" purity="4.4357270002365112e-01" nType="-99"/>
        </Node>
        <Node pos="r" depth="1" NCoef="0" IVar="2" Cut="7.3917722329497337e-03" cType="1" res="-4.9229040741920471e-02" rms="4.1253897547721863e-01" purity="3.6770474910736084e-01" nType="0">
          <Node pos="l" depth="2" NCoef="0" IVar="-1" Cut="0.0000000000000000e+00" cType="1" res="1.5741737559437752e-02" rms="4.0365448594093323e-01" purity="5.9622371196746826e-01" nType="-99"/>
          <Node pos="r" depth="2" NCoef="0" IVar="-1" Cut="0.0000000000000000e+00" cType="1" res="-1.7479728907346725e-02" rms="4.1108927130699158e-01" purity="3.3183279633522034e-01" nType="-99"/>
        </Node>
      </Node>
    </BinaryTree>
    <BinaryTree type="DecisionTree" boostWeight="1.0000000000000000e+00" itree="44">
      <Node pos="s" depth="0" NCoef="0" IVar="1" Cut="5.5840992927551270e+00" cType="1" res="1.2960314750671387e-02" rms="4.1318342089653015e-01" purity="5.1582443714141846e-01" nType="0">
        <Node pos="l" depth="1" NCoef="0" IVar="3" Cut="8.6444236338138580e-02" cType="1" res="-8.0009765224531293e-04" rms="4.2116668820381165e-01" purity="4.7274291515350342e-01" nType="0">
          <Node pos="l" depth="2" NCoef="0" IVar="-1" Cut="0.0000000000000000e+00" cType="1" res="1.3822899200022221e-02" rms="4.2077508568763733e-01" purity="5.8572340011596680e-01" nType="-99"/>
          <Node pos="r" depth="2" NCoef="0" IVar="-1" Cut="0.0000000000000000e+00" cType="1" res="-5.0036795437335968e-03" rms="4.1973128914833069e-01" purity="4.3354347348213196e-01" nType="-99"/>
        </Node>
        <Node pos="r" depth="1" NCoef="0" IVar="2" Cut="4.0554773062467575e-02" cType="1" res="9.1480672359466553e-02" rms="3.5421213507652283e-01" purity="7.6165831089019775e-01" nType="0">
          <Node pos="l" depth="2" NCoef="0" IVar="-1" Cut="0.0000000000000000e+00" cType="1" res="3.9918724447488785e-02" rms="3.0579072237014771e-01" purity="8.7087464332580566e-01" nType="-99"/>
          <Node pos="r" depth="2" NCoef="0" IVar="-1" Cut="0.0000000000000000e+00" cType="1" res="-6.4837555401027203e-03" rms="4.3918085098266602e-01" purity="4.6495696902275085e-01" nType="-99"/>
        </Node>
      </Node>
    </BinaryTree>
    <BinaryTree type="DecisionTree" boostWeight="1.0000000000000000e+00" itree="45">
      <Node pos="s" depth="0" NCoef="0" IVar="3" Cut="1.1110173165798187e-01" cType="1" res="-1.6570563893765211e-03" rms="4.1217371821403503e-01" purity="4.8899182677268982e-01" nType="0">
        <Node pos="l" depth="1" NCoef="0" IVar="1" Cut="3.5054953098297119e+00" cType="1" res="3.3265139907598495e-02" rms="3.9799341559410095e-01" purity="5.9404575824737549e-01" nType="0">
          <Node pos="l" depth="2" NCoef="0" IVar="-1" Cut="0.0000000000000000e+00" cType="1" res="-2.1313520148396492e-02" rms="4.4557431340217590e-01" purity="3.1434771418571472e-01" nType="-99"/>
          <Node pos="r" depth="2" NCoef="0" IVar="-1" Cut="0.0000000000000000e+00" cType="1" res="1.4423551969230175e-02" rms="3.8598471879959106e-01" purity="6.4046710729598999e-01" nType="-99"/>
        </Node>
        <Node pos="r" depth="1" NCoef="0" IVar="4" Cut="1.1037597656250000e+00" cType="1" res="-2.0608918741345406e-02" rms="4.1845044493675232e-01" purity="4.3198025226593018e-01" nType="0">
          <Node pos="l" depth="2" NCoef="0" IVar="-1" Cut="0.0000000000000000e+00" cType="1" res="-3.3711297437548637e-03" rms="4.2301228642463684e-01" purity="4.4658744335174561e-01" nType="-99"/>
          <Node pos="r" depth="2" NCoef="0" IVar="-1" Cut="0.0000000000000000e+00" cType="1" res="-3.4362528473138809e-02" rms="3.2795831561088562e-01" purity="2.2464860975742340e-01" nType="-99"/>
        </Node>
      </Node>
    </BinaryTree>
    <BinaryTree type="DecisionTree" boostWeight="1.0000000000000000e+00" itree="46">
      <Node pos="s" depth="0" NCoef="0" IVar="5" Cut="4.3242656707763672e+01" cType="1" res="-2.0406206604093313e-03" rms="4.0621042251586914e-01" purity="4.9595105648040771e-01" nType="0">
        <Node pos="l" depth="1" NCoef="0" IVar="4" Cut="6.9295012950897217e-01" cType="1" res="3.0755372717976570e-02" rms="4.1815578937530518e-01" purity="6.7601525783538818e-01" nType="0">
          <Node pos="l" depth="2" NCoef="0" IVar="-1" Cut="0.0000000000000000e+00" cType="1" res="2.4018341675400734e-02" rms="3.7504670023918152e-01" purity="7.7678823471069336e-01" nType="-99"/>
          <Node pos="r" depth="2" NCoef="0" IVar="-1" Cut="0.0000000000000000e+00" cType="1" res="1.1445464333519340e-03" rms="4.3257269263267517e-01" purity="6.3310450315475464e-01" nType="-99"/>
        </Node>
        <Node pos="r" depth="1" NCoef="0" IVar="4" Cut="6.2972790002822876e-01" cType="1" res="-3.7781003862619400e-02" rms="3.8964852690696716e-01" purity="2.9972088336944580e-01" nType="0">
          <Node pos="l" depth="2" NCoef="0" IVar="-1" Cut="0.0000000000000000e+00" cType="1" res="-4.2292694561183453e-03" rms="3.9197131991386414e-01" purity="3.2442623376846313e-01" nType="-99"/>
          <Node pos="r" depth="2" NCoef="0" IVar="-1" Cut="0.0000000000000000e+00" cType="1" res="-5.3566884249448776e-02" rms="3.3447477221488953e-01" purity="1.3100084662437439e-01" nType="-99"/>
        </Node>
      </Node>
    </BinaryTree>
    <BinaryTree type="DecisionTree" boostWeight="1.0000000000000000e+00" itree="47">
      <Node pos="s" depth="0" NCoef="0" IVar="4" Cut="3.7327492237091064e-01" cType="1" res="7.7560120262205601e-03" rms="4.0957000851631165e-01" purity="5.1164770126342773e-01" nType="0">
        <Node pos="l" depth="1" NCoef="0" IVar="5" Cut="1.0090840148925781e+02" cType="1" res="6.8244919180870056e-02" rms="3.9338916540145874e-01" purity="4.1195422410964966e-01" nType="0">
          <Node pos="l" depth="2" NCoef="0" IVar="-1" Cut="0.0000000000000000e+00" cType="1" res="3.7773232907056808e-02" rms="4.0108323097229004e-01" purity="6.6055285930633545e-01" nType="-99"/>
          <Node pos="r" depth="2" NCoef="0" IVar="-1" Cut="0.0000000000000000e+00" cType="1" res="-3.6237093154340982e-03" rms="3.6901500821113586e-01" purity="1.8466894328594208e-01" nType="-99"/>
        </Node>
        <Node pos="r" depth="1" NCoef="0" IVar="5" Cut="2.6228162765502930e+01" cType="1" res="-2.2319022566080093e-02" rms="4.1410598158836365e-01" purity="5.6121528148651123e-01" nType="0">
          <Node pos="l" depth="2" NCoef="0" IVar="-1" Cut="0.0000000000000000e+00" cType="1" res="8.1280367448925972e-03" rms="4.1034802794456482e-01" purity="6.9630342721939087e-01" nType="-99"/>
          <Node pos="r" depth="2" NCoef="0" IVar="-1" Cut="0.0000000000000000e+00" cType="1" res="-1.9692165777087212e-02" rms="4.1062438488006592e-01" purity="4.2293438315391541e-01" nType="-99"/>
        </Node>
      </Node>
    </BinaryTree>
    <BinaryTree type="DecisionTree" boostWeight="1.0000000000000000e+00" itree="48">
      <Node pos="s" depth="0" NCoef="0" IVar="4" Cut="8.4695494174957275e-01" cType="1" res="1.1906834319233894e-02" rms="4.1054254770278931e-01" purity="5.0237435102462769e-01" nType="0">
        <Node pos="l" depth="1" NCoef="0" IVar="5" Cut="1.0813562011718750e+02" cType="1" res="2.7578936889767647e-02" rms="3.9933028817176819e-01" purity="4.9487015604972839e-01" nType="0">
          <Node pos="l" depth="2" NCoef="0" IVar="-1" Cut="0.0000000000000000e+00" cType="1" res="1.2727155350148678e-02" rms="4.1831043362617493e-01" purity="6.1485177278518677e-01" nType="-99"/>
          <Node pos="r" depth="2" NCoef="0" IVar="-1" Cut="0.0000000000000000e+00" cType="1" res="-1.4661039225757122e-02" rms="3.2759258151054382e-01" purity="1.3945850729942322e-01" nType="-99"/>
        </Node>
        <Node pos="r" depth="1" NCoef="0" IVar="5" Cut="1.4417943954467773e+01" cType="1" res="-3.3000145107507706e-02" rms="4.3800011277198792e-01" purity="5.2387696504592896e-01" nType="0">
          <Node pos="l" depth="2" NCoef="0" IVar="-1" Cut="0.0000000000000000e+00" cType="1" res="3.3736012410372496e-03" rms="4.2604607343673706e-01" purity="6.4723086357116699e-01" nType="-99"/>
          <Node pos="r" depth="2" NCoef="0" IVar="-1" Cut="0.0000000000000000e+00" cType="1" res="-2.6260841637849808e-02" rms="4.4615733623504639e-01" purity="3.4384492039680481e-01" nType="-99"/>
        </Node>
      </Node>
    </BinaryTree>
    <BinaryTree type="DecisionTree" boostWeight="1.0000000000000000e+00" itree="49">
      <Node pos="s" depth="0" NCoef="0" IVar="0" Cut="2.3196347656250000e+03" cType="1" res="-1.1990957893431187e-02" rms="4.1456678509712219e-01" purity="4.8563575744628906e-01" nType="0">
        <Node pos="l" depth="1" NCoef="0" IVar="0" Cut="8.2747680664062500e+02" cType="1" res="-2.1643269807100296e-02" rms="4.1868248581886292e-01" purity="4.5371353626251221e-01" nType="0">
          <Node pos="l" depth="2" NCoef="0" IVar="-1" Cut="0.0000000000000000e+00" cType="1" res="-2.2584423422813416e-02" rms="4.0356236696243286e-01" purity="2.7351173758506775e-01" nType="-99"/>
          <Node pos="r" depth="2" NCoef="0" IVar="-1" Cut="0.0000000000000000e+00" cType="1" res="-3.3017760142683983e-03" rms="4.2008730769157410e-01" purity="4.8020768165588379e-01" nType="-99"/>
        </Node>
        <Node pos="r" depth="1" NCoef="0" IVar="3" Cut="1.1100680381059647e-01" cType="1" res="6.4404644072055817e-02" rms="3.7168422341346741e-01" purity="7.3829233646392822e-01" nType="0">
          <Node pos="l" depth="2" NCoef="0" IVar="-1" Cut="0.0000000000000000e+00" cType="1" res="5.7670418173074722e-03" rms="3.5820895433425903e-01" purity="7.0903593301773071e-01" nType="-99"/>
          <Node pos="r" depth="2" NCoef="0" IVar="-1" Cut="0.0000000000000000e+00" cType="1" res="2.7587432414293289e-02" rms="3.7855303287506104e-01" purity="7.6321780681610107e-01" nType="-99"/>
        </Node>
      </Node>
    </BinaryTree>
    <BinaryTree type="DecisionTree" boostWeight="1.0000000000000000e+00" itree="50">
      <Node pos="s" depth="0" NCoef="0" IVar="3" Cut="9.2592664062976837e-02" cType="1" res="3.9989682845771313e-03" rms="4.0787720680236816e-01" purity="5.0282216072082520e-01" nType="0">
        <Node pos="l" depth="1" NCoef="0" IVar="5" Cut="8.1526145935058594e+01" cType="1" res="6.8950988352298737e-02" rms="3.8185751438140869e-01" purity="6.3941246271133423e-01" nType="0">
          <Node pos="l" depth="2" NCoef="0" IVar="-1" Cut="0.0000000000000000e+00" cType="1" res="2.6076855137944221e-02" rms="3.8090187311172485e-01" purity="7.7088582515716553e-01" nType="-99"/>
          <Node pos="r" depth="2" NCoef="0" IVar="-1" Cut="0.0000000000000000e+00" cType="1" res="-7.7626742422580719e-03" rms="3.6916804313659668e-01" purity="2.1932624280452728e-01" nType="-99"/>
        </Node>
        <Node pos="r" depth="1" NCoef="0" IVar="0" Cut="2.5690856933593750e+03" cType="1" res="-2.3884976282715797e-02" rms="4.1544759273529053e-01" purity="4.4418385624885559e-01" nType="0">
          <Node pos="l" depth="2" NCoef="0" IVar="-1" Cut="0.0000000000000000e+00" cType="1" res="-9.1472323983907700e-03" rms="4.1926345229148865e-01" purity="4.1341567039489746e-01" nType="-99"/>
          <Node pos="r" depth="2" NCoef="0" IVar="-1" Cut="0.0000000000000000e+00" cType="1" res="3.1501647084951401e-02" rms="3.3721140027046204e-01" purity="8.3228015899658203e-01" nType="-99"/>
        </Node>
      </Node>
    </BinaryTree>
    <BinaryTree type="DecisionTree" boostWeight="1.0000000000000000e+00" itree="51">
      <Node pos="s" depth="0" NCoef="0" IVar="4" Cut="4.9135309457778931e-01" cType="1" res="-5.9980908408761024e-03" rms="4.1394150257110596e-01" purity="4.8945418000221252e-01" nType="0">
        <Node pos="l" depth="1" NCoef="0" IVar="2" Cut="1.2948958203196526e-02" cType="1" res="3.1077871099114418e-02" rms="4.0070283412933350e-01" purity="4.0694013237953186e-01" nType="0">
          <Node pos="l" depth="2" NCoef="0" IVar="-1" Cut="0.0000000000000000e+00" cType="1" res="2.6468530297279358e-02" rms="4.0358299016952515e-01" purity="6.1001765727996826e-01" nType="-99"/>
          <Node pos="r" depth="2" NCoef="0" IVar="-1" Cut="0.0000000000000000e+00" cType="1" res="9.8602939397096634e-04" rms="3.9610359072685242e-01" purity="3.2864525914192200e-01" nType="-99"/>
        </Node>
        <Node pos="r" depth="1" NCoef="0" IVar="5" Cut="4.1502639770507812e+01" cType="1" res="-3.3503089100122452e-02" rms="4.2139294743537903e-01" purity="5.5066764354705811e-01" nType="0">
          <Node pos="l" depth="2" NCoef="0" IVar="-1" Cut="0.0000000000000000e+00" cType="1" res="-7.4737722752615809e-04" rms="4.2849552631378174e-01" purity="6.3913255929946899e-01" nType="-99"/>
          <Node pos="r" depth="2" NCoef="0" IVar="-1" Cut="0.0000000000000000e+00" cType="1" res="-4.1455104947090149e-02" rms="3.6994686722755432e-01" purity="2.0979174971580505e-01" nType="-99"/>
        </Node>
      </Node>
    </BinaryTree>
    <BinaryTree type="DecisionTree" boostWeight="1.0000000000000000e+00" itree="52">
      <Node pos="s" depth="0" NCoef="0" IVar="2" Cut="7.4004987254738808e-03" cType="1" res="9.6095311164390296e-05" rms="4.1323426365852356e-01" purity="4.9488377571105957e-01" nType="0">
        <Node pos="l" depth="1" NCoef="0" IVar="3" Cut="2.8997677564620972e-01" cType="1" res="6.7173503339290619e-02" rms="4.1615480184555054e-01" purity="6.6236233711242676e-01" nType="0">
          <Node pos="l" depth="2" NCoef="0" IVar="-1" Cut="0.0000000000000000e+00" cType="1" res="1.0124856606125832e-02" rms="4.0460032224655151e-01" purity="6.8247324228286743e-01" nType="-99"/>
          <Node pos="r" depth="2" NCoef="0" IVar="-1" Cut="0.0000000000000000e+00" cType="1" res="3.8212750107049942e-02" rms="4.3651145696640015e-01" purity="6.0171192884445190e-01" nType="-99"/>
        </Node>
        <Node pos="r" depth="1" NCoef="0" IVar="5" Cut="1.6162721252441406e+02" cType="1" res="-1.1743584647774696e-02" rms="4.1158312559127808e-01" purity="4.6532255411148071e-01" nType="0">
          <Node pos="l" depth="2" NCoef="0" IVar="-1" Cut="0.0000000000000000e+00" cType="1" res="-6.5293489024043083e-04" rms="4.2304983735084534e-01" purity="5.0168043375015259e-01" nType="-99"/>
          <Node pos="r" depth="2" NCoef="0" IVar="-1" Cut="0.0000000000000000e+00" cType="1" res="-4.5773457735776901e-02" rms="2.1642565727233887e-01" purity="4.6706318855285645e-02" nType="-99"/>
        </Node>
      </Node>
    </BinaryTree>
    <BinaryTree type="DecisionTree" boostWeight="1.0000000000000000e+00" itree="53">
      <Node pos="s" depth="0" NCoef="0" IVar="2" Cut="8.6886413395404816e-02" cType="1" res="-4.0421164594590664e-03" rms="4.0776804089546204e-01" purity="4.9579626321792603e-01" nType="0">
        <Node pos="l" depth="1" NCoef="0" IVar="5" Cut="1.5132342529296875e+02" cType="1" res="4.6810810454189777e-03" rms="4.0873885154724121e-01" purity="5.2370953559875488e-01" nType="0">
          <Node pos="l" depth="2" NCoef="0" IVar="-1" Cut="0.0000000000000000e+00" cType="1" res="3.5608303733170033e-03" rms="4.1840189695358276e-01" purity="5.6843388080596924e-01" nType="-99"/>
          <Node pos="r" depth="2" NCoef="0" IVar="-1" Cut="0.0000000000000000e+00" cType="1" res="-2.9073979705572128e-02" rms="2.8919869661331177e-01" purity="1.0125298798084259e-01" nType="-99"/>
        </Node>
        <Node pos="r" depth="1" NCoef="0" IVar="4" Cut="5.8802574872970581e-01" cType="1" res="-7.3688872158527374e-02" rms="3.9304929971694946e-01" purity="2.7293455600738525e-01" nType="0">
          <Node pos="l" depth="2" NCoef="0" IVar="-1" Cut="0.0000000000000000e+00" cType="1" res="-5.3180917166173458e-03" rms="3.7224283814430237e-01" purity="2.6647794246673584e-01" nType="-99"/>
          <Node pos="r" depth="2" NCoef="0" IVar="-1" Cut="0.0000000000000000e+00" cType="1" res="-3.3752527087926865e-02" rms="4.0632507205009460e-01" purity="2.8056058287620544e-01" nType="-99"/>
        </Node>
      </Node>
    </BinaryTree>
    <BinaryTree type="DecisionTree" boostWeight="1.0000000000000000e+00" itree="54">
      <Node pos="s" depth="0" NCoef="0" IVar="5" Cut="2.8819627761840820e+01" cType="1" res="4.9669016152620316e-03" rms="4.0492743253707886e-01" purity="5.0081968307495117e-01" nType="0">
        <Node pos="l" depth="1" NCoef="0" IVar="2" Cut="7.0247486233711243e-02" cType="1" res="4.2934503406286240e-02" rms="4.0855979919433594e-01" purity="6.9876360893249512e-01" nType="0">
          <Node pos="l" depth="2" NCoef="0" IVar="-1" Cut="0.0000000000000000e+00" cType="1" res="1.5876358374953270e-02" rms="3.9771717786788940e-01" purity="7.4106580018997192e-01" nType="-99"/>
          <Node pos="r" depth="2" NCoef="0" IVar="-1" Cut="0.0000000000000000e+00" cType="1" res="-1.4139538630843163e-02" rms="4.5597842335700989e-01" purity="4.3530443310737610e-01" nType="-99"/>
        </Node>
        <Node pos="r" depth="1" NCoef="0" IVar="4" Cut="6.8878823518753052e-01" cType="1" res="-1.8441991880536079e-02" rms="4.0088358521461487e-01" purity="3.7877744436264038e-01" nType="0">
          <Node pos="l" depth="2" NCoef="0" IVar="-1" Cut="0.0000000000000000e+00" cType="1" res="3.2775627914816141e-03" rms="3.9722517132759094e-01" purity="4.0798676013946533e-01" nType="-99"/>
          <Node pos="r" depth="2" NCoef="0" IVar="-1" Cut="0.0000000000000000e+00" cType="1" res="-4.6555180102586746e-02" rms="3.8405394554138184e-01" purity="2.3083528876304626e-01" nType="-99"/>
        </Node>
      </Node>
    </BinaryTree>
    <BinaryTree type="DecisionTree" boostWeight="1.0000000000000000e+00" itree="55">
      <Node pos="s" depth="0" NCoef="0" IVar="3" Cut="1.1110284924507141e-01" cType="1" res="-1.2988370843231678e-02" rms="4.0866398811340332e-01" purity="4.9010360240936279e-01" nType="0">
        <Node pos="l" depth="1" NCoef="0" IVar="4" Cut="8.8220173120498657e-01" cType="1" res="1.9818453118205070e-02" rms="3.9303281903266907e-01" purity="6.1280840635299683e-01" nType="0">
          <Node pos="l" depth="2" NCoef="0" IVar="-1" Cut="0.0000000000000000e+00" cType="1" res="1.1092093773186207e-02" rms="3.8001051545143127e-01" purity="6.1762112379074097e-01" nType="-99"/>
          <Node pos="r" depth="2" NCoef="0" IVar="-1" Cut="0.0000000000000000e+00" cType="1" res="-1.4182065613567829e-02" rms="4.2903381586074829e-01" purity="5.9546506404876709e-01" nType="-99"/>
        </Node>
        <Node pos="r" depth="1" NCoef="0" IVar="5" Cut="1.1605870246887207e+01" cType="1" res="-3.1633548438549042e-02" rms="4.1613575816154480e-01" purity="4.2036646604537964e-01" nType="0">
          <Node pos="l" depth="2" NCoef="0" IVar="-1" Cut="0.0000000000000000e+00" cType="1" res="1.2408548966050148e-02" rms="4.2788565158843994e-01" purity="6.9164049625396729e-01" nType="-99"/>
          <Node pos="r" depth="2" NCoef="0" IVar="-1" Cut="0.0000000000000000e+00" cType="1" res="-1.2090667150914669e-02" rms="4.1280999779701233e-01" purity="3.7800973653793335e-01" nType="-99"/>
        </Node>
      </Node>
    </BinaryTree>
    <BinaryTree type="DecisionTree" boostWeight="1.0000000000000000e+00" itree="56">
      <Node pos="s" depth="0" NCoef="0" IVar="4" Cut="8.2714504003524780e-01" cType="1" res="1.0727401822805405e-02" rms="4.0447670221328735e-01" purity="5.0172472000122070e-01" nType="0">
        <Node pos="l" depth="1" NCoef="0" IVar="3" Cut="3.3943912386894226e-01" cType="1" res="2.6871744543313980e-02" rms="3.9823025465011597e-01" purity="4.9024960398674011e-01" nType="0">
          <Node pos="l" depth="2" NCoef="0" IVar="-1" Cut="0.0000000000000000e+00" cType="1" res="1.0806949809193611e-02" rms="3.9566084742546082e-01" purity="5.4201501607894897e-01" nType="-99"/>
          <Node pos="r" depth="2" NCoef="0" IVar="-1" Cut="0.0000000000000000e+00" cType="1" res="-8.3476360887289047e-03" rms="4.0530058741569519e-01" purity="2.5206598639488220e-01" nType="-99"/>
        </Node>
        <Node pos="r" depth="1" NCoef="0" IVar="5" Cut="1.4853321075439453e+01" cType="1" res="-3.3291388303041458e-02" rms="4.1788080334663391e-01" purity="5.3301244974136353e-01" nType="0">
          <Node pos="l" depth="2" NCoef="0" IVar="-1" Cut="0.0000000000000000e+00" cType="1" res="4.4268928468227386e-03" rms="4.1693419218063354e-01" purity="6.8213534355163574e-01" nType="-99"/>
          <Node pos="r" depth="2" NCoef="0" IVar="-1" Cut="0.0000000000000000e+00" cType="1" res="-2.6956479996442795e-02" rms="4.0979042649269104e-01" purity="3.3759027719497681e-01" nType="-99"/>
        </Node>
      </Node>
    </BinaryTree>
    <BinaryTree type="DecisionTree" boostWeight="1.0000000000000000e+00" itree="57">
      <Node pos="s" depth="0" NCoef="0" IVar="4" Cut="6.8887776136398315e-01" cType="1" res="-2.6817277539521456e-03" rms="4.1052919626235962e-01" purity="4.9187347292900085e-01" nType="0">
        <Node pos="l" depth="1" NCoef="0" IVar="0" Cut="2.3130366210937500e+03" cType="1" res="2.3793824017047882e-02" rms="4.0085312724113464e-01" purity="4.6088531613349915e-01" nType="0">
          <Node pos="l" depth="2" NCoef="0" IVar="-1" Cut="0.0000000000000000e+00" cType="1" res="3.4088834654539824e-03" rms="4.0591856837272644e-01" purity="4.2287379503250122e-01" nType="-99"/>
          <Node pos="r" depth="2" NCoef="0" IVar="-1" Cut="0.0000000000000000e+00" cType="1" res="3.0513199046254158e-02" rms="3.4963300824165344e-01" purity="7.4040949344635010e-01" nType="-99"/>
        </Node>
        <Node pos="r" depth="1" NCoef="0" IVar="5" Cut="2.5815204620361328e+01" cType="1" res="-4.2622245848178864e-02" rms="4.2157489061355591e-01" purity="5.3862166404724121e-01" nType="0">
          <Node pos="l" depth="2" NCoef="0" IVar="-1" Cut="0.0000000000000000e+00" cType="1" res="-5.2242155652493238e-04" rms="4.2600488662719727e-01" purity="6.5476679801940918e-01" nType="-99"/>
          <Node pos="r" depth="2" NCoef="0" IVar="-1" Cut="0.0000000000000000e+00" cType="1" res="-3.8573823869228363e-02" rms="3.9381518959999084e-01" purity="2.5819188356399536e-01" nType="-99"/>
        </Node>
      </Node>
    </BinaryTree>
    <BinaryTree type="DecisionTree" boostWeight="1.0000000000000000e+00" itree="58">
      <Node pos="s" depth="0" NCoef="0" IVar="0" Cut="9.1453845214843750e+02" cType="1" res="-3.1019193120300770e-03" rms="4.1048371791839600e-01" purity="4.9625602364540100e-01" nType="0">
        <Node pos="l" depth="1" NCoef="0" IVar="0" Cut="8.4950683593750000e+02" cType="1" res="-5.5421944707632065e-02" rms="3.8366943597793579e-01" purity="3.0753424763679504e-01" nType="0">
          <Node pos="l" depth="2" NCoef="0" IVar="-1" Cut="0.0000000000000000e+00" cType="1" res="-7.8647118061780930e-03" rms="3.7937614321708679e-01" purity="3.2133397459983826e-01" nType="-99"/>
          <Node pos="r" depth="2" NCoef="0" IVar="-1" Cut="0.0000000000000000e+00" cType="1" res="-2.7332192286849022e-02" rms="3.8630542159080505e-01" purity="2.8483444452285767e-01" nType="-99"/>
        </Node>
        <Node pos="r" depth="1" NCoef="0" IVar="5" Cut="1.6522412109375000e+02" cType="1" res="1.1973918415606022e-02" rms="4.1667351126670837e-01" purity="5.5063551664352417e-01" nType="0">
          <Node pos="l" depth="2" NCoef="0" IVar="-1" Cut="0.0000000000000000e+00" cType="1" res="4.9828235059976578e-03" rms="4.2412418127059937e-01" purity="5.8561140298843384e-01" nType="-99"/>
          <Node pos="r" depth="2" NCoef="0" IVar="-1" Cut="0.0000000000000000e+00" cType="1" res="-2.5031860917806625e-02" rms="2.9684934020042419e-01" purity="1.1421864479780197e-01" nType="-99"/>
        </Node>
      </Node>
    </BinaryTree>
    <BinaryTree type="DecisionTree" boostWeight="1.0000000000000000e+00" itree="59">
      <Node pos="s" depth="0" NCoef="0" IVar="4" Cut="-1.0122092813253403e-01" cType="1" res="1.2623288203030825e-03" rms="4.0558087825775146e-01" purity="5.0285834074020386e-01" nType="0">
        <Node pos="l" depth="1" NCoef="0" IVar="-1" Cut="0.0000000000000000e+00" cType="1" res="-5.9294696897268295e-02" rms="1.9983862340450287e-01" purity="3.9151411503553391e-02" nType="-99"/>
        <Node pos="r" depth="1" NCoef="0" IVar="0" Cut="2.6421538085937500e+03" cType="1" res="5.9625185094773769e-03" rms="4.0969258546829224e-01" purity="5.1794725656509399e-01" nType="0">
          <Node pos="l" depth="2" NCoef="0" IVar="-1" Cut="0.0000000000000000e+00" cType="1" res="-2.3061932006385177e-04" rms="4.1335618495941162e-01" purity="4.9166464805603027e-01" nType="-99"/>
          <Node pos="r" depth="2" NCoef="0" IVar="-1" Cut="0.0000000000000000e+00" cType="1" res="2.7783891186118126e-02" rms="3.5293486714363098e-01" purity="8.3233654499053955e-01" nType="-99"/>
        </Node>
      </Node>
    </BinaryTree>
    <BinaryTree type="DecisionTree" boostWeight="1.0000000000000000e+00" itree="60">
      <Node pos="s" depth="0" NCoef="0" IVar="5" Cut="1.4417813301086426e+01" cType="1" res="1.6799606382846832e-02" rms="4.0507972240447998e-01" purity="5.2128791809082031e-01" nType="0">
        <Node pos="l" depth="1" NCoef="0" IVar="2" Cut="5.7181552052497864e-02" cType="1" res="6.3729956746101379e-02" rms="3.8707238435745239e-01" purity="7.5050657987594604e-01" nType="0">
          <Node pos="l" depth="2" NCoef="0" IVar="-1" Cut="0.0000000000000000e+00" cType="1" res="2.3065747693181038e-02" rms="3.6387988924980164e-01" purity="8.0693942308425903e-01" nType="-99"/>
          <Node pos="r" depth="2" NCoef="0" IVar="-1" Cut="0.0000000000000000e+00" cType="1" res="-5.2439165301620960e-03" rms="4.6889677643775940e-01" purity="4.9306139349937439e-01" nType="-99"/>
        </Node>
        <Node pos="r" depth="1" NCoef="0" IVar="4" Cut="8.8651847839355469e-01" cType="1" res="4.9884496256709099e-03" rms="4.0863895416259766e-01" purity="4.6359947323799133e-01" nType="0">
          <Node pos="l" depth="2" NCoef="0" IVar="-1" Cut="0.0000000000000000e+00" cType="1" res="4.3049282394349575e-03" rms="4.0726613998413086e-01" purity="4.8448464274406433e-01" nType="-99"/>
          <Node pos="r" depth="2" NCoef="0" IVar="-1" Cut="0.0000000000000000e+00" cType="1" res="-2.7074342593550682e-02" rms="4.0780252218246460e-01" purity="2.6084166765213013e-01" nType="-99"/>
        </Node>
      </Node>
    </BinaryTree>
    <BinaryTree type="DecisionTree" boostWeight="1.0000000000000000e+00" itree="61">
      <Node pos="s" depth="0" NCoef="0" IVar="2" Cut="2.0348362624645233e-02" cType="1" res="-7.8454166650772095e-03" rms="3.9955952763557434e-01" purity="4.9921849370002747e-01" nType="0">
        <Node pos="l" depth="1" NCoef="0" IVar="0" Cut="2.3130361328125000e+03" cType="1" res="3.6578852683305740e-02" rms="3.8371038436889648e-01" purity="6.5749609470367432e-01" nType="0">
          <Node pos="l" depth="2" NCoef="0" IVar="-1" Cut="0.0000000000000000e+00" cType="1" res="7.0207319222390652e-03" rms="3.9734953641891479e-01" purity="6.1619168519973755e-01" nType="-99"/>
          <Node pos="r" depth="2" NCoef="0" IVar="-1" Cut="0.0000000000000000e+00" cType="1" res="3.0426815152168274e-02" rms="3.0123257637023926e-01" purity="8.6277681589126587e-01" nType="-99"/>
        </Node>
        <Node pos="r" depth="1" NCoef="0" IVar="3" Cut="7.4136473238468170e-02" cType="1" res="-4.3989267200231552e-02" rms="4.0845561027526855e-01" purity="3.7044289708137512e-01" nType="0">
          <Node pos="l" depth="2" NCoef="0" IVar="-1" Cut="0.0000000000000000e+00" cType="1" res="-1.4507422456517816e-03" rms="4.2586329579353333e-01" purity="5.0609457492828369e-01" nType="-99"/>
          <Node pos="r" depth="2" NCoef="0" IVar="-1" Cut="0.0000000000000000e+00" cType="1" res="-1.5974881127476692e-02" rms="4.0150943398475647e-01" purity="3.2418251037597656e-01" nType="-99"/>
        </Node>
      </Node>
    </BinaryTree>
    <BinaryTree type="DecisionTree" boostWeight="1.0000000000000000e+00" itree="62">
      <Node pos="s" depth="0" NCoef="0" IVar="4" Cut="3.5303011536598206e-01" cType="1" res="6.1533804982900620e-03" rms="4.0858912467956543e-01" purity="5.0867897272109985e-01" nType="0">
        <Node pos="l" depth="1" NCoef="0" IVar="2" Cut="2.2175315767526627e-02" cType="1" res="3.5719763487577438e-02" rms="3.8449469208717346e-01" purity="3.7733039259910583e-01" nType="0">
          <Node pos="l" depth="2" NCoef="0" IVar="-1" Cut="0.0000000000000000e+00" cType="1" res="2.8241127729415894e-02" rms="4.1280463337898254e-01" purity="5.9594368934631348e-01" nType="-99"/>
          <Node pos="r" depth="2" NCoef="0" IVar="-1" Cut="0.0000000000000000e+00" cType="1" res="-5.4769045673310757e-03" rms="3.5391101241111755e-01" purity="2.1922941505908966e-01" nType="-99"/>
        </Node>
        <Node pos="r" depth="1" NCoef="0" IVar="5" Cut="4.0464584350585938e+01" cType="1" res="-7.6523278839886189e-03" rms="4.1865137219429016e-01" purity="5.7001084089279175e-01" nType="0">
          <Node pos="l" depth="2" NCoef="0" IVar="-1" Cut="0.0000000000000000e+00" cType="1" res="4.7683641314506531e-03" rms="4.2039674520492554e-01" purity="6.7197299003601074e-01" nType="-99"/>
          <Node pos="r" depth="2" NCoef="0" IVar="-1" Cut="0.0000000000000000e+00" cType="1" res="-1.8451774492859840e-02" rms="4.0827524662017822e-01" purity="3.3181422948837280e-01" nType="-99"/>
        </Node>
      </Node>
    </BinaryTree>
    <BinaryTree type="DecisionTree" boostWeight="1.0000000000000000e+00" itree="63">
