<?xml version="1.0"?>
<MethodSetup Method="BDT::BDT-HM-10Folds_fold4">
  <GeneralInfo>
    <Info name="TMVA Release" value="4.2.1 [262657]"/>
    <Info name="ROOT Release" value="6.28/04 [400388]"/>
    <Info name="Creator" value="diegomac"/>
    <Info name="Date" value="Wed Oct  4 12:41:08 2023"/>
    <Info name="Host" value="Darwin Diegos-MacBook-Pro-2.local 22.4.0 Darwin Kernel Version 22.4.0: Mon Mar 6 20:59:28 PST 2023; root:xnu-8796.101.5~3/RELEASE_ARM64_T6000 arm64"/>
    <Info name="Dir" value="/Users/diegomac/Documents/HEP/MVA-Analysis"/>
    <Info name="Training events" value="35140"/>
    <Info name="TrainingTime" value="6.93803072e-01"/>
    <Info name="AnalysisType" value="Classification"/>
  </GeneralInfo>
  <Options>
    <Option name="V" modified="Yes">False</Option>
    <Option name="VerbosityLevel" modified="No">Default</Option>
    <Option name="VarTransform" modified="No">None</Option>
    <Option name="H" modified="Yes">False</Option>
    <Option name="CreateMVAPdfs" modified="No">False</Option>
    <Option name="IgnoreNegWeightsInTraining" modified="No">False</Option>
    <Option name="NTrees" modified="Yes">125</Option>
    <Option name="MaxDepth" modified="Yes">2</Option>
    <Option name="MinNodeSize" modified="Yes">3%</Option>
    <Option name="nCuts" modified="Yes">80</Option>
    <Option name="BoostType" modified="Yes">Grad</Option>
    <Option name="AdaBoostR2Loss" modified="No">quadratic</Option>
    <Option name="UseBaggedBoost" modified="Yes">True</Option>
    <Option name="Shrinkage" modified="Yes">1.000000e-01</Option>
    <Option name="AdaBoostBeta" modified="No">5.000000e-01</Option>
    <Option name="UseRandomisedTrees" modified="No">False</Option>
    <Option name="UseNvars" modified="Yes">2</Option>
    <Option name="UsePoissonNvars" modified="No">True</Option>
    <Option name="BaggedSampleFraction" modified="Yes">5.000000e-01</Option>
    <Option name="UseYesNoLeaf" modified="No">True</Option>
    <Option name="NegWeightTreatment" modified="No">pray</Option>
    <Option name="Css" modified="No">1.000000e+00</Option>
    <Option name="Cts_sb" modified="No">1.000000e+00</Option>
    <Option name="Ctb_ss" modified="No">1.000000e+00</Option>
    <Option name="Cbb" modified="No">1.000000e+00</Option>
    <Option name="NodePurityLimit" modified="No">5.000000e-01</Option>
    <Option name="SeparationType" modified="Yes">sdivsqrtsplusb</Option>
    <Option name="RegressionLossFunctionBDTG" modified="No">huber</Option>
    <Option name="HuberQuantile" modified="No">7.000000e-01</Option>
    <Option name="DoBoostMonitor" modified="No">False</Option>
    <Option name="UseFisherCuts" modified="No">False</Option>
    <Option name="MinLinCorrForFisher" modified="No">8.000000e-01</Option>
    <Option name="UseExclusiveVars" modified="No">False</Option>
    <Option name="DoPreselection" modified="No">False</Option>
    <Option name="SigToBkgFraction" modified="No">1.000000e+00</Option>
    <Option name="PruneMethod" modified="No">nopruning</Option>
    <Option name="PruneStrength" modified="No">0.000000e+00</Option>
    <Option name="PruningValFraction" modified="No">5.000000e-01</Option>
    <Option name="SkipNormalization" modified="No">False</Option>
    <Option name="nEventsMin" modified="No">0</Option>
    <Option name="UseBaggedGrad" modified="No">False</Option>
    <Option name="GradBaggingFraction" modified="No">5.000000e-01</Option>
    <Option name="UseNTrainEvents" modified="No">0</Option>
    <Option name="NNodesMax" modified="No">0</Option>
  </Options>
  <Variables NVar="6">
    <Variable VarIndex="0" Expression="mjj" Label="mjj" Title="m_{jj}" Unit="GeV" Internal="mjj" Type="D" Min="7.50003479e+02" Max="8.69623633e+03"/>
    <Variable VarIndex="1" Expression="deltaRapidity" Label="deltaRapidity" Title="#Delta y_{jj}" Unit="" Internal="deltaRapidity" Type="D" Min="2.00020766e+00" Max="8.59782600e+00"/>
    <Variable VarIndex="2" Expression="ptBalance" Label="ptBalance" Title="pT_{balance}" Unit="" Internal="ptBalance" Type="D" Min="1.25554126e-18" Max="1.49860099e-01"/>
    <Variable VarIndex="3" Expression="zCentrality" Label="zCentrality" Title="#xi(Z)" Unit="" Internal="zCentrality" Type="D" Min="9.20502589e-06" Max="4.99961168e-01"/>
    <Variable VarIndex="4" Expression="omega" Label="omega" Title="#Omega" Unit="" Internal="omega" Type="D" Min="-1.99983269e-01" Max="1.39996660e+00"/>
    <Variable VarIndex="5" Expression="transverseMassLep/reco_mass" Label="transRecoMassRatio" Title="m_{T}(l)/m_{reco}" Unit="" Internal="transRecoMassRatio" Type="D" Min="7.56286568e-07" Max="1.04461050e+00"/>
  </Variables>
  <Spectators NSpec="1">
    <Spectator SpecIndex="0" Expression="eventNumber" Label="eventNumber" Title="I" Unit="" Internal="eventNumber" Type="F" Min="8.40000000e+01" Max="1.15952781e+09"/>
  </Spectators>
  <Classes NClass="2">
    <Class Name="Signal" Index="0"/>
    <Class Name="Background" Index="1"/>
  </Classes>
  <Transformations NTransformations="0"/>
  <MVAPdfs/>
  <Weights NTrees="125" AnalysisType="1">
    <BinaryTree type="DecisionTree" boostWeight="1.0000000000000000e+00" itree="0">
      <Node pos="s" depth="0" NCoef="0" IVar="2" Cut="2.9597617685794830e-02" cType="1" res="7.1716760285198689e-03" rms="4.9994856119155884e-01" purity="5.0717169046401978e-01" nType="0">
        <Node pos="l" depth="1" NCoef="0" IVar="3" Cut="3.3946108818054199e-01" cType="1" res="1.1948294192552567e-01" rms="4.8551398515701294e-01" purity="6.1948293447494507e-01" nType="0">
          <Node pos="l" depth="2" NCoef="0" IVar="-1" Cut="0.0000000000000000e+00" cType="1" res="3.3471535891294479e-02" rms="4.7115963697433472e-01" purity="6.6735768318176270e-01" nType="-99"/>
          <Node pos="r" depth="2" NCoef="0" IVar="-1" Cut="0.0000000000000000e+00" cType="1" res="-3.6808472126722336e-02" rms="4.6489611268043518e-01" purity="3.1595766544342041e-01" nType="-99"/>
        </Node>
        <Node pos="r" depth="1" NCoef="0" IVar="4" Cut="3.9291477203369141e-01" cType="1" res="-1.3793416321277618e-01" rms="4.8059770464897156e-01" purity="3.6206585168838501e-01" nType="0">
          <Node pos="l" depth="2" NCoef="0" IVar="-1" Cut="0.0000000000000000e+00" cType="1" res="-5.7918928563594818e-02" rms="4.0759655833244324e-01" purity="2.1040536463260651e-01" nType="-99"/>
          <Node pos="r" depth="2" NCoef="0" IVar="-1" Cut="0.0000000000000000e+00" cType="1" res="-9.1734286397695541e-03" rms="4.9789175391197205e-01" purity="4.5413288474082947e-01" nType="-99"/>
        </Node>
      </Node>
    </BinaryTree>
    <BinaryTree type="DecisionTree" boostWeight="1.0000000000000000e+00" itree="1">
      <Node pos="s" depth="0" NCoef="0" IVar="4" Cut="2.5433471798896790e-01" cType="1" res="1.1930189095437527e-02" rms="4.9409586191177368e-01" purity="5.1226973533630371e-01" nType="0">
        <Node pos="l" depth="1" NCoef="0" IVar="2" Cut="2.2198213264346123e-02" cType="1" res="-2.0166434347629547e-01" rms="4.4568207859992981e-01" purity="2.8778156638145447e-01" nType="0">
          <Node pos="l" depth="2" NCoef="0" IVar="-1" Cut="0.0000000000000000e+00" cType="1" res="-5.6909294798970222e-03" rms="4.9777612090110779e-01" purity="4.8184531927108765e-01" nType="-99"/>
          <Node pos="r" depth="2" NCoef="0" IVar="-1" Cut="0.0000000000000000e+00" cType="1" res="-6.3563272356987000e-02" rms="3.6434304714202881e-01" purity="1.5877538919448853e-01" nType="-99"/>
        </Node>
        <Node pos="r" depth="1" NCoef="0" IVar="1" Cut="4.0365495681762695e+00" cType="1" res="7.8450657427310944e-02" rms="4.8955795168876648e-01" purity="5.8218282461166382e-01" nType="0">
          <Node pos="l" depth="2" NCoef="0" IVar="-1" Cut="0.0000000000000000e+00" cType="1" res="-1.3802416622638702e-02" rms="4.9239298701286316e-01" purity="4.3175578117370605e-01" nType="-99"/>
          <Node pos="r" depth="2" NCoef="0" IVar="-1" Cut="0.0000000000000000e+00" cType="1" res="3.1237078830599785e-02" rms="4.6983069181442261e-01" purity="6.6137444972991943e-01" nType="-99"/>
        </Node>
      </Node>
    </BinaryTree>
    <BinaryTree type="DecisionTree" boostWeight="1.0000000000000000e+00" itree="2">
      <Node pos="s" depth="0" NCoef="0" IVar="2" Cut="2.4032412096858025e-02" cType="1" res="-1.3233430683612823e-02" rms="4.8994645476341248e-01" purity="4.8739337921142578e-01" nType="0">
        <Node pos="l" depth="1" NCoef="0" IVar="3" Cut="2.7774894237518311e-01" cType="1" res="1.0788577795028687e-01" rms="4.7946488857269287e-01" purity="6.2475430965423584e-01" nType="0">
          <Node pos="l" depth="2" NCoef="0" IVar="-1" Cut="0.0000000000000000e+00" cType="1" res="3.3334504812955856e-02" rms="4.6074894070625305e-01" purity="6.8919509649276733e-01" nType="-99"/>
          <Node pos="r" depth="2" NCoef="0" IVar="-1" Cut="0.0000000000000000e+00" cType="1" res="-1.7096489667892456e-02" rms="4.8942971229553223e-01" purity="4.1138711571693420e-01" nType="-99"/>
        </Node>
        <Node pos="r" depth="1" NCoef="0" IVar="4" Cut="3.7246093153953552e-01" cType="1" res="-1.2861587107181549e-01" rms="4.7163444757461548e-01" purity="3.5653850436210632e-01" nType="0">
          <Node pos="l" depth="2" NCoef="0" IVar="-1" Cut="0.0000000000000000e+00" cType="1" res="-4.9369242042303085e-02" rms="4.0459331870079041e-01" purity="2.0835943520069122e-01" nType="-99"/>
          <Node pos="r" depth="2" NCoef="0" IVar="-1" Cut="0.0000000000000000e+00" cType="1" res="-1.2043905444443226e-02" rms="4.9462896585464478e-01" purity="4.4434702396392822e-01" nType="-99"/>
        </Node>
      </Node>
    </BinaryTree>
    <BinaryTree type="DecisionTree" boostWeight="1.0000000000000000e+00" itree="3">
      <Node pos="s" depth="0" NCoef="0" IVar="0" Cut="1.6570135498046875e+03" cType="1" res="6.7616123706102371e-03" rms="4.8602205514907837e-01" purity="5.0667625665664673e-01" nType="0">
        <Node pos="l" depth="1" NCoef="0" IVar="4" Cut="1.9591306149959564e-01" cType="1" res="-6.0572706162929535e-02" rms="4.8331850767135620e-01" purity="4.3333193659782410e-01" nType="0">
          <Node pos="l" depth="2" NCoef="0" IVar="-1" Cut="0.0000000000000000e+00" cType="1" res="-5.4137598723173141e-02" rms="3.8517931103706360e-01" purity="1.8441149592399597e-01" nType="-99"/>
          <Node pos="r" depth="2" NCoef="0" IVar="-1" Cut="0.0000000000000000e+00" cType="1" res="-1.0731336660683155e-03" rms="4.9214002490043640e-01" purity="5.0042247772216797e-01" nType="-99"/>
        </Node>
        <Node pos="r" depth="1" NCoef="0" IVar="2" Cut="4.8036202788352966e-02" cType="1" res="1.8355415761470795e-01" rms="4.4714477658271790e-01" purity="6.9924879074096680e-01" nType="0">
          <Node pos="l" depth="2" NCoef="0" IVar="-1" Cut="0.0000000000000000e+00" cType="1" res="4.7412339597940445e-02" rms="4.1938772797584534e-01" purity="7.6079010963439941e-01" nType="-99"/>
          <Node pos="r" depth="2" NCoef="0" IVar="-1" Cut="0.0000000000000000e+00" cType="1" res="-3.8662485312670469e-03" rms="4.9204921722412109e-01" purity="4.5921114087104797e-01" nType="-99"/>
        </Node>
      </Node>
    </BinaryTree>
    <BinaryTree type="DecisionTree" boostWeight="1.0000000000000000e+00" itree="4">
      <Node pos="s" depth="0" NCoef="0" IVar="0" Cut="1.1426279296875000e+03" cType="1" res="1.8376536667346954e-02" rms="4.8150500655174255e-01" purity="5.2035766839981079e-01" nType="0">
        <Node pos="l" depth="1" NCoef="0" IVar="3" Cut="1.2960980832576752e-01" cType="1" res="-1.0217360407114029e-01" rms="4.7471311688423157e-01" purity="3.8156610727310181e-01" nType="0">
          <Node pos="l" depth="2" NCoef="0" IVar="-1" Cut="0.0000000000000000e+00" cType="1" res="8.8195310672745109e-04" rms="4.8856490850448608e-01" purity="4.9613580107688904e-01" nType="-99"/>
          <Node pos="r" depth="2" NCoef="0" IVar="-1" Cut="0.0000000000000000e+00" cType="1" res="-3.2649461179971695e-02" rms="4.5611792802810669e-01" purity="3.1764814257621765e-01" nType="-99"/>
        </Node>
        <Node pos="r" depth="1" NCoef="0" IVar="2" Cut="5.1795832812786102e-02" cType="1" res="1.1402700096368790e-01" rms="4.6510261297225952e-01" purity="6.3048177957534790e-01" nType="0">
          <Node pos="l" depth="2" NCoef="0" IVar="-1" Cut="0.0000000000000000e+00" cType="1" res="3.3658325672149658e-02" rms="4.4768357276916504e-01" purity="6.9676572084426880e-01" nType="-99"/>
          <Node pos="r" depth="2" NCoef="0" IVar="-1" Cut="0.0000000000000000e+00" cType="1" res="-1.5493135899305344e-02" rms="4.7725728154182434e-01" purity="3.8976049423217773e-01" nType="-99"/>
        </Node>
      </Node>
    </BinaryTree>
    <BinaryTree type="DecisionTree" boostWeight="1.0000000000000000e+00" itree="5">
      <Node pos="s" depth="0" NCoef="0" IVar="0" Cut="1.4912075195312500e+03" cType="1" res="-1.1123521253466606e-02" rms="4.7846829891204834e-01" purity="4.8902562260627747e-01" nType="0">
        <Node pos="l" depth="1" NCoef="0" IVar="3" Cut="2.9624968767166138e-01" cType="1" res="-7.6439030468463898e-02" rms="4.7496515512466431e-01" purity="4.0520077943801880e-01" nType="0">
          <Node pos="l" depth="2" NCoef="0" IVar="-1" Cut="0.0000000000000000e+00" cType="1" res="-4.6949093230068684e-03" rms="4.8386064171791077e-01" purity="4.6832048892974854e-01" nType="-99"/>
          <Node pos="r" depth="2" NCoef="0" IVar="-1" Cut="0.0000000000000000e+00" cType="1" res="-4.3392632156610489e-02" rms="4.2127412557601929e-01" purity="2.4253033101558685e-01" nType="-99"/>
        </Node>
        <Node pos="r" depth="1" NCoef="0" IVar="4" Cut="9.5753826200962067e-02" cType="1" res="1.1294568330049515e-01" rms="4.6019515395164490e-01" purity="6.4825403690338135e-01" nType="0">
          <Node pos="l" depth="2" NCoef="0" IVar="-1" Cut="0.0000000000000000e+00" cType="1" res="-3.2415695488452911e-02" rms="4.3541797995567322e-01" purity="3.1591787934303284e-01" nType="-99"/>
          <Node pos="r" depth="2" NCoef="0" IVar="-1" Cut="0.0000000000000000e+00" cType="1" res="2.9401732608675957e-02" rms="4.5251393318176270e-01" purity="6.8711262941360474e-01" nType="-99"/>
        </Node>
      </Node>
    </BinaryTree>
    <BinaryTree type="DecisionTree" boostWeight="1.0000000000000000e+00" itree="6">
      <Node pos="s" depth="0" NCoef="0" IVar="2" Cut="3.8852617144584656e-02" cType="1" res="-3.6590924719348550e-04" rms="4.7827214002609253e-01" purity="5.0045597553253174e-01" nType="0">
        <Node pos="l" depth="1" NCoef="0" IVar="1" Cut="3.7924823760986328e+00" cType="1" res="5.9121619910001755e-02" rms="4.7601956129074097e-01" purity="5.8535301685333252e-01" nType="0">
          <Node pos="l" depth="2" NCoef="0" IVar="-1" Cut="0.0000000000000000e+00" cType="1" res="-1.6877884045243263e-02" rms="4.8085212707519531e-01" purity="4.0145179629325867e-01" nType="-99"/>
          <Node pos="r" depth="2" NCoef="0" IVar="-1" Cut="0.0000000000000000e+00" cType="1" res="2.2370913997292519e-02" rms="4.6384701132774353e-01" purity="6.5068703889846802e-01" nType="-99"/>
        </Node>
        <Node pos="r" depth="1" NCoef="0" IVar="4" Cut="3.7410054355859756e-02" cType="1" res="-1.1295715719461441e-01" rms="4.6199375391006470e-01" purity="3.3977240324020386e-01" nType="0">
          <Node pos="l" depth="2" NCoef="0" IVar="-1" Cut="0.0000000000000000e+00" cType="1" res="-6.6736228764057159e-02" rms="2.4920372664928436e-01" purity="6.5474778413772583e-02" nType="-99"/>
          <Node pos="r" depth="2" NCoef="0" IVar="-1" Cut="0.0000000000000000e+00" cType="1" res="-1.5128411352634430e-02" rms="4.8284274339675903e-01" purity="3.9205083250999451e-01" nType="-99"/>
        </Node>
      </Node>
    </BinaryTree>
    <BinaryTree type="DecisionTree" boostWeight="1.0000000000000000e+00" itree="7">
      <Node pos="s" depth="0" NCoef="0" IVar="4" Cut="2.9364526271820068e-01" cType="1" res="1.0450319387018681e-03" rms="4.7399458289146423e-01" purity="4.9866694211959839e-01" nType="0">
        <Node pos="l" depth="1" NCoef="0" IVar="2" Cut="2.2198213264346123e-02" cType="1" res="-1.4176295697689056e-01" rms="4.3188637495040894e-01" purity="2.9598131775856018e-01" nType="0">
          <Node pos="l" depth="2" NCoef="0" IVar="-1" Cut="0.0000000000000000e+00" cType="1" res="-9.4689410179853439e-03" rms="4.8275077342987061e-01" purity="4.7134283185005188e-01" nType="-99"/>
          <Node pos="r" depth="2" NCoef="0" IVar="-1" Cut="0.0000000000000000e+00" cType="1" res="-4.3112330138683319e-02" rms="3.8387593626976013e-01" purity="1.8399268388748169e-01" nType="-99"/>
        </Node>
        <Node pos="r" depth="1" NCoef="0" IVar="2" Cut="2.9601994901895523e-02" cType="1" res="5.5498939007520676e-02" rms="4.7798976302146912e-01" purity="5.7595270872116089e-01" nType="0">
          <Node pos="l" depth="2" NCoef="0" IVar="-1" Cut="0.0000000000000000e+00" cType="1" res="2.6758527383208275e-02" rms="4.5530948042869568e-01" purity="6.7936885356903076e-01" nType="-99"/>
          <Node pos="r" depth="2" NCoef="0" IVar="-1" Cut="0.0000000000000000e+00" cType="1" res="-9.4347056001424789e-03" rms="4.8883509635925293e-01" purity="4.3572673201560974e-01" nType="-99"/>
        </Node>
      </Node>
    </BinaryTree>
    <BinaryTree type="DecisionTree" boostWeight="1.0000000000000000e+00" itree="8">
      <Node pos="s" depth="0" NCoef="0" IVar="1" Cut="4.9983730316162109e+00" cType="1" res="-7.9238163307309151e-03" rms="4.7012266516685486e-01" purity="4.9255266785621643e-01" nType="0">
        <Node pos="l" depth="1" NCoef="0" IVar="2" Cut="2.7748217806220055e-02" cType="1" res="-6.2134806066751480e-02" rms="4.7008219361305237e-01" purity="4.2047387361526489e-01" nType="0">
          <Node pos="l" depth="2" NCoef="0" IVar="-1" Cut="0.0000000000000000e+00" cType="1" res="2.2267152089625597e-03" rms="4.8483896255493164e-01" purity="5.4151928424835205e-01" nType="-99"/>
          <Node pos="r" depth="2" NCoef="0" IVar="-1" Cut="0.0000000000000000e+00" cType="1" res="-2.8706206008791924e-02" rms="4.4141784310340881e-01" purity="2.9403054714202881e-01" nType="-99"/>
        </Node>
        <Node pos="r" depth="1" NCoef="0" IVar="2" Cut="5.7308059185743332e-02" cType="1" res="1.3165305554866791e-01" rms="4.4052812457084656e-01" purity="6.7813366651535034e-01" nType="0">
          <Node pos="l" depth="2" NCoef="0" IVar="-1" Cut="0.0000000000000000e+00" cType="1" res="3.7978105247020721e-02" rms="4.1784957051277161e-01" purity="7.5603806972503662e-01" nType="-99"/>
          <Node pos="r" depth="2" NCoef="0" IVar="-1" Cut="0.0000000000000000e+00" cType="1" res="-1.3075577095150948e-02" rms="4.6938398480415344e-01" purity="3.8085243105888367e-01" nType="-99"/>
        </Node>
      </Node>
    </BinaryTree>
    <BinaryTree type="DecisionTree" boostWeight="1.0000000000000000e+00" itree="9">
      <Node pos="s" depth="0" NCoef="0" IVar="3" Cut="2.9625776410102844e-01" cType="1" res="-2.3785706143826246e-03" rms="4.7063216567039490e-01" purity="4.9749314785003662e-01" nType="0">
        <Node pos="l" depth="1" NCoef="0" IVar="4" Cut="7.6903469860553741e-02" cType="1" res="3.9501097053289413e-02" rms="4.7002485394477844e-01" purity="5.5369025468826294e-01" nType="0">
          <Node pos="l" depth="2" NCoef="0" IVar="-1" Cut="0.0000000000000000e+00" cType="1" res="-3.9567571133375168e-02" rms="3.8789385557174683e-01" purity="2.2033609449863434e-01" nType="-99"/>
          <Node pos="r" depth="2" NCoef="0" IVar="-1" Cut="0.0000000000000000e+00" cType="1" res="1.4692146331071854e-02" rms="4.7209960222244263e-01" purity="6.0136467218399048e-01" nType="-99"/>
        </Node>
        <Node pos="r" depth="1" NCoef="0" IVar="2" Cut="4.8103243112564087e-02" cType="1" res="-1.4816902577877045e-01" rms="4.4285759329795837e-01" purity="3.0186119675636292e-01" nType="0">
          <Node pos="l" depth="2" NCoef="0" IVar="-1" Cut="0.0000000000000000e+00" cType="1" res="-1.9462017342448235e-02" rms="4.7248879075050354e-01" purity="3.7758195400238037e-01" nType="-99"/>
          <Node pos="r" depth="2" NCoef="0" IVar="-1" Cut="0.0000000000000000e+00" cType="1" res="-5.4761081933975220e-02" rms="3.4829419851303101e-01" purity="1.4344175159931183e-01" nType="-99"/>
        </Node>
      </Node>
    </BinaryTree>
    <BinaryTree type="DecisionTree" boostWeight="1.0000000000000000e+00" itree="10">
      <Node pos="s" depth="0" NCoef="0" IVar="0" Cut="1.0443083496093750e+03" cType="1" res="-9.0988017618656158e-03" rms="4.6889320015907288e-01" purity="4.9149477481842041e-01" nType="0">
        <Node pos="l" depth="1" NCoef="0" IVar="3" Cut="3.0243054032325745e-01" cType="1" res="-1.0512910038232803e-01" rms="4.5622667670249939e-01" purity="3.4576687216758728e-01" nType="0">
          <Node pos="l" depth="2" NCoef="0" IVar="-1" Cut="0.0000000000000000e+00" cType="1" res="-1.3509965501725674e-02" rms="4.7670865058898926e-01" purity="4.0713682770729065e-01" nType="-99"/>
          <Node pos="r" depth="2" NCoef="0" IVar="-1" Cut="0.0000000000000000e+00" cType="1" res="-4.3708041310310364e-02" rms="3.8107356429100037e-01" purity="1.8893617391586304e-01" nType="-99"/>
        </Node>
        <Node pos="r" depth="1" NCoef="0" IVar="2" Cut="1.8498511984944344e-02" cType="1" res="4.6470783650875092e-02" rms="4.6713736653327942e-01" purity="5.7582277059555054e-01" nType="0">
          <Node pos="l" depth="2" NCoef="0" IVar="-1" Cut="0.0000000000000000e+00" cType="1" res="2.6170449331402779e-02" rms="4.4051459431648254e-01" purity="7.1216696500778198e-01" nType="-99"/>
          <Node pos="r" depth="2" NCoef="0" IVar="-1" Cut="0.0000000000000000e+00" cType="1" res="-3.5180137492716312e-03" rms="4.7821235656738281e-01" purity="4.6586585044860840e-01" nType="-99"/>
        </Node>
      </Node>
    </BinaryTree>
    <BinaryTree type="DecisionTree" boostWeight="1.0000000000000000e+00" itree="11">
      <Node pos="s" depth="0" NCoef="0" IVar="3" Cut="3.0243939161300659e-01" cType="1" res="1.2658353894948959e-02" rms="4.6392160654067993e-01" purity="5.1361340284347534e-01" nType="0">
        <Node pos="l" depth="1" NCoef="0" IVar="0" Cut="9.9681292724609375e+02" cType="1" res="5.5585607886314392e-02" rms="4.6498882770538330e-01" purity="5.7625037431716919e-01" nType="0">
          <Node pos="l" depth="2" NCoef="0" IVar="-1" Cut="0.0000000000000000e+00" cType="1" res="-1.0466089472174644e-02" rms="4.7689181566238403e-01" purity="4.1141253709793091e-01" nType="-99"/>
          <Node pos="r" depth="2" NCoef="0" IVar="-1" Cut="0.0000000000000000e+00" cType="1" res="2.0720923319458961e-02" rms="4.5290267467498779e-01" purity="6.4359885454177856e-01" nType="-99"/>
        </Node>
        <Node pos="r" depth="1" NCoef="0" IVar="2" Cut="2.2201495245099068e-02" cType="1" res="-1.5467569231987000e-01" rms="4.1973203420639038e-01" purity="2.6944950222969055e-01" nType="0">
          <Node pos="l" depth="2" NCoef="0" IVar="-1" Cut="0.0000000000000000e+00" cType="1" res="-1.4339642599225044e-02" rms="4.7458368539810181e-01" purity="4.0361952781677246e-01" nType="-99"/>
          <Node pos="r" depth="2" NCoef="0" IVar="-1" Cut="0.0000000000000000e+00" cType="1" res="-4.7112416476011276e-02" rms="3.6043158173561096e-01" purity="1.6861645877361298e-01" nType="-99"/>
        </Node>
      </Node>
    </BinaryTree>
    <BinaryTree type="DecisionTree" boostWeight="1.0000000000000000e+00" itree="12">
      <Node pos="s" depth="0" NCoef="0" IVar="0" Cut="1.3271939697265625e+03" cType="1" res="8.9979823678731918e-03" rms="4.5999041199684143e-01" purity="5.0718384981155396e-01" nType="0">
        <Node pos="l" depth="1" NCoef="0" IVar="4" Cut="3.3367839455604553e-01" cType="1" res="-4.8291999846696854e-02" rms="4.6434766054153442e-01" purity="4.0584057569503784e-01" nType="0">
          <Node pos="l" depth="2" NCoef="0" IVar="-1" Cut="0.0000000000000000e+00" cType="1" res="-3.2639574259519577e-02" rms="4.1112044453620911e-01" purity="2.3208583891391754e-01" nType="-99"/>
          <Node pos="r" depth="2" NCoef="0" IVar="-1" Cut="0.0000000000000000e+00" cType="1" res="7.9310251749120653e-05" rms="4.8057737946510315e-01" purity="4.9008503556251526e-01" nType="-99"/>
        </Node>
        <Node pos="r" depth="1" NCoef="0" IVar="2" Cut="3.6950923502445221e-02" cType="1" res="8.7990045547485352e-02" rms="4.4189676642417908e-01" purity="6.4691716432571411e-01" nType="0">
          <Node pos="l" depth="2" NCoef="0" IVar="-1" Cut="0.0000000000000000e+00" cType="1" res="3.1973384320735931e-02" rms="4.1467830538749695e-01" purity="7.6001608371734619e-01" nType="-99"/>
          <Node pos="r" depth="2" NCoef="0" IVar="-1" Cut="0.0000000000000000e+00" cType="1" res="-8.2181403413414955e-03" rms="4.6838092803955078e-01" purity="4.1268700361251831e-01" nType="-99"/>
        </Node>
      </Node>
    </BinaryTree>
    <BinaryTree type="DecisionTree" boostWeight="1.0000000000000000e+00" itree="13">
      <Node pos="s" depth="0" NCoef="0" IVar="3" Cut="2.1602688729763031e-01" cType="1" res="-9.2567125102505088e-04" rms="4.6159458160400391e-01" purity="5.0342988967895508e-01" nType="0">
        <Node pos="l" depth="1" NCoef="0" IVar="1" Cut="3.2455277442932129e+00" cType="1" res="5.3749598562717438e-02" rms="4.6027347445487976e-01" purity="5.8528453111648560e-01" nType="0">
          <Node pos="l" depth="2" NCoef="0" IVar="-1" Cut="0.0000000000000000e+00" cType="1" res="-3.5798829048871994e-02" rms="4.4567415118217468e-01" purity="3.0018848180770874e-01" nType="-99"/>
          <Node pos="r" depth="2" NCoef="0" IVar="-1" Cut="0.0000000000000000e+00" cType="1" res="1.7256963998079300e-02" rms="4.5424088835716248e-01" purity="6.2038522958755493e-01" nType="-99"/>
        </Node>
        <Node pos="r" depth="1" NCoef="0" IVar="1" Cut="4.6359677314758301e+00" cType="1" res="-9.0369865298271179e-02" rms="4.4963461160659790e-01" purity="3.6952248215675354e-01" nType="0">
          <Node pos="l" depth="2" NCoef="0" IVar="-1" Cut="0.0000000000000000e+00" cType="1" res="-2.7686387300491333e-02" rms="4.3785831332206726e-01" purity="2.9417842626571655e-01" nType="-99"/>
          <Node pos="r" depth="2" NCoef="0" IVar="-1" Cut="0.0000000000000000e+00" cType="1" res="-1.9930852577090263e-03" rms="4.6229517459869385e-01" purity="5.2318793535232544e-01" nType="-99"/>
        </Node>
      </Node>
    </BinaryTree>
    <BinaryTree type="DecisionTree" boostWeight="1.0000000000000000e+00" itree="14">
      <Node pos="s" depth="0" NCoef="0" IVar="4" Cut="3.7090260535478592e-02" cType="1" res="-1.6608271980658174e-03" rms="4.6046468615531921e-01" purity="5.0117892026901245e-01" nType="0">
        <Node pos="l" depth="1" NCoef="0" IVar="5" Cut="5.6783229112625122e-01" cType="1" res="-1.9325861334800720e-01" rms="3.2791492342948914e-01" purity="1.5793672204017639e-01" nType="0">
          <Node pos="l" depth="2" NCoef="0" IVar="-1" Cut="0.0000000000000000e+00" cType="1" res="-2.2468652576208115e-02" rms="3.9715158939361572e-01" purity="2.7268180251121521e-01" nType="-99"/>
          <Node pos="r" depth="2" NCoef="0" IVar="-1" Cut="0.0000000000000000e+00" cType="1" res="-6.1547864228487015e-02" rms="2.4363778531551361e-01" purity="7.3686309158802032e-02" nType="-99"/>
        </Node>
        <Node pos="r" depth="1" NCoef="0" IVar="4" Cut="1.0969835519790649e+00" cType="1" res="1.8451791256666183e-02" rms="4.6769574284553528e-01" purity="5.3721010684967041e-01" nType="0">
          <Node pos="l" depth="2" NCoef="0" IVar="-1" Cut="0.0000000000000000e+00" cType="1" res="7.7708265744149685e-03" rms="4.6566712856292725e-01" purity="5.5888247489929199e-01" nType="-99"/>
          <Node pos="r" depth="2" NCoef="0" IVar="-1" Cut="0.0000000000000000e+00" cType="1" res="-3.8299821317195892e-02" rms="4.4058850407600403e-01" purity="2.9700082540512085e-01" nType="-99"/>
        </Node>
      </Node>
    </BinaryTree>
    <BinaryTree type="DecisionTree" boostWeight="1.0000000000000000e+00" itree="15">
      <Node pos="s" depth="0" NCoef="0" IVar="4" Cut="3.7114135921001434e-02" cType="1" res="-8.2172146067023277e-03" rms="4.6106269955635071e-01" purity="4.9243766069412231e-01" nType="0">
        <Node pos="l" depth="1" NCoef="0" IVar="2" Cut="5.4359231144189835e-02" cType="1" res="-1.7296905815601349e-01" rms="3.3748173713684082e-01" purity="1.5376572310924530e-01" nType="0">
          <Node pos="l" depth="2" NCoef="0" IVar="-1" Cut="0.0000000000000000e+00" cType="1" res="-2.9543783515691757e-02" rms="4.1402778029441833e-01" purity="2.4557641148567200e-01" nType="-99"/>
          <Node pos="r" depth="2" NCoef="0" IVar="-1" Cut="0.0000000000000000e+00" cType="1" res="-5.9056956321001053e-02" rms="1.8382571637630463e-01" purity="3.3917836844921112e-02" nType="-99"/>
        </Node>
        <Node pos="r" depth="1" NCoef="0" IVar="4" Cut="1.0298565626144409e+00" cType="1" res="1.0483581572771072e-02" rms="4.6941423416137695e-01" purity="5.3087997436523438e-01" nType="0">
          <Node pos="l" depth="2" NCoef="0" IVar="-1" Cut="0.0000000000000000e+00" cType="1" res="6.4607844687998295e-03" rms="4.6837395429611206e-01" purity="5.5511778593063354e-01" nType="-99"/>
          <Node pos="r" depth="2" NCoef="0" IVar="-1" Cut="0.0000000000000000e+00" cType="1" res="-3.1326334923505783e-02" rms="4.4581827521324158e-01" purity="3.3573281764984131e-01" nType="-99"/>
        </Node>
      </Node>
    </BinaryTree>
    <BinaryTree type="DecisionTree" boostWeight="1.0000000000000000e+00" itree="16">
      <Node pos="s" depth="0" NCoef="0" IVar="4" Cut="9.6232794225215912e-02" cType="1" res="5.0224782899022102e-03" rms="4.6000096201896667e-01" purity="5.0632125139236450e-01" nType="0">
        <Node pos="l" depth="1" NCoef="0" IVar="0" Cut="1.0500216064453125e+03" cType="1" res="-1.4198459684848785e-01" rms="3.6000066995620728e-01" purity="1.9531397521495819e-01" nType="0">
          <Node pos="l" depth="2" NCoef="0" IVar="-1" Cut="0.0000000000000000e+00" cType="1" res="-5.3863298147916794e-02" rms="2.5392612814903259e-01" purity="6.7114226520061493e-02" nType="-99"/>
          <Node pos="r" depth="2" NCoef="0" IVar="-1" Cut="0.0000000000000000e+00" cType="1" res="-2.2418497130274773e-02" rms="4.0834370255470276e-01" purity="2.7785107493400574e-01" nType="-99"/>
        </Node>
        <Node pos="r" depth="1" NCoef="0" IVar="4" Cut="1.1904186010360718e+00" cType="1" res="2.7242949232459068e-02" rms="4.6929213404655457e-01" purity="5.5333065986633301e-01" nType="0">
          <Node pos="l" depth="2" NCoef="0" IVar="-1" Cut="0.0000000000000000e+00" cType="1" res="8.0549260601401329e-03" rms="4.6942907571792603e-01" purity="5.6762498617172241e-01" nType="-99"/>
          <Node pos="r" depth="2" NCoef="0" IVar="-1" Cut="0.0000000000000000e+00" cType="1" res="-4.9508541822433472e-02" rms="3.7954142689704895e-01" purity="2.1022421121597290e-01" nType="-99"/>
        </Node>
      </Node>
    </BinaryTree>
    <BinaryTree type="DecisionTree" boostWeight="1.0000000000000000e+00" itree="17">
      <Node pos="s" depth="0" NCoef="0" IVar="2" Cut="3.1447470188140869e-02" cType="1" res="-1.2647313065826893e-02" rms="4.5616823434829712e-01" purity="4.8563560843467712e-01" nType="0">
        <Node pos="l" depth="1" NCoef="0" IVar="0" Cut="2.4177358398437500e+03" cType="1" res="3.6711607128381729e-02" rms="4.5961797237396240e-01" purity="6.0093587636947632e-01" nType="0">
          <Node pos="l" depth="2" NCoef="0" IVar="-1" Cut="0.0000000000000000e+00" cType="1" res="2.8303342405706644e-03" rms="4.7028923034667969e-01" purity="5.6156957149505615e-01" nType="-99"/>
          <Node pos="r" depth="2" NCoef="0" IVar="-1" Cut="0.0000000000000000e+00" cType="1" res="4.2007610201835632e-02" rms="3.5051900148391724e-01" purity="8.5111212730407715e-01" nType="-99"/>
        </Node>
        <Node pos="r" depth="1" NCoef="0" IVar="4" Cut="1.0048185586929321e+00" cType="1" res="-7.9029642045497894e-02" rms="4.4289666414260864e-01" purity="3.3056941628456116e-01" nType="0">
          <Node pos="l" depth="2" NCoef="0" IVar="-1" Cut="0.0000000000000000e+00" cType="1" res="-1.2342467904090881e-02" rms="4.4586277008056641e-01" purity="3.5032591223716736e-01" nType="-99"/>
          <Node pos="r" depth="2" NCoef="0" IVar="-1" Cut="0.0000000000000000e+00" cType="1" res="-3.8879424333572388e-02" rms="4.1190814971923828e-01" purity="2.3680037260055542e-01" nType="-99"/>
        </Node>
      </Node>
    </BinaryTree>
    <BinaryTree type="DecisionTree" boostWeight="1.0000000000000000e+00" itree="18">
      <Node pos="s" depth="0" NCoef="0" IVar="1" Cut="5.5782752037048340e+00" cType="1" res="-1.4323724899441004e-03" rms="4.5645910501480103e-01" purity="5.0036334991455078e-01" nType="0">
        <Node pos="l" depth="1" NCoef="0" IVar="2" Cut="1.2948958203196526e-02" cType="1" res="-2.5546981021761894e-02" rms="4.6077978610992432e-01" purity="4.5397794246673584e-01" nType="0">
          <Node pos="l" depth="2" NCoef="0" IVar="-1" Cut="0.0000000000000000e+00" cType="1" res="1.2407651171088219e-02" rms="4.6266859769821167e-01" purity="6.2252539396286011e-01" nType="-99"/>
          <Node pos="r" depth="2" NCoef="0" IVar="-1" Cut="0.0000000000000000e+00" cType="1" res="-1.2880831956863403e-02" rms="4.5558476448059082e-01" purity="3.8561898469924927e-01" nType="-99"/>
        </Node>
        <Node pos="r" depth="1" NCoef="0" IVar="5" Cut="1.7947439849376678e-01" cType="1" res="1.2561525404453278e-01" rms="4.1020795702934265e-01" purity="7.4474459886550903e-01" nType="0">
          <Node pos="l" depth="2" NCoef="0" IVar="-1" Cut="0.0000000000000000e+00" cType="1" res="4.4518094509840012e-02" rms="3.4915950894355774e-01" purity="8.4535789489746094e-01" nType="-99"/>
          <Node pos="r" depth="2" NCoef="0" IVar="-1" Cut="0.0000000000000000e+00" cType="1" res="3.4330515190958977e-03" rms="4.6920332312583923e-01" purity="5.8893734216690063e-01" nType="-99"/>
        </Node>
      </Node>
    </BinaryTree>
    <BinaryTree type="DecisionTree" boostWeight="1.0000000000000000e+00" itree="19">
      <Node pos="s" depth="0" NCoef="0" IVar="4" Cut="4.3214383721351624e-01" cType="1" res="1.2586748925969005e-04" rms="4.5633158087730408e-01" purity="4.9911797046661377e-01" nType="0">
        <Node pos="l" depth="1" NCoef="0" IVar="1" Cut="5.4901847839355469e+00" cType="1" res="-7.2370171546936035e-02" rms="4.4228842854499817e-01" purity="3.5899838805198669e-01" nType="0">
          <Node pos="l" depth="2" NCoef="0" IVar="-1" Cut="0.0000000000000000e+00" cType="1" res="-2.2117285057902336e-02" rms="4.3860110640525818e-01" purity="3.1096780300140381e-01" nType="-99"/>
          <Node pos="r" depth="2" NCoef="0" IVar="-1" Cut="0.0000000000000000e+00" cType="1" res="1.8445912748575211e-02" rms="4.3184480071067810e-01" purity="6.4206808805465698e-01" nType="-99"/>
        </Node>
        <Node pos="r" depth="1" NCoef="0" IVar="1" Cut="4.0368218421936035e+00" cType="1" res="4.4044516980648041e-02" rms="4.5909768342971802e-01" purity="5.8400350809097290e-01" nType="0">
          <Node pos="l" depth="2" NCoef="0" IVar="-1" Cut="0.0000000000000000e+00" cType="1" res="-7.6169259846210480e-03" rms="4.7507077455520630e-01" purity="4.2694628238677979e-01" nType="-99"/>
          <Node pos="r" depth="2" NCoef="0" IVar="-1" Cut="0.0000000000000000e+00" cType="1" res="1.8390219658613205e-02" rms="4.4504094123840332e-01" purity="6.6451472043991089e-01" nType="-99"/>
        </Node>
      </Node>
    </BinaryTree>
    <BinaryTree type="DecisionTree" boostWeight="1.0000000000000000e+00" itree="20">
      <Node pos="s" depth="0" NCoef="0" IVar="3" Cut="2.5300213694572449e-01" cType="1" res="7.3360824026167393e-03" rms="4.5321682095527649e-01" purity="5.0623941421508789e-01" nType="0">
        <Node pos="l" depth="1" NCoef="0" IVar="4" Cut="3.3338642120361328e-01" cType="1" res="4.7360528260469437e-02" rms="4.5019939541816711e-01" purity="5.7900887727737427e-01" nType="0">
          <Node pos="l" depth="2" NCoef="0" IVar="-1" Cut="0.0000000000000000e+00" cType="1" res="-9.0891197323799133e-03" rms="4.4348055124282837e-01" purity="3.9038449525833130e-01" nType="-99"/>
          <Node pos="r" depth="2" NCoef="0" IVar="-1" Cut="0.0000000000000000e+00" cType="1" res="1.7665186896920204e-02" rms="4.4802528619766235e-01" purity="6.5501952171325684e-01" nType="-99"/>
        </Node>
        <Node pos="r" depth="1" NCoef="0" IVar="2" Cut="2.0364189520478249e-02" cType="1" res="-8.0344013869762421e-02" rms="4.4741484522819519e-01" purity="3.4682601690292358e-01" nType="0">
          <Node pos="l" depth="2" NCoef="0" IVar="-1" Cut="0.0000000000000000e+00" cType="1" res="-5.5955555289983749e-03" rms="4.7664275765419006e-01" purity="4.8296844959259033e-01" nType="-99"/>
          <Node pos="r" depth="2" NCoef="0" IVar="-1" Cut="0.0000000000000000e+00" cType="1" res="-2.6739813387393951e-02" rms="4.2200446128845215e-01" purity="2.5249421596527100e-01" nType="-99"/>
        </Node>
      </Node>
    </BinaryTree>
    <BinaryTree type="DecisionTree" boostWeight="1.0000000000000000e+00" itree="21">
      <Node pos="s" depth="0" NCoef="0" IVar="0" Cut="2.3064450683593750e+03" cType="1" res="4.1868980042636395e-03" rms="4.5256161689758301e-01" purity="5.0373321771621704e-01" nType="0">
        <Node pos="l" depth="1" NCoef="0" IVar="3" Cut="1.9750703871250153e-01" cType="1" res="-1.6301779076457024e-02" rms="4.5731586217880249e-01" purity="4.6294087171554565e-01" nType="0">
          <Node pos="l" depth="2" NCoef="0" IVar="-1" Cut="0.0000000000000000e+00" cType="1" res="7.2713079862296581e-03" rms="4.5696726441383362e-01" purity="5.5497926473617554e-01" nType="-99"/>
          <Node pos="r" depth="2" NCoef="0" IVar="-1" Cut="0.0000000000000000e+00" cType="1" res="-1.7331555485725403e-02" rms="4.5001977682113647e-01" purity="3.4845983982086182e-01" nType="-99"/>
        </Node>
        <Node pos="r" depth="1" NCoef="0" IVar="3" Cut="2.0954672992229462e-01" cType="1" res="1.5628950297832489e-01" rms="3.8268408179283142e-01" purity="8.0656480789184570e-01" nType="0">
          <Node pos="l" depth="2" NCoef="0" IVar="-1" Cut="0.0000000000000000e+00" cType="1" res="3.0192952603101730e-02" rms="3.8635954260826111e-01" purity="7.9072499275207520e-01" nType="-99"/>
          <Node pos="r" depth="2" NCoef="0" IVar="-1" Cut="0.0000000000000000e+00" cType="1" res="5.0209183245897293e-02" rms="3.6527797579765320e-01" purity="8.4335345029830933e-01" nType="-99"/>
        </Node>
      </Node>
    </BinaryTree>
    <BinaryTree type="DecisionTree" boostWeight="1.0000000000000000e+00" itree="22">
      <Node pos="s" depth="0" NCoef="0" IVar="3" Cut="3.2713827490806580e-01" cType="1" res="-9.3822758644819260e-03" rms="4.5028576254844666e-01" purity="4.8901373147964478e-01" nType="0">
        <Node pos="l" depth="1" NCoef="0" IVar="4" Cut="2.9367014765739441e-01" cType="1" res="1.5878710895776749e-02" rms="4.5419105887413025e-01" purity="5.4135280847549438e-01" nType="0">
          <Node pos="l" depth="2" NCoef="0" IVar="-1" Cut="0.0000000000000000e+00" cType="1" res="-1.7487617209553719e-02" rms="4.3418991565704346e-01" purity="3.2113727927207947e-01" nType="-99"/>
          <Node pos="r" depth="2" NCoef="0" IVar="-1" Cut="0.0000000000000000e+00" cType="1" res="1.0560913942754269e-02" rms="4.5664367079734802e-01" purity="6.2049120664596558e-01" nType="-99"/>
        </Node>
        <Node pos="r" depth="1" NCoef="0" IVar="1" Cut="3.6341645717620850e+00" cType="1" res="-1.2498493492603302e-01" rms="4.1268417239189148e-01" purity="2.4949257075786591e-01" nType="0">
          <Node pos="l" depth="2" NCoef="0" IVar="-1" Cut="0.0000000000000000e+00" cType="1" res="-1.4736056327819824e-02" rms="4.3700858950614929e-01" purity="2.6437470316886902e-01" nType="-99"/>
          <Node pos="r" depth="2" NCoef="0" IVar="-1" Cut="0.0000000000000000e+00" cType="1" res="-3.4514561295509338e-02" rms="3.9678102731704712e-01" purity="2.4224220216274261e-01" nType="-99"/>
        </Node>
      </Node>
    </BinaryTree>
    <BinaryTree type="DecisionTree" boostWeight="1.0000000000000000e+00" itree="23">
      <Node pos="s" depth="0" NCoef="0" IVar="0" Cut="1.4921124267578125e+03" cType="1" res="-5.9332661330699921e-03" rms="4.5019540190696716e-01" purity="4.9247372150421143e-01" nType="0">
        <Node pos="l" depth="1" NCoef="0" IVar="2" Cut="3.1447470188140869e-02" cType="1" res="-4.4183809310197830e-02" rms="4.5500087738037109e-01" purity="3.9921978116035461e-01" nType="0">
          <Node pos="l" depth="2" NCoef="0" IVar="-1" Cut="0.0000000000000000e+00" cType="1" res="-2.5743534206412733e-04" rms="4.7352898120880127e-01" purity="5.0640594959259033e-01" nType="-99"/>
          <Node pos="r" depth="2" NCoef="0" IVar="-1" Cut="0.0000000000000000e+00" cType="1" res="-2.1189868450164795e-02" rms="4.2755144834518433e-01" purity="2.7652329206466675e-01" nType="-99"/>
        </Node>
        <Node pos="r" depth="1" NCoef="0" IVar="3" Cut="2.3453986644744873e-01" cType="1" res="6.9648616015911102e-02" rms="4.3067041039466858e-01" purity="6.7674052715301514e-01" nType="0">
          <Node pos="l" depth="2" NCoef="0" IVar="-1" Cut="0.0000000000000000e+00" cType="1" res="2.5952896103262901e-02" rms="4.0508368611335754e-01" purity="7.4528181552886963e-01" nType="-99"/>
          <Node pos="r" depth="2" NCoef="0" IVar="-1" Cut="0.0000000000000000e+00" cType="1" res="-1.1426420882344246e-02" rms="4.7556307911872864e-01" purity="4.8167315125465393e-01" nType="-99"/>
        </Node>
      </Node>
    </BinaryTree>
    <BinaryTree type="DecisionTree" boostWeight="1.0000000000000000e+00" itree="24">
      <Node pos="s" depth="0" NCoef="0" IVar="1" Cut="3.3036048412322998e+00" cType="1" res="1.9778218120336533e-03" rms="4.5077943801879883e-01" purity="5.0195193290710449e-01" nType="0">
        <Node pos="l" depth="1" NCoef="0" IVar="4" Cut="4.4919356703758240e-01" cType="1" res="-1.0870180279016495e-01" rms="4.3365108966827393e-01" purity="3.0780532956123352e-01" nType="0">
          <Node pos="l" depth="2" NCoef="0" IVar="-1" Cut="0.0000000000000000e+00" cType="1" res="-4.1883166879415512e-02" rms="3.6523947119712830e-01" purity="1.6855897009372711e-01" nType="-99"/>
          <Node pos="r" depth="2" NCoef="0" IVar="-1" Cut="0.0000000000000000e+00" cType="1" res="-1.4060809276998043e-02" rms="4.6408244967460632e-01" purity="3.8919702172279358e-01" nType="-99"/>
        </Node>
        <Node pos="r" depth="1" NCoef="0" IVar="4" Cut="1.1608824133872986e-01" cType="1" res="2.0404374226927757e-02" rms="4.5093810558319092e-01" purity="5.3427457809448242e-01" nType="0">
          <Node pos="l" depth="2" NCoef="0" IVar="-1" Cut="0.0000000000000000e+00" cType="1" res="-2.4366276338696480e-02" rms="3.8025096058845520e-01" purity="2.2968366742134094e-01" nType="-99"/>
          <Node pos="r" depth="2" NCoef="0" IVar="-1" Cut="0.0000000000000000e+00" cType="1" res="8.8381208479404449e-03" rms="4.5907905697822571e-01" purity="5.8708256483078003e-01" nType="-99"/>
        </Node>
      </Node>
    </BinaryTree>
    <BinaryTree type="DecisionTree" boostWeight="1.0000000000000000e+00" itree="25">
      <Node pos="s" depth="0" NCoef="0" IVar="2" Cut="5.1803492009639740e-02" cType="1" res="-1.3108532875776291e-02" rms="4.5011925697326660e-01" purity="4.8926031589508057e-01" nType="0">
        <Node pos="l" depth="1" NCoef="0" IVar="4" Cut="5.1114976406097412e-01" cType="1" res="1.2549397535622120e-02" rms="4.5838806033134460e-01" purity="5.6090033054351807e-01" nType="0">
          <Node pos="l" depth="2" NCoef="0" IVar="-1" Cut="0.0000000000000000e+00" cType="1" res="-6.3775195740163326e-03" rms="4.5894286036491394e-01" purity="4.6147733926773071e-01" nType="-99"/>
          <Node pos="r" depth="2" NCoef="0" IVar="-1" Cut="0.0000000000000000e+00" cType="1" res="9.2826988548040390e-03" rms="4.5568153262138367e-01" purity="6.3217115402221680e-01" nType="-99"/>
        </Node>
        <Node pos="r" depth="1" NCoef="0" IVar="4" Cut="1.0246438980102539e+00" cType="1" res="-8.6739800870418549e-02" rms="4.1681933403015137e-01" purity="2.8367283940315247e-01" nType="0">
          <Node pos="l" depth="2" NCoef="0" IVar="-1" Cut="0.0000000000000000e+00" cType="1" res="-1.1952145956456661e-02" rms="4.2090395092964172e-01" purity="3.1289151310920715e-01" nType="-99"/>
          <Node pos="r" depth="2" NCoef="0" IVar="-1" Cut="0.0000000000000000e+00" cType="1" res="-4.8706229776144028e-02" rms="3.6892724037170410e-01" purity="1.6916002333164215e-01" nType="-99"/>
        </Node>
      </Node>
    </BinaryTree>
    <BinaryTree type="DecisionTree" boostWeight="1.0000000000000000e+00" itree="26">
      <Node pos="s" depth="0" NCoef="0" IVar="3" Cut="1.2966719269752502e-01" cType="1" res="1.2560345232486725e-02" rms="4.5122167468070984e-01" purity="5.0851583480834961e-01" nType="0">
        <Node pos="l" depth="1" NCoef="0" IVar="2" Cut="7.0206753909587860e-02" cType="1" res="6.2731407582759857e-02" rms="4.4674804806709290e-01" purity="6.1033946275711060e-01" nType="0">
          <Node pos="l" depth="2" NCoef="0" IVar="-1" Cut="0.0000000000000000e+00" cType="1" res="1.9066296517848969e-02" rms="4.4364425539970398e-01" purity="6.6136664152145386e-01" nType="-99"/>
          <Node pos="r" depth="2" NCoef="0" IVar="-1" Cut="0.0000000000000000e+00" cType="1" res="-1.4991840347647667e-02" rms="4.4145944714546204e-01" purity="3.2673916220664978e-01" nType="-99"/>
        </Node>
        <Node pos="r" depth="1" NCoef="0" IVar="2" Cut="9.2326886951923370e-03" cType="1" res="-2.1514292806386948e-02" rms="4.5106396079063416e-01" purity="4.3936038017272949e-01" nType="0">
          <Node pos="l" depth="2" NCoef="0" IVar="-1" Cut="0.0000000000000000e+00" cType="1" res="1.5354271046817303e-02" rms="4.5082375407218933e-01" purity="6.3520288467407227e-01" nType="-99"/>
          <Node pos="r" depth="2" NCoef="0" IVar="-1" Cut="0.0000000000000000e+00" cType="1" res="-1.0135173797607422e-02" rms="4.4815078377723694e-01" purity="3.8967552781105042e-01" nType="-99"/>
        </Node>
      </Node>
    </BinaryTree>
    <BinaryTree type="DecisionTree" boostWeight="1.0000000000000000e+00" itree="27">
      <Node pos="s" depth="0" NCoef="0" IVar="2" Cut="1.4800997450947762e-02" cType="1" res="-2.1487660706043243e-03" rms="4.4930484890937805e-01" purity="4.9780380725860596e-01" nType="0">
        <Node pos="l" depth="1" NCoef="0" IVar="4" Cut="7.2999960184097290e-01" cType="1" res="7.3032185435295105e-02" rms="4.3761727213859558e-01" purity="6.7661476135253906e-01" nType="0">
          <Node pos="l" depth="2" NCoef="0" IVar="-1" Cut="0.0000000000000000e+00" cType="1" res="8.1564141437411308e-03" rms="4.5360219478607178e-01" purity="6.2342607975006104e-01" nType="-99"/>
          <Node pos="r" depth="2" NCoef="0" IVar="-1" Cut="0.0000000000000000e+00" cType="1" res="3.0708048492670059e-02" rms="4.0101167559623718e-01" purity="7.6819449663162231e-01" nType="-99"/>
        </Node>
        <Node pos="r" depth="1" NCoef="0" IVar="3" Cut="8.0313041806221008e-02" cType="1" res="-3.9375845342874527e-02" rms="4.5035886764526367e-01" purity="4.0926268696784973e-01" nType="0">
          <Node pos="l" depth="2" NCoef="0" IVar="-1" Cut="0.0000000000000000e+00" cType="1" res="8.6769908666610718e-03" rms="4.5743483304977417e-01" purity="5.3725975751876831e-01" nType="-99"/>
          <Node pos="r" depth="2" NCoef="0" IVar="-1" Cut="0.0000000000000000e+00" cType="1" res="-1.5027569606900215e-02" rms="4.4475615024566650e-01" purity="3.6575299501419067e-01" nType="-99"/>
        </Node>
      </Node>
    </BinaryTree>
    <BinaryTree type="DecisionTree" boostWeight="1.0000000000000000e+00" itree="28">
      <Node pos="s" depth="0" NCoef="0" IVar="0" Cut="1.0434653320312500e+03" cType="1" res="-1.1876793578267097e-03" rms="4.4534239172935486e-01" purity="4.9219381809234619e-01" nType="0">
        <Node pos="l" depth="1" NCoef="0" IVar="1" Cut="3.1635625362396240e+00" cType="1" res="-6.5064787864685059e-02" rms="4.3740251660346985e-01" purity="3.3237805962562561e-01" nType="0">
          <Node pos="l" depth="2" NCoef="0" IVar="-1" Cut="0.0000000000000000e+00" cType="1" res="-3.3053103834390640e-02" rms="4.1270655393600464e-01" purity="2.2748973965644836e-01" nType="-99"/>
          <Node pos="r" depth="2" NCoef="0" IVar="-1" Cut="0.0000000000000000e+00" cType="1" res="-9.8183089867234230e-03" rms="4.4123893976211548e-01" purity="3.6047104001045227e-01" nType="-99"/>
        </Node>
        <Node pos="r" depth="1" NCoef="0" IVar="4" Cut="3.6714196205139160e-02" cType="1" res="3.6264035850763321e-02" rms="4.4569525122642517e-01" purity="5.8589524030685425e-01" nType="0">
          <Node pos="l" depth="2" NCoef="0" IVar="-1" Cut="0.0000000000000000e+00" cType="1" res="-2.6558181270956993e-02" rms="3.5943052172660828e-01" purity="1.9821567833423615e-01" nType="-99"/>
          <Node pos="r" depth="2" NCoef="0" IVar="-1" Cut="0.0000000000000000e+00" cType="1" res="1.1554387398064137e-02" rms="4.5166689157485962e-01" purity="6.2934607267379761e-01" nType="-99"/>
        </Node>
      </Node>
    </BinaryTree>
    <BinaryTree type="DecisionTree" boostWeight="1.0000000000000000e+00" itree="29">
      <Node pos="s" depth="0" NCoef="0" IVar="1" Cut="6.4974102973937988e+00" cType="1" res="2.7534386608749628e-03" rms="4.4758781790733337e-01" purity="5.0048834085464478e-01" nType="0">
        <Node pos="l" depth="1" NCoef="0" IVar="2" Cut="2.5901746004819870e-02" cType="1" res="-6.5280520357191563e-03" rms="4.5216724276542664e-01" purity="4.8392820358276367e-01" nType="0">
          <Node pos="l" depth="2" NCoef="0" IVar="-1" Cut="0.0000000000000000e+00" cType="1" res="6.5029030665755272e-03" rms="4.5695281028747559e-01" purity="6.1231535673141479e-01" nType="-99"/>
          <Node pos="r" depth="2" NCoef="0" IVar="-1" Cut="0.0000000000000000e+00" cType="1" res="-9.9996952340006828e-03" rms="4.4408583641052246e-01" purity="3.5047790408134460e-01" nType="-99"/>
        </Node>
        <Node pos="r" depth="1" NCoef="0" IVar="-1" Cut="0.0000000000000000e+00" cType="1" res="5.8937463909387589e-02" rms="2.0455709099769592e-01" purity="9.1349381208419800e-01" nType="-99"/>
      </Node>
    </BinaryTree>
    <BinaryTree type="DecisionTree" boostWeight="1.0000000000000000e+00" itree="30">
      <Node pos="s" depth="0" NCoef="0" IVar="3" Cut="3.6417174339294434e-01" cType="1" res="-3.7783635780215263e-03" rms="4.4784879684448242e-01" purity="4.9614456295967102e-01" nType="0">
        <Node pos="l" depth="1" NCoef="0" IVar="4" Cut="5.1140248775482178e-01" cType="1" res="1.0265287011861801e-02" rms="4.5046696066856384e-01" purity="5.3322076797485352e-01" nType="0">
          <Node pos="l" depth="2" NCoef="0" IVar="-1" Cut="0.0000000000000000e+00" cType="1" res="-7.3874634690582752e-03" rms="4.4606536626815796e-01" purity="4.2216351628303528e-01" nType="-99"/>
          <Node pos="r" depth="2" NCoef="0" IVar="-1" Cut="0.0000000000000000e+00" cType="1" res="9.9027762189507484e-03" rms="4.5110094547271729e-01" purity="6.2223911285400391e-01" nType="-99"/>
        </Node>
        <Node pos="r" depth="1" NCoef="0" IVar="5" Cut="1.9835379719734192e-01" cType="1" res="-9.9807992577552795e-02" rms="4.1703206300735474e-01" purity="2.4261929094791412e-01" nType="0">
          <Node pos="l" depth="2" NCoef="0" IVar="-1" Cut="0.0000000000000000e+00" cType="1" res="-3.4085743129253387e-02" rms="4.1758164763450623e-01" purity="2.3558199405670166e-01" nType="-99"/>
          <Node pos="r" depth="2" NCoef="0" IVar="-1" Cut="0.0000000000000000e+00" cType="1" res="-9.7377402707934380e-03" rms="4.0756011009216309e-01" purity="2.5084128975868225e-01" nType="-99"/>
        </Node>
      </Node>
    </BinaryTree>
    <BinaryTree type="DecisionTree" boostWeight="1.0000000000000000e+00" itree="31">
      <Node pos="s" depth="0" NCoef="0" IVar="4" Cut="1.0439265966415405e+00" cType="1" res="2.8154039755463600e-03" rms="4.4637694954872131e-01" purity="5.0167542695999146e-01" nType="0">
        <Node pos="l" depth="1" NCoef="0" IVar="0" Cut="1.8628243408203125e+03" cType="1" res="1.4953265897929668e-02" rms="4.4591751694679260e-01" purity="5.1971977949142456e-01" nType="0">
          <Node pos="l" depth="2" NCoef="0" IVar="-1" Cut="0.0000000000000000e+00" cType="1" res="-1.3388351071625948e-03" rms="4.5583960413932800e-01" purity="4.5474508404731750e-01" nType="-99"/>
          <Node pos="r" depth="2" NCoef="0" IVar="-1" Cut="0.0000000000000000e+00" cType="1" res="2.2808920592069626e-02" rms="3.9715448021888733e-01" purity="7.6225930452346802e-01" nType="-99"/>
        </Node>
        <Node pos="r" depth="1" NCoef="0" IVar="5" Cut="1.3616007566452026e-01" cType="1" res="-1.2074647098779678e-01" rms="4.3203967809677124e-01" purity="3.1798630952835083e-01" nType="0">
          <Node pos="l" depth="2" NCoef="0" IVar="-1" Cut="0.0000000000000000e+00" cType="1" res="-1.5623603947460651e-02" rms="4.5248624682426453e-01" purity="4.0041264891624451e-01" nType="-99"/>
          <Node pos="r" depth="2" NCoef="0" IVar="-1" Cut="0.0000000000000000e+00" cType="1" res="-4.6720955520868301e-02" rms="3.7835425138473511e-01" purity="1.7376413941383362e-01" nType="-99"/>
        </Node>
      </Node>
    </BinaryTree>
    <BinaryTree type="DecisionTree" boostWeight="1.0000000000000000e+00" itree="32">
      <Node pos="s" depth="0" NCoef="0" IVar="0" Cut="1.4367202148437500e+03" cType="1" res="5.2905268967151642e-03" rms="4.4384166598320007e-01" purity="5.0805580615997314e-01" nType="0">
        <Node pos="l" depth="1" NCoef="0" IVar="3" Cut="1.5432289242744446e-01" cType="1" res="-2.3602226749062538e-02" rms="4.4880113005638123e-01" purity="4.0848705172538757e-01" nType="0">
          <Node pos="l" depth="2" NCoef="0" IVar="-1" Cut="0.0000000000000000e+00" cType="1" res="5.4838522337377071e-03" rms="4.5209729671478271e-01" purity="5.1983928680419922e-01" nType="-99"/>
          <Node pos="r" depth="2" NCoef="0" IVar="-1" Cut="0.0000000000000000e+00" cType="1" res="-1.4195100404322147e-02" rms="4.4254350662231445e-01" purity="3.2214179635047913e-01" nType="-99"/>
        </Node>
        <Node pos="r" depth="1" NCoef="0" IVar="3" Cut="3.6404189467430115e-01" cType="1" res="5.3168818354606628e-02" rms="4.3125835061073303e-01" purity="6.7305165529251099e-01" nType="0">
          <Node pos="l" depth="2" NCoef="0" IVar="-1" Cut="0.0000000000000000e+00" cType="1" res="1.5351851470768452e-02" rms="4.2566302418708801e-01" purity="6.9973069429397583e-01" nType="-99"/>
          <Node pos="r" depth="2" NCoef="0" IVar="-1" Cut="0.0000000000000000e+00" cType="1" res="-1.4830663800239563e-02" rms="4.7019582986831665e-01" purity="3.8810592889785767e-01" nType="-99"/>
        </Node>
      </Node>
    </BinaryTree>
    <BinaryTree type="DecisionTree" boostWeight="1.0000000000000000e+00" itree="33">
      <Node pos="s" depth="0" NCoef="0" IVar="3" Cut="2.9625347256660461e-01" cType="1" res="7.6499269343912601e-03" rms="4.4802322983741760e-01" purity="5.0808089971542358e-01" nType="0">
        <Node pos="l" depth="1" NCoef="0" IVar="4" Cut="9.6732966601848602e-02" cType="1" res="2.8925346210598946e-02" rms="4.4945585727691650e-01" purity="5.7204359769821167e-01" nType="0">
          <Node pos="l" depth="2" NCoef="0" IVar="-1" Cut="0.0000000000000000e+00" cType="1" res="-2.1306185051798820e-02" rms="3.7198752164840698e-01" purity="2.3082071542739868e-01" nType="-99"/>
          <Node pos="r" depth="2" NCoef="0" IVar="-1" Cut="0.0000000000000000e+00" cType="1" res="9.8240310326218605e-03" rms="4.5688450336456299e-01" purity="6.1826914548873901e-01" nType="-99"/>
        </Node>
        <Node pos="r" depth="1" NCoef="0" IVar="4" Cut="3.5295620560646057e-01" cType="1" res="-6.6154956817626953e-02" rms="4.3502551317214966e-01" purity="2.8619292378425598e-01" nType="0">
          <Node pos="l" depth="2" NCoef="0" IVar="-1" Cut="0.0000000000000000e+00" cType="1" res="-3.6469129845499992e-03" rms="4.0713128447532654e-01" purity="2.5156432390213013e-01" nType="-99"/>
          <Node pos="r" depth="2" NCoef="0" IVar="-1" Cut="0.0000000000000000e+00" cType="1" res="-2.0926916971802711e-02" rms="4.4641876220703125e-01" purity="3.0431517958641052e-01" nType="-99"/>
        </Node>
      </Node>
    </BinaryTree>
    <BinaryTree type="DecisionTree" boostWeight="1.0000000000000000e+00" itree="34">
      <Node pos="s" depth="0" NCoef="0" IVar="1" Cut="3.7921533584594727e+00" cType="1" res="-7.6863965950906277e-03" rms="4.4378903508186340e-01" purity="4.9140813946723938e-01" nType="0">
        <Node pos="l" depth="1" NCoef="0" IVar="5" Cut="4.9691576510667801e-02" cType="1" res="-7.4633263051509857e-02" rms="4.4440472126007080e-01" purity="3.2317939400672913e-01" nType="0">
          <Node pos="l" depth="2" NCoef="0" IVar="-1" Cut="0.0000000000000000e+00" cType="1" res="2.7704874519258738e-03" rms="4.8285984992980957e-01" purity="4.8596277832984924e-01" nType="-99"/>
          <Node pos="r" depth="2" NCoef="0" IVar="-1" Cut="0.0000000000000000e+00" cType="1" res="-2.0808348432183266e-02" rms="4.3553432822227478e-01" purity="2.9475402832031250e-01" nType="-99"/>
        </Node>
        <Node pos="r" depth="1" NCoef="0" IVar="4" Cut="5.7056796550750732e-01" cType="1" res="1.7544290050864220e-02" rms="4.4092732667922974e-01" purity="5.5480951070785522e-01" nType="0">
          <Node pos="l" depth="2" NCoef="0" IVar="-1" Cut="0.0000000000000000e+00" cType="1" res="-6.8664085119962692e-03" rms="4.3541568517684937e-01" purity="4.4731906056404114e-01" nType="-99"/>
          <Node pos="r" depth="2" NCoef="0" IVar="-1" Cut="0.0000000000000000e+00" cType="1" res="1.3539742678403854e-02" rms="4.4161117076873779e-01" purity="6.5087080001831055e-01" nType="-99"/>
        </Node>
      </Node>
    </BinaryTree>
    <BinaryTree type="DecisionTree" boostWeight="1.0000000000000000e+00" itree="35">
      <Node pos="s" depth="0" NCoef="0" IVar="0" Cut="1.0443083496093750e+03" cType="1" res="-9.4955861568450928e-03" rms="4.4492876529693604e-01" purity="4.9033179879188538e-01" nType="0">
        <Node pos="l" depth="1" NCoef="0" IVar="1" Cut="3.2884256839752197e+00" cType="1" res="-5.5690601468086243e-02" rms="4.3487602472305298e-01" purity="3.2344812154769897e-01" nType="0">
          <Node pos="l" depth="2" NCoef="0" IVar="-1" Cut="0.0000000000000000e+00" cType="1" res="-3.1543258577585220e-02" rms="3.9337080717086792e-01" purity="2.0884145796298981e-01" nType="-99"/>
          <Node pos="r" depth="2" NCoef="0" IVar="-1" Cut="0.0000000000000000e+00" cType="1" res="-7.0384982973337173e-03" rms="4.4480741024017334e-01" purity="3.6125630140304565e-01" nType="-99"/>
        </Node>
        <Node pos="r" depth="1" NCoef="0" IVar="3" Cut="4.0116444230079651e-01" cType="1" res="1.6447968780994415e-02" rms="4.4839403033256531e-01" purity="5.8405530452728271e-01" nType="0">
          <Node pos="l" depth="2" NCoef="0" IVar="-1" Cut="0.0000000000000000e+00" cType="1" res="5.5975159630179405e-03" rms="4.4867897033691406e-01" purity="6.0581386089324951e-01" nType="-99"/>
          <Node pos="r" depth="2" NCoef="0" IVar="-1" Cut="0.0000000000000000e+00" cType="1" res="-1.9891871139407158e-02" rms="4.3134340643882751e-01" purity="2.8577634692192078e-01" nType="-99"/>
        </Node>
      </Node>
    </BinaryTree>
    <BinaryTree type="DecisionTree" boostWeight="1.0000000000000000e+00" itree="36">
      <Node pos="s" depth="0" NCoef="0" IVar="4" Cut="1.0641646385192871e+00" cType="1" res="1.0703555308282375e-02" rms="4.4497725367546082e-01" purity="5.1259523630142212e-01" nType="0">
        <Node pos="l" depth="1" NCoef="0" IVar="4" Cut="5.6477409601211548e-01" cType="1" res="2.1024070680141449e-02" rms="4.4535958766937256e-01" purity="5.3049057722091675e-01" nType="0">
          <Node pos="l" depth="2" NCoef="0" IVar="-1" Cut="0.0000000000000000e+00" cType="1" res="-4.8943748697638512e-03" rms="4.4248890876770020e-01" purity="4.1556385159492493e-01" nType="-99"/>
          <Node pos="r" depth="2" NCoef="0" IVar="-1" Cut="0.0000000000000000e+00" cType="1" res="1.4869074337184429e-02" rms="4.4417139887809753e-01" purity="6.5169191360473633e-01" nType="-99"/>
        </Node>
        <Node pos="r" depth="1" NCoef="0" IVar="5" Cut="9.4892501831054688e-02" cType="1" res="-9.5841318368911743e-02" rms="4.2666041851043701e-01" purity="3.2785075902938843e-01" nType="0">
          <Node pos="l" depth="2" NCoef="0" IVar="-1" Cut="0.0000000000000000e+00" cType="1" res="3.6423762794584036e-03" rms="4.4583627581596375e-01" purity="4.9487361311912537e-01" nType="-99"/>
          <Node pos="r" depth="2" NCoef="0" IVar="-1" Cut="0.0000000000000000e+00" cType="1" res="-4.7093901783227921e-02" rms="3.7651684880256653e-01" purity="1.6614669561386108e-01" nType="-99"/>
        </Node>
      </Node>
    </BinaryTree>
    <BinaryTree type="DecisionTree" boostWeight="1.0000000000000000e+00" itree="37">
      <Node pos="s" depth="0" NCoef="0" IVar="5" Cut="6.1902874708175659e-01" cType="1" res="1.2399501865729690e-03" rms="4.4197750091552734e-01" purity="5.0170212984085083e-01" nType="0">
        <Node pos="l" depth="1" NCoef="0" IVar="3" Cut="3.8270139694213867e-01" cType="1" res="9.3055460602045059e-03" rms="4.4991615414619446e-01" purity="5.2550995349884033e-01" nType="0">
          <Node pos="l" depth="2" NCoef="0" IVar="-1" Cut="0.0000000000000000e+00" cType="1" res="4.8240488395094872e-03" rms="4.5303684473037720e-01" purity="5.5940842628479004e-01" nType="-99"/>
          <Node pos="r" depth="2" NCoef="0" IVar="-1" Cut="0.0000000000000000e+00" cType="1" res="-2.2151585668325424e-02" rms="4.0859392285346985e-01" purity="2.3338103294372559e-01" nType="-99"/>
        </Node>
        <Node pos="r" depth="1" NCoef="0" IVar="-1" Cut="0.0000000000000000e+00" cType="1" res="-4.5169662684202194e-02" rms="2.1972572803497314e-01" purity="7.9776845872402191e-02" nType="-99"/>
      </Node>
    </BinaryTree>
    <BinaryTree type="DecisionTree" boostWeight="1.0000000000000000e+00" itree="38">
      <Node pos="s" depth="0" NCoef="0" IVar="0" Cut="2.0662429199218750e+03" cType="1" res="-6.3912575133144855e-03" rms="4.4266194105148315e-01" purity="4.9629065394401550e-01" nType="0">
        <Node pos="l" depth="1" NCoef="0" IVar="4" Cut="9.6527057886123657e-01" cType="1" res="-1.9893992692232132e-02" rms="4.5211941003799438e-01" purity="4.4438943266868591e-01" nType="0">
          <Node pos="l" depth="2" NCoef="0" IVar="-1" Cut="0.0000000000000000e+00" cType="1" res="-1.4408270362764597e-03" rms="4.5244005322456360e-01" purity="4.6090930700302124e-01" nType="-99"/>
          <Node pos="r" depth="2" NCoef="0" IVar="-1" Cut="0.0000000000000000e+00" cType="1" res="-2.3471048101782799e-02" rms="4.4086682796478271e-01" purity="3.4241279959678650e-01" nType="-99"/>
        </Node>
        <Node pos="r" depth="1" NCoef="0" IVar="4" Cut="3.3277636766433716e-01" cType="1" res="5.9741359204053879e-02" rms="3.8631179928779602e-01" purity="7.5048810243606567e-01" nType="0">
          <Node pos="l" depth="2" NCoef="0" IVar="-1" Cut="0.0000000000000000e+00" cType="1" res="-1.2788719497621059e-02" rms="4.5871582627296448e-01" purity="5.0325244665145874e-01" nType="-99"/>
          <Node pos="r" depth="2" NCoef="0" IVar="-1" Cut="0.0000000000000000e+00" cType="1" res="2.5736525654792786e-02" rms="3.5399800539016724e-01" purity="8.2571512460708618e-01" nType="-99"/>
        </Node>
      </Node>
    </BinaryTree>
    <BinaryTree type="DecisionTree" boostWeight="1.0000000000000000e+00" itree="39">
      <Node pos="s" depth="0" NCoef="0" IVar="0" Cut="1.0443538818359375e+03" cType="1" res="-7.4686366133391857e-03" rms="4.4219210743904114e-01" purity="4.8870185017585754e-01" nType="0">
        <Node pos="l" depth="1" NCoef="0" IVar="0" Cut="8.6259191894531250e+02" cType="1" res="-5.2357126027345657e-02" rms="4.3953201174736023e-01" purity="3.2709762454032898e-01" nType="0">
          <Node pos="l" depth="2" NCoef="0" IVar="-1" Cut="0.0000000000000000e+00" cType="1" res="-2.3509664461016655e-02" rms="4.0876129269599915e-01" purity="2.7214092016220093e-01" nType="-99"/>
          <Node pos="r" depth="2" NCoef="0" IVar="-1" Cut="0.0000000000000000e+00" cType="1" res="-4.1960128583014011e-03" rms="4.5752400159835815e-01" purity="3.6698046326637268e-01" nType="-99"/>
        </Node>
        <Node pos="r" depth="1" NCoef="0" IVar="4" Cut="1.0242341756820679e+00" cType="1" res="1.8958900123834610e-02" rms="4.4162204861640930e-01" purity="5.8384430408477783e-01" nType="0">
          <Node pos="l" depth="2" NCoef="0" IVar="-1" Cut="0.0000000000000000e+00" cType="1" res="7.2186472825706005e-03" rms="4.4065949320793152e-01" purity="6.0517847537994385e-01" nType="-99"/>
          <Node pos="r" depth="2" NCoef="0" IVar="-1" Cut="0.0000000000000000e+00" cType="1" res="-1.7820423468947411e-02" rms="4.3767678737640381e-01" purity="3.9717429876327515e-01" nType="-99"/>
        </Node>
      </Node>
    </BinaryTree>
    <BinaryTree type="DecisionTree" boostWeight="1.0000000000000000e+00" itree="40">
      <Node pos="s" depth="0" NCoef="0" IVar="4" Cut="6.0990720987319946e-01" cType="1" res="3.3917282707989216e-03" rms="4.4191780686378479e-01" purity="5.0235927104949951e-01" nType="0">
        <Node pos="l" depth="1" NCoef="0" IVar="3" Cut="1.2346952408552170e-01" cType="1" res="-3.1617235392332077e-02" rms="4.4293504953384399e-01" purity="4.1340267658233643e-01" nType="0">
          <Node pos="l" depth="2" NCoef="0" IVar="-1" Cut="0.0000000000000000e+00" cType="1" res="3.0848237220197916e-03" rms="4.4781550765037537e-01" purity="5.2575010061264038e-01" nType="-99"/>
          <Node pos="r" depth="2" NCoef="0" IVar="-1" Cut="0.0000000000000000e+00" cType="1" res="-1.4118403196334839e-02" rms="4.3781885504722595e-01" purity="3.4663021564483643e-01" nType="-99"/>
        </Node>
        <Node pos="r" depth="1" NCoef="0" IVar="2" Cut="8.3281897008419037e-02" cType="1" res="4.2216740548610687e-02" rms="4.3752312660217285e-01" purity="6.0101234912872314e-01" nType="0">
          <Node pos="l" depth="2" NCoef="0" IVar="-1" Cut="0.0000000000000000e+00" cType="1" res="1.4939966611564159e-02" rms="4.3587920069694519e-01" purity="6.4699870347976685e-01" nType="-99"/>
          <Node pos="r" depth="2" NCoef="0" IVar="-1" Cut="0.0000000000000000e+00" cType="1" res="-2.5313934311270714e-02" rms="4.1807523369789124e-01" purity="2.7535295486450195e-01" nType="-99"/>
        </Node>
      </Node>
    </BinaryTree>
    <BinaryTree type="DecisionTree" boostWeight="1.0000000000000000e+00" itree="41">
      <Node pos="s" depth="0" NCoef="0" IVar="1" Cut="3.0897667407989502e+00" cType="1" res="1.1825235560536385e-02" rms="4.4573658704757690e-01" purity="5.0115406513214111e-01" nType="0">
        <Node pos="l" depth="1" NCoef="0" IVar="3" Cut="1.4221139252185822e-01" cType="1" res="-6.6999711096286774e-02" rms="4.2779165506362915e-01" purity="2.8957572579383850e-01" nType="0">
          <Node pos="l" depth="2" NCoef="0" IVar="-1" Cut="0.0000000000000000e+00" cType="1" res="-2.6829181239008904e-02" rms="4.5040759444236755e-01" purity="2.9391232132911682e-01" nType="-99"/>
          <Node pos="r" depth="2" NCoef="0" IVar="-1" Cut="0.0000000000000000e+00" cType="1" res="-1.0042974725365639e-02" rms="4.1352999210357666e-01" purity="2.8740912675857544e-01" nType="-99"/>
        </Node>
        <Node pos="r" depth="1" NCoef="0" IVar="5" Cut="6.2622779607772827e-01" cType="1" res="2.1110972389578819e-02" rms="4.4688871502876282e-01" purity="5.2607840299606323e-01" nType="0">
          <Node pos="l" depth="2" NCoef="0" IVar="-1" Cut="0.0000000000000000e+00" cType="1" res="6.4675621688365936e-03" rms="4.5363250374794006e-01" purity="5.4859775304794312e-01" nType="-99"/>
          <Node pos="r" depth="2" NCoef="0" IVar="-1" Cut="0.0000000000000000e+00" cType="1" res="-3.0578888952732086e-02" rms="2.7960810065269470e-01" purity="1.2992222607135773e-01" nType="-99"/>
        </Node>
      </Node>
    </BinaryTree>
    <BinaryTree type="DecisionTree" boostWeight="1.0000000000000000e+00" itree="42">
      <Node pos="s" depth="0" NCoef="0" IVar="2" Cut="1.4789176173508167e-02" cType="1" res="-5.7407189160585403e-03" rms="4.4217318296432495e-01" purity="4.9213790893554688e-01" nType="0">
        <Node pos="l" depth="1" NCoef="0" IVar="3" Cut="1.6047365963459015e-01" cType="1" res="4.8860941082239151e-02" rms="4.2685139179229736e-01" purity="6.7097026109695435e-01" nType="0">
          <Node pos="l" depth="2" NCoef="0" IVar="-1" Cut="0.0000000000000000e+00" cType="1" res="2.3796135559678078e-02" rms="3.9233475923538208e-01" purity="7.8279310464859009e-01" nType="-99"/>
          <Node pos="r" depth="2" NCoef="0" IVar="-1" Cut="0.0000000000000000e+00" cType="1" res="2.5997625198215246e-04" rms="4.5442706346511841e-01" purity="5.5702137947082520e-01" nType="-99"/>
        </Node>
        <Node pos="r" depth="1" NCoef="0" IVar="4" Cut="5.7403564453125000e-02" cType="1" res="-3.1765956431627274e-02" rms="4.4695103168487549e-01" purity="4.0689960122108459e-01" nType="0">
          <Node pos="l" depth="2" NCoef="0" IVar="-1" Cut="0.0000000000000000e+00" cType="1" res="-3.8047235459089279e-02" rms="2.8781330585479736e-01" purity="9.5735415816307068e-02" nType="-99"/>
          <Node pos="r" depth="2" NCoef="0" IVar="-1" Cut="0.0000000000000000e+00" cType="1" res="-3.9732358418405056e-03" rms="4.6656593680381775e-01" purity="4.5839005708694458e-01" nType="-99"/>
        </Node>
      </Node>
    </BinaryTree>
    <BinaryTree type="DecisionTree" boostWeight="1.0000000000000000e+00" itree="43">
      <Node pos="s" depth="0" NCoef="0" IVar="2" Cut="4.8103243112564087e-02" cType="1" res="-6.5393862314522266e-03" rms="4.4235369563102722e-01" purity="4.8974490165710449e-01" nType="0">
        <Node pos="l" depth="1" NCoef="0" IVar="2" Cut="3.4441605210304260e-02" cType="1" res="1.1433639563620090e-02" rms="4.5048457384109497e-01" purity="5.7395184040069580e-01" nType="0">
          <Node pos="l" depth="2" NCoef="0" IVar="-1" Cut="0.0000000000000000e+00" cType="1" res="-2.0201118604745716e-04" rms="4.4978022575378418e-01" purity="5.8686774969100952e-01" nType="-99"/>
          <Node pos="r" depth="2" NCoef="0" IVar="-1" Cut="0.0000000000000000e+00" cType="1" res="2.0555594936013222e-02" rms="4.4732579588890076e-01" purity="4.9362629652023315e-01" nType="-99"/>
        </Node>
        <Node pos="r" depth="1" NCoef="0" IVar="3" Cut="1.7275744676589966e-01" cType="1" res="-4.8464611172676086e-02" rms="4.1979920864105225e-01" purity="2.9331734776496887e-01" nType="0">
          <Node pos="l" depth="2" NCoef="0" IVar="-1" Cut="0.0000000000000000e+00" cType="1" res="7.4522441718727350e-04" rms="4.4911170005798340e-01" purity="3.9431947469711304e-01" nType="-99"/>
          <Node pos="r" depth="2" NCoef="0" IVar="-1" Cut="0.0000000000000000e+00" cType="1" res="-2.6282798498868942e-02" rms="3.8263726234436035e-01" purity="1.9531466066837311e-01" nType="-99"/>
        </Node>
      </Node>
    </BinaryTree>
    <BinaryTree type="DecisionTree" boostWeight="1.0000000000000000e+00" itree="44">
      <Node pos="s" depth="0" NCoef="0" IVar="3" Cut="3.0243211984634399e-01" cType="1" res="2.0604492165148258e-03" rms="4.3752676248550415e-01" purity="5.0113081932067871e-01" nType="0">
        <Node pos="l" depth="1" NCoef="0" IVar="4" Cut="1.0839000940322876e+00" cType="1" res="1.9095813855528831e-02" rms="4.3934571743011475e-01" purity="5.6066322326660156e-01" nType="0">
          <Node pos="l" depth="2" NCoef="0" IVar="-1" Cut="0.0000000000000000e+00" cType="1" res="6.8714725784957409e-03" rms="4.3838053941726685e-01" purity="5.7866984605789185e-01" nType="-99"/>
          <Node pos="r" depth="2" NCoef="0" IVar="-1" Cut="0.0000000000000000e+00" cType="1" res="-2.4839516729116440e-02" rms="4.3089094758033752e-01" purity="3.1971898674964905e-01" nType="-99"/>
        </Node>
        <Node pos="r" depth="1" NCoef="0" IVar="5" Cut="4.4626787304878235e-01" cType="1" res="-6.2922216951847076e-02" rms="4.2428258061408997e-01" purity="2.7404004335403442e-01" nType="0">
          <Node pos="l" depth="2" NCoef="0" IVar="-1" Cut="0.0000000000000000e+00" cType="1" res="-1.9221831113100052e-02" rms="4.2851832509040833e-01" purity="2.8385123610496521e-01" nType="-99"/>
          <Node pos="r" depth="2" NCoef="0" IVar="-1" Cut="0.0000000000000000e+00" cType="1" res="1.1736191809177399e-02" rms="3.8701719045639038e-01" purity="2.2184011340141296e-01" nType="-99"/>
        </Node>
      </Node>
    </BinaryTree>
    <BinaryTree type="DecisionTree" boostWeight="1.0000000000000000e+00" itree="45">
      <Node pos="s" depth="0" NCoef="0" IVar="1" Cut="3.2723999023437500e+00" cType="1" res="-2.7588850352913141e-03" rms="4.4532814621925354e-01" purity="4.9724346399307251e-01" nType="0">
        <Node pos="l" depth="1" NCoef="0" IVar="1" Cut="3.0363485813140869e+00" cType="1" res="-7.2107963263988495e-02" rms="4.3014782667160034e-01" purity="2.9080659151077271e-01" nType="0">
          <Node pos="l" depth="2" NCoef="0" IVar="-1" Cut="0.0000000000000000e+00" cType="1" res="-1.2473409995436668e-02" rms="4.3040111660957336e-01" purity="3.0367052555084229e-01" nType="-99"/>
          <Node pos="r" depth="2" NCoef="0" IVar="-1" Cut="0.0000000000000000e+00" cType="1" res="-3.0441673472523689e-02" rms="4.2394003272056580e-01" purity="2.5320315361022949e-01" nType="-99"/>
        </Node>
        <Node pos="r" depth="1" NCoef="0" IVar="2" Cut="9.2506231740117073e-03" cType="1" res="8.7426481768488884e-03" rms="4.4675651192665100e-01" purity="5.3148096799850464e-01" nType="0">
          <Node pos="l" depth="2" NCoef="0" IVar="-1" Cut="0.0000000000000000e+00" cType="1" res="1.7973214387893677e-02" rms="4.1537636518478394e-01" purity="7.2673809528350830e-01" nType="-99"/>
          <Node pos="r" depth="2" NCoef="0" IVar="-1" Cut="0.0000000000000000e+00" cType="1" res="-1.6675910446792841e-03" rms="4.5266732573509216e-01" purity="4.8396602272987366e-01" nType="-99"/>
        </Node>
      </Node>
    </BinaryTree>
    <BinaryTree type="DecisionTree" boostWeight="1.0000000000000000e+00" itree="46">
      <Node pos="s" depth="0" NCoef="0" IVar="5" Cut="5.1952618360519409e-01" cType="1" res="2.9562339186668396e-03" rms="4.4152364134788513e-01" purity="4.9821299314498901e-01" nType="0">
        <Node pos="l" depth="1" NCoef="0" IVar="4" Cut="1.0446474552154541e+00" cType="1" res="1.0522697120904922e-02" rms="4.4950276613235474e-01" purity="5.2750927209854126e-01" nType="0">
          <Node pos="l" depth="2" NCoef="0" IVar="-1" Cut="0.0000000000000000e+00" cType="1" res="4.5867967419326305e-03" rms="4.5186722278594971e-01" purity="5.4921293258666992e-01" nType="-99"/>
          <Node pos="r" depth="2" NCoef="0" IVar="-1" Cut="0.0000000000000000e+00" cType="1" res="-1.6932290047407150e-02" rms="4.1823413968086243e-01" purity="3.2772803306579590e-01" nType="-99"/>
        </Node>
        <Node pos="r" depth="1" NCoef="0" IVar="3" Cut="2.2836196422576904e-01" cType="1" res="-8.2242906093597412e-02" rms="3.2708486914634705e-01" purity="1.6833364963531494e-01" nType="0">
          <Node pos="l" depth="2" NCoef="0" IVar="-1" Cut="0.0000000000000000e+00" cType="1" res="-3.4779127687215805e-02" rms="3.2071760296821594e-01" purity="1.5585590898990631e-01" nType="-99"/>
          <Node pos="r" depth="2" NCoef="0" IVar="-1" Cut="0.0000000000000000e+00" cType="1" res="-1.4317130669951439e-02" rms="3.2886886596679688e-01" purity="1.8103997409343719e-01" nType="-99"/>
        </Node>
      </Node>
    </BinaryTree>
    <BinaryTree type="DecisionTree" boostWeight="1.0000000000000000e+00" itree="47">
      <Node pos="s" depth="0" NCoef="0" IVar="0" Cut="8.2413568115234375e+02" cType="1" res="2.1529174409806728e-03" rms="4.4434756040573120e-01" purity="5.0023406744003296e-01" nType="0">
        <Node pos="l" depth="1" NCoef="0" IVar="0" Cut="7.7744879150390625e+02" cType="1" res="-7.1917466819286346e-02" rms="4.2683371901512146e-01" purity="2.8560629487037659e-01" nType="0">
          <Node pos="l" depth="2" NCoef="0" IVar="-1" Cut="0.0000000000000000e+00" cType="1" res="-3.9561420679092407e-02" rms="3.8895919919013977e-01" purity="1.8777276575565338e-01" nType="-99"/>
          <Node pos="r" depth="2" NCoef="0" IVar="-1" Cut="0.0000000000000000e+00" cType="1" res="-4.1410773992538452e-03" rms="4.3959742784500122e-01" purity="3.4555539488792419e-01" nType="-99"/>
        </Node>
        <Node pos="r" depth="1" NCoef="0" IVar="5" Cut="5.9324532747268677e-01" cType="1" res="1.1519234627485275e-02" rms="4.4563731551170349e-01" purity="5.2737402915954590e-01" nType="0">
          <Node pos="l" depth="2" NCoef="0" IVar="-1" Cut="0.0000000000000000e+00" cType="1" res="3.9260853081941605e-03" rms="4.5341265201568604e-01" purity="5.5369669198989868e-01" nType="-99"/>
          <Node pos="r" depth="2" NCoef="0" IVar="-1" Cut="0.0000000000000000e+00" cType="1" res="-2.3411842063069344e-02" rms="2.9354628920555115e-01" purity="1.2791952490806580e-01" nType="-99"/>
        </Node>
      </Node>
    </BinaryTree>
    <BinaryTree type="DecisionTree" boostWeight="1.0000000000000000e+00" itree="48">
      <Node pos="s" depth="0" NCoef="0" IVar="2" Cut="1.1827260255813599e-01" cType="1" res="-6.1164270155131817e-03" rms="4.4916090369224548e-01" purity="4.8806241154670715e-01" nType="0">
        <Node pos="l" depth="1" NCoef="0" IVar="3" Cut="1.1727799475193024e-01" cType="1" res="-1.0736303403973579e-02" rms="4.4758823513984680e-01" purity="4.9108541011810303e-01" nType="0">
          <Node pos="l" depth="2" NCoef="0" IVar="-1" Cut="0.0000000000000000e+00" cType="1" res="4.8588616773486137e-03" rms="4.4621354341506958e-01" purity="6.0006248950958252e-01" nType="-99"/>
          <Node pos="r" depth="2" NCoef="0" IVar="-1" Cut="0.0000000000000000e+00" cType="1" res="-6.8874265998601913e-03" rms="4.4739633798599243e-01" purity="4.2852476239204407e-01" nType="-99"/>
        </Node>
        <Node pos="r" depth="1" NCoef="0" IVar="-1" Cut="0.0000000000000000e+00" cType="1" res="2.5432735681533813e-02" rms="4.7164356708526611e-01" purity="4.1818028688430786e-01" nType="-99"/>
      </Node>
    </BinaryTree>
    <BinaryTree type="DecisionTree" boostWeight="1.0000000000000000e+00" itree="49">
      <Node pos="s" depth="0" NCoef="0" IVar="0" Cut="2.4815625000000000e+03" cType="1" res="8.2837520167231560e-03" rms="4.4364708662033081e-01" purity="5.0526118278503418e-01" nType="0">
        <Node pos="l" depth="1" NCoef="0" IVar="3" Cut="3.3949115872383118e-01" cType="1" res="1.1773664737120271e-03" rms="4.4846618175506592e-01" purity="4.7457340359687805e-01" nType="0">
          <Node pos="l" depth="2" NCoef="0" IVar="-1" Cut="0.0000000000000000e+00" cType="1" res="2.6176953688263893e-03" rms="4.5361575484275818e-01" purity="5.2217280864715576e-01" nType="-99"/>
          <Node pos="r" depth="2" NCoef="0" IVar="-1" Cut="0.0000000000000000e+00" cType="1" res="-1.2993524782359600e-02" rms="4.1825193166732788e-01" purity="2.3691965639591217e-01" nType="-99"/>
        </Node>
        <Node pos="r" depth="1" NCoef="0" IVar="3" Cut="1.1094974726438522e-01" cType="1" res="7.1782611310482025e-02" rms="3.9233186841011047e-01" purity="7.7947068214416504e-01" nType="0">
          <Node pos="l" depth="2" NCoef="0" IVar="-1" Cut="0.0000000000000000e+00" cType="1" res="3.3826155122369528e-03" rms="3.9231783151626587e-01" purity="7.5658816099166870e-01" nType="-99"/>
          <Node pos="r" depth="2" NCoef="0" IVar="-1" Cut="0.0000000000000000e+00" cType="1" res="2.8171600773930550e-02" rms="3.8771542906761169e-01" purity="7.9348522424697876e-01" nType="-99"/>
        </Node>
      </Node>
    </BinaryTree>
    <BinaryTree type="DecisionTree" boostWeight="1.0000000000000000e+00" itree="50">
      <Node pos="s" depth="0" NCoef="0" IVar="0" Cut="2.2337695312500000e+03" cType="1" res="5.4334020242094994e-03" rms="4.4301801919937134e-01" purity="5.0863736867904663e-01" nType="0">
        <Node pos="l" depth="1" NCoef="0" IVar="2" Cut="5.9203989803791046e-02" cType="1" res="-4.1770068928599358e-03" rms="4.5031937956809998e-01" purity="4.6741944551467896e-01" nType="0">
          <Node pos="l" depth="2" NCoef="0" IVar="-1" Cut="0.0000000000000000e+00" cType="1" res="-4.9400790594518185e-03" rms="4.5305991172790527e-01" purity="5.0039213895797729e-01" nType="-99"/>
          <Node pos="r" depth="2" NCoef="0" IVar="-1" Cut="0.0000000000000000e+00" cType="1" res="1.2617898173630238e-02" rms="4.3746066093444824e-01" purity="3.6509224772453308e-01" nType="-99"/>
        </Node>
        <Node pos="r" depth="1" NCoef="0" IVar="3" Cut="7.4011765420436859e-02" cType="1" res="7.4179559946060181e-02" rms="3.7976345419883728e-01" purity="8.0348151922225952e-01" nType="0">
          <Node pos="l" depth="2" NCoef="0" IVar="-1" Cut="0.0000000000000000e+00" cType="1" res="-4.5765466056764126e-03" rms="4.1508504748344421e-01" purity="7.3453038930892944e-01" nType="-99"/>
          <Node pos="r" depth="2" NCoef="0" IVar="-1" Cut="0.0000000000000000e+00" cType="1" res="2.9817817732691765e-02" rms="3.5896816849708557e-01" purity="8.3044195175170898e-01" nType="-99"/>
        </Node>
      </Node>
    </BinaryTree>
    <BinaryTree type="DecisionTree" boostWeight="1.0000000000000000e+00" itree="51">
      <Node pos="s" depth="0" NCoef="0" IVar="2" Cut="1.8498511984944344e-02" cType="1" res="9.1474261134862900e-03" rms="4.4136995077133179e-01" purity="5.0292426347732544e-01" nType="0">
        <Node pos="l" depth="1" NCoef="0" IVar="3" Cut="4.0729480981826782e-01" cType="1" res="3.8779806345701218e-02" rms="4.3287292122840881e-01" purity="6.5221130847930908e-01" nType="0">
          <Node pos="l" depth="2" NCoef="0" IVar="-1" Cut="0.0000000000000000e+00" cType="1" res="1.2597883120179176e-02" rms="4.2915704846382141e-01" purity="6.8794542551040649e-01" nType="-99"/>
          <Node pos="r" depth="2" NCoef="0" IVar="-1" Cut="0.0000000000000000e+00" cType="1" res="-2.3163113743066788e-02" rms="4.4799616932868958e-01" purity="2.6263219118118286e-01" nType="-99"/>
        </Node>
        <Node pos="r" depth="1" NCoef="0" IVar="4" Cut="-6.1729926615953445e-02" cType="1" res="-1.0719968006014824e-02" rms="4.4587498903274536e-01" purity="4.0283286571502686e-01" nType="0">
          <Node pos="l" depth="2" NCoef="0" IVar="-1" Cut="0.0000000000000000e+00" cType="1" res="-3.8890816271305084e-02" rms="2.4437557160854340e-01" purity="6.2481492757797241e-02" nType="-99"/>
          <Node pos="r" depth="2" NCoef="0" IVar="-1" Cut="0.0000000000000000e+00" cType="1" res="-7.9263147199526429e-04" rms="4.5745262503623962e-01" purity="4.3020081520080566e-01" nType="-99"/>
        </Node>
      </Node>
    </BinaryTree>
    <BinaryTree type="DecisionTree" boostWeight="1.0000000000000000e+00" itree="52">
      <Node pos="s" depth="0" NCoef="0" IVar="0" Cut="8.2337384033203125e+02" cType="1" res="-1.1035873554646969e-02" rms="4.4849166274070740e-01" purity="4.8570314049720764e-01" nType="0">
        <Node pos="l" depth="1" NCoef="0" IVar="4" Cut="3.1240963935852051e-01" cType="1" res="-8.2776688039302826e-02" rms="4.1005441546440125e-01" purity="2.7918180823326111e-01" nType="0">
          <Node pos="l" depth="2" NCoef="0" IVar="-1" Cut="0.0000000000000000e+00" cType="1" res="-4.1828814893960953e-02" rms="3.1549215316772461e-01" purity="9.9224217236042023e-02" nType="-99"/>
          <Node pos="r" depth="2" NCoef="0" IVar="-1" Cut="0.0000000000000000e+00" cType="1" res="-1.3299521990120411e-02" rms="4.4242814183235168e-01" purity="3.5664299130439758e-01" nType="-99"/>
        </Node>
        <Node pos="r" depth="1" NCoef="0" IVar="1" Cut="4.2882580757141113e+00" cType="1" res="-2.2327797487378120e-03" rms="4.5220026373863220e-01" purity="5.1104474067687988e-01" nType="0">
          <Node pos="l" depth="2" NCoef="0" IVar="-1" Cut="0.0000000000000000e+00" cType="1" res="5.1579410210251808e-03" rms="4.7081092000007629e-01" purity="4.3865203857421875e-01" nType="-99"/>
          <Node pos="r" depth="2" NCoef="0" IVar="-1" Cut="0.0000000000000000e+00" cType="1" res="-4.5493482612073421e-03" rms="4.3848991394042969e-01" purity="5.5975931882858276e-01" nType="-99"/>
        </Node>
      </Node>
    </BinaryTree>
    <BinaryTree type="DecisionTree" boostWeight="1.0000000000000000e+00" itree="53">
      <Node pos="s" depth="0" NCoef="0" IVar="5" Cut="3.8034703582525253e-02" cType="1" res="1.1898066150024533e-03" rms="4.3829873204231262e-01" purity="5.0675648450851440e-01" nType="0">
        <Node pos="l" depth="1" NCoef="0" IVar="4" Cut="9.1577267646789551e-01" cType="1" res="8.0685257911682129e-02" rms="4.4712603092193604e-01" purity="6.8285423517227173e-01" nType="0">
          <Node pos="l" depth="2" NCoef="0" IVar="-1" Cut="0.0000000000000000e+00" cType="1" res="-2.0664578303694725e-02" rms="4.7190585732460022e-01" purity="5.4797238111495972e-01" nType="-99"/>
          <Node pos="r" depth="2" NCoef="0" IVar="-1" Cut="0.0000000000000000e+00" cType="1" res="4.0494542568922043e-02" rms="4.0380522608757019e-01" purity="7.5815021991729736e-01" nType="-99"/>
        </Node>
        <Node pos="r" depth="1" NCoef="0" IVar="4" Cut="9.8516041040420532e-01" cType="1" res="-1.1979348957538605e-02" rms="4.3542012572288513e-01" purity="4.7758427262306213e-01" nType="0">
          <Node pos="l" depth="2" NCoef="0" IVar="-1" Cut="0.0000000000000000e+00" cType="1" res="-7.7597604831680655e-04" rms="4.3560656905174255e-01" purity="4.9764001369476318e-01" nType="-99"/>
          <Node pos="r" depth="2" NCoef="0" IVar="-1" Cut="0.0000000000000000e+00" cType="1" res="-2.2998481988906860e-02" rms="4.2446804046630859e-01" purity="2.8550910949707031e-01" nType="-99"/>
        </Node>
      </Node>
    </BinaryTree>
    <BinaryTree type="DecisionTree" boostWeight="1.0000000000000000e+00" itree="54">
      <Node pos="s" depth="0" NCoef="0" IVar="2" Cut="7.4004987254738808e-03" cType="1" res="8.0935945734381676e-03" rms="4.4140437245368958e-01" purity="5.1273709535598755e-01" nType="0">
        <Node pos="l" depth="1" NCoef="0" IVar="4" Cut="7.8389114141464233e-01" cType="1" res="6.2648318707942963e-02" rms="4.2324393987655640e-01" purity="6.9593346118927002e-01" nType="0">
          <Node pos="l" depth="2" NCoef="0" IVar="-1" Cut="0.0000000000000000e+00" cType="1" res="6.1853420920670033e-03" rms="4.4191774725914001e-01" purity="6.3379430770874023e-01" nType="-99"/>
          <Node pos="r" depth="2" NCoef="0" IVar="-1" Cut="0.0000000000000000e+00" cType="1" res="3.5065628588199615e-02" rms="3.7398856878280640e-01" purity="8.1713885068893433e-01" nType="-99"/>
        </Node>
        <Node pos="r" depth="1" NCoef="0" IVar="1" Cut="3.3415241241455078e+00" cType="1" res="-2.3605881724506617e-03" rms="4.4403514266014099e-01" purity="4.7763162851333618e-01" nType="0">
          <Node pos="l" depth="2" NCoef="0" IVar="-1" Cut="0.0000000000000000e+00" cType="1" res="-1.5751203522086143e-02" rms="4.1129145026206970e-01" purity="2.7657306194305420e-01" nType="-99"/>
          <Node pos="r" depth="2" NCoef="0" IVar="-1" Cut="0.0000000000000000e+00" cType="1" res="2.0353312138468027e-03" rms="4.4870468974113464e-01" purity="5.1318866014480591e-01" nType="-99"/>
        </Node>
      </Node>
    </BinaryTree>
    <BinaryTree type="DecisionTree" boostWeight="1.0000000000000000e+00" itree="55">
      <Node pos="s" depth="0" NCoef="0" IVar="4" Cut="1.0246478319168091e+00" cType="1" res="-9.4378283247351646e-03" rms="4.3762797117233276e-01" purity="4.9176689982414246e-01" nType="0">
        <Node pos="l" depth="1" NCoef="0" IVar="3" Cut="3.5178229212760925e-01" cType="1" res="5.1971018547192216e-04" rms="4.3865311145782471e-01" purity="5.1175045967102051e-01" nType="0">
          <Node pos="l" depth="2" NCoef="0" IVar="-1" Cut="0.0000000000000000e+00" cType="1" res="3.2158184330910444e-03" rms="4.4142767786979675e-01" purity="5.5687832832336426e-01" nType="-99"/>
          <Node pos="r" depth="2" NCoef="0" IVar="-1" Cut="0.0000000000000000e+00" cType="1" res="-2.0198389887809753e-02" rms="4.1226309537887573e-01" purity="2.3261180520057678e-01" nType="-99"/>
        </Node>
        <Node pos="r" depth="1" NCoef="0" IVar="5" Cut="5.7594288140535355e-02" cType="1" res="-9.9331833422183990e-02" rms="4.1765123605728149e-01" purity="3.1136059761047363e-01" nType="0">
          <Node pos="l" depth="2" NCoef="0" IVar="-1" Cut="0.0000000000000000e+00" cType="1" res="2.7825885917991400e-03" rms="4.4564843177795410e-01" purity="5.1170444488525391e-01" nType="-99"/>
          <Node pos="r" depth="2" NCoef="0" IVar="-1" Cut="0.0000000000000000e+00" cType="1" res="-3.7097148597240448e-02" rms="3.9207041263580322e-01" purity="2.1423988044261932e-01" nType="-99"/>
        </Node>
      </Node>
    </BinaryTree>
    <BinaryTree type="DecisionTree" boostWeight="1.0000000000000000e+00" itree="56">
      <Node pos="s" depth="0" NCoef="0" IVar="5" Cut="3.5274109244346619e-01" cType="1" res="-7.7444035559892654e-03" rms="4.4305396080017090e-01" purity="4.8767760396003723e-01" nType="0">
        <Node pos="l" depth="1" NCoef="0" IVar="3" Cut="1.1730442196130753e-01" cType="1" res="-1.9032051786780357e-02" rms="4.4868251681327820e-01" purity="5.1896655559539795e-01" nType="0">
          <Node pos="l" depth="2" NCoef="0" IVar="-1" Cut="0.0000000000000000e+00" cType="1" res="3.3624018542468548e-03" rms="4.4762453436851501e-01" purity="6.3301414251327515e-01" nType="-99"/>
          <Node pos="r" depth="2" NCoef="0" IVar="-1" Cut="0.0000000000000000e+00" cType="1" res="-9.2304218560457230e-03" rms="4.4814464449882507e-01" purity="4.5105567574501038e-01" nType="-99"/>
        </Node>
        <Node pos="r" depth="1" NCoef="0" IVar="0" Cut="1.9358637695312500e+03" cType="1" res="3.9771102368831635e-02" rms="4.1517996788024902e-01" purity="3.5596632957458496e-01" nType="0">
          <Node pos="l" depth="2" NCoef="0" IVar="-1" Cut="0.0000000000000000e+00" cType="1" res="4.7583053819835186e-03" rms="4.0875196456909180e-01" purity="2.8654217720031738e-01" nType="-99"/>
          <Node pos="r" depth="2" NCoef="0" IVar="-1" Cut="0.0000000000000000e+00" cType="1" res="3.8250081241130829e-02" rms="4.2671632766723633e-01" purity="7.0809632539749146e-01" nType="-99"/>
        </Node>
      </Node>
    </BinaryTree>
    <BinaryTree type="DecisionTree" boostWeight="1.0000000000000000e+00" itree="57">
      <Node pos="s" depth="0" NCoef="0" IVar="4" Cut="4.3208235502243042e-01" cType="1" res="-2.4000473786145449e-04" rms="4.4168418645858765e-01" purity="4.9878963828086853e-01" nType="0">
        <Node pos="l" depth="1" NCoef="0" IVar="2" Cut="1.2948958203196526e-02" cType="1" res="-2.9871333390474319e-02" rms="4.3079143762588501e-01" purity="3.6951318383216858e-01" nType="0">
          <Node pos="l" depth="2" NCoef="0" IVar="-1" Cut="0.0000000000000000e+00" cType="1" res="9.9736899137496948e-03" rms="4.4560235738754272e-01" purity="6.0019731521606445e-01" nType="-99"/>
          <Node pos="r" depth="2" NCoef="0" IVar="-1" Cut="0.0000000000000000e+00" cType="1" res="-1.4800054021179676e-02" rms="4.2230582237243652e-01" purity="2.8683528304100037e-01" nType="-99"/>
        </Node>
        <Node pos="r" depth="1" NCoef="0" IVar="4" Cut="5.7557052373886108e-01" cType="1" res="1.7789341509342194e-02" rms="4.4722273945808411e-01" purity="5.7744860649108887e-01" nType="0">
          <Node pos="l" depth="2" NCoef="0" IVar="-1" Cut="0.0000000000000000e+00" cType="1" res="1.8992517143487930e-02" rms="4.4961121678352356e-01" purity="6.3967740535736084e-01" nType="-99"/>
          <Node pos="r" depth="2" NCoef="0" IVar="-1" Cut="0.0000000000000000e+00" cType="1" res="4.7080978401936591e-04" rms="4.4520789384841919e-01" purity="5.6227713823318481e-01" nType="-99"/>
        </Node>
      </Node>
    </BinaryTree>
    <BinaryTree type="DecisionTree" boostWeight="1.0000000000000000e+00" itree="58">
      <Node pos="s" depth="0" NCoef="0" IVar="2" Cut="2.4051621556282043e-02" cType="1" res="-1.2092628749087453e-03" rms="4.4078621268272400e-01" purity="4.9601414799690247e-01" nType="0">
        <Node pos="l" depth="1" NCoef="0" IVar="4" Cut="9.6645855903625488e-01" cType="1" res="1.9486166536808014e-02" rms="4.4524610042572021e-01" purity="6.2867438793182373e-01" nType="0">
          <Node pos="l" depth="2" NCoef="0" IVar="-1" Cut="0.0000000000000000e+00" cType="1" res="1.6732267104089260e-03" rms="4.4727212190628052e-01" purity="6.1296486854553223e-01" nType="-99"/>
          <Node pos="r" depth="2" NCoef="0" IVar="-1" Cut="0.0000000000000000e+00" cType="1" res="3.0854703858494759e-02" rms="4.1264411807060242e-01" purity="7.6105761528015137e-01" nType="-99"/>
        </Node>
        <Node pos="r" depth="1" NCoef="0" IVar="4" Cut="9.6273899078369141e-02" cType="1" res="-2.1302936598658562e-02" rms="4.3547233939170837e-01" purity="3.6721128225326538e-01" nType="0">
          <Node pos="l" depth="2" NCoef="0" IVar="-1" Cut="0.0000000000000000e+00" cType="1" res="-2.7372935786843300e-02" rms="2.8121030330657959e-01" purity="8.9219778776168823e-02" nType="-99"/>
          <Node pos="r" depth="2" NCoef="0" IVar="-1" Cut="0.0000000000000000e+00" cType="1" res="-2.5783469900488853e-03" rms="4.6007189154624939e-01" purity="4.2410090565681458e-01" nType="-99"/>
        </Node>
      </Node>
    </BinaryTree>
    <BinaryTree type="DecisionTree" boostWeight="1.0000000000000000e+00" itree="59">
      <Node pos="s" depth="0" NCoef="0" IVar="0" Cut="9.9736834716796875e+02" cType="1" res="-5.3351060487329960e-03" rms="4.3674299120903015e-01" purity="4.9646142125129700e-01" nType="0">
        <Node pos="l" depth="1" NCoef="0" IVar="4" Cut="5.6978565454483032e-01" cType="1" res="-3.5677257925271988e-02" rms="4.2890146374702454e-01" purity="3.2291361689567566e-01" nType="0">
          <Node pos="l" depth="2" NCoef="0" IVar="-1" Cut="0.0000000000000000e+00" cType="1" res="-2.0997978746891022e-02" rms="3.9603966474533081e-01" purity="2.2305454313755035e-01" nType="-99"/>
          <Node pos="r" depth="2" NCoef="0" IVar="-1" Cut="0.0000000000000000e+00" cType="1" res="1.4139416161924601e-03" rms="4.5552477240562439e-01" purity="4.2258089780807495e-01" nType="-99"/>
        </Node>
        <Node pos="r" depth="1" NCoef="0" IVar="3" Cut="1.2344945222139359e-01" cType="1" res="8.3438782021403313e-03" rms="4.3954801559448242e-01" purity="5.7470101118087769e-01" nType="0">
          <Node pos="l" depth="2" NCoef="0" IVar="-1" Cut="0.0000000000000000e+00" cType="1" res="1.0732882656157017e-02" rms="4.2362734675407410e-01" purity="6.8055391311645508e-01" nType="-99"/>
          <Node pos="r" depth="2" NCoef="0" IVar="-1" Cut="0.0000000000000000e+00" cType="1" res="-4.2848372831940651e-03" rms="4.4948607683181763e-01" purity="4.9471786618232727e-01" nType="-99"/>
        </Node>
      </Node>
    </BinaryTree>
    <BinaryTree type="DecisionTree" boostWeight="1.0000000000000000e+00" itree="60">
      <Node pos="s" depth="0" NCoef="0" IVar="2" Cut="4.0702741593122482e-02" cType="1" res="1.6074109822511673e-02" rms="4.3695086240768433e-01" purity="5.2098923921585083e-01" nType="0">
        <Node pos="l" depth="1" NCoef="0" IVar="1" Cut="3.6299266815185547e+00" cType="1" res="2.9538687318563461e-02" rms="4.4187912344932556e-01" purity="6.1180216073989868e-01" nType="0">
          <Node pos="l" depth="2" NCoef="0" IVar="-1" Cut="0.0000000000000000e+00" cType="1" res="-4.6846223995089531e-03" rms="4.5310056209564209e-01" purity="4.1183328628540039e-01" nType="-99"/>
          <Node pos="r" depth="2" NCoef="0" IVar="-1" Cut="0.0000000000000000e+00" cType="1" res="1.1074090376496315e-02" rms="4.3737274408340454e-01" purity="6.7141532897949219e-01" nType="-99"/>
        </Node>
        <Node pos="r" depth="1" NCoef="0" IVar="4" Cut="1.0641330480575562e+00" cType="1" res="-1.1076563037931919e-02" rms="4.2554652690887451e-01" purity="3.3786946535110474e-01" nType="0">
          <Node pos="l" depth="2" NCoef="0" IVar="-1" Cut="0.0000000000000000e+00" cType="1" res="2.4518696591258049e-03" rms="4.3344536423683167e-01" purity="3.6836299300193787e-01" nType="-99"/>
          <Node pos="r" depth="2" NCoef="0" IVar="-1" Cut="0.0000000000000000e+00" cType="1" res="-3.3068634569644928e-02" rms="3.5712206363677979e-01" purity="1.6807295382022858e-01" nType="-99"/>
        </Node>
      </Node>
    </BinaryTree>
    <BinaryTree type="DecisionTree" boostWeight="1.0000000000000000e+00" itree="61">
      <Node pos="s" depth="0" NCoef="0" IVar="3" Cut="9.8781742155551910e-02" cType="1" res="1.1603844352066517e-02" rms="4.4095391035079956e-01" purity="5.1300948858261108e-01" nType="0">
        <Node pos="l" depth="1" NCoef="0" IVar="5" Cut="3.4789031744003296e-01" cType="1" res="3.8361474871635437e-02" rms="4.2690402269363403e-01" purity="6.2592357397079468e-01" nType="0">
          <Node pos="l" depth="2" NCoef="0" IVar="-1" Cut="0.0000000000000000e+00" cType="1" res="1.4738435856997967e-02" rms="4.2657709121704102e-01" purity="6.9396668672561646e-01" nType="-99"/>
          <Node pos="r" depth="2" NCoef="0" IVar="-1" Cut="0.0000000000000000e+00" cType="1" res="-1.4653667807579041e-02" rms="4.1510218381881714e-01" purity="3.2431980967521667e-01" nType="-99"/>
        </Node>
        <Node pos="r" depth="1" NCoef="0" IVar="0" Cut="1.1006972656250000e+03" cType="1" res="-1.2633870355784893e-03" rms="4.4698321819305420e-01" purity="4.5871123671531677e-01" nType="0">
          <Node pos="l" depth="2" NCoef="0" IVar="-1" Cut="0.0000000000000000e+00" cType="1" res="6.8300226703286171e-03" rms="4.5307019352912903e-01" purity="3.5980010032653809e-01" nType="-99"/>
          <Node pos="r" depth="2" NCoef="0" IVar="-1" Cut="0.0000000000000000e+00" cType="1" res="-5.5677248165011406e-03" rms="4.4102635979652405e-01" purity="5.3494113683700562e-01" nType="-99"/>
        </Node>
      </Node>
    </BinaryTree>
    <BinaryTree type="DecisionTree" boostWeight="1.0000000000000000e+00" itree="62">
      <Node pos="s" depth="0" NCoef="0" IVar="3" Cut="4.2584955692291260e-01" cType="1" res="1.3716170797124505e-03" rms="4.3189820647239685e-01" purity="5.0343221426010132e-01" nType="0">
        <Node pos="l" depth="1" NCoef="0" IVar="2" Cut="3.6946469917893410e-03" cType="1" res="6.0784369707107544e-03" rms="4.3359878659248352e-01" purity="5.2369320392608643e-01" nType="0">
          <Node pos="l" depth="2" NCoef="0" IVar="-1" Cut="0.0000000000000000e+00" cType="1" res="-1.9689477980136871e-02" rms="4.4892790913581848e-01" purity="5.8915781974792480e-01" nType="-99"/>
          <Node pos="r" depth="2" NCoef="0" IVar="-1" Cut="0.0000000000000000e+00" cType="1" res="2.7465848252177238e-03" rms="4.3217173218727112e-01" purity="5.1981598138809204e-01" nType="-99"/>
        </Node>
        <Node pos="r" depth="1" NCoef="0" IVar="0" Cut="1.0309594726562500e+03" cType="1" res="-6.9196633994579315e-02" rms="3.9894473552703857e-01" purity="1.9966445863246918e-01" nType="0">
          <Node pos="l" depth="2" NCoef="0" IVar="-1" Cut="0.0000000000000000e+00" cType="1" res="-5.6205433793365955e-03" rms="3.9324989914894104e-01" purity="1.9227768480777740e-01" nType="-99"/>
          <Node pos="r" depth="2" NCoef="0" IVar="-1" Cut="0.0000000000000000e+00" cType="1" res="-2.9859421774744987e-02" rms="3.9782157540321350e-01" purity="2.0732618868350983e-01" nType="-99"/>
        </Node>
      </Node>
    </BinaryTree>
    <BinaryTree type="DecisionTree" boostWeight="1.0000000000000000e+00" itree="63">
      <Node pos="s" depth="0" NCoef="0" IVar="1" Cut="6.3172383308410645e+00" cType="1" res="8.5058072581887245e-03" rms="4.4654417037963867e-01" purity="5.0534331798553467e-01" nType="0">
        <Node pos="l" depth="1" NCoef="0" IVar="1" Cut="3.0662839412689209e+00" cType="1" res="1.3414792716503143e-02" rms="4.4641289114952087e-01" purity="4.9714475870132446e-01" nType="0">
          <Node pos="l" depth="2" NCoef="0" IVar="-1" Cut="0.0000000000000000e+00" cType="1" res="-1.1702264659106731e-02" rms="4.2607200145721436e-01" purity="2.9090741276741028e-01" nType="-99"/>
          <Node pos="r" depth="2" NCoef="0" IVar="-1" Cut="0.0000000000000000e+00" cType="1" res="5.0539001822471619e-03" rms="4.4822856783866882e-01" purity="5.2157002687454224e-01" nType="-99"/>
        </Node>
